{"learner":{"attributes":{},"feature_names":["day_of_week","hour_of_day"],"feature_types":[],"gradient_booster":{"model":{"cats":{"enc":[],"feature_segments":[],"sorted_idx":[]},"gbtree_model_param":{"num_parallel_tree":"1","num_trees":"50"},"iteration_indptr":[0,1,2,3,4,5,6,7,8,9,10,11,12,13,14,15,16,17,18,19,20,21,22,23,24,25,26,27,28,29,30,31,32,33,34,35,36,37,38,39,40,41,42,43,44,45,46,47,48,49,50],"tree_info":[0,0,0,0,0,0,0,0,0,0,0,0,0,0,0,0,0,0,0,0,0,0,0,0,0,0,0,0,0,0,0,0,0,0,0,0,0,0,0,0,0,0,0,0,0,0,0,0,0,0],"trees":[{"base_weights":[-3.6706447E-7,-1.0525861E1,1.1847131E0,-1.0930193E1,-7.2803655E0,4.1313963E0,-4.386432E0,-1.1893095E0,-8.714718E0,-4.463807E0,-9.707656E-1,5.122774E-1,4.762327E0,-2.0685925E0,-7.860002E0,-7.702094E-1,-9.5214E-1,-5.3344274E-1,-3.0101377E-1,3.501121E-1,-6.027793E-1,5.287997E-1,2.4191923E-1,-3.571533E-1,-1.0472645E-1,-9.728152E-1,-5.7738096E-1],"categories":[],"categories_nodes":[],"categories_segments":[],"categories_sizes":[],"default_left":[0,0,0,0,0,0,0,0,0,0,0,0,0,0,0,0,0,0,0,0,0,0,0,0,0,0,0],"id":0,"left_children":[1,3,5,7,9,11,13,-1,15,17,-1,19,21,23,25,-1,-1,-1,-1,-1,-1,-1,-1,-1,-1,-1,-1],"loss_changes":[2.4702078E5,2.5502031E3,2.9231212E5,3.6935938E3,1.4949033E3,2.6590203E4,4.9579E4,0E0,3.7022266E2,1.1809546E2,0E0,3.3837848E4,1.2202156E4,5.6696016E3,9.550734E3,0E0,0E0,0E0,0E0,0E0,0E0,0E0,0E0,0E0,0E0,0E0,0E0],"parents":[2147483647,0,0,1,1,2,2,3,3,4,4,5,5,6,6,8,8,9,9,11,11,12,12,13,13,14,14],"right_children":[2,4,6,8,10,12,14,-1,16,18,-1,20,22,24,26,-1,-1,-1,-1,-1,-1,-1,-1,-1,-1,-1,-1],"split_conditions":[4E0,3E0,1.9E1,6E0,6E0,7E0,2.2E1,-1.1893095E0,1E0,2E0,-9.707656E-1,6E0,7E0,4E0,5E0,-7.702094E-1,-9.5214E-1,-5.3344274E-1,-3.0101377E-1,3.501121E-1,-6.027793E-1,5.287997E-1,2.4191923E-1,-3.571533E-1,-1.0472645E-1,-9.728152E-1,-5.7738096E-1],"split_indices":[1,1,1,0,0,1,1,0,1,0,0,0,0,0,0,0,0,0,0,0,0,0,0,0,0,0,0],"split_type":[0,0,0,0,0,0,0,0,0,0,0,0,0,0,0,0,0,0,0,0,0,0,0,0,0,0,0],"sum_hessian":[1.9807E4,2.003E3,1.7804E4,1.779E3,2.24E2,1.1645E4,6.159E3,1.237E3,5.42E2,1.05E2,1.19E2,1.729E3,9.916E3,3.695E3,2.464E3,2.45E2,2.97E2,6.4E1,4.1E1,1.187E3,5.42E2,8.098E3,1.818E3,1.494E3,2.201E3,1.298E3,1.166E3],"tree_param":{"num_deleted":"0","num_feature":"2","num_nodes":"27","size_leaf_vector":"1"}},{"base_weights":[-3.140871E-4,-9.475629E0,1.0661577E0,-9.838809E0,-6.5603523E0,3.3834524E0,-4.7215986E0,-1.0704746E0,-7.8464184E0,-4.0252986E0,-8.74498E-1,3.9342482E0,8.087787E-1,-2.5118744E0,-7.0746303E0,-6.9350153E-1,-8.5724545E-1,-4.8091918E-1,-2.7162907E-1,4.5640293E-1,1.0322515E-1,-7.161298E-1,1.9498503E-1,-4.1196486E-1,-1.3105176E-1,-9.4259006E-1,-5.658667E-1],"categories":[],"categories_nodes":[],"categories_segments":[],"categories_sizes":[],"default_left":[0,0,0,0,0,0,0,0,0,0,0,0,0,0,0,0,0,0,0,0,0,0,0,0,0,0,0],"id":1,"left_children":[1,3,5,7,9,11,13,-1,15,17,-1,19,21,23,25,-1,-1,-1,-1,-1,-1,-1,-1,-1,-1,-1,-1],"loss_changes":[2.0017305E5,2.0572188E3,2.388155E5,2.9870156E3,1.2108828E3,1.8028203E4,2.645314E4,0E0,2.9986328E2,9.570581E1,0E0,1.9137812E4,2.0403672E4,5.0686777E3,8.153414E3,0E0,0E0,0E0,0E0,0E0,0E0,0E0,0E0,0E0,0E0,0E0,0E0],"parents":[2147483647,0,0,1,1,2,2,3,3,4,4,5,5,6,6,8,8,9,9,11,11,12,12,13,13,14,14],"right_children":[2,4,6,8,10,12,14,-1,16,18,-1,20,22,24,26,-1,-1,-1,-1,-1,-1,-1,-1,-1,-1,-1,-1],"split_conditions":[4E0,3E0,2E1,6E0,6E0,7E0,2.2E1,-1.0704746E0,1E0,2E0,-8.74498E-1,1.8E1,7E0,4E0,4E0,-6.9350153E-1,-8.5724545E-1,-4.8091918E-1,-2.7162907E-1,4.5640293E-1,1.0322515E-1,-7.161298E-1,1.9498503E-1,-4.1196486E-1,-1.3105176E-1,-9.4259006E-1,-5.658667E-1],"split_indices":[1,1,1,0,0,0,1,0,1,0,0,1,1,0,0,0,0,0,0,0,0,0,0,0,0,0,0],"split_type":[0,0,0,0,0,0,0,0,0,0,0,0,0,0,0,0,0,0,0,0,0,0,0,0,0,0,0],"sum_hessian":[1.9807E4,2.003E3,1.7804E4,1.779E3,2.24E2,1.2714E4,5.09E3,1.237E3,5.42E2,1.05E2,1.19E2,1.0473E4,2.241E3,2.626E3,2.464E3,2.45E2,2.97E2,6.4E1,4.1E1,8.605E3,1.868E3,2.8E2,1.961E3,1.122E3,1.504E3,9.24E2,1.54E3],"tree_param":{"num_deleted":"0","num_feature":"2","num_nodes":"27","size_leaf_vector":"1"}},{"base_weights":[-5.9864717E-4,-8.530186E0,9.59429E-1,-8.8564005E0,-5.911548E0,3.3595037E0,-3.5782707E0,-9.635136E0,-7.0646324E0,-3.6298685E0,-7.877769E-1,1.9453876E-1,3.9112866E0,-1.7168751E0,-6.3677797E0,-9.7571623E-1,-9.0486807E-1,-6.244333E-1,-7.7180856E-1,-4.335672E-1,-2.4511285E-1,2.6952854E-1,-5.2770656E-1,4.3439946E-1,1.9825277E-1,-9.018798E-2,-3.1308368E-1,-7.922685E-1,-4.6315414E-1],"categories":[],"categories_nodes":[],"categories_segments":[],"categories_sizes":[],"default_left":[0,0,0,0,0,0,0,0,0,0,0,0,0,0,0,0,0,0,0,0,0,0,0,0,0,0,0,0,0],"id":2,"left_children":[1,3,5,7,9,11,13,15,17,19,-1,21,23,25,27,-1,-1,-1,-1,-1,-1,-1,-1,-1,-1,-1,-1,-1,-1],"loss_changes":[1.6220877E5,1.6595469E3,1.9392305E5,2.4155938E3,9.8081885E2,2.0337484E4,3.1974133E4,2.96875E-1,2.4286914E2,7.75603E1,0E0,2.368598E4,8.268016E3,4.256343E3,6.618039E3,0E0,0E0,0E0,0E0,0E0,0E0,0E0,0E0,0E0,0E0,0E0,0E0,0E0,0E0],"parents":[2147483647,0,0,1,1,2,2,3,3,4,4,5,5,6,6,7,7,8,8,9,9,11,11,12,12,13,13,14,14],"right_children":[2,4,6,8,10,12,14,16,18,20,-1,22,24,26,28,-1,-1,-1,-1,-1,-1,-1,-1,-1,-1,-1,-1,-1,-1],"split_conditions":[4E0,3E0,1.9E1,6E0,6E0,7E0,2.2E1,5E0,1E0,2E0,-7.877769E-1,6E0,7E0,2.1E1,5E0,-9.7571623E-1,-9.0486807E-1,-6.244333E-1,-7.7180856E-1,-4.335672E-1,-2.4511285E-1,2.6952854E-1,-5.2770656E-1,4.3439946E-1,1.9825277E-1,-9.018798E-2,-3.1308368E-1,-7.922685E-1,-4.6315414E-1],"split_indices":[1,1,1,0,0,1,1,0,1,0,0,0,0,1,0,0,0,0,0,0,0,0,0,0,0,0,0,0,0],"split_type":[0,0,0,0,0,0,0,0,0,0,0,0,0,0,0,0,0,0,0,0,0,0,0,0,0,0,0,0,0],"sum_hessian":[1.9807E4,2.003E3,1.7804E4,1.779E3,2.24E2,1.1645E4,6.159E3,1.237E3,5.42E2,1.05E2,1.19E2,1.729E3,9.916E3,3.695E3,2.464E3,1.011E3,2.26E2,2.45E2,2.97E2,6.4E1,4.1E1,1.187E3,5.42E2,8.098E3,1.818E3,2.345E3,1.35E3,1.298E3,1.166E3],"tree_param":{"num_deleted":"0","num_feature":"2","num_nodes":"29","size_leaf_vector":"1"}},{"base_weights":[-8.430658E-4,-7.6795335E0,8.63414E-1,-7.9726014E0,-5.326911E0,2.7450166E0,-3.836142E0,-8.6731416E-1,-6.36074E0,-3.2732844E0,-7.096557E-1,1.749357E-1,3.1494853E0,-2.0561953E0,-5.731511E0,-5.6224376E-1,-6.948867E-1,-3.908775E-1,-2.211852E-1,2.425984E-1,-4.750332E-1,3.7910485E-1,6.1875768E-2,-3.4990522E-1,-9.78199E-2,-7.6929176E-1,-4.5504388E-1],"categories":[],"categories_nodes":[],"categories_segments":[],"categories_sizes":[],"default_left":[0,0,0,0,0,0,0,0,0,0,0,0,0,0,0,0,0,0,0,0,0,0,0,0,0,0,0],"id":3,"left_children":[1,3,5,7,9,11,13,-1,15,17,-1,19,21,23,25,-1,-1,-1,-1,-1,-1,-1,-1,-1,-1,-1,-1],"loss_changes":[1.314597E5,1.3392344E3,1.5745475E5,1.9547578E3,7.9446387E2,1.3216922E4,1.71635E4,0E0,1.9670898E2,6.2854492E1,0E0,1.9192059E4,1.7834758E4,4.0825986E3,5.6753203E3,0E0,0E0,0E0,0E0,0E0,0E0,0E0,0E0,0E0,0E0,0E0,0E0],"parents":[2147483647,0,0,1,1,2,2,3,3,4,4,5,5,6,6,8,8,9,9,11,11,12,12,13,13,14,14],"right_children":[2,4,6,8,10,12,14,-1,16,18,-1,20,22,24,26,-1,-1,-1,-1,-1,-1,-1,-1,-1,-1,-1,-1],"split_conditions":[4E0,3E0,2E1,6E0,6E0,7E0,2.2E1,-8.6731416E-1,1E0,2E0,-7.096557E-1,6E0,1.8E1,4E0,4E0,-5.6224376E-1,-6.948867E-1,-3.908775E-1,-2.211852E-1,2.425984E-1,-4.750332E-1,3.7910485E-1,6.1875768E-2,-3.4990522E-1,-9.78199E-2,-7.6929176E-1,-4.5504388E-1],"split_indices":[1,1,1,0,0,1,1,0,1,0,0,0,1,0,0,0,0,0,0,0,0,0,0,0,0,0,0],"split_type":[0,0,0,0,0,0,0,0,0,0,0,0,0,0,0,0,0,0,0,0,0,0,0,0,0,0,0],"sum_hessian":[1.9807E4,2.003E3,1.7804E4,1.779E3,2.24E2,1.2714E4,5.09E3,1.237E3,5.42E2,1.05E2,1.19E2,1.729E3,1.0985E4,2.626E3,2.464E3,2.45E2,2.97E2,6.4E1,4.1E1,1.187E3,5.42E2,8.763E3,2.222E3,1.122E3,1.504E3,9.24E2,1.54E3],"tree_param":{"num_deleted":"0","num_feature":"2","num_nodes":"27","size_leaf_vector":"1"}},{"base_weights":[-1.0064557E-3,-6.9132996E0,7.7699053E-1,-7.1765347E0,-4.800094E0,2.7295847E0,-2.9146798E0,-7.806527E0,-5.726981E0,-2.9517303E0,-6.3928145E-1,1.5730746E-1,3.178038E0,-1.4171662E0,-5.1588564E0,-7.915952E-1,-7.284305E-1,-5.0624794E-1,-6.2563115E-1,-3.523911E-1,-1.9959338E-1,2.1835895E-1,-4.2761737E-1,3.567488E-1,1.4422855E-1,-7.305222E-2,-2.6084688E-1,-6.924457E-1,-4.0956903E-1],"categories":[],"categories_nodes":[],"categories_segments":[],"categories_sizes":[],"default_left":[0,0,0,0,0,0,0,0,0,0,0,0,0,0,0,0,0,0,0,0,0,0,0,0,0,0,0,0,0],"id":4,"left_children":[1,3,5,7,9,11,13,15,17,19,-1,21,23,25,27,-1,-1,-1,-1,-1,-1,-1,-1,-1,-1,-1,-1,-1,-1],"loss_changes":[1.0652771E5,1.0803125E3,1.2835235E5,1.5808125E3,6.435137E2,1.3433695E4,2.0694508E4,1.3078125E1,1.5932422E2,5.0936646E1,0E0,1.5550763E4,6.698633E3,3.0214253E3,4.5987656E3,0E0,0E0,0E0,0E0,0E0,0E0,0E0,0E0,0E0,0E0,0E0,0E0,0E0,0E0],"parents":[2147483647,0,0,1,1,2,2,3,3,4,4,5,5,6,6,7,7,8,8,9,9,11,11,12,12,13,13,14,14],"right_children":[2,4,6,8,10,12,14,16,18,20,-1,22,24,26,28,-1,-1,-1,-1,-1,-1,-1,-1,-1,-1,-1,-1,-1,-1],"split_conditions":[4E0,3E0,1.9E1,6E0,6E0,7E0,2.2E1,5E0,1E0,2E0,-6.3928145E-1,6E0,7E0,2.1E1,4E0,-7.915952E-1,-7.284305E-1,-5.0624794E-1,-6.2563115E-1,-3.523911E-1,-1.9959338E-1,2.1835895E-1,-4.2761737E-1,3.567488E-1,1.4422855E-1,-7.305222E-2,-2.6084688E-1,-6.924457E-1,-4.0956903E-1],"split_indices":[1,1,1,0,0,1,1,0,1,0,0,0,0,1,0,0,0,0,0,0,0,0,0,0,0,0,0,0,0],"split_type":[0,0,0,0,0,0,0,0,0,0,0,0,0,0,0,0,0,0,0,0,0,0,0,0,0,0,0,0,0],"sum_hessian":[1.9807E4,2.003E3,1.7804E4,1.779E3,2.24E2,1.1645E4,6.159E3,1.237E3,5.42E2,1.05E2,1.19E2,1.729E3,9.916E3,3.695E3,2.464E3,1.011E3,2.26E2,2.45E2,2.97E2,6.4E1,4.1E1,1.187E3,5.42E2,8.098E3,1.818E3,2.345E3,1.35E3,9.24E2,1.54E3],"tree_param":{"num_deleted":"0","num_feature":"2","num_nodes":"29","size_leaf_vector":"1"}},{"base_weights":[-1.157632E-3,-6.2238874E0,6.992272E-1,-6.460371E0,-4.3253794E0,2.4566512E0,-2.6234448E0,-7.027102E0,-5.156368E0,-2.6617646E0,-5.758861E-1,1.0326478E0,3.1164517E0,-1.2755398E0,-4.6434183E0,-7.1251386E-1,-6.559083E-1,-4.833264E-1,-6.0606897E-1,-3.176941E-1,-1.8010925E-1,1.7786303E-1,-3.095189E-1,3.4611705E-1,1.0809864E-1,-2.3562343E-1,-5.4124642E-2,-5.8423346E-1,-3.3049127E-1],"categories":[],"categories_nodes":[],"categories_segments":[],"categories_sizes":[],"default_left":[0,0,0,0,0,0,0,0,0,0,0,0,0,0,0,0,0,0,0,0,0,0,0,0,0,0,0,0,0],"id":5,"left_children":[1,3,5,7,9,11,13,15,17,19,-1,21,23,25,27,-1,-1,-1,-1,-1,-1,-1,-1,-1,-1,-1,-1,-1,-1],"loss_changes":[8.6333664E4,8.7178906E2,1.0397596E5,1.2792188E3,5.212427E2,1.0938867E4,1.676611E4,1.0066406E1,1.2936719E2,4.127826E1,0E0,1.1365018E4,5.580086E3,2.9316724E3,3.936414E3,0E0,0E0,0E0,0E0,0E0,0E0,0E0,0E0,0E0,0E0,0E0,0E0,0E0,0E0],"parents":[2147483647,0,0,1,1,2,2,3,3,4,4,5,5,6,6,7,7,8,8,9,9,11,11,12,12,13,13,14,14],"right_children":[2,4,6,8,10,12,14,16,18,20,-1,22,24,26,28,-1,-1,-1,-1,-1,-1,-1,-1,-1,-1,-1,-1,-1,-1],"split_conditions":[4E0,3E0,1.9E1,6E0,6E0,1E1,2.2E1,5E0,2E0,2E0,-5.758861E-1,7E0,1.8E1,4E0,5E0,-7.1251386E-1,-6.559083E-1,-4.833264E-1,-6.0606897E-1,-3.176941E-1,-1.8010925E-1,1.7786303E-1,-3.095189E-1,3.4611705E-1,1.0809864E-1,-2.3562343E-1,-5.4124642E-2,-5.8423346E-1,-3.3049127E-1],"split_indices":[1,1,1,0,0,1,1,0,1,0,0,0,1,0,0,0,0,0,0,0,0,0,0,0,0,0,0,0,0],"split_type":[0,0,0,0,0,0,0,0,0,0,0,0,0,0,0,0,0,0,0,0,0,0,0,0,0,0,0,0,0],"sum_hessian":[1.9807E4,2.003E3,1.7804E4,1.779E3,2.24E2,1.1645E4,6.159E3,1.237E3,5.42E2,1.05E2,1.19E2,3.688E3,7.957E3,3.695E3,2.464E3,1.011E3,2.26E2,4.04E2,1.38E2,6.4E1,4.1E1,3.124E3,5.64E2,6.804E3,1.153E3,1.494E3,2.201E3,1.298E3,1.166E3],"tree_param":{"num_deleted":"0","num_feature":"2","num_nodes":"29","size_leaf_vector":"1"}},{"base_weights":[-1.2649054E-3,-5.603261E0,6.292547E-1,-5.815715E0,-3.8976135E0,2.011561E0,-2.8232403E0,-6.325497E0,-4.642738E0,-2.4002845E0,-5.1877737E0,2.3939173E0,2.2440019E-1,-1.549592E0,-4.1794477E0,-6.4785194E-1,-6.062553E-1,-4.0769288E-1,-5.094235E-1,-2.864135E-1,-1.6252716E-1,-4.1867143E-1,-5.381977E-1,2.7923906E-1,5.5782665E-2,-3.6085802E-1,1.18091874E-1,-2.7408895E-1,-6.596407E-2,-5.258551E-1,-2.9747048E-1],"categories":[],"categories_nodes":[],"categories_segments":[],"categories_sizes":[],"default_left":[0,0,0,0,0,0,0,0,0,0,0,0,0,0,0,0,0,0,0,0,0,0,0,0,0,0,0,0,0,0,0],"id":6,"left_children":[1,3,5,7,9,11,13,15,17,19,21,23,25,27,29,-1,-1,-1,-1,-1,-1,-1,-1,-1,-1,-1,-1,-1,-1,-1,-1],"loss_changes":[6.996872E4,7.0352344E2,8.497835E4,1.0350039E3,4.2220166E2,8.688043E3,8.787367E3,1.05390625E1,1.1794629E2,3.3450928E1,7.961426E-1,7.6615625E3,8.224145E3,2.7833286E3,3.188961E3,0E0,0E0,0E0,0E0,0E0,0E0,0E0,0E0,0E0,0E0,0E0,0E0,0E0,0E0,0E0,0E0],"parents":[2147483647,0,0,1,1,2,2,3,3,4,4,5,5,6,6,7,7,8,8,9,9,10,10,11,11,12,12,13,13,14,14],"right_children":[2,4,6,8,10,12,14,16,18,20,22,24,26,28,30,-1,-1,-1,-1,-1,-1,-1,-1,-1,-1,-1,-1,-1,-1,-1,-1],"split_conditions":[4E0,3E0,2E1,6E0,6E0,7E0,2.2E1,4E0,1E0,2E0,7E0,1.8E1,9E0,4E0,5E0,-6.4785194E-1,-6.062553E-1,-4.0769288E-1,-5.094235E-1,-2.864135E-1,-1.6252716E-1,-4.1867143E-1,-5.381977E-1,2.7923906E-1,5.5782665E-2,-3.6085802E-1,1.18091874E-1,-2.7408895E-1,-6.596407E-2,-5.258551E-1,-2.9747048E-1],"split_indices":[1,1,1,0,0,0,1,0,1,0,0,1,1,0,0,0,0,0,0,0,0,0,0,0,0,0,0,0,0,0,0],"split_type":[0,0,0,0,0,0,0,0,0,0,0,0,0,0,0,0,0,0,0,0,0,0,0,0,0,0,0,0,0,0,0],"sum_hessian":[1.9807E4,2.003E3,1.7804E4,1.779E3,2.24E2,1.2714E4,5.09E3,1.237E3,5.42E2,1.05E2,1.19E2,1.0473E4,2.241E3,2.626E3,2.464E3,7.67E2,4.7E2,2.45E2,2.97E2,6.4E1,4.1E1,2.3E1,9.6E1,8.605E3,1.868E3,4.47E2,1.794E3,1.122E3,1.504E3,1.298E3,1.166E3],"tree_param":{"num_deleted":"0","num_feature":"2","num_nodes":"31","size_leaf_vector":"1"}},{"base_weights":[-1.3732893E-3,-5.0447197E0,5.662688E-1,-5.235363E0,-3.5141003E0,1.9972861E0,-2.139282E0,-5.69396E0,-4.180153E0,-2.1644917E0,-4.6769705E0,-1.328999E-1,2.3686912E0,-1.0565609E0,-3.761837E0,-5.7761467E-1,-5.302479E-1,-3.9045066E-1,-4.9532223E-1,-2.582128E-1,-1.4666145E-1,-3.7854874E-1,-4.8493275E-1,1.5086971E-1,-3.7242156E-1,2.6739752E-1,1.00812815E-1,-4.810978E-2,-2.0550656E-1,-3.2395324E-1,-6.2899876E-1],"categories":[],"categories_nodes":[],"categories_segments":[],"categories_sizes":[],"default_left":[0,0,0,0,0,0,0,0,0,0,0,0,0,0,0,0,0,0,0,0,0,0,0,0,0,0,0,0,0,0,0],"id":7,"left_children":[1,3,5,7,9,11,13,15,17,19,21,23,25,27,29,-1,-1,-1,-1,-1,-1,-1,-1,-1,-1,-1,-1,-1,-1,-1,-1],"loss_changes":[5.6709516E4,5.663711E2,6.893971E4,8.375742E2,3.4299634E2,9.2141875E3,1.0817758E4,9.203125E0,9.637012E1,2.7107635E1,8.129883E-2,1.0204822E4,4.11641E3,2.1227427E3,3.2345664E3,0E0,0E0,0E0,0E0,0E0,0E0,0E0,0E0,0E0,0E0,0E0,0E0,0E0,0E0,0E0,0E0],"parents":[2147483647,0,0,1,1,2,2,3,3,4,4,5,5,6,6,7,7,8,8,9,9,10,10,11,11,12,12,13,13,14,14],"right_children":[2,4,6,8,10,12,14,16,18,20,22,24,26,28,30,-1,-1,-1,-1,-1,-1,-1,-1,-1,-1,-1,-1,-1,-1,-1,-1],"split_conditions":[4E0,3E0,1.9E1,6E0,6E0,7E0,2.2E1,5E0,2E0,2E0,7E0,6E0,7E0,2.1E1,7E0,-5.7761467E-1,-5.302479E-1,-3.9045066E-1,-4.9532223E-1,-2.582128E-1,-1.4666145E-1,-3.7854874E-1,-4.8493275E-1,1.5086971E-1,-3.7242156E-1,2.6739752E-1,1.00812815E-1,-4.810978E-2,-2.0550656E-1,-3.2395324E-1,-6.2899876E-1],"split_indices":[1,1,1,0,0,1,1,0,1,0,0,0,0,1,0,0,0,0,0,0,0,0,0,0,0,0,0,0,0,0,0],"split_type":[0,0,0,0,0,0,0,0,0,0,0,0,0,0,0,0,0,0,0,0,0,0,0,0,0,0,0,0,0,0,0],"sum_hessian":[1.9807E4,2.003E3,1.7804E4,1.779E3,2.24E2,1.1645E4,6.159E3,1.237E3,5.42E2,1.05E2,1.19E2,1.729E3,9.916E3,3.695E3,2.464E3,1.011E3,2.26E2,4.04E2,1.38E2,6.4E1,4.1E1,2.3E1,9.6E1,1.187E3,5.42E2,8.098E3,1.818E3,2.345E3,1.35E3,2.044E3,4.2E2],"tree_param":{"num_deleted":"0","num_feature":"2","num_nodes":"31","size_leaf_vector":"1"}},{"base_weights":[-1.4538976E-3,-4.5418754E0,5.095827E-1,-4.712947E0,-3.1683273E0,1.6315318E0,-2.2926354E0,-5.125459E0,-3.7637691E0,-1.9518617E0,-4.216469E-1,-1.3677026E0,1.8239145E0,-1.2657857E0,-3.3860395E0,-5.254649E-1,-4.9039242E-1,-3.28203E-1,-4.1488162E-1,-2.3278876E-1,-1.3234444E-1,-1.7938871E-2,-4.781699E-1,2.180666E-1,2.6208594E-2,-2.3350234E-1,-4.671015E-2,-4.800268E-1,-2.534938E-1],"categories":[],"categories_nodes":[],"categories_segments":[],"categories_sizes":[],"default_left":[0,0,0,0,0,0,0,0,0,0,0,0,0,0,0,0,0,0,0,0,0,0,0,0,0,0,0,0,0],"id":8,"left_children":[1,3,5,7,9,11,13,15,17,19,-1,21,23,25,27,-1,-1,-1,-1,-1,-1,-1,-1,-1,-1,-1,-1,-1,-1],"loss_changes":[4.5963242E4,4.5596094E2,5.59817E4,6.7766406E2,2.7865137E2,7.3390586E3,5.7116934E3,9.660156E0,8.710547E1,2.1967102E1,0E0,3.1107837E3,6.6572266E3,2.2423242E3,2.954834E3,0E0,0E0,0E0,0E0,0E0,0E0,0E0,0E0,0E0,0E0,0E0,0E0,0E0,0E0],"parents":[2147483647,0,0,1,1,2,2,3,3,4,4,5,5,6,6,7,7,8,8,9,9,11,11,12,12,13,13,14,14],"right_children":[2,4,6,8,10,12,14,16,18,20,-1,22,24,26,28,-1,-1,-1,-1,-1,-1,-1,-1,-1,-1,-1,-1,-1,-1],"split_conditions":[4E0,3E0,2E1,6E0,6E0,5E0,2.2E1,4E0,1E0,2E0,-4.216469E-1,6E0,1.8E1,4E0,4E0,-5.254649E-1,-4.9039242E-1,-3.28203E-1,-4.1488162E-1,-2.3278876E-1,-1.3234444E-1,-1.7938871E-2,-4.781699E-1,2.180666E-1,2.6208594E-2,-2.3350234E-1,-4.671015E-2,-4.800268E-1,-2.534938E-1],"split_indices":[1,1,1,0,0,1,1,0,1,0,0,0,1,0,0,0,0,0,0,0,0,0,0,0,0,0,0,0,0],"split_type":[0,0,0,0,0,0,0,0,0,0,0,0,0,0,0,0,0,0,0,0,0,0,0,0,0,0,0,0,0],"sum_hessian":[1.9807E4,2.003E3,1.7804E4,1.779E3,2.24E2,1.2714E4,5.09E3,1.237E3,5.42E2,1.05E2,1.19E2,7.66E2,1.1948E4,2.626E3,2.464E3,7.67E2,4.7E2,2.45E2,2.97E2,6.4E1,4.1E1,5.69E2,1.97E2,9.726E3,2.222E3,1.122E3,1.504E3,9.24E2,1.54E3],"tree_param":{"num_deleted":"0","num_feature":"2","num_nodes":"29","size_leaf_vector":"1"}},{"base_weights":[-1.5011439E-3,-4.0889583E0,4.5855308E-1,-4.24264E0,-2.8549912E0,1.621825E0,-1.7407851E0,-4.613734E0,-3.3887606E0,-1.7601202E0,-3.7983358E0,4.654298E-1,2.1576781E0,-3.7790295E-1,-2.5784209E0,-4.682613E-1,-4.2863354E-1,-3.153598E-1,-4.0495667E-1,-2.0986798E-1,-1.1942513E-1,-3.018633E-1,-3.9520937E-1,1.3270898E-1,-1.4213896E-1,2.5661144E-1,1.01415835E-1,-1.940118E-2,-1.3885123E-1,-3.5172328E-1,-1.5087818E-1],"categories":[],"categories_nodes":[],"categories_segments":[],"categories_sizes":[],"default_left":[0,0,0,0,0,0,0,0,0,0,0,0,0,0,0,0,0,0,0,0,0,0,0,0,0,0,0,0,0,0,0],"id":9,"left_children":[1,3,5,7,9,11,13,15,17,19,21,23,25,27,29,-1,-1,-1,-1,-1,-1,-1,-1,-1,-1,-1,-1,-1,-1,-1,-1],"loss_changes":[3.724987E4,3.6792188E2,4.555564E4,5.4839453E2,2.2570349E2,7.2155312E3,7.0312754E3,7.845703E0,7.160986E1,1.7801178E1,2.456421E0,5.99945E3,3.7142227E3,4.3571622E2,3.8256758E3,0E0,0E0,0E0,0E0,0E0,0E0,0E0,0E0,0E0,0E0,0E0,0E0,0E0,0E0,0E0,0E0],"parents":[2147483647,0,0,1,1,2,2,3,3,4,4,5,5,6,6,7,7,8,8,9,9,10,10,11,11,12,12,13,13,14,14],"right_children":[2,4,6,8,10,12,14,16,18,20,22,24,26,28,30,-1,-1,-1,-1,-1,-1,-1,-1,-1,-1,-1,-1,-1,-1,-1,-1],"split_conditions":[4E0,3E0,1.9E1,6E0,6E0,1E1,2.1E1,5E0,2E0,2E0,7E0,6E0,1.7E1,7E0,5E0,-4.682613E-1,-4.2863354E-1,-3.153598E-1,-4.0495667E-1,-2.0986798E-1,-1.1942513E-1,-3.018633E-1,-3.9520937E-1,1.3270898E-1,-1.4213896E-1,2.5661144E-1,1.01415835E-1,-1.940118E-2,-1.3885123E-1,-3.5172328E-1,-1.5087818E-1],"split_indices":[1,1,1,0,0,1,1,0,1,0,0,0,1,0,0,0,0,0,0,0,0,0,0,0,0,0,0,0,0,0,0],"split_type":[0,0,0,0,0,0,0,0,0,0,0,0,0,0,0,0,0,0,0,0,0,0,0,0,0,0,0,0,0,0,0],"sum_hessian":[1.9807E4,2.003E3,1.7804E4,1.779E3,2.24E2,1.1645E4,6.159E3,1.237E3,5.42E2,1.05E2,1.19E2,3.688E3,7.957E3,2.345E3,3.814E3,1.011E3,2.26E2,4.04E2,1.38E2,6.4E1,4.1E1,2.3E1,9.6E1,2.532E3,1.156E3,5.862E3,2.095E3,1.985E3,3.6E2,2.03E3,1.784E3],"tree_param":{"num_deleted":"0","num_feature":"2","num_nodes":"31","size_leaf_vector":"1"}},{"base_weights":[-1.5001873E-3,-3.6813817E0,4.1268033E-1,-3.8192847E0,-2.5740538E0,1.4596725E0,-1.5668137E0,-4.1530848E0,-3.0512109E0,-1.5872146E0,-3.4243112E0,-1.2935226E0,1.6536285E0,-7.4982965E-1,-2.791157E0,-4.262216E-1,-3.9663205E-1,-2.6410827E-1,-3.3795342E-1,-1.8920402E-1,-1.07766986E-1,-2.7293476E-1,-3.5609588E-1,-2.9395822E-2,-4.1645238E-1,2.1844862E-1,7.457619E-2,-1.8074256E-1,-3.606324E-2,-2.2817278E-1,-5.259071E-1],"categories":[],"categories_nodes":[],"categories_segments":[],"categories_sizes":[],"default_left":[0,0,0,0,0,0,0,0,0,0,0,0,0,0,0,0,0,0,0,0,0,0,0,0,0,0,0,0,0,0,0],"id":10,"left_children":[1,3,5,7,9,11,13,15,17,19,21,23,25,27,29,-1,-1,-1,-1,-1,-1,-1,-1,-1,-1,-1,-1,-1,-1,-1,-1],"loss_changes":[3.0191588E4,2.961875E2,3.6903414E4,4.4368945E2,1.833551E2,6.221084E3,6.1595645E3,8.328125E0,6.419141E1,1.4425171E1,1.6765137E0,2.1998743E3,5.241967E3,1.5206714E3,3.0870664E3,0E0,0E0,0E0,0E0,0E0,0E0,0E0,0E0,0E0,0E0,0E0,0E0,0E0,0E0,0E0,0E0],"parents":[2147483647,0,0,1,1,2,2,3,3,4,4,5,5,6,6,7,7,8,8,9,9,10,10,11,11,12,12,13,13,14,14],"right_children":[2,4,6,8,10,12,14,16,18,20,22,24,26,28,30,-1,-1,-1,-1,-1,-1,-1,-1,-1,-1,-1,-1,-1,-1,-1,-1],"split_conditions":[4E0,3E0,1.9E1,6E0,6E0,5E0,2.2E1,4E0,1E0,2E0,7E0,6E0,6E0,3E0,7E0,-4.262216E-1,-3.9663205E-1,-2.6410827E-1,-3.3795342E-1,-1.8920402E-1,-1.07766986E-1,-2.7293476E-1,-3.5609588E-1,-2.9395822E-2,-4.1645238E-1,2.1844862E-1,7.457619E-2,-1.8074256E-1,-3.606324E-2,-2.2817278E-1,-5.259071E-1],"split_indices":[1,1,1,0,0,1,1,0,1,0,0,0,0,0,0,0,0,0,0,0,0,0,0,0,0,0,0,0,0,0,0],"split_type":[0,0,0,0,0,0,0,0,0,0,0,0,0,0,0,0,0,0,0,0,0,0,0,0,0,0,0,0,0,0,0],"sum_hessian":[1.9807E4,2.003E3,1.7804E4,1.779E3,2.24E2,1.1645E4,6.159E3,1.237E3,5.42E2,1.05E2,1.19E2,7.66E2,1.0879E4,3.695E3,2.464E3,7.67E2,4.7E2,2.45E2,2.97E2,6.4E1,4.1E1,2.3E1,9.6E1,5.69E2,1.97E2,6.864E3,4.015E3,9.93E2,2.702E3,2.044E3,4.2E2],"tree_param":{"num_deleted":"0","num_feature":"2","num_nodes":"31","size_leaf_vector":"1"}},{"base_weights":[-1.5254332E-3,-3.3144166E0,3.7134933E-1,-3.4381566E0,-2.3207638E0,1.1947668E0,-1.6852454E0,-3.7384412E0,-2.7471983E0,-1.4312946E0,-3.087122E0,1.4792078E0,-1.3459536E-1,-1.2371349E0,-3.2931254E0,-3.8365498E-1,-3.5705307E-1,-2.5465694E-1,-3.312001E-1,-1.7057467E-1,-9.724687E-2,-2.4677849E-1,-3.208534E-1,1.7433101E-1,2.623303E-2,-2.941148E-1,5.6594502E-2,-2.308662E-1,-4.5928963E-2,-2.824684E-1,-5.956058E-1],"categories":[],"categories_nodes":[],"categories_segments":[],"categories_sizes":[],"default_left":[0,0,0,0,0,0,0,0,0,0,0,0,0,0,0,0,0,0,0,0,0,0,0,0,0,0,0,0,0,0,0],"id":11,"left_children":[1,3,5,7,9,11,13,15,17,19,21,23,25,27,29,-1,-1,-1,-1,-1,-1,-1,-1,-1,-1,-1,-1,-1,-1,-1,-1],"loss_changes":[2.4469922E4,2.3842383E2,3.015364E4,3.5905078E2,1.4895312E2,4.8080605E3,3.6640322E3,6.6953125E0,5.309619E1,1.1689346E1,1.1053467E0,3.3656777E3,4.4096685E3,3.3186987E3,1.3665723E3,0E0,0E0,0E0,0E0,0E0,0E0,0E0,0E0,0E0,0E0,0E0,0E0,0E0,0E0,0E0,0E0],"parents":[2147483647,0,0,1,1,2,2,3,3,4,4,5,5,6,6,7,7,8,8,9,9,10,10,11,11,12,12,13,13,14,14],"right_children":[2,4,6,8,10,12,14,16,18,20,22,24,26,28,30,-1,-1,-1,-1,-1,-1,-1,-1,-1,-1,-1,-1,-1,-1,-1,-1],"split_conditions":[4E0,3E0,2E1,6E0,6E0,7E0,2.3E1,4E0,2E0,2E0,7E0,1.8E1,9E0,4E0,7E0,-3.8365498E-1,-3.5705307E-1,-2.5465694E-1,-3.312001E-1,-1.7057467E-1,-9.724687E-2,-2.4677849E-1,-3.208534E-1,1.7433101E-1,2.623303E-2,-2.941148E-1,5.6594502E-2,-2.308662E-1,-4.5928963E-2,-2.824684E-1,-5.956058E-1],"split_indices":[1,1,1,0,0,0,1,0,1,0,0,1,1,0,0,0,0,0,0,0,0,0,0,0,0,0,0,0,0,0,0],"split_type":[0,0,0,0,0,0,0,0,0,0,0,0,0,0,0,0,0,0,0,0,0,0,0,0,0,0,0,0,0,0,0],"sum_hessian":[1.9807E4,2.003E3,1.7804E4,1.779E3,2.24E2,1.2714E4,5.09E3,1.237E3,5.42E2,1.05E2,1.19E2,1.0473E4,2.241E3,3.982E3,1.108E3,7.67E2,4.7E2,4.04E2,1.38E2,6.4E1,4.1E1,2.3E1,9.6E1,8.605E3,1.868E3,4.47E2,1.794E3,1.674E3,2.308E3,9.44E2,1.64E2],"tree_param":{"num_deleted":"0","num_feature":"2","num_nodes":"31","size_leaf_vector":"1"}},{"base_weights":[-1.5424896E-3,-2.512841E0,4.0671495E-1,-3.095086E0,-1.4644967E0,1.3596492E0,-1.2764556E0,-3.3651953E0,-2.4735575E0,-5.730932E-1,-3.357976E0,1.8083744E0,5.9225416E-1,-5.948934E-1,-2.2978663E0,-3.4192863E-1,-3.1092247E-1,-2.1244262E-1,-2.753466E-1,-3.441523E-2,-1.6508551E-1,-2.7831402E-1,-3.689402E-1,1.4179222E-1,2.2005796E-1,-2.6037565E-1,8.9332394E-2,-3.1900056E-2,-1.9396381E-1,-1.8486504E-1,-4.4744667E-1],"categories":[],"categories_nodes":[],"categories_segments":[],"categories_sizes":[],"default_left":[0,0,0,0,0,0,0,0,0,0,0,0,0,0,0,0,0,0,0,0,0,0,0,0,0,0,0,0,0,0,0],"id":12,"left_children":[1,3,5,7,9,11,13,15,17,19,21,23,25,27,29,-1,-1,-1,-1,-1,-1,-1,-1,-1,-1,-1,-1,-1,-1,-1,-1],"loss_changes":[2.03093E4,1.6862559E3,2.7331451E4,2.9050195E2,1.670739E3,3.7454531E3,4.286948E3,6.510742E0,4.7215332E1,1.6598387E2,5.0125244E1,1.048168E3,3.866611E3,1.3706174E3,2.401916E3,0E0,0E0,0E0,0E0,0E0,0E0,0E0,0E0,0E0,0E0,0E0,0E0,0E0,0E0,0E0,0E0],"parents":[2147483647,0,0,1,1,2,2,3,3,4,4,5,5,6,6,7,7,8,8,9,9,10,10,11,11,12,12,13,13,14,14],"right_children":[2,4,6,8,10,12,14,16,18,20,22,24,26,28,30,-1,-1,-1,-1,-1,-1,-1,-1,-1,-1,-1,-1,-1,-1,-1,-1],"split_conditions":[5E0,3E0,1.9E1,6E0,6E0,6E0,2.2E1,5E0,1E0,5E0,4E0,1.3E1,7E0,7E0,7E0,-3.4192863E-1,-3.1092247E-1,-2.1244262E-1,-2.753466E-1,-3.441523E-2,-1.6508551E-1,-2.7831402E-1,-3.689402E-1,1.4179222E-1,2.2005796E-1,-2.6037565E-1,8.9332394E-2,-3.1900056E-2,-1.9396381E-1,-1.8486504E-1,-4.4744667E-1],"split_indices":[1,1,1,0,0,0,1,0,1,0,1,1,1,0,0,0,0,0,0,0,0,0,0,0,0,0,0,0,0,0,0],"split_type":[0,0,0,0,0,0,0,0,0,0,0,0,0,0,0,0,0,0,0,0,0,0,0,0,0,0,0,0,0,0,0],"sum_hessian":[1.9807E4,2.769E3,1.7038E4,1.779E3,9.9E2,1.0879E4,6.159E3,1.237E3,5.42E2,6.74E2,3.16E2,6.864E3,4.015E3,3.695E3,2.464E3,1.011E3,2.26E2,2.45E2,2.97E2,5.57E2,1.17E2,1.19E2,1.97E2,3.442E3,3.422E3,3.45E2,3.67E3,3.067E3,6.28E2,2.044E3,4.2E2],"tree_param":{"num_deleted":"0","num_feature":"2","num_nodes":"31","size_leaf_vector":"1"}},{"base_weights":[-1.5223441E-3,-2.2622745E0,3.6600423E-1,-2.7862184E0,-1.3189019E0,1.2237016E0,-1.1489491E0,-3.0292032E0,-2.2271001E0,-5.1608014E-1,-3.02422E0,1.4780366E0,9.371475E-2,-1.6086687E-1,-1.7562604E0,-3.111911E-1,-2.8879103E-1,-2.0559275E-1,-2.709818E-1,-3.0979952E-2,-1.4871691E-1,-2.4962322E-1,-3.3374357E-1,1.6207777E-1,2.7475107E-2,-2.0544426E-1,5.4747578E-2,-5.443359E-4,-1.01546586E-1,-2.630174E-1,-7.609248E-2],"categories":[],"categories_nodes":[],"categories_segments":[],"categories_sizes":[],"default_left":[0,0,0,0,0,0,0,0,0,0,0,0,0,0,0,0,0,0,0,0,0,0,0,0,0,0,0,0,0,0,0],"id":13,"left_children":[1,3,5,7,9,11,13,15,17,19,21,23,25,27,29,-1,-1,-1,-1,-1,-1,-1,-1,-1,-1,-1,-1,-1,-1,-1,-1],"loss_changes":[1.6459027E4,1.3654648E3,2.2141396E4,2.350791E2,1.3551841E3,3.1267227E3,3.69617E3,5.4804688E0,3.92959E1,1.3475314E2,4.409253E1,1.5249395E3,1.950625E3,3.1160135E2,3.3164258E3,0E0,0E0,0E0,0E0,0E0,0E0,0E0,0E0,0E0,0E0,0E0,0E0,0E0,0E0,0E0,0E0],"parents":[2147483647,0,0,1,1,2,2,3,3,4,4,5,5,6,6,7,7,8,8,9,9,10,10,11,11,12,12,13,13,14,14],"right_children":[2,4,6,8,10,12,14,16,18,20,22,24,26,28,30,-1,-1,-1,-1,-1,-1,-1,-1,-1,-1,-1,-1,-1,-1,-1,-1],"split_conditions":[5E0,3E0,1.9E1,6E0,6E0,7E0,2.1E1,4E0,2E0,5E0,7E0,1.8E1,9E0,7E0,5E0,-3.111911E-1,-2.8879103E-1,-2.0559275E-1,-2.709818E-1,-3.0979952E-2,-1.4871691E-1,-2.4962322E-1,-3.3374357E-1,1.6207777E-1,2.7475107E-2,-2.0544426E-1,5.4747578E-2,-5.443359E-4,-1.01546586E-1,-2.630174E-1,-7.609248E-2],"split_indices":[1,1,1,0,0,0,1,0,1,0,0,1,1,0,0,0,0,0,0,0,0,0,0,0,0,0,0,0,0,0,0],"split_type":[0,0,0,0,0,0,0,0,0,0,0,0,0,0,0,0,0,0,0,0,0,0,0,0,0,0,0,0,0,0,0],"sum_hessian":[1.9807E4,2.769E3,1.7038E4,1.779E3,9.9E2,1.0879E4,6.159E3,1.237E3,5.42E2,6.74E2,3.16E2,8.88E3,1.999E3,2.345E3,3.814E3,7.67E2,4.7E2,4.04E2,1.38E2,5.57E2,1.17E2,1.21E2,1.95E2,7.938E3,9.42E2,3.48E2,1.651E3,1.985E3,3.6E2,2.03E3,1.784E3],"tree_param":{"num_deleted":"0","num_feature":"2","num_nodes":"31","size_leaf_vector":"1"}},{"base_weights":[-1.4829155E-3,-2.0367115E0,3.2938066E-1,-2.5082014E0,-1.187782E0,1.1013356E0,-1.0341258E0,-2.7267675E0,-2.0052679E0,-4.647389E-1,-2.723638E0,1.4806334E0,4.5268518E-1,-6.9655126E-1,-2.5709991E0,-2.5420946E-1,-2.7833784E-1,-1.7080903E-1,-2.2438598E-1,3.3434406E-2,-6.725876E-2,-2.192306E-1,-3.031902E-1,1.1141411E-1,1.8488345E-1,-2.3134838E-1,7.132795E-2,-3.8700797E-2,-2.1535908E-1,-2.1714585E-1,-4.843695E-1],"categories":[],"categories_nodes":[],"categories_segments":[],"categories_sizes":[],"default_left":[0,0,0,0,0,0,0,0,0,0,0,0,0,0,0,0,0,0,0,0,0,0,0,0,0,0,0,0,0,0,0],"id":14,"left_children":[1,3,5,7,9,11,13,15,17,19,21,23,25,27,29,-1,-1,-1,-1,-1,-1,-1,-1,-1,-1,-1,-1,-1,-1,-1,-1],"loss_changes":[1.333904E4,1.1057461E3,1.7935805E4,1.9019727E2,1.0992302E3,2.6761543E3,3.1940747E3,5.8671875E0,3.466797E1,1.123345E2,4.5274414E1,9.2432227E2,2.8965754E3,2.2777034E3,9.964912E2,0E0,0E0,0E0,0E0,0E0,0E0,0E0,0E0,0E0,0E0,0E0,0E0,0E0,0E0,0E0,0E0],"parents":[2147483647,0,0,1,1,2,2,3,3,4,4,5,5,6,6,7,7,8,8,9,9,10,10,11,11,12,12,13,13,14,14],"right_children":[2,4,6,8,10,12,14,16,18,20,22,24,26,28,30,-1,-1,-1,-1,-1,-1,-1,-1,-1,-1,-1,-1,-1,-1,-1,-1],"split_conditions":[5E0,3E0,1.9E1,6E0,6E0,6E0,2.3E1,2E0,1E0,2E0,4E0,1.3E1,7E0,7E0,7E0,-2.5420946E-1,-2.7833784E-1,-1.7080903E-1,-2.2438598E-1,3.3434406E-2,-6.725876E-2,-2.192306E-1,-3.031902E-1,1.1141411E-1,1.8488345E-1,-2.3134838E-1,7.132795E-2,-3.8700797E-2,-2.1535908E-1,-2.1714585E-1,-4.843695E-1],"split_indices":[1,1,1,0,0,0,1,0,1,0,1,1,1,0,0,0,0,0,0,0,0,0,0,0,0,0,0,0,0,0,0],"split_type":[0,0,0,0,0,0,0,0,0,0,0,0,0,0,0,0,0,0,0,0,0,0,0,0,0,0,0,0,0,0,0],"sum_hessian":[1.9807E4,2.769E3,1.7038E4,1.779E3,9.9E2,1.0879E4,6.159E3,1.237E3,5.42E2,6.74E2,3.16E2,6.864E3,4.015E3,5.051E3,1.108E3,3.01E2,9.36E2,2.45E2,2.97E2,1.39E2,5.35E2,1.19E2,1.97E2,3.442E3,3.422E3,3.45E2,3.67E3,4.167E3,8.84E2,9.44E2,1.64E2],"tree_param":{"num_deleted":"0","num_feature":"2","num_nodes":"31","size_leaf_vector":"1"}},{"base_weights":[-1.4506709E-3,-1.8335758E0,2.9639477E-1,-2.185836E0,-9.1080815E-1,8.014377E-1,-1.4544543E0,-2.4122367E0,-1.9099027E0,-3.649996E-2,-2.3095775E0,1.1106782E0,-5.846042E-2,-2.5432405E0,-7.298623E-1,-2.5013265E-1,-1.33583E-1,-1.6631196E-1,-2.0533231E-1,1.8430541E-1,-3.953181E-2,-1.754858E-1,-3.373732E-1,3.2339398E-2,1.4486827E-1,-5.482856E-2,2.5360713E-2,-1.9391991E-1,-2.932302E-1,3.1794395E-2,-3.168108E-1],"categories":[],"categories_nodes":[],"categories_segments":[],"categories_sizes":[],"default_left":[0,0,0,0,0,0,0,0,0,0,0,0,0,0,0,0,0,0,0,0,0,0,0,0,0,0,0,0,0,0,0],"id":15,"left_children":[1,3,5,7,9,11,13,15,17,19,21,23,25,27,29,-1,-1,-1,-1,-1,-1,-1,-1,-1,-1,-1,-1,-1,-1,-1,-1],"loss_changes":[1.0809573E4,8.9841016E2,1.5067968E4,1.2058594E2,9.379224E2,3.516794E3,3.007896E3,1.0185693E2,2.8722412E1,3.1972833E2,1.6822034E2,2.5879414E3,5.349911E2,3.5246777E2,5.8566284E3,0E0,0E0,0E0,0E0,0E0,0E0,0E0,0E0,0E0,0E0,0E0,0E0,0E0,0E0,0E0,0E0],"parents":[2147483647,0,0,1,1,2,2,3,3,4,4,5,5,6,6,7,7,8,8,9,9,10,10,11,11,12,12,13,13,14,14],"right_children":[2,4,6,8,10,12,14,16,18,20,22,24,26,28,30,-1,-1,-1,-1,-1,-1,-1,-1,-1,-1,-1,-1,-1,-1,-1,-1],"split_conditions":[5E0,4E0,2.1E1,5E0,5E0,1.8E1,4E0,3E0,1E0,2E0,7E0,1E1,4E0,2.2E1,7E0,-2.5013265E-1,-1.33583E-1,-1.6631196E-1,-2.0533231E-1,1.8430541E-1,-3.953181E-2,-1.754858E-1,-3.373732E-1,3.2339398E-2,1.4486827E-1,-5.482856E-2,2.5360713E-2,-1.9391991E-1,-2.932302E-1,3.1794395E-2,-3.168108E-1],"split_indices":[1,1,1,0,0,1,0,1,1,0,0,1,0,1,0,0,0,0,0,0,0,0,0,0,0,0,0,0,0,0,0],"split_type":[0,0,0,0,0,0,0,0,0,0,0,0,0,0,0,0,0,0,0,0,0,0,0,0,0,0,0,0,0,0,0],"sum_hessian":[1.9807E4,2.769E3,1.7038E4,2.003E3,7.66E2,1.3224E4,3.814E3,1.096E3,9.07E2,4.72E2,2.94E2,9.726E3,3.498E3,1.523E3,2.291E3,1.011E3,8.5E1,3.38E2,5.69E2,7.5E1,3.97E2,1.95E2,9.9E1,2.922E3,6.804E3,1.361E3,2.137E3,5.99E2,9.24E2,1.603E3,6.88E2],"tree_param":{"num_deleted":"0","num_feature":"2","num_nodes":"31","size_leaf_vector":"1"}},{"base_weights":[-1.3940417E-3,-1.6506239E0,2.6671842E-1,-2.0346494E0,-9.5918506E-1,7.2130483E-1,-1.3092114E0,-2.2157E0,-1.6181206E0,-3.6741945E-1,-2.216228E0,1.0547285E0,6.157758E-2,-2.0969174E0,-4.122139E-1,-2.0394225E-1,-2.2701505E-1,-1.478201E-1,-2.014159E-1,-2.1311846E-2,-1.0939665E-1,-1.7712812E-1,-2.4746998E-1,5.7512786E-2,1.7621432E-1,-7.753382E-2,1.7543374E-2,-1.7665154E-1,-2.9637966E-1,1.1203819E-1,-2.851757E-1],"categories":[],"categories_nodes":[],"categories_segments":[],"categories_sizes":[],"default_left":[0,0,0,0,0,0,0,0,0,0,0,0,0,0,0,0,0,0,0,0,0,0,0,0,0,0,0,0,0,0,0],"id":16,"left_children":[1,3,5,7,9,11,13,15,17,19,21,23,25,27,29,-1,-1,-1,-1,-1,-1,-1,-1,-1,-1,-1,-1,-1,-1,-1,-1],"loss_changes":[8.759124E3,7.335669E2,1.2207619E4,1.3064941E2,7.3636566E2,2.9090215E3,2.6947026E3,7.253418E0,2.7112183E1,7.543905E1,3.207361E1,2.9795303E3,4.233101E2,5.7648047E2,6.6770127E3,0E0,0E0,0E0,0E0,0E0,0E0,0E0,0E0,0E0,0E0,0E0,0E0,0E0,0E0,0E0,0E0],"parents":[2147483647,0,0,1,1,2,2,3,3,4,4,5,5,6,6,7,7,8,8,9,9,10,10,11,11,12,12,13,13,14,14],"right_children":[2,4,6,8,10,12,14,16,18,20,22,24,26,28,30,-1,-1,-1,-1,-1,-1,-1,-1,-1,-1,-1,-1,-1,-1,-1,-1],"split_conditions":[5E0,3E0,2.1E1,6E0,6E0,1.7E1,5E0,2E0,2E0,5E0,4E0,1.3E1,2E0,2.3E1,7E0,-2.0394225E-1,-2.2701505E-1,-1.478201E-1,-2.014159E-1,-2.1311846E-2,-1.0939665E-1,-1.7712812E-1,-2.4746998E-1,5.7512786E-2,1.7621432E-1,-7.753382E-2,1.7543374E-2,-1.7665154E-1,-2.9637966E-1,1.1203819E-1,-2.851757E-1],"split_indices":[1,1,1,0,0,1,0,0,1,0,1,1,0,1,0,0,0,0,0,0,0,0,0,0,0,0,0,0,0,0,0],"split_type":[0,0,0,0,0,0,0,0,0,0,0,0,0,0,0,0,0,0,0,0,0,0,0,0,0,0,0,0,0,0,0],"sum_hessian":[1.9807E4,2.769E3,1.7038E4,1.779E3,9.9E2,1.3224E4,3.814E3,1.237E3,5.42E2,6.74E2,3.16E2,8.784E3,4.44E3,2.03E3,1.784E3,3.01E2,9.36E2,4.04E2,1.38E2,5.57E2,1.17E2,1.19E2,1.97E2,5.236E3,3.548E3,5.31E2,3.909E3,1.472E3,5.58E2,1.096E3,6.88E2],"tree_param":{"num_deleted":"0","num_feature":"2","num_nodes":"31","size_leaf_vector":"1"}},{"base_weights":[-1.3458701E-3,-1.4860436E0,2.4001887E-1,-1.7747825E0,-7.296953E-1,9.0410256E-1,-6.433098E-1,-1.9668244E0,-1.5408127E0,-1.1276294E-2,-1.8791276E0,1.13365E0,-1.150595E-1,-3.9475623E-1,-2.0334191E0,-2.031513E-1,-1.18273616E-1,-1.3281883E-1,-1.664565E-1,1.6822062E-1,-3.3462655E-2,-1.4023925E-1,-2.7947372E-1,5.584514E-2,1.3913487E-1,-1.0444073E-1,7.6982126E-2,-1.1236254E-1,1.0132906E-2,-1.729116E-1,-3.7639233E-1],"categories":[],"categories_nodes":[],"categories_segments":[],"categories_sizes":[],"default_left":[0,0,0,0,0,0,0,0,0,0,0,0,0,0,0,0,0,0,0,0,0,0,0,0,0,0,0,0,0,0,0],"id":17,"left_children":[1,3,5,7,9,11,13,15,17,19,21,23,25,27,29,-1,-1,-1,-1,-1,-1,-1,-1,-1,-1,-1,-1,-1,-1,-1,-1],"loss_changes":[7.0986265E3,6.036372E2,9.9957295E3,8.701367E1,6.3334753E2,2.2757227E3,2.52596E3,5.323877E1,2.1681152E1,2.5957202E2,1.2484912E2,1.1760039E3,1.4720095E3,2.2437256E3,5.7748926E2,0E0,0E0,0E0,0E0,0E0,0E0,0E0,0E0,0E0,0E0,0E0,0E0,0E0,0E0,0E0,0E0],"parents":[2147483647,0,0,1,1,2,2,3,3,4,4,5,5,6,6,7,7,8,8,9,9,10,10,11,11,12,12,13,13,14,14],"right_children":[2,4,6,8,10,12,14,16,18,20,22,24,26,28,30,-1,-1,-1,-1,-1,-1,-1,-1,-1,-1,-1,-1,-1,-1,-1,-1],"split_conditions":[5E0,4E0,1.8E1,5E0,5E0,7E0,2.3E1,3E0,1E0,2E0,7E0,1E1,1.3E1,4E0,7E0,-2.031513E-1,-1.18273616E-1,-1.3281883E-1,-1.664565E-1,1.6822062E-1,-3.3462655E-2,-1.4023925E-1,-2.7947372E-1,5.584514E-2,1.3913487E-1,-1.0444073E-1,7.6982126E-2,-1.1236254E-1,1.0132906E-2,-1.729116E-1,-3.7639233E-1],"split_indices":[1,1,1,0,0,0,1,1,1,0,0,1,1,0,0,0,0,0,0,0,0,0,0,0,0,0,0,0,0,0,0],"split_type":[0,0,0,0,0,0,0,0,0,0,0,0,0,0,0,0,0,0,0,0,0,0,0,0,0,0,0,0,0,0,0],"sum_hessian":[1.9807E4,2.769E3,1.7038E4,2.003E3,7.66E2,9.726E3,7.312E3,1.096E3,9.07E2,4.72E2,2.94E2,7.938E3,1.788E3,6.204E3,1.108E3,1.011E3,8.5E1,3.38E2,5.69E2,7.5E1,3.97E2,1.95E2,9.9E1,2.457E3,5.481E3,8.72E2,9.16E2,2.512E3,3.692E3,9.44E2,1.64E2],"tree_param":{"num_deleted":"0","num_feature":"2","num_nodes":"31","size_leaf_vector":"1"}},{"base_weights":[-1.2816018E-3,-1.3377662E0,2.159884E-1,-1.597614E0,-6.570972E-1,5.9262913E-1,-1.0897231E0,-1.770435E0,-1.387061E0,-9.863855E-3,-1.6926372E0,7.7335864E-1,-2.3974358E-1,-1.7778763E0,-3.0612156E-1,-1.8285625E-1,-1.06583774E-1,-1.1957615E-1,-1.4984004E-1,1.5161991E-1,-3.0124808E-2,-1.2628683E-1,-2.518058E-1,1.0739088E-1,1.803497E-2,-1.7491888E-1,2.2202819E-3,-2.2226624E-1,-1.262341E-1,1.0627293E-1,-2.4851103E-1],"categories":[],"categories_nodes":[],"categories_segments":[],"categories_sizes":[],"default_left":[0,0,0,0,0,0,0,0,0,0,0,0,0,0,0,0,0,0,0,0,0,0,0,0,0,0,0,0,0,0,0],"id":18,"left_children":[1,3,5,7,9,11,13,15,17,19,21,23,25,27,29,-1,-1,-1,-1,-1,-1,-1,-1,-1,-1,-1,-1,-1,-1,-1,-1],"loss_changes":[5.7520957E3,4.8888135E2,8.380156E3,7.046631E1,5.140544E2,1.9896782E3,2.056648E3,4.297998E1,1.7547974E1,2.1078598E2,1.0146838E2,1.9364424E3,9.33168E2,4.629087E2,5.32678E3,0E0,0E0,0E0,0E0,0E0,0E0,0E0,0E0,0E0,0E0,0E0,0E0,0E0,0E0,0E0,0E0],"parents":[2147483647,0,0,1,1,2,2,3,3,4,4,5,5,6,6,7,7,8,8,9,9,10,10,11,11,12,12,13,13,14,14],"right_children":[2,4,6,8,10,12,14,16,18,20,22,24,26,28,30,-1,-1,-1,-1,-1,-1,-1,-1,-1,-1,-1,-1,-1,-1,-1,-1],"split_conditions":[5E0,4E0,2.1E1,5E0,5E0,7E0,5E0,3E0,1E0,2E0,7E0,1.7E1,9E0,3E0,7E0,-1.8285625E-1,-1.06583774E-1,-1.1957615E-1,-1.4984004E-1,1.5161991E-1,-3.0124808E-2,-1.2628683E-1,-2.518058E-1,1.0739088E-1,1.803497E-2,-1.7491888E-1,2.2202819E-3,-2.2226624E-1,-1.262341E-1,1.0627293E-1,-2.4851103E-1],"split_indices":[1,1,1,0,0,0,0,1,1,0,0,1,1,0,0,0,0,0,0,0,0,0,0,0,0,0,0,0,0,0,0],"split_type":[0,0,0,0,0,0,0,0,0,0,0,0,0,0,0,0,0,0,0,0,0,0,0,0,0,0,0,0,0,0,0],"sum_hessian":[1.9807E4,2.769E3,1.7038E4,2.003E3,7.66E2,1.3224E4,3.814E3,1.096E3,9.07E2,4.72E2,2.94E2,1.0865E4,2.359E3,2.03E3,1.784E3,1.011E3,8.5E1,3.38E2,5.69E2,7.5E1,3.97E2,1.95E2,9.9E1,7.21E3,3.655E3,3.48E2,2.011E3,1.088E3,9.42E2,1.096E3,6.88E2],"tree_param":{"num_deleted":"0","num_feature":"2","num_nodes":"31","size_leaf_vector":"1"}},{"base_weights":[-1.2220014E-3,-1.204284E0,1.9435772E-1,-1.4880438E0,-6.933891E-1,5.3336227E-1,-9.808794E-1,-1.6263086E0,-1.17007E0,-2.5302184E-1,-1.6288924E0,6.9603384E-1,-2.1584225E-1,-1.6002603E0,-2.755889E-1,-1.451426E-1,-1.6809385E-1,-1.053887E-1,-1.5001711E-1,-5.0440915E-2,1.0341532E-2,-1.2781996E-1,-1.8388702E-1,9.665324E-2,1.6231928E-2,-1.574771E-1,1.9983768E-3,-1.326935E-1,-2.3176272E-1,9.565535E-2,-2.23696E-1],"categories":[],"categories_nodes":[],"categories_segments":[],"categories_sizes":[],"default_left":[0,0,0,0,0,0,0,0,0,0,0,0,0,0,0,0,0,0,0,0,0,0,0,0,0,0,0,0,0,0,0],"id":19,"left_children":[1,3,5,7,9,11,13,15,17,19,21,23,25,27,29,-1,-1,-1,-1,-1,-1,-1,-1,-1,-1,-1,-1,-1,-1,-1,-1],"loss_changes":[4.6609478E3,4.0053906E2,6.789044E3,7.6354004E1,4.0784525E2,1.6119373E3,1.666117E3,9.387939E0,1.9244202E1,6.0534706E1,2.0992676E1,1.5685566E3,7.563424E2,3.9515186E2,4.315929E3,0E0,0E0,0E0,0E0,0E0,0E0,0E0,0E0,0E0,0E0,0E0,0E0,0E0,0E0,0E0,0E0],"parents":[2147483647,0,0,1,1,2,2,3,3,4,4,5,5,6,6,7,7,8,8,9,9,10,10,11,11,12,12,13,13,14,14],"right_children":[2,4,6,8,10,12,14,16,18,20,22,24,26,28,30,-1,-1,-1,-1,-1,-1,-1,-1,-1,-1,-1,-1,-1,-1,-1,-1],"split_conditions":[5E0,3E0,2.1E1,6E0,6E0,7E0,5E0,2E0,2E0,4E0,7E0,1.7E1,9E0,2.3E1,7E0,-1.451426E-1,-1.6809385E-1,-1.053887E-1,-1.5001711E-1,-5.0440915E-2,1.0341532E-2,-1.2781996E-1,-1.8388702E-1,9.665324E-2,1.6231928E-2,-1.574771E-1,1.9983768E-3,-1.326935E-1,-2.3176272E-1,9.565535E-2,-2.23696E-1],"split_indices":[1,1,1,0,0,0,0,0,1,0,0,1,1,1,0,0,0,0,0,0,0,0,0,0,0,0,0,0,0,0,0],"split_type":[0,0,0,0,0,0,0,0,0,0,0,0,0,0,0,0,0,0,0,0,0,0,0,0,0,0,0,0,0,0,0],"sum_hessian":[1.9807E4,2.769E3,1.7038E4,1.779E3,9.9E2,1.3224E4,3.814E3,1.237E3,5.42E2,6.74E2,3.16E2,1.0865E4,2.359E3,2.03E3,1.784E3,3.01E2,9.36E2,4.04E2,1.38E2,3.95E2,2.79E2,1.21E2,1.95E2,7.21E3,3.655E3,3.48E2,2.011E3,1.472E3,5.58E2,1.096E3,6.88E2],"tree_param":{"num_deleted":"0","num_feature":"2","num_nodes":"31","size_leaf_vector":"1"}},{"base_weights":[-1.1731604E-3,-1.0841879E0,1.7489068E-1,-1.3395588E0,-6.244052E-1,6.71167E-1,-4.8522896E-1,-1.4639307E0,-1.0535333E0,-2.2777903E-1,-1.4669865E0,7.113611E-2,9.28804E-1,-2.81473E-1,-1.6248326E0,-1.5101545E-1,-1.2816134E-1,-9.4875865E-2,-1.351233E-1,-4.5409553E-2,9.31106E-3,-1.11035965E-1,-1.675715E-1,6.028799E-2,-5.7864744E-2,1.2548564E-1,6.398863E-2,-8.811979E-2,1.2670192E-2,-1.3968913E-1,-2.9204673E-1],"categories":[],"categories_nodes":[],"categories_segments":[],"categories_sizes":[],"default_left":[0,0,0,0,0,0,0,0,0,0,0,0,0,0,0,0,0,0,0,0,0,0,0,0,0,0,0,0,0,0,0],"id":20,"left_children":[1,3,5,7,9,11,13,15,17,19,21,23,25,27,29,-1,-1,-1,-1,-1,-1,-1,-1,-1,-1,-1,-1,-1,-1,-1,-1],"loss_changes":[3.7771736E3,3.244038E2,5.5823325E3,6.1778564E1,3.3084793E2,1.5036323E3,1.6976287E3,8.497803E0,1.5654968E1,4.9062542E1,2.1736267E1,1.01029895E3,6.4024365E2,1.5190502E3,3.234402E2,0E0,0E0,0E0,0E0,0E0,0E0,0E0,0E0,0E0,0E0,0E0,0E0,0E0,0E0,0E0,0E0],"parents":[2147483647,0,0,1,1,2,2,3,3,4,4,5,5,6,6,7,7,8,8,9,9,10,10,11,11,12,12,13,13,14,14],"right_children":[2,4,6,8,10,12,14,16,18,20,22,24,26,28,30,-1,-1,-1,-1,-1,-1,-1,-1,-1,-1,-1,-1,-1,-1,-1,-1],"split_conditions":[5E0,3E0,1.8E1,6E0,6E0,1E1,2.3E1,2E0,2E0,4E0,4E0,5E0,5E0,4E0,7E0,-1.5101545E-1,-1.2816134E-1,-9.4875865E-2,-1.351233E-1,-4.5409553E-2,9.31106E-3,-1.11035965E-1,-1.675715E-1,6.028799E-2,-5.7864744E-2,1.2548564E-1,6.398863E-2,-8.811979E-2,1.2670192E-2,-1.3968913E-1,-2.9204673E-1],"split_indices":[1,1,1,0,0,1,1,1,1,0,1,0,0,0,0,0,0,0,0,0,0,0,0,0,0,0,0,0,0,0,0],"split_type":[0,0,0,0,0,0,0,0,0,0,0,0,0,0,0,0,0,0,0,0,0,0,0,0,0,0,0,0,0,0,0],"sum_hessian":[1.9807E4,2.769E3,1.7038E4,1.779E3,9.9E2,9.726E3,7.312E3,1.237E3,5.42E2,6.74E2,3.16E2,2.922E3,6.804E3,6.204E3,1.108E3,9.81E2,2.56E2,4.04E2,1.38E2,3.95E2,2.79E2,1.19E2,1.97E2,1.607E3,1.315E3,3.195E3,3.609E3,2.512E3,3.692E3,9.44E2,1.64E2],"tree_param":{"num_deleted":"0","num_feature":"2","num_nodes":"31","size_leaf_vector":"1"}},{"base_weights":[-1.1133137E-3,1.928726E-1,-8.143793E-1,-9.760665E-1,4.376944E-1,-1.7383534E0,-4.4510084E-1,-1.1667762E0,-4.7651207E-1,5.809034E-1,-2.2185934E-1,-1.3446847E0,-2.0031755E0,6.4892784E-2,-1.9537102E0,-1.3029125E-1,-1.0010183E-1,4.746752E-3,-1.3150404E-1,7.9726495E-2,1.5399865E-2,-2.9932368E-1,-1.3833101E-2,-1.1643517E-1,-1.493606E-1,-1.8489255E-1,-2.1742876E-1,-9.089168E-2,9.019371E-2,-1.3820012E-1,-2.314366E-1],"categories":[],"categories_nodes":[],"categories_segments":[],"categories_sizes":[],"default_left":[0,0,0,0,0,0,0,0,0,0,0,0,0,0,0,0,0,0,0,0,0,0,0,0,0,0,0,0,0,0,0],"id":21,"left_children":[1,3,5,7,9,11,13,15,17,19,21,23,25,27,29,-1,-1,-1,-1,-1,-1,-1,-1,-1,-1,-1,-1,-1,-1,-1,-1],"loss_changes":[3.1251091E3,4.577619E3,1.3009185E3,2.6334155E2,1.2492834E3,1.10836914E2,2.0982295E3,4.3917236E1,3.3706055E2,1.0035237E3,5.4589886E2,1.0104126E1,1.3109619E1,1.6628529E3,1.3886646E2,0E0,0E0,0E0,0E0,0E0,0E0,0E0,0E0,0E0,0E0,0E0,0E0,0E0,0E0,0E0,0E0],"parents":[2147483647,0,0,1,1,2,2,3,3,4,4,5,5,6,6,7,7,8,8,9,9,10,10,11,11,12,12,13,13,14,14],"right_children":[2,4,6,8,10,12,14,16,18,20,22,24,26,28,30,-1,-1,-1,-1,-1,-1,-1,-1,-1,-1,-1,-1,-1,-1,-1,-1],"split_conditions":[2.1E1,5E0,3E0,4E0,7E0,2.2E1,7E0,5E0,5E0,1.7E1,6E0,2E0,2.3E1,5E0,2.2E1,-1.3029125E-1,-1.0010183E-1,4.746752E-3,-1.3150404E-1,7.9726495E-2,1.5399865E-2,-2.9932368E-1,-1.3833101E-2,-1.1643517E-1,-1.493606E-1,-1.8489255E-1,-2.1742876E-1,-9.089168E-2,9.019371E-2,-1.3820012E-1,-2.314366E-1],"split_indices":[1,1,0,1,0,1,0,0,0,1,1,0,1,0,1,0,0,0,0,0,0,0,0,0,0,0,0,0,0,0,0],"split_type":[0,0,0,0,0,0,0,0,0,0,0,0,0,0,0,0,0,0,0,0,0,0,0,0,0,0,0,0,0,0,0],"sum_hessian":[1.9807E4,1.5993E4,3.814E3,2.769E3,1.3224E4,1.088E3,2.726E3,2.003E3,7.66E2,1.0865E4,2.359E3,4.4E2,6.48E2,2.038E3,6.88E2,1.096E3,9.07E2,4.72E2,2.94E2,7.21E3,3.655E3,6.8E1,2.291E3,2.03E2,2.37E2,3.47E2,3.01E2,9.42E2,1.096E3,2.68E2,4.2E2],"tree_param":{"num_deleted":"0","num_feature":"2","num_nodes":"31","size_leaf_vector":"1"}},{"base_weights":[-1.0836361E-3,1.3532686E-1,-9.608818E-1,-8.7858886E-1,3.2801372E-1,-1.4885727E0,-3.7268016E-1,-1.0886965E0,-5.0031424E-1,5.8234245E-1,-5.7861924E-2,-1.8034779E0,-1.1723484E0,5.920038E-1,-2.083479E0,-1.1930882E-1,-8.48686E-2,-1.701036E-2,-1.2018659E-1,2.0371832E-2,1.1408863E-1,8.712903E-3,-7.095785E-2,-1.6645642E-1,-1.9575788E-1,-9.007853E-2,-1.582517E-1,1.5982102E-1,-3.4813188E-2,-1.8720575E-1,-2.4001566E-1],"categories":[],"categories_nodes":[],"categories_segments":[],"categories_sizes":[],"default_left":[0,0,0,0,0,0,0,0,0,0,0,0,0,0,0,0,0,0,0,0,0,0,0,0,0,0,0,0,0,0,0],"id":22,"left_children":[1,3,5,7,9,11,13,15,17,19,21,23,25,27,29,-1,-1,-1,-1,-1,-1,-1,-1,-1,-1,-1,-1,-1,-1,-1,-1],"loss_changes":[2.5935232E3,3.388755E3,7.645532E2,2.1961035E2,1.4304132E3,1.2724097E2,1.927227E3,4.358545E1,2.2937042E2,1.8576038E3,5.4727075E2,1.0634277E1,7.108722E1,7.0719635E2,2.3693726E1,0E0,0E0,0E0,0E0,0E0,0E0,0E0,0E0,0E0,0E0,0E0,0E0,0E0,0E0,0E0,0E0],"parents":[2147483647,0,0,1,1,2,2,3,3,4,4,5,5,6,6,7,7,8,8,9,9,10,10,11,11,12,12,13,13,14,14],"right_children":[2,4,6,8,10,12,14,16,18,20,22,24,26,28,30,-1,-1,-1,-1,-1,-1,-1,-1,-1,-1,-1,-1,-1,-1,-1,-1],"split_conditions":[2.2E1,5E0,5E0,3E0,1.7E1,3E0,7E0,6E0,6E0,1.3E1,7E0,2.3E1,2.3E1,2.3E1,2.3E1,-1.1930882E-1,-8.48686E-2,-1.701036E-2,-1.2018659E-1,2.0371832E-2,1.1408863E-1,8.712903E-3,-7.095785E-2,-1.6645642E-1,-1.9575788E-1,-9.007853E-2,-1.582517E-1,1.5982102E-1,-3.4813188E-2,-1.8720575E-1,-2.4001566E-1],"split_indices":[1,1,0,1,1,0,0,0,0,1,0,1,1,1,1,0,0,0,0,0,0,0,0,0,0,0,0,0,0,0,0],"split_type":[0,0,0,0,0,0,0,0,0,0,0,0,0,0,0,0,0,0,0,0,0,0,0,0,0,0,0,0,0,0,0],"sum_hessian":[1.9807E4,1.7343E4,2.464E3,2.769E3,1.4574E4,1.298E3,1.166E3,1.779E3,9.9E2,8.784E3,5.79E3,6.48E2,6.5E2,7.46E2,4.2E2,1.237E3,5.42E2,6.74E2,3.16E2,5.236E3,3.548E3,4.737E3,1.053E3,3.47E2,3.01E2,3.93E2,2.57E2,3.6E2,3.86E2,2.56E2,1.64E2],"tree_param":{"num_deleted":"0","num_feature":"2","num_nodes":"31","size_leaf_vector":"1"}},{"base_weights":[-1.0349214E-3,1.5825783E-1,-6.6885334E-1,-7.908532E-1,3.5703886E-1,-1.4615046E0,-3.5207075E-1,-9.7994167E-1,-4.5042095E-1,4.8182702E-1,-2.1766672E-1,-1.219512E0,-1.6236883E0,7.134108E-2,-1.6045884E0,-1.04737215E-1,-6.617876E-2,-6.0383454E-3,-9.508599E-2,6.6019215E-2,1.2989256E-2,-1.3109393E-1,-2.7920303E-3,-1.0571575E-1,-1.353549E-1,-1.4985864E-1,-1.7624693E-1,-7.4014954E-2,7.688473E-2,-1.1736208E-1,-1.8761459E-1],"categories":[],"categories_nodes":[],"categories_segments":[],"categories_sizes":[],"default_left":[0,0,0,0,0,0,0,0,0,0,0,0,0,0,0,0,0,0,0,0,0,0,0,0,0,0,0,0,0,0,0],"id":23,"left_children":[1,3,5,7,9,11,13,15,17,19,21,23,25,27,29,-1,-1,-1,-1,-1,-1,-1,-1,-1,-1,-1,-1,-1,-1,-1,-1],"loss_changes":[2.1072537E3,3.017795E3,9.5742456E2,1.7786841E2,9.4855493E2,4.0760254E1,1.4463264E3,3.7493652E1,1.9337582E2,6.8200366E2,4.8953253E2,8.165894E0,8.626587E0,1.1546833E3,7.843335E1,0E0,0E0,0E0,0E0,0E0,0E0,0E0,0E0,0E0,0E0,0E0,0E0,0E0,0E0,0E0,0E0],"parents":[2147483647,0,0,1,1,2,2,3,3,4,4,5,5,6,6,7,7,8,8,9,9,10,10,11,11,12,12,13,13,14,14],"right_children":[2,4,6,8,10,12,14,16,18,20,22,24,26,28,30,-1,-1,-1,-1,-1,-1,-1,-1,-1,-1,-1,-1,-1,-1,-1,-1],"split_conditions":[2.1E1,5E0,3E0,3E0,7E0,2.2E1,7E0,7E0,5E0,1.7E1,9E0,2E0,2.3E1,5E0,2.2E1,-1.04737215E-1,-6.617876E-2,-6.0383454E-3,-9.508599E-2,6.6019215E-2,1.2989256E-2,-1.3109393E-1,-2.7920303E-3,-1.0571575E-1,-1.353549E-1,-1.4985864E-1,-1.7624693E-1,-7.4014954E-2,7.688473E-2,-1.1736208E-1,-1.8761459E-1],"split_indices":[1,1,0,1,0,1,0,0,0,1,1,0,1,0,1,0,0,0,0,0,0,0,0,0,0,0,0,0,0,0,0],"split_type":[0,0,0,0,0,0,0,0,0,0,0,0,0,0,0,0,0,0,0,0,0,0,0,0,0,0,0,0,0,0,0],"sum_hessian":[1.9807E4,1.5993E4,3.814E3,2.769E3,1.3224E4,1.088E3,2.726E3,1.779E3,9.9E2,1.0865E4,2.359E3,4.4E2,6.48E2,2.038E3,6.88E2,1.466E3,3.13E2,5.57E2,4.33E2,7.21E3,3.655E3,3.48E2,2.011E3,2.03E2,2.37E2,3.47E2,3.01E2,9.42E2,1.096E3,2.68E2,4.2E2],"tree_param":{"num_deleted":"0","num_feature":"2","num_nodes":"31","size_leaf_vector":"1"}},{"base_weights":[-9.916577E-4,1.1176101E-1,-7.943309E-1,-7.1186596E-1,2.6828486E-1,-1.2222786E0,-3.1729716E-1,-8.820434E-1,-4.0548068E-1,4.5188367E-1,-1.0006615E-1,-1.4618219E0,-9.815937E-1,4.5618948E-1,-1.688977E0,-9.6922316E-2,-6.816556E-2,-1.3165352E-2,-9.8727204E-2,1.3732678E-2,8.1859104E-2,-6.44812E-2,1.0323937E-2,-1.3491584E-1,-1.5868056E-1,-7.371084E-2,-1.3511504E-1,1.362161E-1,-3.9009452E-2,-1.4986958E-1,-1.9751184E-1],"categories":[],"categories_nodes":[],"categories_segments":[],"categories_sizes":[],"default_left":[0,0,0,0,0,0,0,0,0,0,0,0,0,0,0,0,0,0,0,0,0,0,0,0,0,0,0,0,0,0,0],"id":24,"left_children":[1,3,5,7,9,11,13,15,17,19,21,23,25,27,29,-1,-1,-1,-1,-1,-1,-1,-1,-1,-1,-1,-1,-1,-1,-1,-1],"loss_changes":[1.7719365E3,2.2361318E3,5.028307E2,1.4406982E2,9.857351E2,7.3458374E1,1.2389294E3,3.0435425E1,1.577465E2,1.1218999E3,5.370925E2,6.9976807E0,5.7822693E1,5.732632E2,1.996228E1,0E0,0E0,0E0,0E0,0E0,0E0,0E0,0E0,0E0,0E0,0E0,0E0,0E0,0E0,0E0,0E0],"parents":[2147483647,0,0,1,1,2,2,3,3,4,4,5,5,6,6,7,7,8,8,9,9,10,10,11,11,12,12,13,13,14,14],"right_children":[2,4,6,8,10,12,14,16,18,20,22,24,26,28,30,-1,-1,-1,-1,-1,-1,-1,-1,-1,-1,-1,-1,-1,-1,-1,-1],"split_conditions":[2.2E1,5E0,5E0,3E0,1.8E1,3E0,7E0,6E0,6E0,1.3E1,3E0,2.3E1,2.3E1,2.3E1,2.3E1,-9.6922316E-2,-6.816556E-2,-1.3165352E-2,-9.8727204E-2,1.3732678E-2,8.1859104E-2,-6.44812E-2,1.0323937E-2,-1.3491584E-1,-1.5868056E-1,-7.371084E-2,-1.3511504E-1,1.362161E-1,-3.9009452E-2,-1.4986958E-1,-1.9751184E-1],"split_indices":[1,1,0,1,1,0,0,0,0,1,0,1,1,1,1,0,0,0,0,0,0,0,0,0,0,0,0,0,0,0,0],"split_type":[0,0,0,0,0,0,0,0,0,0,0,0,0,0,0,0,0,0,0,0,0,0,0,0,0,0,0,0,0,0,0],"sum_hessian":[1.9807E4,1.7343E4,2.464E3,2.769E3,1.4574E4,1.298E3,1.166E3,1.779E3,9.9E2,9.726E3,4.848E3,6.48E2,6.5E2,7.46E2,4.2E2,1.237E3,5.42E2,6.74E2,3.16E2,5.236E3,4.49E3,1.317E3,3.531E3,3.47E2,3.01E2,3.93E2,2.57E2,3.6E2,3.86E2,2.56E2,1.64E2],"tree_param":{"num_deleted":"0","num_feature":"2","num_nodes":"31","size_leaf_vector":"1"}},{"base_weights":[-9.4250496E-4,1.0057119E-1,-7.152032E-1,-6.4077926E-1,2.4145903E-1,-1.1004375E0,-2.8578198E-1,-7.939317E-1,-3.6504552E-1,3.65048E-1,-3.205206E-1,-1.3160923E0,-8.8375497E-1,4.107005E-1,-1.5209045E0,-8.503388E-2,-5.278709E-2,-4.121385E-3,-7.805594E-2,5.535633E-2,7.8060026E-3,-2.602667E-1,-2.5888443E-2,-1.2146304E-1,-1.4286506E-1,-6.635845E-2,-1.216559E-1,1.2263223E-1,-3.511862E-2,-1.3494095E-1,-1.7788036E-1],"categories":[],"categories_nodes":[],"categories_segments":[],"categories_sizes":[],"default_left":[0,0,0,0,0,0,0,0,0,0,0,0,0,0,0,0,0,0,0,0,0,0,0,0,0,0,0,0,0,0,0],"id":25,"left_children":[1,3,5,7,9,11,13,15,17,19,21,23,25,27,29,-1,-1,-1,-1,-1,-1,-1,-1,-1,-1,-1,-1,-1,-1,-1,-1],"loss_changes":[1.4362954E3,1.811688E3,4.074651E2,1.166853E2,1.0124162E3,5.9537354E1,1.00452625E3,2.6264893E1,1.3331339E2,6.463629E2,3.6898795E2,5.6765137E0,4.689383E1,4.6462497E2,1.6219788E1,0E0,0E0,0E0,0E0,0E0,0E0,0E0,0E0,0E0,0E0,0E0,0E0,0E0,0E0,0E0,0E0],"parents":[2147483647,0,0,1,1,2,2,3,3,4,4,5,5,6,6,7,7,8,8,9,9,10,10,11,11,12,12,13,13,14,14],"right_children":[2,4,6,8,10,12,14,16,18,20,22,24,26,28,30,-1,-1,-1,-1,-1,-1,-1,-1,-1,-1,-1,-1,-1,-1,-1,-1],"split_conditions":[2.2E1,5E0,5E0,3E0,7E0,3E0,7E0,7E0,5E0,1.7E1,6E0,2.3E1,2.3E1,2.3E1,2.3E1,-8.503388E-2,-5.278709E-2,-4.121385E-3,-7.805594E-2,5.535633E-2,7.8060026E-3,-2.602667E-1,-2.5888443E-2,-1.2146304E-1,-1.4286506E-1,-6.635845E-2,-1.216559E-1,1.2263223E-1,-3.511862E-2,-1.3494095E-1,-1.7788036E-1],"split_indices":[1,1,0,1,0,0,0,0,0,1,1,1,1,1,1,0,0,0,0,0,0,0,0,0,0,0,0,0,0,0,0],"split_type":[0,0,0,0,0,0,0,0,0,0,0,0,0,0,0,0,0,0,0,0,0,0,0,0,0,0,0,0,0,0,0],"sum_hessian":[1.9807E4,1.7343E4,2.464E3,2.769E3,1.4574E4,1.298E3,1.166E3,1.779E3,9.9E2,1.1947E4,2.627E3,6.48E2,6.5E2,7.46E2,4.2E2,1.466E3,3.13E2,5.57E2,4.33E2,7.21E3,4.737E3,6.8E1,2.559E3,3.47E2,3.01E2,3.93E2,2.57E2,3.6E2,3.86E2,2.56E2,1.64E2],"tree_param":{"num_deleted":"0","num_feature":"2","num_nodes":"31","size_leaf_vector":"1"}},{"base_weights":[-9.050679E-4,1.18251204E-1,-5.004554E-1,-3.3459896E-1,3.6842152E-1,-1.1279359E0,-2.4969386E-1,-6.909256E-1,-1.4093855E-1,6.446436E-1,3.6706605E-3,-1.0658276E0,-1.2862585E0,8.619323E-2,-1.2433428E0,-8.259429E-2,-5.903521E-2,2.5664378E-2,-6.5449774E-2,4.787454E-2,1.3322859E-1,-6.7801505E-2,9.642082E-3,-1.0119941E-1,-1.12300955E-1,-1.4558586E-1,-1.1741736E-1,-2.7473886E-2,1.06140494E-1,-1.1282531E-1,-1.6020015E-1],"categories":[],"categories_nodes":[],"categories_segments":[],"categories_sizes":[],"default_left":[0,0,0,0,0,0,0,0,0,0,0,0,0,0,0,0,0,0,0,0,0,0,0,0,0,0,0,0,0,0,0],"id":26,"left_children":[1,3,5,7,9,11,13,15,17,19,21,23,25,27,29,-1,-1,-1,-1,-1,-1,-1,-1,-1,-1,-1,-1,-1,-1,-1,-1],"loss_changes":[1.1791216E3,1.8120781E3,6.0000085E2,3.9268683E2,1.0380481E3,9.337402E0,9.1025385E2,2.6725037E1,7.5339557E2,6.682051E2,2.8085406E2,1.2892456E0,4.0314636E0,7.179894E2,2.6633057E1,0E0,0E0,0E0,0E0,0E0,0E0,0E0,0E0,0E0,0E0,0E0,0E0,0E0,0E0,0E0,0E0],"parents":[2147483647,0,0,1,1,2,2,3,3,4,4,5,5,6,6,7,7,8,8,9,9,10,10,11,11,12,12,13,13,14,14],"right_children":[2,4,6,8,10,12,14,16,18,20,22,24,26,28,30,-1,-1,-1,-1,-1,-1,-1,-1,-1,-1,-1,-1,-1,-1,-1,-1],"split_conditions":[2.1E1,1E1,3E0,4E0,1.7E1,2.3E1,7E0,4E0,5E0,1.6E1,2E0,2E0,2E0,6E0,2.3E1,-8.259429E-2,-5.903521E-2,2.5664378E-2,-6.5449774E-2,4.787454E-2,1.3322859E-1,-6.7801505E-2,9.642082E-3,-1.0119941E-1,-1.12300955E-1,-1.4558586E-1,-1.1741736E-1,-2.7473886E-2,1.06140494E-1,-1.1282531E-1,-1.6020015E-1],"split_indices":[1,1,0,1,1,1,0,0,0,1,0,0,0,0,1,0,0,0,0,0,0,0,0,0,0,0,0,0,0,0,0],"split_type":[0,0,0,0,0,0,0,0,0,0,0,0,0,0,0,0,0,0,0,0,0,0,0,0,0,0,0,0,0,0,0],"sum_hessian":[1.9807E4,1.5993E4,3.814E3,5.691E3,1.0302E4,1.088E3,2.726E3,2.003E3,3.688E3,5.862E3,4.44E3,7.87E2,3.01E2,2.038E3,6.88E2,8.52E2,1.151E3,2.079E3,1.609E3,4.724E3,1.138E3,5.31E2,3.909E3,4.15E2,3.72E2,1.15E2,1.86E2,1.488E3,5.5E2,5.24E2,1.64E2],"tree_param":{"num_deleted":"0","num_feature":"2","num_nodes":"31","size_leaf_vector":"1"}},{"base_weights":[-8.5128844E-4,8.378853E-2,-5.963856E-1,-3.0117106E-1,2.718179E-1,-9.191061E-1,-2.3665102E-1,-6.2190366E-1,-1.2685572E-1,5.8021027E-1,-4.0455695E-2,-7.6721317E-1,-1.1188084E0,3.2832086E-1,-1.238545E0,-7.181621E-2,-5.0492406E-2,2.3099106E-2,-5.8908828E-2,4.308811E-2,1.1991745E-1,8.051992E-3,-5.842337E-2,-9.9433176E-2,-9.862169E-3,-1.0254989E-1,-1.2989454E-1,1.0603642E-1,-3.553896E-2,-1.102607E-1,-1.4427723E-1],"categories":[],"categories_nodes":[],"categories_segments":[],"categories_sizes":[],"default_left":[0,0,0,0,0,0,0,0,0,0,0,0,0,0,0,0,0,0,0,0,0,0,0,0,0,0,0,0,0,0,0],"id":27,"left_children":[1,3,5,7,9,11,13,15,17,19,21,23,25,27,29,-1,-1,-1,-1,-1,-1,-1,-1,-1,-1,-1,-1,-1,-1,-1,-1],"loss_changes":[9.9849036E2,1.2555049E3,2.859535E2,3.181529E2,1.12224E3,3.85448E1,6.609776E2,2.2202942E1,6.1032776E2,5.41397E2,3.810015E2,1.12422455E2,8.063904E0,3.7425452E2,1.0097107E1,0E0,0E0,0E0,0E0,0E0,0E0,0E0,0E0,0E0,0E0,0E0,0E0,0E0,0E0,0E0,0E0],"parents":[2147483647,0,0,1,1,2,2,3,3,4,4,5,5,6,6,7,7,8,8,9,9,10,10,11,11,12,12,13,13,14,14],"right_children":[2,4,6,8,10,12,14,16,18,20,22,24,26,28,30,-1,-1,-1,-1,-1,-1,-1,-1,-1,-1,-1,-1,-1,-1,-1,-1],"split_conditions":[2.2E1,1E1,5E0,4E0,1.7E1,2.3E1,7E0,5E0,5E0,1.6E1,7E0,4E0,4E0,2.3E1,2.3E1,-7.181621E-2,-5.0492406E-2,2.3099106E-2,-5.8908828E-2,4.308811E-2,1.1991745E-1,8.051992E-3,-5.842337E-2,-9.9433176E-2,-9.862169E-3,-1.0254989E-1,-1.2989454E-1,1.0603642E-1,-3.553896E-2,-1.102607E-1,-1.4427723E-1],"split_indices":[1,1,0,1,1,1,0,0,0,1,0,0,0,1,1,0,0,0,0,0,0,0,0,0,0,0,0,0,0,0,0],"split_type":[0,0,0,0,0,0,0,0,0,0,0,0,0,0,0,0,0,0,0,0,0,0,0,0,0,0,0,0,0,0,0],"sum_hessian":[1.9807E4,1.7343E4,2.464E3,5.691E3,1.1652E4,1.298E3,1.166E3,2.003E3,3.688E3,5.862E3,5.79E3,7.4E2,5.58E2,7.46E2,4.2E2,1.096E3,9.07E2,2.079E3,1.609E3,4.724E3,1.138E3,4.737E3,1.053E3,5.52E2,1.88E2,3.72E2,1.86E2,3.6E2,3.86E2,2.56E2,1.64E2],"tree_param":{"num_deleted":"0","num_feature":"2","num_nodes":"31","size_leaf_vector":"1"}},{"base_weights":[-7.953299E-4,7.540669E-2,-5.369605E-1,-2.7108207E-1,2.4464539E-1,-8.274587E-1,-2.131437E-1,-5.5977434E-1,-1.1418035E-1,5.222165E-1,-3.6419034E-2,-6.9063956E-1,-1.0073434E0,2.955831E-1,-1.1152952E0,-6.7171335E-2,-4.7640305E-2,2.0790244E-2,-5.302164E-2,3.878013E-2,1.07936285E-1,-3.332981E-2,1.6040271E-2,-8.950786E-2,-8.881183E-3,-9.23224E-2,-1.1697455E-1,9.5462166E-2,-3.1994272E-2,-9.9277556E-2,-1.2993696E-1],"categories":[],"categories_nodes":[],"categories_segments":[],"categories_sizes":[],"default_left":[0,0,0,0,0,0,0,0,0,0,0,0,0,0,0,0,0,0,0,0,0,0,0,0,0,0,0,0,0,0,0],"id":28,"left_children":[1,3,5,7,9,11,13,15,17,19,21,23,25,27,29,-1,-1,-1,-1,-1,-1,-1,-1,-1,-1,-1,-1,-1,-1,-1,-1],"loss_changes":[8.093334E2,1.0171065E3,2.3170166E2,2.5776273E2,9.091321E2,3.1274902E1,5.359227E2,1.8382263E1,4.9442896E2,4.3865527E2,3.3843466E2,9.1091E1,6.5566406E0,3.0332986E2,8.204712E0,0E0,0E0,0E0,0E0,0E0,0E0,0E0,0E0,0E0,0E0,0E0,0E0,0E0,0E0,0E0,0E0],"parents":[2147483647,0,0,1,1,2,2,3,3,4,4,5,5,6,6,7,7,8,8,9,9,10,10,11,11,12,12,13,13,14,14],"right_children":[2,4,6,8,10,12,14,16,18,20,22,24,26,28,30,-1,-1,-1,-1,-1,-1,-1,-1,-1,-1,-1,-1,-1,-1,-1,-1],"split_conditions":[2.2E1,1E1,5E0,4E0,1.7E1,2.3E1,7E0,4E0,5E0,1.6E1,4E0,4E0,4E0,2.3E1,2.3E1,-6.7171335E-2,-4.7640305E-2,2.0790244E-2,-5.302164E-2,3.878013E-2,1.07936285E-1,-3.332981E-2,1.6040271E-2,-8.950786E-2,-8.881183E-3,-9.23224E-2,-1.1697455E-1,9.5462166E-2,-3.1994272E-2,-9.9277556E-2,-1.2993696E-1],"split_indices":[1,1,0,1,1,1,0,0,0,1,0,0,0,1,1,0,0,0,0,0,0,0,0,0,0,0,0,0,0,0,0],"split_type":[0,0,0,0,0,0,0,0,0,0,0,0,0,0,0,0,0,0,0,0,0,0,0,0,0,0,0,0,0,0,0],"sum_hessian":[1.9807E4,1.7343E4,2.464E3,5.691E3,1.1652E4,1.298E3,1.166E3,2.003E3,3.688E3,5.862E3,5.79E3,7.4E2,5.58E2,7.46E2,4.2E2,8.52E2,1.151E3,2.079E3,1.609E3,4.724E3,1.138E3,2.308E3,3.482E3,5.52E2,1.88E2,3.72E2,1.86E2,3.6E2,3.86E2,2.56E2,1.64E2],"tree_param":{"num_deleted":"0","num_feature":"2","num_nodes":"31","size_leaf_vector":"1"}},{"base_weights":[-7.4061204E-4,9.015856E-2,-4.1620278E-1,-5.4344493E-1,1.5909283E-1,-2.4332674E-1,-9.2158705E-1,-5.7107735E-1,-2.2499372E-1,2.4582224E-1,-3.75993E-1,-6.1910015E-1,1.6515982E-1,-8.650561E-1,-1.1702199E-1,-4.0792055E-2,-6.128461E-2,-6.518677E-2,2.0534165E-2,3.359702E-2,5.229126E-3,-6.6191204E-2,8.545809E-2,2.2918817E-2,-7.022231E-2,5.247904E-2,-2.7945433E-2,-7.966039E-2,-8.918323E-2],"categories":[],"categories_nodes":[],"categories_segments":[],"categories_sizes":[],"default_left":[0,0,0,0,0,0,0,0,0,0,0,0,0,0,0,0,0,0,0,0,0,0,0,0,0,0,0,0,0],"id":29,"left_children":[1,3,5,7,9,11,13,15,17,19,21,23,25,27,-1,-1,-1,-1,-1,-1,-1,-1,-1,-1,-1,-1,-1,-1,-1],"loss_changes":[7.480899E2,7.099686E2,3.1045935E2,1.390686E1,6.8038257E2,4.070265E2,1.1721924E1,9.747345E0,2.383102E1,2.2006903E2,7.200875E2,9.753827E1,2.0337552E2,6.4959717E-1,0E0,0E0,0E0,0E0,0E0,0E0,0E0,0E0,0E0,0E0,0E0,0E0,0E0,0E0,0E0],"parents":[2147483647,0,0,1,1,2,2,3,3,4,4,5,5,6,6,7,7,8,8,9,9,10,10,11,11,12,12,13,13],"right_children":[2,4,6,8,10,12,14,16,18,20,22,24,26,28,-1,-1,-1,-1,-1,-1,-1,-1,-1,-1,-1,-1,-1,-1,-1],"split_conditions":[7E0,4E0,2E1,3E0,2.2E1,1.3E1,2.3E1,2E0,2E0,1.8E1,6E0,1E0,1.7E1,2.1E1,-1.1702199E-1,-4.0792055E-2,-6.128461E-2,-6.518677E-2,2.0534165E-2,3.359702E-2,5.229126E-3,-6.6191204E-2,8.545809E-2,2.2918817E-2,-7.022231E-2,5.247904E-2,-2.7945433E-2,-7.966039E-2,-8.918323E-2],"split_indices":[0,1,1,1,1,1,1,0,0,1,0,1,1,1,0,0,0,0,0,0,0,0,0,0,0,0,0,0,0],"split_type":[0,0,0,0,0,0,0,0,0,0,0,0,0,0,0,0,0,0,0,0,0,0,0,0,0,0,0,0,0],"sum_hessian":[1.9807E4,1.6252E4,3.555E3,1.594E3,1.4658E4,2.65E3,9.05E2,1.466E3,1.28E2,1.2614E4,2.044E3,1.38E3,1.27E3,7.41E2,1.64E2,3.01E2,1.165E3,6.4E1,6.4E1,8.605E3,4.009E3,1.659E3,3.85E2,1.23E2,1.257E3,7.02E2,5.68E2,2.17E2,5.24E2],"tree_param":{"num_deleted":"0","num_feature":"2","num_nodes":"29","size_leaf_vector":"1"}},{"base_weights":[-6.869862E-4,8.1136785E-2,-3.7466928E-1,-4.8919255E-1,1.43187E-1,-2.1900262E-1,-8.29744E-1,-5.140393E-1,-2.0284073E-1,1.957152E-1,-6.193182E-1,-5.5722433E-1,1.4866315E-1,-7.7877814E-1,-1.05390705E-1,-3.6726363E-2,-5.5161413E-2,-5.8768403E-2,1.8512322E-2,-1.603053E-2,2.5768662E-2,-8.392747E-2,2.3648882E-2,2.0645428E-2,-6.320565E-2,4.7238626E-2,-2.5155827E-2,-7.173089E-2,-8.0281906E-2],"categories":[],"categories_nodes":[],"categories_segments":[],"categories_sizes":[],"default_left":[0,0,0,0,0,0,0,0,0,0,0,0,0,0,0,0,0,0,0,0,0,0,0,0,0,0,0,0,0],"id":30,"left_children":[1,3,5,7,9,11,13,15,17,19,21,23,25,27,-1,-1,-1,-1,-1,-1,-1,-1,-1,-1,-1,-1,-1,-1,-1],"loss_changes":[6.061679E2,5.7524835E2,2.5172516E2,1.1244019E1,5.8725854E2,3.2974146E2,9.529968E0,7.88797E0,1.936918E1,3.0263654E2,1.7808554E2,7.9051575E1,1.6479077E2,5.206299E-1,0E0,0E0,0E0,0E0,0E0,0E0,0E0,0E0,0E0,0E0,0E0,0E0,0E0,0E0,0E0],"parents":[2147483647,0,0,1,1,2,2,3,3,4,4,5,5,6,6,7,7,8,8,9,9,10,10,11,11,12,12,13,13],"right_children":[2,4,6,8,10,12,14,16,18,20,22,24,26,28,-1,-1,-1,-1,-1,-1,-1,-1,-1,-1,-1,-1,-1,-1,-1],"split_conditions":[7E0,4E0,2E1,3E0,2.3E1,1.3E1,2.3E1,2E0,2E0,2E0,6E0,1E0,1.7E1,2.1E1,-1.05390705E-1,-3.6726363E-2,-5.5161413E-2,-5.8768403E-2,1.8512322E-2,-1.603053E-2,2.5768662E-2,-8.392747E-2,2.3648882E-2,2.0645428E-2,-6.320565E-2,4.7238626E-2,-2.5155827E-2,-7.173089E-2,-8.0281906E-2],"split_indices":[0,1,1,1,1,1,1,0,0,0,0,1,1,1,0,0,0,0,0,0,0,0,0,0,0,0,0,0,0],"split_type":[0,0,0,0,0,0,0,0,0,0,0,0,0,0,0,0,0,0,0,0,0,0,0,0,0,0,0,0,0],"sum_hessian":[1.9807E4,1.6252E4,3.555E3,1.594E3,1.4658E4,2.65E3,9.05E2,1.466E3,1.28E2,1.3714E4,9.44E2,1.38E3,1.27E3,7.41E2,1.64E2,3.01E2,1.165E3,6.4E1,6.4E1,2.033E3,1.1681E4,7.51E2,1.93E2,1.23E2,1.257E3,7.02E2,5.68E2,2.17E2,5.24E2],"tree_param":{"num_deleted":"0","num_feature":"2","num_nodes":"29","size_leaf_vector":"1"}},{"base_weights":[-6.4130145E-4,7.301217E-2,-3.372806E-1,-3.5804036E-1,1.4269255E-1,-1.9711019E-1,-7.470537E-1,-6.148268E-2,-4.296232E-1,3.198751E-1,-8.968189E-2,-5.015327E-1,1.3381395E-1,-7.011052E-1,-9.4915524E-2,-3.6693234E-2,1.4103076E-1,-7.1527645E-2,-2.4148054E-2,1.3691719E-1,2.701432E-2,-5.1916588E-2,3.0121744E-2,1.859752E-2,-5.689011E-2,4.2521413E-2,-2.264464E-2,-6.459073E-2,-7.2269E-2],"categories":[],"categories_nodes":[],"categories_segments":[],"categories_sizes":[],"default_left":[0,0,0,0,0,0,0,0,0,0,0,0,0,0,0,0,0,0,0,0,0,0,0,0,0,0,0,0,0],"id":31,"left_children":[1,3,5,7,9,11,13,15,17,19,21,23,25,27,-1,-1,-1,-1,-1,-1,-1,-1,-1,-1,-1,-1,-1,-1,-1],"loss_changes":[4.9115714E2,4.8822473E2,2.0410245E2,4.799228E1,5.76117E2,2.6713086E2,7.7478943E0,1.9877248E2,9.774805E1,4.1391504E2,1.0165323E3,6.4068665E1,1.3352577E2,4.1726685E-1,0E0,0E0,0E0,0E0,0E0,0E0,0E0,0E0,0E0,0E0,0E0,0E0,0E0,0E0,0E0],"parents":[2147483647,0,0,1,1,2,2,3,3,4,4,5,5,6,6,7,7,8,8,9,9,10,10,11,11,12,12,13,13],"right_children":[2,4,6,8,10,12,14,16,18,20,22,24,26,28,-1,-1,-1,-1,-1,-1,-1,-1,-1,-1,-1,-1,-1,-1,-1],"split_conditions":[7E0,5E0,2E1,2E0,1.8E1,1.3E1,2.3E1,4E0,4E0,6E0,4E0,1E0,1.7E1,2.1E1,-9.4915524E-2,-3.6693234E-2,1.4103076E-1,-7.1527645E-2,-2.4148054E-2,1.3691719E-1,2.701432E-2,-5.1916588E-2,3.0121744E-2,1.859752E-2,-5.689011E-2,4.2521413E-2,-2.264464E-2,-6.459073E-2,-7.2269E-2],"split_indices":[0,1,1,0,1,1,1,1,0,1,0,1,1,1,0,0,0,0,0,0,0,0,0,0,0,0,0,0,0],"split_type":[0,0,0,0,0,0,0,0,0,0,0,0,0,0,0,0,0,0,0,0,0,0,0,0,0,0,0,0,0],"sum_hessian":[1.9807E4,1.6252E4,3.555E3,2.261E3,1.3991E4,2.65E3,9.05E2,4.4E2,1.821E3,7.938E3,6.053E3,1.38E3,1.27E3,7.41E2,1.64E2,3.65E2,7.5E1,7.22E2,1.099E3,3.58E2,7.58E3,2.884E3,3.169E3,1.23E2,1.257E3,7.02E2,5.68E2,2.17E2,5.24E2],"tree_param":{"num_deleted":"0","num_feature":"2","num_nodes":"29","size_leaf_vector":"1"}},{"base_weights":[-5.819665E-4,3.4985244E-2,-6.003171E-1,-2.2172192E-1,1.4730304E-1,-7.4495775E-1,-2.948141E-1,-7.901863E-2,-4.0169963E-1,4.0077984E-1,-6.0655784E-2,-6.296556E-1,-8.5617554E-1,1.8299501E-2,-8.548151E-2,-4.311915E-2,1.0675668E-2,-4.806992E-2,2.3116725E-2,6.6927366E-2,1.5595931E-2,-3.6238283E-2,1.4072088E-2,-7.629105E-2,-6.1980155E-3,-9.340414E-2,-7.7670604E-2],"categories":[],"categories_nodes":[],"categories_segments":[],"categories_sizes":[],"default_left":[0,0,0,0,0,0,0,0,0,0,0,0,0,0,0,0,0,0,0,0,0,0,0,0,0,0,0],"id":32,"left_children":[1,3,5,7,9,11,13,15,17,19,21,23,25,-1,-1,-1,-1,-1,-1,-1,-1,-1,-1,-1,-1,-1,-1],"loss_changes":[4.225436E2,5.3920575E2,4.8785034E1,1.4615826E2,6.857642E2,9.104309E0,9.594776E1,2.078359E2,1.2595151E2,3.8528693E2,4.3430832E2,2.8168503E1,1.6259155E0,0E0,0E0,0E0,0E0,0E0,0E0,0E0,0E0,0E0,0E0,0E0,0E0,0E0,0E0],"parents":[2147483647,0,0,1,1,2,2,3,3,4,4,5,5,6,6,7,7,8,8,9,9,10,10,11,11,12,12],"right_children":[2,4,6,8,10,12,14,16,18,20,22,24,26,-1,-1,-1,-1,-1,-1,-1,-1,-1,-1,-1,-1,-1,-1],"split_conditions":[2.3E1,1E1,6E0,5E0,1.7E1,4E0,7E0,4E0,9E0,5E0,4E0,3E0,5E0,1.8299501E-2,-8.548151E-2,-4.311915E-2,1.0675668E-2,-4.806992E-2,2.3116725E-2,6.6927366E-2,1.5595931E-2,-3.6238283E-2,1.4072088E-2,-7.629105E-2,-6.1980155E-3,-9.340414E-2,-7.7670604E-2],"split_indices":[1,1,0,0,1,0,0,1,1,0,0,0,0,0,0,0,0,0,0,0,0,0,0,0,0,0,0],"split_type":[0,0,0,0,0,0,0,0,0,0,0,0,0,0,0,0,0,0,0,0,0,0,0,0,0,0,0],"sum_hessian":[1.9807E4,1.8699E4,1.108E3,5.691E3,1.3008E4,7.51E2,3.57E2,3.175E3,2.516E3,5.862E3,7.146E3,3.72E2,3.79E2,1.93E2,1.64E2,1.096E3,2.079E3,2.237E3,2.79E2,2.795E3,3.067E3,2.86E3,4.286E3,3.01E2,7.1E1,1.86E2,1.93E2],"tree_param":{"num_deleted":"0","num_feature":"2","num_nodes":"27","size_leaf_vector":"1"}},{"base_weights":[-5.398687E-4,6.474148E-2,-2.9891366E-1,-2.8884065E-1,1.21898286E-1,-1.7244402E-1,-6.686401E-1,-2.1225128E-2,-3.5345623E-1,1.2375357E0,9.251323E-2,-4.281662E-1,1.0554561E-1,-6.452323E-1,-7.698518E-2,-2.873378E-2,1.260597E-1,-6.182733E-2,-1.7907789E-2,1.980205E-1,-8.1769586E-2,-3.0532865E-2,1.610527E-2,2.1520989E-2,-4.9124293E-2,3.6717992E-2,-2.1788927E-2,-5.95621E-2,-6.6460386E-2],"categories":[],"categories_nodes":[],"categories_segments":[],"categories_sizes":[],"default_left":[0,0,0,0,0,0,0,0,0,0,0,0,0,0,0,0,0,0,0,0,0,0,0,0,0,0,0,0,0],"id":33,"left_children":[1,3,5,7,9,11,13,15,17,19,21,23,25,27,-1,-1,-1,-1,-1,-1,-1,-1,-1,-1,-1,-1,-1,-1,-1],"loss_changes":[3.8584442E2,3.2850226E2,1.6616028E2,3.9107315E1,4.5858615E2,1.8849979E2,1.6497192E0,1.5079132E2,8.4026276E1,5.4958154E2,3.7181937E2,5.614952E1,1.07634125E2,3.1726074E-1,0E0,0E0,0E0,0E0,0E0,0E0,0E0,0E0,0E0,0E0,0E0,0E0,0E0,0E0,0E0],"parents":[2147483647,0,0,1,1,2,2,3,3,4,4,5,5,6,6,7,7,8,8,9,9,10,10,11,11,12,12,13,13],"right_children":[2,4,6,8,10,12,14,16,18,20,22,24,26,28,-1,-1,-1,-1,-1,-1,-1,-1,-1,-1,-1,-1,-1,-1,-1],"split_conditions":[7E0,5E0,2E1,2E0,6E0,1.3E1,2.3E1,4E0,4E0,5E0,2E0,1E0,1.7E1,2.1E1,-7.698518E-2,-2.873378E-2,1.260597E-1,-6.182733E-2,-1.7907789E-2,1.980205E-1,-8.1769586E-2,-3.0532865E-2,1.610527E-2,2.1520989E-2,-4.9124293E-2,3.6717992E-2,-2.1788927E-2,-5.95621E-2,-6.6460386E-2],"split_indices":[0,1,1,0,1,1,1,1,0,0,0,1,1,1,0,0,0,0,0,0,0,0,0,0,0,0,0,0,0],"split_type":[0,0,0,0,0,0,0,0,0,0,0,0,0,0,0,0,0,0,0,0,0,0,0,0,0,0,0,0,0],"sum_hessian":[1.9807E4,1.6252E4,3.555E3,2.261E3,1.3991E4,2.65E3,9.05E2,4.4E2,1.821E3,3.58E2,1.3633E4,1.38E3,1.27E3,7.41E2,1.64E2,3.65E2,7.5E1,7.22E2,1.099E3,2.63E2,9.5E1,2.003E3,1.163E4,1.23E2,1.257E3,7.02E2,5.68E2,2.17E2,5.24E2],"tree_param":{"num_deleted":"0","num_feature":"2","num_nodes":"29","size_leaf_vector":"1"}},{"base_weights":[-4.909558E-4,4.9067635E-2,-3.4919024E-1,-1.9250603E-1,1.6706198E-1,-5.819577E-1,-8.979505E-2,-7.332363E-2,-3.4281623E-1,3.518118E-1,-2.0013692E-2,-6.5872025E-1,-5.0453705E-1,2.1960108E-1,-6.385578E-1,6.613392E-3,-5.0767865E-2,-4.6980362E-2,-1.5765252E-3,5.9704628E-2,1.2820444E-2,-5.2885056E-2,5.394619E-3,-6.963425E-2,-6.1835136E-2,-4.1370444E-2,-6.412949E-2,7.589472E-2,-2.8407736E-2,-6.009061E-2,-6.933332E-2],"categories":[],"categories_nodes":[],"categories_segments":[],"categories_sizes":[],"default_left":[0,0,0,0,0,0,0,0,0,0,0,0,0,0,0,0,0,0,0,0,0,0,0,0,0,0,0,0,0,0,0],"id":34,"left_children":[1,3,5,7,9,11,13,15,17,19,21,23,25,27,29,-1,-1,-1,-1,-1,-1,-1,-1,-1,-1,-1,-1,-1,-1,-1,-1],"loss_changes":[3.4232007E2,4.9441125E2,1.4878143E2,1.0194322E2,4.0276035E2,7.3876038E0,1.982794E2,1.9241685E2,1.0452701E2,3.2142822E2,2.179642E2,5.5511475E-1,7.821457E0,2.0314339E2,4.516449E-1,0E0,0E0,0E0,0E0,0E0,0E0,0E0,0E0,0E0,0E0,0E0,0E0,0E0,0E0,0E0,0E0],"parents":[2147483647,0,0,1,1,2,2,3,3,4,4,5,5,6,6,7,7,8,8,9,9,10,10,11,11,12,12,13,13,14,14],"right_children":[2,4,6,8,10,12,14,16,18,20,22,24,26,28,30,-1,-1,-1,-1,-1,-1,-1,-1,-1,-1,-1,-1,-1,-1,-1,-1],"split_conditions":[2.2E1,1E1,5E0,5E0,1.7E1,3E0,7E0,8E0,8E0,5E0,2E0,2E0,2.3E1,2.3E1,2.3E1,6.613392E-3,-5.0767865E-2,-4.6980362E-2,-1.5765252E-3,5.9704628E-2,1.2820444E-2,-5.2885056E-2,5.394619E-3,-6.963425E-2,-6.1835136E-2,-4.1370444E-2,-6.412949E-2,7.589472E-2,-2.8407736E-2,-6.009061E-2,-6.933332E-2],"split_indices":[1,1,0,0,1,0,0,1,1,0,0,0,1,1,1,0,0,0,0,0,0,0,0,0,0,0,0,0,0,0,0],"split_type":[0,0,0,0,0,0,0,0,0,0,0,0,0,0,0,0,0,0,0,0,0,0,0,0,0,0,0,0,0,0,0],"sum_hessian":[1.9807E4,1.7343E4,2.464E3,5.691E3,1.1652E4,1.298E3,1.166E3,3.175E3,2.516E3,5.862E3,5.79E3,6.48E2,6.5E2,7.46E2,4.2E2,2.404E3,7.71E2,1.812E3,7.04E2,2.795E3,3.067E3,7.34E2,5.056E3,3.27E2,3.21E2,3.93E2,2.57E2,3.6E2,3.86E2,2.56E2,1.64E2],"tree_param":{"num_deleted":"0","num_feature":"2","num_nodes":"31","size_leaf_vector":"1"}},{"base_weights":[-4.613529E-4,5.5802595E-2,-2.5762036E-1,8.768144E-2,-4.6069378E-1,-1.489337E-1,-5.7535857E-1,-1.384471E-1,1.8842858E-1,-6.246001E-1,1.7702922E-2,-3.6459586E-1,8.551037E-2,-5.636732E-2,-6.2442012E-2,-3.322349E-2,-5.1012374E-3,3.7940763E-2,3.2878264E-3,-5.0408352E-2,-7.41253E-2,2.4046386E-2,-4.2394627E-2,3.177108E-2,-2.0152373E-2],"categories":[],"categories_nodes":[],"categories_segments":[],"categories_sizes":[],"default_left":[0,0,0,0,0,0,0,0,0,0,0,0,0,0,0,0,0,0,0,0,0,0,0,0,0],"id":35,"left_children":[1,3,5,7,9,11,13,15,17,19,-1,21,23,-1,-1,-1,-1,-1,-1,-1,-1,-1,-1,-1,-1],"loss_changes":[2.8661203E2,2.676511E2,1.227169E2,3.4879272E2,9.888841E1,1.3406763E2,1.6744995E-1,7.994079E1,3.1461276E2,1.0198425E1,0E0,4.9694412E1,8.477547E1,0E0,0E0,0E0,0E0,0E0,0E0,0E0,0E0,0E0,0E0,0E0,0E0],"parents":[2147483647,0,0,1,1,2,2,3,3,4,4,5,5,6,6,7,7,8,8,9,9,11,11,12,12],"right_children":[2,4,6,8,10,12,14,16,18,20,-1,22,24,-1,-1,-1,-1,-1,-1,-1,-1,-1,-1,-1,-1],"split_conditions":[7E0,2.3E1,2E1,1E1,6E0,1.3E1,2.3E1,3E0,1.7E1,4E0,1.7702922E-2,1E0,1.7E1,-5.636732E-2,-6.2442012E-2,-3.322349E-2,-5.1012374E-3,3.7940763E-2,3.2878264E-3,-5.0408352E-2,-7.41253E-2,2.4046386E-2,-4.2394627E-2,3.177108E-2,-2.0152373E-2],"split_indices":[0,1,1,1,0,1,1,1,1,0,0,1,1,0,0,0,0,0,0,0,0,0,0,0,0],"split_type":[0,0,0,0,0,0,0,0,0,0,0,0,0,0,0,0,0,0,0,0,0,0,0,0,0],"sum_hessian":[1.9807E4,1.6252E4,3.555E3,1.5308E4,9.44E2,2.65E3,9.05E2,4.718E3,1.059E4,7.51E2,1.93E2,1.38E3,1.27E3,7.41E2,1.64E2,1.466E3,3.252E3,4.753E3,5.837E3,3.72E2,3.79E2,1.23E2,1.257E3,7.02E2,5.68E2],"tree_param":{"num_deleted":"0","num_feature":"2","num_nodes":"25","size_leaf_vector":"1"}},{"base_weights":[-4.2684926E-4,6.358564E-2,-1.8548585E-1,-1.5598863E-1,2.0203176E-1,-4.8952043E-1,1.4975683E-1,-5.1952884E-2,-2.87201E-1,3.65361E-1,-6.774865E-2,-5.770204E-1,-4.6130794E-1,5.48436E-1,-5.17954E-1,7.6444796E-3,-4.5188095E-2,-3.5322934E-2,2.4157979E-2,-1.8919005E-4,4.9643457E-2,7.90432E-3,-6.038875E-2,-4.4561308E-2,-6.048879E-2,-4.9700256E-2,-4.3927014E-2,8.1349276E-2,-2.2760449E-2,-5.0738204E-2,-5.623565E-2],"categories":[],"categories_nodes":[],"categories_segments":[],"categories_sizes":[],"default_left":[0,0,0,0,0,0,0,0,0,0,0,0,0,0,0,0,0,0,0,0,0,0,0,0,0,0,0,0,0,0,0],"id":36,"left_children":[1,3,5,7,9,11,13,15,17,19,21,23,25,27,29,-1,-1,-1,-1,-1,-1,-1,-1,-1,-1,-1,-1,-1,-1,-1,-1],"loss_changes":[2.3465909E2,4.4744702E2,5.1897534E2,7.76853E1,3.9778168E2,6.324951E0,6.450262E2,1.6312163E2,8.796518E1,2.7067615E2,2.6802402E2,2.0997467E0,1.3738098E0,3.1222415E2,1.3993835E-1,0E0,0E0,0E0,0E0,0E0,0E0,0E0,0E0,0E0,0E0,0E0,0E0,0E0,0E0,0E0,0E0],"parents":[2147483647,0,0,1,1,2,2,3,3,4,4,5,5,6,6,7,7,8,8,9,9,10,10,11,11,12,12,13,13,14,14],"right_children":[2,4,6,8,10,12,14,16,18,20,22,24,26,28,30,-1,-1,-1,-1,-1,-1,-1,-1,-1,-1,-1,-1,-1,-1,-1,-1],"split_conditions":[2E1,1E1,5E0,5E0,6E0,2E0,7E0,8E0,9E0,1.3E1,1.8E1,2.1E1,3E0,2.3E1,2.3E1,7.6444796E-3,-4.5188095E-2,-3.5322934E-2,2.4157979E-2,-1.8919005E-4,4.9643457E-2,7.90432E-3,-6.038875E-2,-4.4561308E-2,-6.048879E-2,-4.9700256E-2,-4.3927014E-2,8.1349276E-2,-2.2760449E-2,-5.0738204E-2,-5.623565E-2],"split_indices":[1,1,0,0,0,0,0,1,1,1,1,1,0,1,1,0,0,0,0,0,0,0,0,0,0,0,0,0,0,0,0],"split_type":[0,0,0,0,0,0,0,0,0,0,0,0,0,0,0,0,0,0,0,0,0,0,0,0,0,0,0,0,0,0,0],"sum_hessian":[1.9807E4,1.4717E4,5.09E3,5.691E3,9.026E3,2.669E3,2.421E3,3.175E3,2.516E3,5.622E3,3.404E3,6.46E2,2.023E3,1.516E3,9.05E2,2.404E3,7.71E2,2.237E3,2.79E2,1.479E3,4.143E3,2.673E3,7.31E2,1.16E2,5.3E2,7.64E2,1.259E3,1.13E3,3.86E2,7.41E2,1.64E2],"tree_param":{"num_deleted":"0","num_feature":"2","num_nodes":"31","size_leaf_vector":"1"}},{"base_weights":[-3.9908284E-4,3.6705032E-2,-2.6146737E-1,-1.4039828E-1,1.23209395E-1,-4.1468728E-1,5.4421607E-2,-4.6769276E-2,-2.584854E-1,2.640208E-1,-1.9374011E-2,-3.2718313E-1,-5.199088E-1,6.19328E-1,-4.6365038E-1,-3.3035126E-2,1.0281545E-2,-3.652308E-2,1.6390969E-3,1.5630024E-2,7.106544E-2,-2.3871852E-2,1.2604253E-2,-5.541089E-2,2.5245796E-3,-4.0201608E-2,-6.342616E-2,1.0556523E-1,1.8206043E-2,-4.3436043E-2,-5.0646167E-2],"categories":[],"categories_nodes":[],"categories_segments":[],"categories_sizes":[],"default_left":[0,0,0,0,0,0,0,0,0,0,0,0,0,0,0,0,0,0,0,0,0,0,0,0,0,0,0,0,0,0,0],"id":37,"left_children":[1,3,5,7,9,11,13,15,17,19,21,23,25,27,29,-1,-1,-1,-1,-1,-1,-1,-1,-1,-1,-1,-1,-1,-1,-1,-1],"loss_changes":[1.9188391E2,2.6573102E2,1.1932974E2,6.2920822E1,2.3396672E2,1.5114044E1,2.3617288E2,1.347584E2,7.385925E1,2.8196738E2,1.8474168E2,7.271145E1,9.882996E0,7.345293E1,3.0791473E-1,0E0,0E0,0E0,0E0,0E0,0E0,0E0,0E0,0E0,0E0,0E0,0E0,0E0,0E0,0E0,0E0],"parents":[2147483647,0,0,1,1,2,2,3,3,4,4,5,5,6,6,7,7,8,8,9,9,10,10,11,11,12,12,13,13,14,14],"right_children":[2,4,6,8,10,12,14,16,18,20,22,24,26,28,30,-1,-1,-1,-1,-1,-1,-1,-1,-1,-1,-1,-1,-1,-1,-1,-1],"split_conditions":[2.2E1,1E1,6E0,5E0,1.7E1,2.3E1,7E0,4E0,8E0,1.6E1,4E0,4E0,4E0,2.3E1,2.3E1,-3.3035126E-2,1.0281545E-2,-3.652308E-2,1.6390969E-3,1.5630024E-2,7.106544E-2,-2.3871852E-2,1.2604253E-2,-5.541089E-2,2.5245796E-3,-4.0201608E-2,-6.342616E-2,1.0556523E-1,1.8206043E-2,-4.3436043E-2,-5.0646167E-2],"split_indices":[1,1,0,0,1,1,0,1,1,1,0,0,0,1,1,0,0,0,0,0,0,0,0,0,0,0,0,0,0,0,0],"split_type":[0,0,0,0,0,0,0,0,0,0,0,0,0,0,0,0,0,0,0,0,0,0,0,0,0,0,0,0,0,0,0],"sum_hessian":[1.9807E4,1.7343E4,2.464E3,5.691E3,1.1652E4,1.659E3,8.05E2,3.175E3,2.516E3,5.862E3,5.79E3,9.08E2,7.51E2,3.85E2,4.2E2,1.096E3,2.079E3,1.812E3,7.04E2,4.724E3,1.138E3,2.308E3,3.482E3,5.52E2,3.56E2,3.72E2,3.79E2,1.92E2,1.93E2,2.56E2,1.64E2],"tree_param":{"num_deleted":"0","num_feature":"2","num_nodes":"31","size_leaf_vector":"1"}},{"base_weights":[-3.648142E-4,4.474081E-2,-2.065238E-1,-1.9624174E-1,8.369577E-2,-1.2269496E-1,-4.515831E-1,-3.2227927E-1,-6.2807284E-2,1.1326615E0,5.6069072E-2,-2.966897E-1,6.6454835E-2,-4.8017094E-1,-4.175088E-1,1.6770294E-3,-5.2863967E-2,-1.9727131E-2,1.7207457E-2,1.763572E-1,-6.14141E-2,-7.458536E-2,8.186477E-3,2.8787801E-2,-3.540742E-2,4.0402215E-2,-5.874949E-3,-4.4763565E-2,-5.047528E-2,-3.910933E-2,-4.561226E-2],"categories":[],"categories_nodes":[],"categories_segments":[],"categories_sizes":[],"default_left":[0,0,0,0,0,0,0,0,0,0,0,0,0,0,0,0,0,0,0,0,0,0,0,0,0,0,0,0,0,0,0],"id":38,"left_children":[1,3,5,7,9,11,13,15,17,19,21,23,25,27,29,-1,-1,-1,-1,-1,-1,-1,-1,-1,-1,-1,-1,-1,-1,-1,-1],"loss_changes":[1.8420245E2,1.525909E2,7.2995605E1,3.8021515E1,4.0541705E2,8.726694E1,6.820679E-1,8.13798E1,3.4775417E1,3.9672836E2,2.82096E2,4.6427765E1,5.3742405E1,1.6274261E-1,2.510376E-1,0E0,0E0,0E0,0E0,0E0,0E0,0E0,0E0,0E0,0E0,0E0,0E0,0E0,0E0,0E0,0E0],"parents":[2147483647,0,0,1,1,2,2,3,3,4,4,5,5,6,6,7,7,8,8,9,9,10,10,11,11,12,12,13,13,14,14],"right_children":[2,4,6,8,10,12,14,16,18,20,22,24,26,28,30,-1,-1,-1,-1,-1,-1,-1,-1,-1,-1,-1,-1,-1,-1,-1,-1],"split_conditions":[7E0,5E0,2E1,4E0,6E0,1.3E1,2.2E1,2E0,3E0,5E0,7E0,1E0,1.5E1,2.1E1,2.3E1,1.6770294E-3,-5.2863967E-2,-1.9727131E-2,1.7207457E-2,1.763572E-1,-6.14141E-2,-7.458536E-2,8.186477E-3,2.8787801E-2,-3.540742E-2,4.0402215E-2,-5.874949E-3,-4.4763565E-2,-5.047528E-2,-3.910933E-2,-4.561226E-2],"split_indices":[0,1,1,0,1,1,1,0,1,0,1,1,1,1,1,0,0,0,0,0,0,0,0,0,0,0,0,0,0,0,0],"split_type":[0,0,0,0,0,0,0,0,0,0,0,0,0,0,0,0,0,0,0,0,0,0,0,0,0,0,0,0,0,0,0],"sum_hessian":[1.9807E4,1.6252E4,3.555E3,2.261E3,1.3991E4,2.65E3,9.05E2,1.162E3,1.099E3,3.58E2,1.3633E4,1.38E3,1.27E3,4.85E2,4.2E2,4.4E2,7.22E2,6.99E2,4E2,2.63E2,9.5E1,4.24E2,1.3209E4,1.23E2,1.257E3,3.43E2,9.27E2,2.17E2,2.68E2,2.56E2,1.64E2],"tree_param":{"num_deleted":"0","num_feature":"2","num_nodes":"31","size_leaf_vector":"1"}},{"base_weights":[-3.3619086E-4,5.196635E-2,-1.5154195E-1,1.5755506E-1,-1.4007272E-1,-4.1867268E-1,1.4300415E-1,-4.9004607E-2,4.2438975E-1,-5.1832485E-1,-2.6722215E-2,-4.9058297E-1,-3.954787E-1,4.7116473E-1,-4.0662348E-1,9.313739E-5,-6.0258593E-2,5.1138848E-2,1.1341234E-3,-1.4155142E-2,-1.4522268E-1,9.146155E-3,-5.5754393E-2,-4.6549227E-2,-6.0142506E-2,-4.221667E-2,-3.7896138E-2,6.9715895E-2,-1.9051636E-2,-4.3234985E-2,-3.7595924E-2],"categories":[],"categories_nodes":[],"categories_segments":[],"categories_sizes":[],"default_left":[0,0,0,0,0,0,0,0,0,0,0,0,0,0,0,0,0,0,0,0,0,0,0,0,0,0,0,0,0,0,0],"id":39,"left_children":[1,3,5,7,9,11,13,15,17,19,21,23,25,27,29,-1,-1,-1,-1,-1,-1,-1,-1,-1,-1,-1,-1,-1,-1,-1,-1],"loss_changes":[1.5665836E2,2.984613E2,4.006316E2,5.2346967E2,2.2387976E2,4.259186E0,4.3703833E2,1.4800453E2,1.489076E2,4.2344522E2,2.5218097E2,1.5194092E0,7.3223877E-1,2.2697913E2,5.5218506E-1,0E0,0E0,0E0,0E0,0E0,0E0,0E0,0E0,0E0,0E0,0E0,0E0,0E0,0E0,0E0,0E0],"parents":[2147483647,0,0,1,1,2,2,3,3,4,4,5,5,6,6,7,7,8,8,9,9,10,10,11,11,12,12,13,13,14,14],"right_children":[2,4,6,8,10,12,14,16,18,20,22,24,26,28,30,-1,-1,-1,-1,-1,-1,-1,-1,-1,-1,-1,-1,-1,-1,-1,-1],"split_conditions":[2E1,6E0,5E0,1.3E1,7E0,2E0,7E0,1.2E1,1.9E1,5E0,1.8E1,2.3E1,3E0,2.3E1,2.2E1,9.313739E-5,-6.0258593E-2,5.1138848E-2,1.1341234E-3,-1.4155142E-2,-1.4522268E-1,9.146155E-3,-5.5754393E-2,-4.6549227E-2,-6.0142506E-2,-4.221667E-2,-3.7896138E-2,6.9715895E-2,-1.9051636E-2,-4.3234985E-2,-3.7595924E-2],"split_indices":[1,0,0,1,1,0,0,1,1,1,1,1,0,1,1,0,0,0,0,0,0,0,0,0,0,0,0,0,0,0,0],"split_type":[0,0,0,0,0,0,0,0,0,0,0,0,0,0,0,0,0,0,0,0,0,0,0,0,0,0,0,0,0,0,0],"sum_hessian":[1.9807E4,1.4717E4,5.09E3,9.496E3,5.221E3,2.669E3,2.421E3,5.353E3,4.143E3,1.203E3,4.018E3,6.46E2,2.023E3,1.516E3,9.05E2,4.911E3,4.42E2,3.422E3,7.21E2,8.58E2,3.45E2,3.287E3,7.31E2,5.31E2,1.15E2,7.64E2,1.259E3,1.13E3,3.86E2,4.85E2,4.2E2],"tree_param":{"num_deleted":"0","num_feature":"2","num_nodes":"31","size_leaf_vector":"1"}},{"base_weights":[-3.2414493E-4,2.9981347E-2,-2.1355665E-1,-1.08004645E-1,9.7379126E-2,-3.5322097E-1,7.435445E-2,-4.10353E-2,-1.9246498E-1,6.8762046E-1,6.493829E-2,-2.8207463E-1,-4.387513E-1,5.2439964E-1,-3.384527E-1,8.232575E-3,-4.2528696E-2,-2.4377149E-2,2.183079E-2,1.2388346E-1,2.3636948E-2,-1.7406678E-2,1.0866832E-2,-4.647701E-2,1.7143431E-4,-3.2327894E-2,-5.5094194E-2,8.731361E-2,1.7475778E-2,-3.1468682E-2,-3.7341863E-2],"categories":[],"categories_nodes":[],"categories_segments":[],"categories_sizes":[],"default_left":[0,0,0,0,0,0,0,0,0,0,0,0,0,0,0,0,0,0,0,0,0,0,0,0,0,0,0,0,0,0,0],"id":40,"left_children":[1,3,5,7,9,11,13,15,17,19,21,23,25,27,29,-1,-1,-1,-1,-1,-1,-1,-1,-1,-1,-1,-1,-1,-1,-1,-1],"loss_changes":[1.28008E2,1.6130884E2,9.9146164E1,3.2187492E1,2.2308603E2,9.977615E0,1.4991768E2,1.5058276E2,5.3099785E1,1.5068988E2,1.1547881E2,4.7129684E1,9.563995E0,4.6913498E1,2.3234177E-1,0E0,0E0,0E0,0E0,0E0,0E0,0E0,0E0,0E0,0E0,0E0,0E0,0E0,0E0,0E0,0E0],"parents":[2147483647,0,0,1,1,2,2,3,3,4,4,5,5,6,6,7,7,8,8,9,9,10,10,11,11,12,12,13,13,14,14],"right_children":[2,4,6,8,10,12,14,16,18,20,22,24,26,28,30,-1,-1,-1,-1,-1,-1,-1,-1,-1,-1,-1,-1,-1,-1,-1,-1],"split_conditions":[2.2E1,1E1,6E0,5E0,1.1E1,2.3E1,7E0,8E0,9E0,5E0,1.3E1,4E0,4E0,2.3E1,2.3E1,8.232575E-3,-4.2528696E-2,-2.4377149E-2,2.183079E-2,1.2388346E-1,2.3636948E-2,-1.7406678E-2,1.0866832E-2,-4.647701E-2,1.7143431E-4,-3.2327894E-2,-5.5094194E-2,8.731361E-2,1.7475778E-2,-3.1468682E-2,-3.7341863E-2],"split_indices":[1,1,0,0,1,1,0,1,1,0,1,0,0,1,1,0,0,0,0,0,0,0,0,0,0,0,0,0,0,0,0],"split_type":[0,0,0,0,0,0,0,0,0,0,0,0,0,0,0,0,0,0,0,0,0,0,0,0,0,0,0,0,0,0,0],"sum_hessian":[1.9807E4,1.7343E4,2.464E3,5.691E3,1.1652E4,1.659E3,8.05E2,3.175E3,2.516E3,6.06E2,1.1046E4,9.08E2,7.51E2,3.85E2,4.2E2,2.404E3,7.71E2,2.237E3,2.79E2,2.72E2,3.34E2,1.708E3,9.338E3,5.52E2,3.56E2,3.72E2,3.79E2,1.92E2,1.93E2,2.56E2,1.64E2],"tree_param":{"num_deleted":"0","num_feature":"2","num_nodes":"31","size_leaf_vector":"1"}},{"base_weights":[-2.9130178E-4,4.5168504E-2,-1.3171482E-1,1.3825127E-1,-1.241253E-1,-3.6451676E-1,1.2497919E-1,-4.2000003E-2,3.711005E-1,-4.4226786E-1,-2.878622E-2,-4.260727E-1,-3.4465945E-1,4.12282E-1,-3.5621652E-1,9.4342735E-3,-2.0499034E-2,4.494025E-2,-6.431821E-5,-1.0306402E-2,-1.2831171E-1,2.3511527E-2,-2.3222182E-2,-4.07026E-2,-5.0975174E-2,-3.771933E-2,-3.0905986E-2,6.052586E-2,-1.5275379E-2,-4.0004876E-2,-3.0477075E-2],"categories":[],"categories_nodes":[],"categories_segments":[],"categories_sizes":[],"default_left":[0,0,0,0,0,0,0,0,0,0,0,0,0,0,0,0,0,0,0,0,0,0,0,0,0,0,0,0,0,0,0],"id":41,"left_children":[1,3,5,7,9,11,13,15,17,19,21,23,25,27,29,-1,-1,-1,-1,-1,-1,-1,-1,-1,-1,-1,-1,-1,-1,-1,-1],"loss_changes":[1.183486E2,2.3194835E2,3.042779E2,3.9861768E2,1.5837796E2,3.1168213E0,3.3498563E2,1.18998856E2,1.20625E2,3.4327176E2,2.1582246E2,8.237076E-1,2.2276154E0,1.6550415E2,1.9210968E0,0E0,0E0,0E0,0E0,0E0,0E0,0E0,0E0,0E0,0E0,0E0,0E0,0E0,0E0,0E0,0E0],"parents":[2147483647,0,0,1,1,2,2,3,3,4,4,5,5,6,6,7,7,8,8,9,9,10,10,11,11,12,12,13,13,14,14],"right_children":[2,4,6,8,10,12,14,16,18,20,22,24,26,28,30,-1,-1,-1,-1,-1,-1,-1,-1,-1,-1,-1,-1,-1,-1,-1,-1],"split_conditions":[2E1,6E0,5E0,1.3E1,7E0,2E0,7E0,8E0,1.9E1,5E0,1.4E1,2.3E1,2.2E1,2.3E1,2.2E1,9.4342735E-3,-2.0499034E-2,4.494025E-2,-6.431821E-5,-1.0306402E-2,-1.2831171E-1,2.3511527E-2,-2.3222182E-2,-4.07026E-2,-5.0975174E-2,-3.771933E-2,-3.0905986E-2,6.052586E-2,-1.5275379E-2,-4.0004876E-2,-3.0477075E-2],"split_indices":[1,0,0,1,1,0,0,1,1,1,1,1,1,1,1,0,0,0,0,0,0,0,0,0,0,0,0,0,0,0,0],"split_type":[0,0,0,0,0,0,0,0,0,0,0,0,0,0,0,0,0,0,0,0,0,0,0,0,0,0,0,0,0,0,0],"sum_hessian":[1.9807E4,1.4717E4,5.09E3,9.496E3,5.221E3,2.669E3,2.421E3,5.353E3,4.143E3,1.203E3,4.018E3,6.46E2,2.023E3,1.516E3,9.05E2,2.915E3,2.438E3,3.422E3,7.21E2,8.58E2,3.45E2,1.749E3,2.269E3,5.31E2,1.15E2,1.052E3,9.71E2,1.13E3,3.86E2,4.85E2,4.2E2],"tree_param":{"num_deleted":"0","num_feature":"2","num_nodes":"31","size_leaf_vector":"1"}},{"base_weights":[-2.7706684E-4,4.064419E-2,-1.1857972E-1,1.2442927E-1,-1.1173947E-1,-3.2812488E-1,1.1247072E-1,-3.7802335E-2,3.340006E-1,-3.981562E-1,-2.59078E-2,-3.577562E-1,-2.9468212E-1,3.7108347E-1,-3.2067278E-1,4.3085418E-4,-5.046439E-2,4.044747E-2,-5.7941263E-5,-9.276966E-3,-1.15517616E-1,7.731467E-3,-4.8952743E-2,5.537746E-3,-4.7996413E-2,-7.6987684E-2,-1.341237E-2,5.039085E-3,6.8377666E-2,-3.6012635E-2,-2.7436612E-2],"categories":[],"categories_nodes":[],"categories_segments":[],"categories_sizes":[],"default_left":[0,0,0,0,0,0,0,0,0,0,0,0,0,0,0,0,0,0,0,0,0,0,0,0,0,0,0,0,0,0,0],"id":42,"left_children":[1,3,5,7,9,11,13,15,17,19,21,23,25,27,29,-1,-1,-1,-1,-1,-1,-1,-1,-1,-1,-1,-1,-1,-1,-1,-1],"loss_changes":[9.589721E1,1.8792561E2,2.4652023E2,3.2290198E2,1.2836539E2,2.5404053E0,2.7142282E2,1.05257034E2,9.7712494E1,2.7823798E2,1.9237094E2,7.126544E1,9.603035E1,1.5208788E2,1.5564194E0,0E0,0E0,0E0,0E0,0E0,0E0,0E0,0E0,0E0,0E0,0E0,0E0,0E0,0E0,0E0,0E0],"parents":[2147483647,0,0,1,1,2,2,3,3,4,4,5,5,6,6,7,7,8,8,9,9,10,10,11,11,12,12,13,13,14,14],"right_children":[2,4,6,8,10,12,14,16,18,20,22,24,26,28,30,-1,-1,-1,-1,-1,-1,-1,-1,-1,-1,-1,-1,-1,-1,-1,-1],"split_conditions":[2E1,6E0,5E0,1.3E1,7E0,3E0,7E0,1.2E1,1.9E1,5E0,1.8E1,2.1E1,2.1E1,6E0,2.2E1,4.3085418E-4,-5.046439E-2,4.044747E-2,-5.7941263E-5,-9.276966E-3,-1.15517616E-1,7.731467E-3,-4.8952743E-2,5.537746E-3,-4.7996413E-2,-7.6987684E-2,-1.341237E-2,5.039085E-3,6.8377666E-2,-3.6012635E-2,-2.7436612E-2],"split_indices":[1,0,0,1,1,0,0,1,1,1,1,1,1,0,1,0,0,0,0,0,0,0,0,0,0,0,0,0,0,0,0],"split_type":[0,0,0,0,0,0,0,0,0,0,0,0,0,0,0,0,0,0,0,0,0,0,0,0,0,0,0,0,0,0,0],"sum_hessian":[1.9807E4,1.4717E4,5.09E3,9.496E3,5.221E3,2.669E3,2.421E3,5.353E3,4.143E3,1.203E3,4.018E3,1.41E3,1.259E3,1.516E3,9.05E2,4.911E3,4.42E2,3.422E3,7.21E2,8.58E2,3.45E2,3.287E3,7.31E2,3.22E2,1.088E3,3.17E2,9.42E2,7.49E2,7.67E2,4.85E2,4.2E2],"tree_param":{"num_deleted":"0","num_feature":"2","num_nodes":"31","size_leaf_vector":"1"}},{"base_weights":[-2.6454206E-4,-1.7706962E-1,2.5435846E-2,7.4190744E-3,-4.2931536E-1,-1.9202527E-1,5.9289847E-2,-2.757094E-1,1.082909E0,-7.685303E-1,-3.233826E-1,-4.9401465E-1,-5.6123313E-2,1.07934654E-1,-1.3095187E-1,-8.772749E-3,-1.2631592E-1,1.446163E-1,6.7711376E-2,-3.2712657E-2,-1.3540398E-1,-2.355472E-2,-3.4528285E-2,-2.6556585E-2,-7.637619E-2,-1.5389422E-2,3.7320256E-3,1.06330656E-1,8.418688E-3,-1.2868018E-1,-1.0414496E-2],"categories":[],"categories_nodes":[],"categories_segments":[],"categories_sizes":[],"default_left":[0,0,0,0,0,0,0,0,0,0,0,0,0,0,0,0,0,0,0,0,0,0,0,0,0,0,0,0,0,0,0],"id":43,"left_children":[1,3,5,7,9,11,13,15,17,19,21,23,25,27,29,-1,-1,-1,-1,-1,-1,-1,-1,-1,-1,-1,-1,-1,-1,-1,-1],"loss_changes":[9.0011246E1,1.1699591E2,1.2733592E2,4.4273972E2,3.791336E1,9.559769E1,1.3851355E2,2.1354091E2,4.3685028E1,6.468547E1,1.478714E0,4.435092E1,1.4696533E1,2.703283E2,9.430754E1,0E0,0E0,0E0,0E0,0E0,0E0,0E0,0E0,0E0,0E0,0E0,0E0,0E0,0E0,0E0,0E0],"parents":[2147483647,0,0,1,1,2,2,3,3,4,4,5,5,6,6,7,7,8,8,9,9,10,10,11,11,12,12,13,13,14,14],"right_children":[2,4,6,8,10,12,14,16,18,20,22,24,26,28,30,-1,-1,-1,-1,-1,-1,-1,-1,-1,-1,-1,-1,-1,-1,-1,-1],"split_conditions":[2E0,1.7E1,5E0,1.4E1,1.9E1,4E0,7E0,1.2E1,1.6E1,1.8E1,2E1,2E0,2E0,6E0,6E0,-8.772749E-3,-1.2631592E-1,1.446163E-1,6.7711376E-2,-3.2712657E-2,-1.3540398E-1,-2.355472E-2,-3.4528285E-2,-2.6556585E-2,-7.637619E-2,-1.5389422E-2,3.7320256E-3,1.06330656E-1,8.418688E-3,-1.2868018E-1,-1.0414496E-2],"split_indices":[0,1,1,1,1,0,0,1,1,1,1,1,1,1,1,0,0,0,0,0,0,0,0,0,0,0,0,0,0,0,0],"split_type":[0,0,0,0,0,0,0,0,0,0,0,0,0,0,0,0,0,0,0,0,0,0,0,0,0,0,0,0,0,0,0],"sum_hessian":[1.9807E4,2.513E3,1.7294E4,1.452E3,1.061E3,2.329E3,1.4965E4,1.15E3,3.02E2,2.51E2,8.1E2,7.22E2,1.607E3,1.1918E4,3.047E3,9.67E2,1.83E2,1.58E2,1.44E2,1.44E2,1.07E2,1.64E2,6.46E2,3.92E2,3.3E2,7.85E2,8.22E2,2.88E2,1.163E4,6.8E1,2.979E3],"tree_param":{"num_deleted":"0","num_feature":"2","num_nodes":"31","size_leaf_vector":"1"}},{"base_weights":[-2.5287492E-4,1.4952608E-2,-2.566481E-1,-1.445046E-1,4.267727E-2,-3.4440827E-1,-7.15858E-2,-2.743288E-1,-5.051827E-2,6.364585E-1,2.6322072E-2,-2.0789742E-1,-4.774981E-2,9.616742E-3,-2.6838904E-2,5.700415E-4,-4.4475555E-2,-1.3852435E-2,3.3592668E-3,1.4943528E-1,-7.48423E-2,-2.3009881E-2,6.189178E-3,-3.093994E-2,2.2073446E-2],"categories":[],"categories_nodes":[],"categories_segments":[],"categories_sizes":[],"default_left":[0,0,0,0,0,0,0,0,0,0,0,0,0,0,0,0,0,0,0,0,0,0,0,0,0],"id":44,"left_children":[1,3,5,7,9,11,13,15,17,19,21,23,-1,-1,-1,-1,-1,-1,-1,-1,-1,-1,-1,-1,-1],"loss_changes":[7.722756E1,8.267694E1,1.7986725E1,3.3784843E1,1.5469568E2,1.3563225E1,1.1844958E1,5.5506104E1,1.1907512E1,5.0842938E2,1.4143251E2,1.6296402E1,0E0,0E0,0E0,0E0,0E0,0E0,0E0,0E0,0E0,0E0,0E0,0E0,0E0],"parents":[2147483647,0,0,1,1,2,2,3,3,4,4,5,5,6,6,7,7,8,8,9,9,10,10,11,11],"right_children":[2,4,6,8,10,12,14,16,18,20,22,24,-1,-1,-1,-1,-1,-1,-1,-1,-1,-1,-1,-1,-1],"split_conditions":[2.3E1,5E0,6E0,4E0,6E0,4E0,7E0,2E0,2E0,5E0,2E0,3E0,-4.774981E-2,9.616742E-3,-2.6838904E-2,5.700415E-4,-4.4475555E-2,-1.3852435E-2,3.3592668E-3,1.4943528E-1,-7.48423E-2,-2.3009881E-2,6.189178E-3,-3.093994E-2,2.2073446E-2],"split_indices":[1,1,0,0,1,0,0,0,1,0,0,0,0,0,0,0,0,0,0,0,0,0,0,0,0],"split_type":[0,0,0,0,0,0,0,0,0,0,0,0,0,0,0,0,0,0,0,0,0,0,0,0,0],"sum_hessian":[1.9807E4,1.8699E4,1.108E3,2.769E3,1.593E4,7.51E2,3.57E2,1.162E3,1.607E3,4.26E2,1.5504E4,3.72E2,3.79E2,1.93E2,1.64E2,4.4E2,7.22E2,7.85E2,8.22E2,2.63E2,1.63E2,1.888E3,1.3616E4,3.01E2,7.1E1],"tree_param":{"num_deleted":"0","num_feature":"2","num_nodes":"25","size_leaf_vector":"1"}},{"base_weights":[-2.3121983E-4,3.5173263E-2,-1.0258497E-1,1.1004121E-1,-1.009922E-1,-2.8624588E-1,9.992419E-2,-3.139195E-2,2.9274467E-1,-4.471608E-2,-4.4612208E-1,-3.154837E-1,-2.5514466E-1,3.258511E-1,-2.7847654E-1,8.9823995E-3,-1.7630147E-2,3.5466272E-2,-1.2141186E-4,-3.3165295E-2,7.241135E-3,-8.8570766E-2,3.8826359E-3,-2.8784683E-2,-4.383664E-2,-2.7609712E-2,-2.0278148E-2,4.9301084E-2,-1.6351199E-2,-3.199717E-2,-2.2991328E-2],"categories":[],"categories_nodes":[],"categories_segments":[],"categories_sizes":[],"default_left":[0,0,0,0,0,0,0,0,0,0,0,0,0,0,0,0,0,0,0,0,0,0,0,0,0,0,0,0,0,0,0],"id":45,"left_children":[1,3,5,7,9,11,13,15,17,19,21,23,25,27,29,-1,-1,-1,-1,-1,-1,-1,-1,-1,-1,-1,-1,-1,-1,-1,-1],"loss_changes":[7.178348E1,1.5005272E2,1.8937823E2,2.4541476E2,1.0140471E2,2.3474426E0,2.0714972E2,9.406068E1,7.542685E1,1.5095833E2,1.5607948E2,4.533249E0,1.369194E0,1.2417398E2,1.7521515E0,0E0,0E0,0E0,0E0,0E0,0E0,0E0,0E0,0E0,0E0,0E0,0E0,0E0,0E0,0E0,0E0],"parents":[2147483647,0,0,1,1,2,2,3,3,4,4,5,5,6,6,7,7,8,8,9,9,10,10,11,11,12,12,13,13,14,14],"right_children":[2,4,6,8,10,12,14,16,18,20,22,24,26,28,30,-1,-1,-1,-1,-1,-1,-1,-1,-1,-1,-1,-1,-1,-1,-1,-1],"split_conditions":[2E1,6E0,5E0,1.3E1,1.8E1,2.2E1,7E0,8E0,1.9E1,8E0,1.9E1,4E0,4E0,2.3E1,2.2E1,8.9823995E-3,-1.7630147E-2,3.5466272E-2,-1.2141186E-4,-3.3165295E-2,7.241135E-3,-8.8570766E-2,3.8826359E-3,-2.8784683E-2,-4.383664E-2,-2.7609712E-2,-2.0278148E-2,4.9301084E-2,-1.6351199E-2,-3.199717E-2,-2.2991328E-2],"split_indices":[1,0,0,1,1,1,0,1,1,1,1,0,0,1,1,0,0,0,0,0,0,0,0,0,0,0,0,0,0,0,0],"split_type":[0,0,0,0,0,0,0,0,0,0,0,0,0,0,0,0,0,0,0,0,0,0,0,0,0,0,0,0,0,0,0],"sum_hessian":[1.9807E4,1.4717E4,5.09E3,9.496E3,5.221E3,2.669E3,2.421E3,5.353E3,4.143E3,4.49E3,7.31E2,1.371E3,1.298E3,1.516E3,9.05E2,2.915E3,2.438E3,3.422E3,7.21E2,1.301E3,3.189E3,3.83E2,3.48E2,1.122E3,2.49E2,9.24E2,3.74E2,1.13E3,3.86E2,4.85E2,4.2E2],"tree_param":{"num_deleted":"0","num_feature":"2","num_nodes":"31","size_leaf_vector":"1"}},{"base_weights":[-2.1960902E-4,-1.4571519E-1,2.0929633E-2,6.595686E-3,-3.5396567E-1,-1.4906633E-1,4.7394264E-2,-2.4515729E-1,9.629029E-1,-7.0475143E-1,-2.4453042E-1,-6.0299486E-1,-7.518614E-2,8.7084204E-2,-1.0782614E-1,-7.945195E-3,-1.11557916E-1,1.290077E-1,5.9749883E-2,-3.070102E-2,-1.23223044E-1,-2.317079E-2,-3.1935766E-2,-3.2959003E-2,-1.2175939E-1,-2.4963815E-2,-3.196035E-3,8.801996E-2,6.7369873E-3,-1.0535439E-1,-8.589247E-3],"categories":[],"categories_nodes":[],"categories_segments":[],"categories_sizes":[],"default_left":[0,0,0,0,0,0,0,0,0,0,0,0,0,0,0,0,0,0,0,0,0,0,0,0,0,0,0,0,0,0,0],"id":46,"left_children":[1,3,5,7,9,11,13,15,17,19,21,23,25,27,29,-1,-1,-1,-1,-1,-1,-1,-1,-1,-1,-1,-1,-1,-1,-1,-1],"loss_changes":[6.0954666E1,7.974345E1,7.78152E1,3.5005045E2,4.059607E1,7.80943E1,9.2210266E1,1.659242E2,3.5453094E1,5.2491318E1,7.041359E-1,5.4377907E1,1.5111378E1,1.8630312E2,6.3134365E1,0E0,0E0,0E0,0E0,0E0,0E0,0E0,0E0,0E0,0E0,0E0,0E0,0E0,0E0,0E0,0E0],"parents":[2147483647,0,0,1,1,2,2,3,3,4,4,5,5,6,6,7,7,8,8,9,9,10,10,11,11,12,12,13,13,14,14],"right_children":[2,4,6,8,10,12,14,16,18,20,22,24,26,28,30,-1,-1,-1,-1,-1,-1,-1,-1,-1,-1,-1,-1,-1,-1,-1,-1],"split_conditions":[2E0,1.7E1,5E0,1.4E1,1.9E1,3E0,7E0,1.2E1,1.6E1,1.8E1,2.3E1,4E0,4E0,6E0,6E0,-7.945195E-3,-1.11557916E-1,1.290077E-1,5.9749883E-2,-3.070102E-2,-1.23223044E-1,-2.317079E-2,-3.1935766E-2,-3.2959003E-2,-1.2175939E-1,-2.4963815E-2,-3.196035E-3,8.801996E-2,6.7369873E-3,-1.0535439E-1,-8.589247E-3],"split_indices":[0,1,1,1,1,0,0,1,1,1,1,1,0,1,1,0,0,0,0,0,0,0,0,0,0,0,0,0,0,0,0],"split_type":[0,0,0,0,0,0,0,0,0,0,0,0,0,0,0,0,0,0,0,0,0,0,0,0,0,0,0,0,0,0,0],"sum_hessian":[1.9807E4,2.513E3,1.7294E4,1.452E3,1.061E3,2.329E3,1.4965E4,1.15E3,3.02E2,2.51E2,8.1E2,3.25E2,2.004E3,1.1918E4,3.047E3,9.67E2,1.83E2,1.58E2,1.44E2,1.44E2,1.07E2,6.95E2,1.15E2,2.26E2,9.9E1,3.97E2,1.607E3,2.88E2,1.163E4,6.8E1,2.979E3],"tree_param":{"num_deleted":"0","num_feature":"2","num_nodes":"31","size_leaf_vector":"1"}},{"base_weights":[-2.14815E-4,3.1662874E-2,-9.237266E-2,9.812674E-2,-8.921783E-2,-2.5678712E-1,8.891512E-2,-6.461418E-3,3.02779E-1,-3.8389325E-2,-4.009413E-1,-2.837664E-1,-2.2809406E-1,2.8655526E-1,-2.4211027E-1,-2.5892312E-2,4.027258E-3,5.607147E-2,1.4968336E-2,-2.9422885E-2,6.6043735E-3,-7.956654E-2,3.4517131E-3,-2.5732303E-2,-4.014149E-2,-2.4358435E-2,-1.8927643E-2,5.580956E-4,5.6057107E-2,-2.794697E-2,-1.9840768E-2],"categories":[],"categories_nodes":[],"categories_segments":[],"categories_sizes":[],"default_left":[0,0,0,0,0,0,0,0,0,0,0,0,0,0,0,0,0,0,0,0,0,0,0,0,0,0,0,0,0,0,0],"id":47,"left_children":[1,3,5,7,9,11,13,15,17,19,21,23,25,27,29,-1,-1,-1,-1,-1,-1,-1,-1,-1,-1,-1,-1,-1,-1,-1,-1],"loss_changes":[5.8194454E1,1.18256096E2,1.5176688E2,2.0327768E2,8.272426E1,2.0021667E0,1.5852606E2,7.417608E1,1.2675421E2,1.2001044E2,1.2584799E2,4.165024E0,7.349777E-1,1.1679285E2,1.4237823E0,0E0,0E0,0E0,0E0,0E0,0E0,0E0,0E0,0E0,0E0,0E0,0E0,0E0,0E0,0E0,0E0],"parents":[2147483647,0,0,1,1,2,2,3,3,4,4,5,5,6,6,7,7,8,8,9,9,10,10,11,11,12,12,13,13,14,14],"right_children":[2,4,6,8,10,12,14,16,18,20,22,24,26,28,30,-1,-1,-1,-1,-1,-1,-1,-1,-1,-1,-1,-1,-1,-1,-1,-1],"split_conditions":[2E1,6E0,5E0,1.5E1,1.8E1,2.2E1,7E0,2E0,1.7E1,8E0,1.9E1,4E0,4E0,6E0,2.2E1,-2.5892312E-2,4.027258E-3,5.607147E-2,1.4968336E-2,-2.9422885E-2,6.6043735E-3,-7.956654E-2,3.4517131E-3,-2.5732303E-2,-4.014149E-2,-2.4358435E-2,-1.8927643E-2,5.580956E-4,5.6057107E-2,-2.794697E-2,-1.9840768E-2],"split_indices":[1,0,0,1,1,1,0,1,1,1,1,0,0,0,1,0,0,0,0,0,0,0,0,0,0,0,0,0,0,0,0],"split_type":[0,0,0,0,0,0,0,0,0,0,0,0,0,0,0,0,0,0,0,0,0,0,0,0,0,0,0,0,0,0,0],"sum_hessian":[1.9807E4,1.4717E4,5.09E3,9.496E3,5.221E3,2.669E3,2.421E3,6.285E3,3.211E3,4.49E3,7.31E2,1.371E3,1.298E3,1.516E3,9.05E2,9.81E2,5.304E3,1.195E3,2.016E3,1.301E3,3.189E3,3.83E2,3.48E2,1.122E3,2.49E2,9.24E2,3.74E2,7.49E2,7.67E2,4.85E2,4.2E2],"tree_param":{"num_deleted":"0","num_feature":"2","num_nodes":"31","size_leaf_vector":"1"}},{"base_weights":[-2.0088576E-4,1.9016137E-2,-1.354138E-1,-6.385452E-2,5.9493337E-2,-2.2235541E-1,4.3815073E-2,-1.8809795E-2,-1.9250613E-1,6.17707E-1,2.8815757E-2,-1.8153827E-1,-2.713985E-1,2.8629923E-1,-1.7861414E-1,2.421896E-2,-1.2513662E-2,-1.0978307E-1,7.735108E-3,1.14916064E-1,1.827681E-2,-1.3046495E-2,7.947355E-3,-2.7899045E-2,-3.0074404E-3,-1.3009812E-2,-4.093818E-2,5.3199258E-2,4.0396615E-3,-1.7022206E-2,-1.9060295E-2],"categories":[],"categories_nodes":[],"categories_segments":[],"categories_sizes":[],"default_left":[0,0,0,0,0,0,0,0,0,0,0,0,0,0,0,0,0,0,0,0,0,0,0,0,0,0,0,0,0,0,0],"id":48,"left_children":[1,3,5,7,9,11,13,15,17,19,21,23,25,27,29,-1,-1,-1,-1,-1,-1,-1,-1,-1,-1,-1,-1,-1,-1,-1,-1],"loss_changes":[5.1471478E1,5.8182034E1,3.842047E1,3.2981956E1,1.9953568E2,3.2737122E0,4.35232E1,1.1705726E2,3.6068405E2,1.4009795E2,8.914648E1,1.3408892E1,1.4608551E1,2.329933E1,9.911537E-3,0E0,0E0,0E0,0E0,0E0,0E0,0E0,0E0,0E0,0E0,0E0,0E0,0E0,0E0,0E0,0E0],"parents":[2147483647,0,0,1,1,2,2,3,3,4,4,5,5,6,6,7,7,8,8,9,9,10,10,11,11,12,12,13,13,14,14],"right_children":[2,4,6,8,10,12,14,16,18,20,22,24,26,28,30,-1,-1,-1,-1,-1,-1,-1,-1,-1,-1,-1,-1,-1,-1,-1,-1],"split_conditions":[2.2E1,1E1,6E0,8E0,1.1E1,2.3E1,7E0,3E0,3E0,5E0,3E0,4E0,4E0,2.3E1,2.3E1,2.421896E-2,-1.2513662E-2,-1.0978307E-1,7.735108E-3,1.14916064E-1,1.827681E-2,-1.3046495E-2,7.947355E-3,-2.7899045E-2,-3.0074404E-3,-1.3009812E-2,-4.093818E-2,5.3199258E-2,4.0396615E-3,-1.7022206E-2,-1.9060295E-2],"split_indices":[1,1,0,1,1,1,0,0,0,0,0,0,0,1,1,0,0,0,0,0,0,0,0,0,0,0,0,0,0,0,0],"split_type":[0,0,0,0,0,0,0,0,0,0,0,0,0,0,0,0,0,0,0,0,0,0,0,0,0,0,0,0,0,0,0],"sum_hessian":[1.9807E4,1.7343E4,2.464E3,5.691E3,1.1652E4,1.659E3,8.05E2,4.216E3,1.475E3,6.06E2,1.1046E4,9.08E2,7.51E2,3.85E2,4.2E2,1.22E3,2.996E3,3.38E2,1.137E3,2.72E2,3.34E2,2.665E3,8.381E3,5.52E2,3.56E2,3.72E2,3.79E2,1.92E2,1.93E2,2.56E2,1.64E2],"tree_param":{"num_deleted":"0","num_feature":"2","num_nodes":"31","size_leaf_vector":"1"}},{"base_weights":[-1.821588E-4,-1.2573507E-1,1.8068215E-2,-3.108721E-3,-2.9339078E-1,3.688941E-2,-1.1537882E-1,-2.2504932E-1,8.399828E-1,-6.368018E-1,-1.8632177E-1,9.349023E-2,-4.7427606E-2,-2.0891565E-1,3.9459873E-2,-7.833759E-3,-9.956575E-2,1.1489129E-1,4.9543206E-2,-2.7843062E-2,-1.112052E-1,-1.7533252E-2,-2.5065107E-2,-1.7470403E-2,1.4542976E-2,-2.523245E-2,8.299874E-4,-1.7765237E-2,-2.427957E-2,2.5781771E-2,-1.6083844E-2],"categories":[],"categories_nodes":[],"categories_segments":[],"categories_sizes":[],"default_left":[0,0,0,0,0,0,0,0,0,0,0,0,0,0,0,0,0,0,0,0,0,0,0,0,0,0,0,0,0,0,0],"id":49,"left_children":[1,3,5,7,9,11,13,15,17,19,21,23,25,27,29,-1,-1,-1,-1,-1,-1,-1,-1,-1,-1,-1,-1,-1,-1,-1,-1],"loss_changes":[4.539008E1,5.168443E1,4.3442947E1,2.7206894E2,3.892968E1,7.234466E1,3.0973158E1,1.3005092E2,3.1682755E1,4.2609985E1,5.2937317E-1,1.2636948E2,6.952865E1,1.368782E0,3.5293255E1,0E0,0E0,0E0,0E0,0E0,0E0,0E0,0E0,0E0,0E0,0E0,0E0,0E0,0E0,0E0,0E0],"parents":[2147483647,0,0,1,1,2,2,3,3,4,4,5,5,6,6,7,7,8,8,9,9,10,10,11,11,12,12,13,13,14,14],"right_children":[2,4,6,8,10,12,14,16,18,20,22,24,26,28,30,-1,-1,-1,-1,-1,-1,-1,-1,-1,-1,-1,-1,-1,-1,-1,-1],"split_conditions":[2E0,1.7E1,2.2E1,1.4E1,1.9E1,6E0,6E0,1.2E1,1.6E1,1.8E1,2.3E1,5E0,8E0,2.3E1,7E0,-7.833759E-3,-9.956575E-2,1.1489129E-1,4.9543206E-2,-2.7843062E-2,-1.112052E-1,-1.7533252E-2,-2.5065107E-2,-1.7470403E-2,1.4542976E-2,-2.523245E-2,8.299874E-4,-1.7765237E-2,-2.427957E-2,2.5781771E-2,-1.6083844E-2],"split_indices":[0,1,1,1,1,0,0,1,1,1,1,1,1,1,0,0,0,0,0,0,0,0,0,0,0,0,0,0,0,0,0],"split_type":[0,0,0,0,0,0,0,0,0,0,0,0,0,0,0,0,0,0,0,0,0,0,0,0,0,0,0,0,0,0,0],"sum_hessian":[1.9807E4,2.513E3,1.7294E4,1.452E3,1.061E3,1.5157E4,2.137E3,1.15E3,3.02E2,2.51E2,8.1E2,9.069E3,6.088E3,1.332E3,8.05E2,9.67E2,1.83E2,1.58E2,1.44E2,1.44E2,1.07E2,6.95E2,1.15E2,1.471E3,7.598E3,1.301E3,4.787E3,6.96E2,6.36E2,3.85E2,4.2E2],"tree_param":{"num_deleted":"0","num_feature":"2","num_nodes":"31","size_leaf_vector":"1"}}]},"name":"gbtree"},"learner_model_param":{"base_score":"[1.3839653E1]","boost_from_average":"1","num_class":"0","num_feature":"2","num_target":"1"},"objective":{"name":"reg:squarederror","reg_loss_param":{"scale_pos_weight":"1"}}},"version":[3,2,1]}