{"learner":{"attributes":{},"feature_names":["day_of_week","hour_of_day"],"feature_types":[],"gradient_booster":{"model":{"cats":{"enc":[],"feature_segments":[],"sorted_idx":[]},"gbtree_model_param":{"num_parallel_tree":"1","num_trees":"50"},"iteration_indptr":[0,1,2,3,4,5,6,7,8,9,10,11,12,13,14,15,16,17,18,19,20,21,22,23,24,25,26,27,28,29,30,31,32,33,34,35,36,37,38,39,40,41,42,43,44,45,46,47,48,49,50],"tree_info":[0,0,0,0,0,0,0,0,0,0,0,0,0,0,0,0,0,0,0,0,0,0,0,0,0,0,0,0,0,0,0,0,0,0,0,0,0,0,0,0,0,0,0,0,0,0,0,0,0,0],"trees":[{"base_weights":[-4.1068222E-7,-1.04580345E1,1.2112429E0,-1.0964816E1,-6.3308177E0,3.7746413E0,-5.1671624E0,-1.1885809E0,-8.917033E0,-4.813902E0,-8.992926E-1,4.3635197E0,9.369704E-1,-2.7066998E0,-7.8895974E0,-7.68095E-1,-9.820942E-1,-6.1662656E-1,-2.7972677E-1,5.0586677E-1,1.23522855E-1,-8.0392045E-1,2.2635792E-1,-4.6209273E-1,-1.2761585E-1,-9.798403E-1,-5.756557E-1],"categories":[],"categories_nodes":[],"categories_segments":[],"categories_sizes":[],"default_left":[0,0,0,0,0,0,0,0,0,0,0,0,0,0,0,0,0,0,0,0,0,0,0,0,0,0,0],"id":0,"left_children":[1,3,5,7,9,11,13,-1,15,17,-1,19,21,23,25,-1,-1,-1,-1,-1,-1,-1,-1,-1,-1,-1,-1],"loss_changes":[2.0380297E5,3.4235469E3,2.3577583E5,2.6966094E3,7.037749E2,1.718425E4,2.7670031E4,0E0,4.4411328E2,3.1001782E2,0E0,1.8517203E4,2.1083225E4,5.9446045E3,7.932008E3,0E0,0E0,0E0,0E0,0E0,0E0,0E0,0E0,0E0,0E0,0E0,0E0],"parents":[2147483647,0,0,1,1,2,2,3,3,4,4,5,5,6,6,8,8,9,9,11,11,12,12,13,13,14,14],"right_children":[2,4,6,8,10,12,14,-1,16,18,-1,20,22,24,26,-1,-1,-1,-1,-1,-1,-1,-1,-1,-1,-1,-1],"split_conditions":[4E0,3E0,2E1,6E0,6E0,7E0,2.2E1,-1.1885809E0,1E0,2E0,-8.992926E-1,1.8E1,7E0,4E0,5E0,-7.68095E-1,-9.820942E-1,-6.1662656E-1,-2.7972677E-1,5.0586677E-1,1.23522855E-1,-8.0392045E-1,2.2635792E-1,-4.6209273E-1,-1.2761585E-1,-9.798403E-1,-5.756557E-1],"split_indices":[1,1,1,0,0,0,1,0,1,0,0,1,1,0,0,0,0,0,0,0,0,0,0,0,0,0,0],"split_type":[0,0,0,0,0,0,0,0,0,0,0,0,0,0,0,0,0,0,0,0,0,0,0,0,0,0,0],"sum_hessian":[1.6087E4,1.669E3,1.4418E4,1.485E3,1.84E2,1.0285E4,4.133E3,1.021E3,4.64E2,1.19E2,6.5E1,8.517E3,1.768E3,2.172E3,1.961E3,2E2,2.64E2,7E1,4.9E1,6.968E3,1.549E3,2.27E2,1.541E3,9.28E2,1.244E3,1.033E3,9.28E2],"tree_param":{"num_deleted":"0","num_feature":"2","num_nodes":"27","size_leaf_vector":"1"}},{"base_weights":[-4.2482605E-4,-9.415067E0,1.0899734E0,-9.870313E0,-5.707442E0,3.3971822E0,-4.6509647E0,-1.0698391E0,-8.029095E0,-4.339981E0,-8.107258E-1,2.949707E-1,3.8594313E0,-2.4363012E0,-7.1014304E0,-6.916677E-1,-8.842554E-1,-5.558323E-1,-2.5231352E-1,3.0766514E-1,-5.8790606E-1,4.584395E-1,1.0140494E-1,-4.1593322E-1,-1.14864506E-1,-8.8195103E-1,-5.1815206E-1],"categories":[],"categories_nodes":[],"categories_segments":[],"categories_sizes":[],"default_left":[0,0,0,0,0,0,0,0,0,0,0,0,0,0,0,0,0,0,0,0,0,0,0,0,0,0,0],"id":1,"left_children":[1,3,5,7,9,11,13,-1,15,17,-1,19,21,23,25,-1,-1,-1,-1,-1,-1,-1,-1,-1,-1,-1,-1],"loss_changes":[1.6516498E5,2.7624375E3,1.9100328E5,2.17975E3,5.719204E2,1.474893E4,2.2417734E4,0E0,3.596211E2,2.5160034E2,0E0,2.2945621E4,1.8461516E4,4.8163945E3,6.426078E3,0E0,0E0,0E0,0E0,0E0,0E0,0E0,0E0,0E0,0E0,0E0,0E0],"parents":[2147483647,0,0,1,1,2,2,3,3,4,4,5,5,6,6,8,8,9,9,11,11,12,12,13,13,14,14],"right_children":[2,4,6,8,10,12,14,-1,16,18,-1,20,22,24,26,-1,-1,-1,-1,-1,-1,-1,-1,-1,-1,-1,-1],"split_conditions":[4E0,3E0,2E1,6E0,6E0,7E0,2.2E1,-1.0698391E0,1E0,2E0,-8.107258E-1,6E0,1.8E1,4E0,5E0,-6.916677E-1,-8.842554E-1,-5.558323E-1,-2.5231352E-1,3.0766514E-1,-5.8790606E-1,4.584395E-1,1.0140494E-1,-4.1593322E-1,-1.14864506E-1,-8.8195103E-1,-5.1815206E-1],"split_indices":[1,1,1,0,0,1,1,0,1,0,0,0,1,0,0,0,0,0,0,0,0,0,0,0,0,0,0],"split_type":[0,0,0,0,0,0,0,0,0,0,0,0,0,0,0,0,0,0,0,0,0,0,0,0,0,0,0],"sum_hessian":[1.6087E4,1.669E3,1.4418E4,1.485E3,1.84E2,1.0285E4,4.133E3,1.021E3,4.64E2,1.19E2,6.5E1,1.334E3,8.951E3,2.172E3,1.961E3,2E2,2.64E2,7E1,4.9E1,9.2E2,4.14E2,7.133E3,1.818E3,9.28E2,1.244E3,1.033E3,9.28E2],"tree_param":{"num_deleted":"0","num_feature":"2","num_nodes":"27","size_leaf_vector":"1"}},{"base_weights":[-7.501017E-4,-8.476113E0,9.808615E-1,-8.885061E0,-5.145448E0,3.057491E0,-4.1863356E0,-9.629599E-1,-7.229574E0,-3.9127178E0,-7.308816E-1,3.5730379E0,5.733267E-1,-2.1929154E0,-6.3920007E0,-6.22845E-1,-7.9616356E-1,-5.0103205E-1,-2.2758679E-1,4.1424805E-1,1.0104459E-1,-4.958253E-1,2.0348346E-1,-3.743846E-1,-1.03387296E-1,-8.54828E-1,-5.0933754E-1],"categories":[],"categories_nodes":[],"categories_segments":[],"categories_sizes":[],"default_left":[0,0,0,0,0,0,0,0,0,0,0,0,0,0,0,0,0,0,0,0,0,0,0,0,0,0,0],"id":2,"left_children":[1,3,5,7,9,11,13,-1,15,17,-1,19,21,23,25,-1,-1,-1,-1,-1,-1,-1,-1,-1,-1,-1,-1],"loss_changes":[1.3385266E5,2.2289375E3,1.5473377E5,1.7619766E3,4.6476953E2,1.3171273E4,1.8162414E4,0E0,2.9120312E2,2.0419043E2,0E0,1.2425695E4,1.4311476E4,3.9023027E3,5.450453E3,0E0,0E0,0E0,0E0,0E0,0E0,0E0,0E0,0E0,0E0,0E0,0E0],"parents":[2147483647,0,0,1,1,2,2,3,3,4,4,5,5,6,6,8,8,9,9,11,11,12,12,13,13,14,14],"right_children":[2,4,6,8,10,12,14,-1,16,18,-1,20,22,24,26,-1,-1,-1,-1,-1,-1,-1,-1,-1,-1,-1,-1],"split_conditions":[4E0,3E0,2E1,6E0,6E0,7E0,2.2E1,-9.629599E-1,1E0,2E0,-7.308816E-1,1.8E1,9E0,4E0,4E0,-6.22845E-1,-7.9616356E-1,-5.0103205E-1,-2.2758679E-1,4.1424805E-1,1.0104459E-1,-4.958253E-1,2.0348346E-1,-3.743846E-1,-1.03387296E-1,-8.54828E-1,-5.0933754E-1],"split_indices":[1,1,1,0,0,0,1,0,1,0,0,1,1,0,0,0,0,0,0,0,0,0,0,0,0,0,0],"split_type":[0,0,0,0,0,0,0,0,0,0,0,0,0,0,0,0,0,0,0,0,0,0,0,0,0,0,0],"sum_hessian":[1.6087E4,1.669E3,1.4418E4,1.485E3,1.84E2,1.0285E4,4.133E3,1.021E3,4.64E2,1.19E2,6.5E1,8.517E3,1.768E3,2.172E3,1.961E3,2E2,2.64E2,7E1,4.9E1,6.968E3,1.549E3,3.69E2,1.399E3,9.28E2,1.244E3,7.35E2,1.226E3],"tree_param":{"num_deleted":"0","num_feature":"2","num_nodes":"27","size_leaf_vector":"1"}},{"base_weights":[-1.0147967E-3,-7.630802E0,8.826627E-1,-7.998158E0,-4.638793E0,3.0353084E0,-3.1793132E0,-8.6675805E-1,-6.5096684E0,-3.5275178E0,-6.589008E-1,6.0722907E-3,3.5347517E0,-1.5136156E0,-5.7534957E0,-5.608704E-1,-7.1684766E-1,-4.1361472E-1,-1.1680072E-1,2.3555219E-1,-5.208022E-1,3.9331916E-1,1.7071848E-1,-2.7390245E-1,-6.8001546E-2,-7.1839815E-1,-4.1551372E-1],"categories":[],"categories_nodes":[],"categories_segments":[],"categories_sizes":[],"default_left":[0,0,0,0,0,0,0,0,0,0,0,0,0,0,0,0,0,0,0,0,0,0,0,0,0,0,0],"id":3,"left_children":[1,3,5,7,9,11,13,-1,15,17,-1,19,21,23,25,-1,-1,-1,-1,-1,-1,-1,-1,-1,-1,-1,-1],"loss_changes":[1.084764E5,1.7984531E3,1.2608931E5,1.4242734E3,3.7769385E2,1.4259359E4,2.1408895E4,0E0,2.3579883E2,1.6749695E2,0E0,1.6366355E4,5.884953E3,3.097371E3,4.456121E3,0E0,0E0,0E0,0E0,0E0,0E0,0E0,0E0,0E0,0E0,0E0,0E0],"parents":[2147483647,0,0,1,1,2,2,3,3,4,4,5,5,6,6,8,8,9,9,11,11,12,12,13,13,14,14],"right_children":[2,4,6,8,10,12,14,-1,16,18,-1,20,22,24,26,-1,-1,-1,-1,-1,-1,-1,-1,-1,-1,-1,-1],"split_conditions":[4E0,3E0,1.9E1,6E0,6E0,7E0,2.2E1,-8.6675805E-1,1E0,3E0,-6.589008E-1,6E0,7E0,4E0,5E0,-5.608704E-1,-7.1684766E-1,-4.1361472E-1,-1.1680072E-1,2.3555219E-1,-5.208022E-1,3.9331916E-1,1.7071848E-1,-2.7390245E-1,-6.8001546E-2,-7.1839815E-1,-4.1551372E-1],"split_indices":[1,1,1,0,0,1,1,0,1,0,0,0,0,0,0,0,0,0,0,0,0,0,0,0,0,0,0],"split_type":[0,0,0,0,0,0,0,0,0,0,0,0,0,0,0,0,0,0,0,0,0,0,0,0,0,0,0],"sum_hessian":[1.6087E4,1.669E3,1.4418E4,1.485E3,1.84E2,9.424E3,4.994E3,1.021E3,4.64E2,1.19E2,6.5E1,1.334E3,8.09E3,3.033E3,1.961E3,2E2,2.64E2,9.4E1,2.5E1,9.2E2,4.14E2,6.641E3,1.449E3,1.227E3,1.806E3,1.033E3,9.28E2],"tree_param":{"num_deleted":"0","num_feature":"2","num_nodes":"27","size_leaf_vector":"1"}},{"base_weights":[-1.1947392E-3,-6.869718E0,7.943136E-1,-7.199785E0,-4.1813426E0,2.4853444E0,-3.4134116E0,-7.8016704E-1,-5.8614497E0,-3.1791868E0,-5.94009E-1,5.251546E-3,2.8549197E0,-1.8179414E0,-5.1787243E0,-5.0506246E-1,-6.454334E-1,-4.1085562E-1,-1.795898E-1,2.1202257E-1,-4.6884748E-1,3.4097543E-1,6.773249E-2,-3.0962563E-1,-8.626222E-2,-6.9771916E-1,-4.0957165E-1],"categories":[],"categories_nodes":[],"categories_segments":[],"categories_sizes":[],"default_left":[0,0,0,0,0,0,0,0,0,0,0,0,0,0,0,0,0,0,0,0,0,0,0,0,0,0,0],"id":4,"left_children":[1,3,5,7,9,11,13,-1,15,17,-1,19,21,23,25,-1,-1,-1,-1,-1,-1,-1,-1,-1,-1,-1,-1],"loss_changes":[8.7909766E4,1.4517656E3,1.0260533E5,1.1512734E3,3.0718457E2,9.427941E3,1.1634008E4,0E0,1.9093848E2,1.4689185E2,0E0,1.3262631E4,1.0813539E4,2.6509937E3,3.792918E3,0E0,0E0,0E0,0E0,0E0,0E0,0E0,0E0,0E0,0E0,0E0,0E0],"parents":[2147483647,0,0,1,1,2,2,3,3,4,4,5,5,6,6,8,8,9,9,11,11,12,12,13,13,14,14],"right_children":[2,4,6,8,10,12,14,-1,16,18,-1,20,22,24,26,-1,-1,-1,-1,-1,-1,-1,-1,-1,-1,-1,-1],"split_conditions":[4E0,3E0,2E1,6E0,6E0,7E0,2.2E1,-7.8016704E-1,1E0,2E0,-5.94009E-1,6E0,1.8E1,4E0,4E0,-5.0506246E-1,-6.454334E-1,-4.1085562E-1,-1.795898E-1,2.1202257E-1,-4.6884748E-1,3.4097543E-1,6.773249E-2,-3.0962563E-1,-8.626222E-2,-6.9771916E-1,-4.0957165E-1],"split_indices":[1,1,1,0,0,1,1,0,1,0,0,0,1,0,0,0,0,0,0,0,0,0,0,0,0,0,0],"split_type":[0,0,0,0,0,0,0,0,0,0,0,0,0,0,0,0,0,0,0,0,0,0,0,0,0,0,0],"sum_hessian":[1.6087E4,1.669E3,1.4418E4,1.485E3,1.84E2,1.0285E4,4.133E3,1.021E3,4.64E2,1.19E2,6.5E1,1.334E3,8.951E3,2.172E3,1.961E3,2E2,2.64E2,7E1,4.9E1,9.2E2,4.14E2,7.133E3,1.818E3,9.28E2,1.244E3,7.35E2,1.226E3],"tree_param":{"num_deleted":"0","num_feature":"2","num_nodes":"27","size_leaf_vector":"1"}},{"base_weights":[-1.3531935E-3,-6.184612E0,7.1478826E-1,-6.4811063E0,-3.7696104E0,2.4667718E0,-2.5911498E0,-7.022267E0,-5.277779E0,-2.8661885E0,-5.355081E-1,4.5339856E-3,2.8727317E0,-1.2515147E0,-4.661416E0,-7.1348983E-1,-6.5527827E-1,-4.548075E-1,-5.8113366E-1,-3.7034878E-1,-1.6198996E-1,1.9084333E-1,-4.2207572E-1,3.2310954E-1,1.2291981E-1,-2.6165554E-1,-7.311368E-2,-5.852278E-1,-3.3309397E-1],"categories":[],"categories_nodes":[],"categories_segments":[],"categories_sizes":[],"default_left":[0,0,0,0,0,0,0,0,0,0,0,0,0,0,0,0,0,0,0,0,0,0,0,0,0,0,0,0,0],"id":5,"left_children":[1,3,5,7,9,11,13,15,17,19,-1,21,23,25,27,-1,-1,-1,-1,-1,-1,-1,-1,-1,-1,-1,-1,-1,-1],"loss_changes":[7.124349E4,1.1713516E3,8.3520516E4,9.306133E2,2.4963599E2,9.420934E3,1.3847305E4,7.2890625E0,1.5461133E2,1.1922278E2,0E0,1.0747502E4,4.7614844E3,2.153249E3,3.089129E3,0E0,0E0,0E0,0E0,0E0,0E0,0E0,0E0,0E0,0E0,0E0,0E0,0E0,0E0],"parents":[2147483647,0,0,1,1,2,2,3,3,4,4,5,5,6,6,7,7,8,8,9,9,11,11,12,12,13,13,14,14],"right_children":[2,4,6,8,10,12,14,16,18,20,-1,22,24,26,28,-1,-1,-1,-1,-1,-1,-1,-1,-1,-1,-1,-1,-1,-1],"split_conditions":[4E0,3E0,1.9E1,6E0,6E0,7E0,2.2E1,2E0,1E0,2E0,-5.355081E-1,6E0,7E0,3E0,5E0,-7.1348983E-1,-6.5527827E-1,-4.548075E-1,-5.8113366E-1,-3.7034878E-1,-1.6198996E-1,1.9084333E-1,-4.2207572E-1,3.2310954E-1,1.2291981E-1,-2.6165554E-1,-7.311368E-2,-5.852278E-1,-3.3309397E-1],"split_indices":[1,1,1,0,0,1,1,1,1,0,0,0,0,0,0,0,0,0,0,0,0,0,0,0,0,0,0,0,0],"split_type":[0,0,0,0,0,0,0,0,0,0,0,0,0,0,0,0,0,0,0,0,0,0,0,0,0,0,0,0,0],"sum_hessian":[1.6087E4,1.669E3,1.4418E4,1.485E3,1.84E2,9.424E3,4.994E3,1.021E3,4.64E2,1.19E2,6.5E1,1.334E3,8.09E3,3.033E3,1.961E3,8.12E2,2.09E2,2E2,2.64E2,7E1,4.9E1,9.2E2,4.14E2,6.641E3,1.449E3,8.36E2,2.197E3,1.033E3,9.28E2],"tree_param":{"num_deleted":"0","num_feature":"2","num_nodes":"29","size_leaf_vector":"1"}},{"base_weights":[-1.4980466E-3,-5.56823E0,6.4323765E-1,-5.8346143E0,-3.3984215E0,2.0208044E0,-2.7845066E0,-6.3213797E0,-4.7522287E0,-2.5840056E0,-4.8276863E-1,2.3969796E0,2.0832208E-1,-1.5090212E0,-4.1957426E0,-6.4222866E-1,-5.900625E-1,-4.0955305E-1,-5.2323955E-1,-3.0649683E-1,-7.272565E-2,2.7926055E-1,6.166482E-2,-3.3522284E-1,1.4328635E-1,-2.5870845E-1,-7.03375E-2,-5.6959873E-1,-3.2924208E-1],"categories":[],"categories_nodes":[],"categories_segments":[],"categories_sizes":[],"default_left":[0,0,0,0,0,0,0,0,0,0,0,0,0,0,0,0,0,0,0,0,0,0,0,0,0,0,0,0,0],"id":6,"left_children":[1,3,5,7,9,11,13,15,17,19,-1,21,23,25,27,-1,-1,-1,-1,-1,-1,-1,-1,-1,-1,-1,-1,-1,-1],"loss_changes":[5.774456E4,9.454336E2,6.809137E4,7.528828E2,2.0286816E2,7.0126055E3,7.43491E3,5.4960938E0,1.2519629E2,1.04934265E2,0E0,5.9978906E3,7.7177173E3,1.8855122E3,2.6401562E3,0E0,0E0,0E0,0E0,0E0,0E0,0E0,0E0,0E0,0E0,0E0,0E0,0E0,0E0],"parents":[2147483647,0,0,1,1,2,2,3,3,4,4,5,5,6,6,7,7,8,8,9,9,11,11,12,12,13,13,14,14],"right_children":[2,4,6,8,10,12,14,16,18,20,-1,22,24,26,28,-1,-1,-1,-1,-1,-1,-1,-1,-1,-1,-1,-1,-1,-1],"split_conditions":[4E0,3E0,2E1,6E0,6E0,7E0,2.2E1,2E0,1E0,3E0,-4.8276863E-1,1.8E1,1E1,4E0,4E0,-6.4222866E-1,-5.900625E-1,-4.0955305E-1,-5.2323955E-1,-3.0649683E-1,-7.272565E-2,2.7926055E-1,6.166482E-2,-3.3522284E-1,1.4328635E-1,-2.5870845E-1,-7.03375E-2,-5.6959873E-1,-3.2924208E-1],"split_indices":[1,1,1,0,0,0,1,1,1,0,0,1,1,0,0,0,0,0,0,0,0,0,0,0,0,0,0,0,0],"split_type":[0,0,0,0,0,0,0,0,0,0,0,0,0,0,0,0,0,0,0,0,0,0,0,0,0,0,0,0,0],"sum_hessian":[1.6087E4,1.669E3,1.4418E4,1.485E3,1.84E2,1.0285E4,4.133E3,1.021E3,4.64E2,1.19E2,6.5E1,8.517E3,1.768E3,2.172E3,1.961E3,8.12E2,2.09E2,2E2,2.64E2,9.4E1,2.5E1,6.968E3,1.549E3,4.52E2,1.316E3,9.28E2,1.244E3,7.35E2,1.226E3],"tree_param":{"num_deleted":"0","num_feature":"2","num_nodes":"29","size_leaf_vector":"1"}},{"base_weights":[-1.6035222E-3,-5.01322E0,5.78839E-1,-5.2526097E0,-3.0632386E0,2.0060227E0,-2.1142108E0,-5.6904473E0,-4.2790127E0,-2.3287654E0,-4.352232E-1,6.738846E-1,2.6080592E0,-1.0384781E0,-3.7766263E0,-5.339546E-1,-5.7965726E-1,-3.6880156E-1,-4.7111312E-1,-3.0361754E-1,-1.2776682E-1,1.702591E-1,-1.761808E-1,3.0410233E-1,1.4053193E-1,-4.4830367E-2,-1.9982095E-1,-3.2312763E-1,-6.2446815E-1],"categories":[],"categories_nodes":[],"categories_segments":[],"categories_sizes":[],"default_left":[0,0,0,0,0,0,0,0,0,0,0,0,0,0,0,0,0,0,0,0,0,0,0,0,0,0,0,0,0],"id":7,"left_children":[1,3,5,7,9,11,13,15,17,19,-1,21,23,25,27,-1,-1,-1,-1,-1,-1,-1,-1,-1,-1,-1,-1,-1,-1],"loss_changes":[4.6802176E4,7.6347266E2,5.5423332E4,6.0909766E2,1.6500977E2,7.5570547E3,8.928711E3,7.109375E0,1.0137695E2,8.5347595E1,0E0,7.356972E3,3.375875E3,1.7175889E3,2.620584E3,0E0,0E0,0E0,0E0,0E0,0E0,0E0,0E0,0E0,0E0,0E0,0E0,0E0,0E0],"parents":[2147483647,0,0,1,1,2,2,3,3,4,4,5,5,6,6,7,7,8,8,9,9,11,11,12,12,13,13,14,14],"right_children":[2,4,6,8,10,12,14,16,18,20,-1,22,24,26,28,-1,-1,-1,-1,-1,-1,-1,-1,-1,-1,-1,-1,-1,-1],"split_conditions":[4E0,3E0,1.9E1,6E0,6E0,1E1,2.2E1,2E0,1E0,2E0,-4.352232E-1,6E0,1.7E1,2.1E1,7E0,-5.339546E-1,-5.7965726E-1,-3.6880156E-1,-4.7111312E-1,-3.0361754E-1,-1.2776682E-1,1.702591E-1,-1.761808E-1,3.0410233E-1,1.4053193E-1,-4.4830367E-2,-1.9982095E-1,-3.2312763E-1,-6.2446815E-1],"split_indices":[1,1,1,0,0,1,1,0,1,0,0,0,1,1,0,0,0,0,0,0,0,0,0,0,0,0,0,0,0],"split_type":[0,0,0,0,0,0,0,0,0,0,0,0,0,0,0,0,0,0,0,0,0,0,0,0,0,0,0,0,0],"sum_hessian":[1.6087E4,1.669E3,1.4418E4,1.485E3,1.84E2,9.424E3,4.994E3,1.021E3,4.64E2,1.19E2,6.5E1,2.934E3,6.49E3,3.033E3,1.961E3,2.49E2,7.72E2,2E2,2.64E2,7E1,4.9E1,2.063E3,8.71E2,4.771E3,1.719E3,1.879E3,1.154E3,1.608E3,3.53E2],"tree_param":{"num_deleted":"0","num_feature":"2","num_nodes":"29","size_leaf_vector":"1"}},{"base_weights":[-1.6652142E-3,-4.513587E0,5.20903E-1,-4.7286634E0,-2.761599E0,1.8054671E0,-1.9030286E0,-5.1224923E0,-3.8529177E0,-2.099484E0,-3.9236027E-1,-1.5554501E0,2.0203712E0,-9.347112E-1,-3.3994467E0,-5.210842E-1,-4.756062E-1,-3.3210492E-1,-4.2417955E-1,-2.505702E-1,-5.3447593E-2,-7.919384E-3,-4.703272E-1,2.3629677E-1,4.526368E-2,-6.2716E-2,-2.623912E-1,-4.4450235E-1,-2.2320342E-1],"categories":[],"categories_nodes":[],"categories_segments":[],"categories_sizes":[],"default_left":[0,0,0,0,0,0,0,0,0,0,0,0,0,0,0,0,0,0,0,0,0,0,0,0,0,0,0,0,0],"id":8,"left_children":[1,3,5,7,9,11,13,15,17,19,-1,21,23,25,27,-1,-1,-1,-1,-1,-1,-1,-1,-1,-1,-1,-1,-1,-1],"loss_changes":[3.793442E4,6.1622266E2,4.4899816E4,4.9277344E2,1.3409778E2,6.81058E3,7.234615E3,8.302734E0,8.2089355E1,7.4948975E1,0E0,2.6344722E3,4.7571016E3,1.5745652E3,2.3849355E3,0E0,0E0,0E0,0E0,0E0,0E0,0E0,0E0,0E0,0E0,0E0,0E0,0E0,0E0],"parents":[2147483647,0,0,1,1,2,2,3,3,4,4,5,5,6,6,7,7,8,8,9,9,11,11,12,12,13,13,14,14],"right_children":[2,4,6,8,10,12,14,16,18,20,-1,22,24,26,28,-1,-1,-1,-1,-1,-1,-1,-1,-1,-1,-1,-1,-1,-1],"split_conditions":[4E0,3E0,1.9E1,6E0,6E0,5E0,2.2E1,2E0,1E0,3E0,-3.9236027E-1,5E0,7E0,7E0,5E0,-5.210842E-1,-4.756062E-1,-3.3210492E-1,-4.2417955E-1,-2.505702E-1,-5.3447593E-2,-7.919384E-3,-4.703272E-1,2.3629677E-1,4.526368E-2,-6.2716E-2,-2.623912E-1,-4.4450235E-1,-2.2320342E-1],"split_indices":[1,1,1,0,0,1,1,1,1,0,0,0,0,0,0,0,0,0,0,0,0,0,0,0,0,0,0,0,0],"split_type":[0,0,0,0,0,0,0,0,0,0,0,0,0,0,0,0,0,0,0,0,0,0,0,0,0,0,0,0,0],"sum_hessian":[1.6087E4,1.669E3,1.4418E4,1.485E3,1.84E2,9.424E3,4.994E3,1.021E3,4.64E2,1.19E2,6.5E1,5.66E2,8.858E3,3.033E3,1.961E3,8.12E2,2.09E2,2E2,2.64E2,9.4E1,2.5E1,3.86E2,1.8E2,7.269E3,1.589E3,2.567E3,4.66E2,1.033E3,9.28E2],"tree_param":{"num_deleted":"0","num_feature":"2","num_nodes":"29","size_leaf_vector":"1"}},{"base_weights":[-1.7252304E-3,-4.0636945E0,4.6872976E-1,-4.2569766E0,-2.4892032E0,1.4803053E0,-2.0483325E0,-4.6112185E0,-3.4692523E0,-1.8920689E0,-3.537187E-1,-1.4007486E0,1.6482146E0,-1.1340983E0,-3.0598423E0,-4.3050995E-1,-4.7042567E-1,-2.990597E-1,-3.8192168E-1,-2.4897932E-1,-1.00545935E-1,-7.129499E-3,-4.2355427E-1,1.9530101E-1,3.232323E-2,-1.9816199E-1,-2.0203887E-2,-2.543208E-1,-5.399405E-1],"categories":[],"categories_nodes":[],"categories_segments":[],"categories_sizes":[],"default_left":[0,0,0,0,0,0,0,0,0,0,0,0,0,0,0,0,0,0,0,0,0,0,0,0,0,0,0,0,0],"id":9,"left_children":[1,3,5,7,9,11,13,15,17,19,-1,21,23,25,27,-1,-1,-1,-1,-1,-1,-1,-1,-1,-1,-1,-1,-1,-1],"loss_changes":[3.074565E4,4.976211E2,3.6716668E4,3.986621E2,1.09078E2,4.978217E3,3.8194727E3,8.855469E0,6.647168E1,6.1090393E1,0E0,2.1365664E3,3.9247773E3,1.7161396E3,2.3577344E3,0E0,0E0,0E0,0E0,0E0,0E0,0E0,0E0,0E0,0E0,0E0,0E0,0E0,0E0],"parents":[2147483647,0,0,1,1,2,2,3,3,4,4,5,5,6,6,7,7,8,8,9,9,11,11,12,12,13,13,14,14],"right_children":[2,4,6,8,10,12,14,16,18,20,-1,22,24,26,28,-1,-1,-1,-1,-1,-1,-1,-1,-1,-1,-1,-1,-1,-1],"split_conditions":[4E0,3E0,2E1,6E0,6E0,5E0,2.2E1,2E0,1E0,2E0,-3.537187E-1,5E0,1.8E1,5E0,7E0,-4.3050995E-1,-4.7042567E-1,-2.990597E-1,-3.8192168E-1,-2.4897932E-1,-1.00545935E-1,-7.129499E-3,-4.2355427E-1,1.9530101E-1,3.232323E-2,-1.9816199E-1,-2.0203887E-2,-2.543208E-1,-5.399405E-1],"split_indices":[1,1,1,0,0,1,1,0,1,0,0,0,1,0,0,0,0,0,0,0,0,0,0,0,0,0,0,0,0],"split_type":[0,0,0,0,0,0,0,0,0,0,0,0,0,0,0,0,0,0,0,0,0,0,0,0,0,0,0,0,0],"sum_hessian":[1.6087E4,1.669E3,1.4418E4,1.485E3,1.84E2,1.0285E4,4.133E3,1.021E3,4.64E2,1.19E2,6.5E1,5.66E2,9.719E3,2.172E3,1.961E3,2.49E2,7.72E2,2E2,2.64E2,7E1,4.9E1,3.86E2,1.8E2,7.901E3,1.818E3,1.137E3,1.035E3,1.608E3,3.53E2],"tree_param":{"num_deleted":"0","num_feature":"2","num_nodes":"29","size_leaf_vector":"1"}},{"base_weights":[-1.7702734E-3,-3.6586936E0,4.2177254E-1,-3.8323436E0,-2.2440841E0,1.1778868E0,-2.32134E0,-4.150978E0,-3.1237915E0,-1.7057745E0,-3.1888276E-1,1.5557841E0,4.9507894E-2,-3.607069E0,-1.4741229E0,-4.2299223E-1,-3.7899694E-1,-2.6930246E-1,-3.438736E-1,-2.0489097E-1,-3.8640503E-2,3.388312E-2,2.2009234E-1,-8.731461E-2,3.7432533E-2,-2.867504E-1,-4.1066E-1,-2.5113309E-2,-4.2844135E-1],"categories":[],"categories_nodes":[],"categories_segments":[],"categories_sizes":[],"default_left":[0,0,0,0,0,0,0,0,0,0,0,0,0,0,0,0,0,0,0,0,0,0,0,0,0,0,0,0,0],"id":10,"left_children":[1,3,5,7,9,11,13,15,17,19,-1,21,23,25,27,-1,-1,-1,-1,-1,-1,-1,-1,-1,-1,-1,-1,-1,-1],"loss_changes":[2.491966E4,4.016289E2,2.990928E4,3.2252734E2,8.864496E1,4.820076E3,3.388916E3,1.309375E1,5.3825195E1,5.3534912E1,0E0,6.6475156E3,8.50559E2,4.4521582E2,6.4604014E3,0E0,0E0,0E0,0E0,0E0,0E0,0E0,0E0,0E0,0E0,0E0,0E0,0E0,0E0],"parents":[2147483647,0,0,1,1,2,2,3,3,4,4,5,5,6,6,7,7,8,8,9,9,11,11,12,12,13,13,14,14],"right_children":[2,4,6,8,10,12,14,16,18,20,-1,22,24,26,28,-1,-1,-1,-1,-1,-1,-1,-1,-1,-1,-1,-1,-1,-1],"split_conditions":[4E0,3E0,2.1E1,6E0,6E0,1.8E1,4E0,5E0,1E0,3E0,-3.1888276E-1,1E1,3E0,2.2E1,7E0,-4.2299223E-1,-3.7899694E-1,-2.6930246E-1,-3.438736E-1,-2.0489097E-1,-3.8640503E-2,3.388312E-2,2.2009234E-1,-8.731461E-2,3.7432533E-2,-2.867504E-1,-4.1066E-1,-2.5113309E-2,-4.2844135E-1],"split_indices":[1,1,1,0,0,1,0,0,1,0,0,1,0,1,0,0,0,0,0,0,0,0,0,0,0,0,0,0,0],"split_type":[0,0,0,0,0,0,0,0,0,0,0,0,0,0,0,0,0,0,0,0,0,0,0,0,0,0,0,0,0],"sum_hessian":[1.6087E4,1.669E3,1.4418E4,1.485E3,1.84E2,1.1303E4,3.115E3,1.021E3,4.64E2,1.19E2,6.5E1,8.467E3,2.836E3,1.236E3,1.879E3,8.29E2,1.92E2,2E2,2.64E2,9.4E1,2.5E1,2.934E3,5.533E3,7.38E2,2.098E3,5.01E2,7.35E2,1.31E3,5.69E2],"tree_param":{"num_deleted":"0","num_feature":"2","num_nodes":"29","size_leaf_vector":"1"}},{"base_weights":[-1.7753451E-3,-3.2940085E0,3.7952924E-1,-3.4500616E0,-2.0227156E0,1.3261758E0,-1.4067616E0,-3.736665E0,-2.812731E0,-1.5372262E0,-2.874776E-1,1.6476094E0,-1.5987965E-1,-6.9146657E-1,-2.5121636E0,-3.813462E-1,-3.4215578E-1,-2.4250622E-1,-3.0961603E-1,-2.0423149E-1,-7.892561E-2,-7.279994E-2,1.8042319E-1,-3.338146E-1,7.392934E-2,-4.215671E-2,-2.1741438E-1,-3.447729E-1,-1.4681523E-1],"categories":[],"categories_nodes":[],"categories_segments":[],"categories_sizes":[],"default_left":[0,0,0,0,0,0,0,0,0,0,0,0,0,0,0,0,0,0,0,0,0,0,0,0,0,0,0,0,0],"id":11,"left_children":[1,3,5,7,9,11,13,15,17,19,-1,21,23,25,27,-1,-1,-1,-1,-1,-1,-1,-1,-1,-1,-1,-1,-1,-1],"loss_changes":[2.0197217E4,3.2433008E2,2.4384197E4,2.6092578E2,7.210913E1,4.502285E3,3.947752E3,1.1683594E1,4.3583984E1,4.3723022E1,0E0,2.8845117E3,4.7950176E3,1.2132106E3,1.9113037E3,0E0,0E0,0E0,0E0,0E0,0E0,0E0,0E0,0E0,0E0,0E0,0E0,0E0,0E0],"parents":[2147483647,0,0,1,1,2,2,3,3,4,4,5,5,6,6,7,7,8,8,9,9,11,11,12,12,13,13,14,14],"right_children":[2,4,6,8,10,12,14,16,18,20,-1,22,24,26,28,-1,-1,-1,-1,-1,-1,-1,-1,-1,-1,-1,-1,-1,-1],"split_conditions":[4E0,3E0,1.9E1,6E0,6E0,7E0,2.2E1,2E0,1E0,2E0,-2.874776E-1,5E0,9E0,7E0,5E0,-3.813462E-1,-3.4215578E-1,-2.4250622E-1,-3.0961603E-1,-2.0423149E-1,-7.892561E-2,-7.279994E-2,1.8042319E-1,-3.338146E-1,7.392934E-2,-4.215671E-2,-2.1741438E-1,-3.447729E-1,-1.4681523E-1],"split_indices":[1,1,1,0,0,0,1,1,1,0,0,1,1,0,0,0,0,0,0,0,0,0,0,0,0,0,0,0,0],"split_type":[0,0,0,0,0,0,0,0,0,0,0,0,0,0,0,0,0,0,0,0,0,0,0,0,0,0,0,0,0],"sum_hessian":[1.6087E4,1.669E3,1.4418E4,1.485E3,1.84E2,9.424E3,4.994E3,1.021E3,4.64E2,1.19E2,6.5E1,7.748E3,1.676E3,3.033E3,1.961E3,8.12E2,2.09E2,2E2,2.64E2,7E1,4.9E1,4.79E2,7.269E3,3.69E2,1.307E3,2.567E3,4.66E2,1.033E3,9.28E2],"tree_param":{"num_deleted":"0","num_feature":"2","num_nodes":"29","size_leaf_vector":"1"}},{"base_weights":[-1.7688249E-3,-2.5148652E0,4.038679E-1,-3.1059139E0,-1.3420115E0,1.3454825E0,-1.2662356E0,-3.2897675E0,-2.2915862E0,-4.8829332E-1,-3.659848E0,1.796451E0,5.4584813E-1,-2.0884569E-1,-1.9037924E0,-3.4339663E-1,-2.9669997E-1,-1.5816619E-1,-2.597638E-1,-1.3858634E-1,-2.3725692E-2,-2.5916544E-1,-4.147738E-1,1.3301848E-1,2.2678761E-1,-2.712965E-1,9.385877E-2,-3.7079942E-3,-1.3234645E-1,-3.024995E-1,-1.1650524E-1],"categories":[],"categories_nodes":[],"categories_segments":[],"categories_sizes":[],"default_left":[0,0,0,0,0,0,0,0,0,0,0,0,0,0,0,0,0,0,0,0,0,0,0,0,0,0,0,0,0,0,0],"id":12,"left_children":[1,3,5,7,9,11,13,15,17,19,21,23,25,27,29,-1,-1,-1,-1,-1,-1,-1,-1,-1,-1,-1,-1,-1,-1,-1,-1],"loss_changes":[1.640119E4,1.5458564E3,2.1786846E4,2.149414E2,1.484276E3,3.1936611E3,3.3669624E3,4.612793E1,5.607617E1,1.23598724E2,9.452515E1,1.2419844E3,4.092994E3,3.5988315E2,2.5773867E3,0E0,0E0,0E0,0E0,0E0,0E0,0E0,0E0,0E0,0E0,0E0,0E0,0E0,0E0,0E0,0E0],"parents":[2147483647,0,0,1,1,2,2,3,3,4,4,5,5,6,6,7,7,8,8,9,9,10,10,11,11,12,12,13,13,14,14],"right_children":[2,4,6,8,10,12,14,16,18,20,22,24,26,28,30,-1,-1,-1,-1,-1,-1,-1,-1,-1,-1,-1,-1,-1,-1,-1,-1],"split_conditions":[5E0,3E0,1.9E1,7E0,6E0,6E0,2.1E1,5E0,1E0,4E0,4E0,1.3E1,8E0,7E0,4E0,-3.4339663E-1,-2.9669997E-1,-1.5816619E-1,-2.597638E-1,-1.3858634E-1,-2.3725692E-2,-2.5916544E-1,-4.147738E-1,1.3301848E-1,2.2678761E-1,-2.712965E-1,9.385877E-2,-3.7079942E-3,-1.3234645E-1,-3.024995E-1,-1.1650524E-1],"split_indices":[1,1,1,0,0,0,1,0,1,1,1,1,1,0,0,0,0,0,0,0,0,0,0,0,0,0,0,0,0,0,0],"split_type":[0,0,0,0,0,0,0,0,0,0,0,0,0,0,0,0,0,0,0,0,0,0,0,0,0,0,0,0,0,0,0],"sum_hessian":[1.6087E4,2.235E3,1.3852E4,1.485E3,7.5E2,8.858E3,4.994E3,1.209E3,2.76E2,5.49E2,2.01E2,5.663E3,3.195E3,1.879E3,3.115E3,8.29E2,3.8E2,8.5E1,1.91E2,1.19E2,4.3E2,6.5E1,1.36E2,2.849E3,2.814E3,3.43E2,2.852E3,1.629E3,2.5E2,1.236E3,1.879E3],"tree_param":{"num_deleted":"0","num_feature":"2","num_nodes":"31","size_leaf_vector":"1"}},{"base_weights":[-1.7328367E-3,-2.264226E0,3.6345422E-1,-2.7960346E0,-1.208924E0,1.2109548E0,-1.1397232E0,-2.9613197E0,-2.0639365E0,-4.3975934E-1,-3.2971995E0,1.4721789E0,1.5790753E-2,-7.8271806E-1,-2.899651E0,-3.0909833E-1,-2.6710784E-1,-1.4253351E-1,-2.3392272E-1,-7.9293974E-2,1.5848538E-2,-2.3364158E-1,-3.7359917E-1,1.664765E-1,6.4678036E-2,-2.2244826E-1,6.851167E-2,-1.6395123E-1,-1.9204775E-2,-2.4372461E-1,-5.124106E-1],"categories":[],"categories_nodes":[],"categories_segments":[],"categories_sizes":[],"default_left":[0,0,0,0,0,0,0,0,0,0,0,0,0,0,0,0,0,0,0,0,0,0,0,0,0,0,0,0,0,0,0],"id":13,"left_children":[1,3,5,7,9,11,13,15,17,19,21,23,25,27,29,-1,-1,-1,-1,-1,-1,-1,-1,-1,-1,-1,-1,-1,-1,-1,-1],"loss_changes":[1.3293264E4,1.2515029E3,1.764932E4,1.7370215E2,1.2048271E3,2.7658076E3,3.136105E3,3.7279297E1,4.536267E1,1.1633422E2,7.643115E1,1.1545645E3,2.385686E3,2.1019531E3,8.535918E2,0E0,0E0,0E0,0E0,0E0,0E0,0E0,0E0,0E0,0E0,0E0,0E0,0E0,0E0,0E0,0E0],"parents":[2147483647,0,0,1,1,2,2,3,3,4,4,5,5,6,6,7,7,8,8,9,9,10,10,11,11,12,12,13,13,14,14],"right_children":[2,4,6,8,10,12,14,16,18,20,22,24,26,28,30,-1,-1,-1,-1,-1,-1,-1,-1,-1,-1,-1,-1,-1,-1,-1,-1],"split_conditions":[5E0,3E0,1.9E1,7E0,6E0,7E0,2.3E1,5E0,1E0,4E0,4E0,1.7E1,1E1,4E0,7E0,-3.0909833E-1,-2.6710784E-1,-1.4253351E-1,-2.3392272E-1,-7.9293974E-2,1.5848538E-2,-2.3364158E-1,-3.7359917E-1,1.664765E-1,6.4678036E-2,-2.2244826E-1,6.851167E-2,-1.6395123E-1,-1.9204775E-2,-2.4372461E-1,-5.124106E-1],"split_indices":[1,1,1,0,0,0,1,0,1,0,1,1,1,0,0,0,0,0,0,0,0,0,0,0,0,0,0,0,0,0,0],"split_type":[0,0,0,0,0,0,0,0,0,0,0,0,0,0,0,0,0,0,0,0,0,0,0,0,0,0,0,0,0,0,0],"sum_hessian":[1.6087E4,2.235E3,1.3852E4,1.485E3,7.5E2,8.858E3,4.994E3,1.209E3,2.76E2,5.49E2,2.01E2,7.269E3,1.589E3,4.153E3,8.41E2,8.29E2,3.8E2,8.5E1,1.91E2,3.45E2,2.04E2,6.5E1,1.36E2,5.893E3,1.376E3,3.65E2,1.224E3,1.694E3,2.459E3,6.98E2,1.43E2],"tree_param":{"num_deleted":"0","num_feature":"2","num_nodes":"31","size_leaf_vector":"1"}},{"base_weights":[-1.7142796E-3,-2.4084673E0,2.7703455E-1,-2.5170722E0,-1.5230873E0,7.8793293E-1,-1.5764546E0,-2.7285113E0,-2.0469477E0,-1.1896201E0,-2.1063142E-1,1.009383E0,-2.9019213E-1,-1.1623224E0,-3.424206E0,-2.4394138E-1,-2.81848E-1,-1.8497077E-1,-2.4870618E-1,-1.460163E-1,-1.5534356E-2,1.3137218E-1,1.2890733E-2,-2.5600004E-1,2.490372E-2,-2.294954E-1,9.0938315E-2,-3.014522E-1,-4.615254E-1],"categories":[],"categories_nodes":[],"categories_segments":[],"categories_sizes":[],"default_left":[0,0,0,0,0,0,0,0,0,0,0,0,0,0,0,0,0,0,0,0,0,0,0,0,0,0,0,0,0],"id":14,"left_children":[1,3,5,7,9,11,13,15,17,19,-1,21,23,25,27,-1,-1,-1,-1,-1,-1,-1,-1,-1,-1,-1,-1,-1,-1],"loss_changes":[1.0793777E4,1.5674805E2,1.3655236E4,1.4212695E2,3.3474396E1,2.6991328E3,2.3804238E3,1.9706543E1,3.576538E1,3.335112E1,0E0,2.5127861E3,2.359184E3,5.9785693E3,2.642212E2,0E0,0E0,0E0,0E0,0E0,0E0,0E0,0E0,0E0,0E0,0E0,0E0,0E0,0E0],"parents":[2147483647,0,0,1,1,2,2,3,3,4,4,5,5,6,6,7,7,8,8,9,9,11,11,12,12,13,13,14,14],"right_children":[2,4,6,8,10,12,14,16,18,20,-1,22,24,26,28,-1,-1,-1,-1,-1,-1,-1,-1,-1,-1,-1,-1,-1,-1],"split_conditions":[4E0,3E0,2.1E1,6E0,6E0,7E0,7E0,2E0,2E0,3E0,-2.1063142E-1,1.8E1,9E0,5E0,2.3E1,-2.4394138E-1,-2.81848E-1,-1.8497077E-1,-2.4870618E-1,-1.460163E-1,-1.5534356E-2,1.3137218E-1,1.2890733E-2,-2.5600004E-1,2.490372E-2,-2.294954E-1,9.0938315E-2,-3.014522E-1,-4.615254E-1],"split_indices":[1,1,1,0,0,0,0,0,1,0,0,1,1,0,1,0,0,0,0,0,0,0,0,0,0,0,0,0,0],"split_type":[0,0,0,0,0,0,0,0,0,0,0,0,0,0,0,0,0,0,0,0,0,0,0,0,0,0,0,0,0],"sum_hessian":[1.6087E4,1.669E3,1.4418E4,1.485E3,1.84E2,1.1303E4,3.115E3,1.021E3,4.64E2,1.19E2,6.5E1,9.377E3,1.926E3,2.546E3,5.69E2,2.49E2,7.72E2,3.24E2,1.4E2,9.4E1,2.5E1,6.968E3,2.409E3,3.69E2,1.557E3,1.646E3,9E2,4.26E2,1.43E2],"tree_param":{"num_deleted":"0","num_feature":"2","num_nodes":"29","size_leaf_vector":"1"}},{"base_weights":[-1.6872265E-3,-1.877426E0,3.0107418E-1,-2.2660105E0,-1.1060357E0,9.079543E-1,-1.1259155E0,-2.4043205E0,-1.6536603E0,-4.7294626E-1,-2.8243184E0,1.1039479E0,-2.9322976E-2,-7.948438E-1,-2.6737666E0,-2.512121E-1,-2.1631692E-1,-1.10163905E-1,-1.8923071E-1,-7.695075E-2,2.9898384E-3,-1.8988742E-1,-3.2495376E-1,1.3176459E-1,2.0846121E-2,-1.2164285E-1,7.384912E-2,-1.7976053E-1,9.656979E-2,-1.8040398E-1,-3.5875344E-1],"categories":[],"categories_nodes":[],"categories_segments":[],"categories_sizes":[],"default_left":[0,0,0,0,0,0,0,0,0,0,0,0,0,0,0,0,0,0,0,0,0,0,0,0,0,0,0,0,0,0,0],"id":15,"left_children":[1,3,5,7,9,11,13,15,17,19,21,23,25,27,29,-1,-1,-1,-1,-1,-1,-1,-1,-1,-1,-1,-1,-1,-1,-1,-1],"loss_changes":[9.136961E3,6.6773584E2,1.1997882E4,1.21879395E2,8.156221E2,1.7855991E3,2.1163418E3,2.6021484E1,3.44068E1,8.204135E1,7.331995E1,1.5380977E3,1.5340017E3,6.016466E3,5.720908E2,0E0,0E0,0E0,0E0,0E0,0E0,0E0,0E0,0E0,0E0,0E0,0E0,0E0,0E0,0E0,0E0],"parents":[2147483647,0,0,1,1,2,2,3,3,4,4,5,5,6,6,7,7,8,8,9,9,10,10,11,11,12,12,13,13,14,14],"right_children":[2,4,6,8,10,12,14,16,18,20,22,24,26,28,30,-1,-1,-1,-1,-1,-1,-1,-1,-1,-1,-1,-1,-1,-1,-1,-1],"split_conditions":[5E0,3E0,2E1,7E0,6E0,7E0,7E0,5E0,1E0,4E0,4E0,1.8E1,1.3E1,5E0,2.2E1,-2.512121E-1,-2.1631692E-1,-1.10163905E-1,-1.8923071E-1,-7.695075E-2,2.9898384E-3,-1.8988742E-1,-3.2495376E-1,1.3176459E-1,2.0846121E-2,-1.2164285E-1,7.384912E-2,-1.7976053E-1,9.656979E-2,-1.8040398E-1,-3.5875344E-1],"split_indices":[1,1,1,0,0,0,0,0,1,0,1,1,1,0,1,0,0,0,0,0,0,0,0,0,0,0,0,0,0,0,0],"split_type":[0,0,0,0,0,0,0,0,0,0,0,0,0,0,0,0,0,0,0,0,0,0,0,0,0,0,0,0,0,0,0],"sum_hessian":[1.6087E4,2.235E3,1.3852E4,1.485E3,7.5E2,9.719E3,4.133E3,1.209E3,2.76E2,5.49E2,2.01E2,8.038E3,1.681E3,3.406E3,7.27E2,8.29E2,3.8E2,8.5E1,1.91E2,3.45E2,2.04E2,6.5E1,1.36E2,6.489E3,1.549E3,6.6E2,1.021E3,2.17E3,1.236E3,3.74E2,3.53E2],"tree_param":{"num_deleted":"0","num_feature":"2","num_nodes":"31","size_leaf_vector":"1"}},{"base_weights":[-1.63526E-3,-1.6902899E0,2.7092904E-1,-2.0399256E0,-9.962165E-1,7.2643983E-1,-1.2988867E0,-2.164275E0,-1.4893751E0,-2.7536777E-1,-2.2719803E0,1.035869E0,1.1236625E-1,-2.4426358E0,-8.540546E-1,-2.2612114E-1,-1.9474202E-1,-9.927564E-2,-1.7040618E-1,-6.9277965E-2,7.8860186E-2,-1.2825091E-1,-2.756897E-1,4.6871416E-2,1.864927E-1,-9.293973E-2,2.5776206E-2,-2.1417761E-1,-3.3034188E-1,-1.942597E-2,-2.7925846E-1],"categories":[],"categories_nodes":[],"categories_segments":[],"categories_sizes":[],"default_left":[0,0,0,0,0,0,0,0,0,0,0,0,0,0,0,0,0,0,0,0,0,0,0,0,0,0,0,0,0,0,0],"id":16,"left_children":[1,3,5,7,9,11,13,15,17,19,21,23,25,27,29,-1,-1,-1,-1,-1,-1,-1,-1,-1,-1,-1,-1,-1,-1,-1,-1],"loss_changes":[7.4052324E3,5.405845E2,9.906781E3,9.850928E1,6.9001855E2,2.0402354E3,1.5832617E3,2.1031738E1,2.7841248E1,2.1416492E2,1.2649304E2,3.3563843E3,5.4537305E2,2.1875049E2,2.870885E3,0E0,0E0,0E0,0E0,0E0,0E0,0E0,0E0,0E0,0E0,0E0,0E0,0E0,0E0,0E0,0E0],"parents":[2147483647,0,0,1,1,2,2,3,3,4,4,5,5,6,6,7,7,8,8,9,9,10,10,11,11,12,12,13,13,14,14],"right_children":[2,4,6,8,10,12,14,16,18,20,22,24,26,28,30,-1,-1,-1,-1,-1,-1,-1,-1,-1,-1,-1,-1,-1,-1,-1,-1],"split_conditions":[5E0,3E0,2.1E1,7E0,5E0,1.7E1,3E0,5E0,1E0,4E0,4E0,1.3E1,2E0,2.3E1,7E0,-2.2612114E-1,-1.9474202E-1,-9.927564E-2,-1.7040618E-1,-6.9277965E-2,7.8860186E-2,-1.2825091E-1,-2.756897E-1,4.6871416E-2,1.864927E-1,-9.293973E-2,2.5776206E-2,-2.1417761E-1,-3.3034188E-1,-1.942597E-2,-2.7925846E-1],"split_indices":[1,1,1,0,0,1,0,0,1,0,1,1,0,1,0,0,0,0,0,0,0,0,0,0,0,0,0,0,0,0,0],"split_type":[0,0,0,0,0,0,0,0,0,0,0,0,0,0,0,0,0,0,0,0,0,0,0,0,0,0,0,0,0,0,0],"sum_hessian":[1.6087E4,2.235E3,1.3852E4,1.485E3,7.5E2,1.0737E4,3.115E3,1.209E3,2.76E2,4.8E2,2.7E2,7.139E3,3.598E3,8.71E2,2.244E3,8.29E2,3.8E2,8.5E1,1.91E2,3.45E2,1.35E2,9E1,1.8E2,4.24E3,2.899E3,4.4E2,3.158E3,6.48E2,2.23E2,1.675E3,5.69E2],"tree_param":{"num_deleted":"0","num_feature":"2","num_nodes":"31","size_leaf_vector":"1"}},{"base_weights":[-1.5811394E-3,-1.521746E0,2.437874E-1,-1.8363978E0,-8.971198E-1,6.5381145E-1,-1.1692685E0,-1.9481952E0,-1.341411E0,-2.47811E-1,-2.0462728E0,9.323149E-1,1.0111119E-1,-2.1989965E0,-7.6878196E-1,-2.0353627E-1,-1.7531893E-1,-8.946352E-2,-1.5345429E-1,-6.237021E-2,7.103223E-2,-1.1556673E-1,-2.4827302E-1,4.21854E-2,1.6784984E-1,-8.366685E-2,2.319943E-2,-1.9279283E-1,-2.9745516E-1,-1.7484507E-2,-2.513816E-1],"categories":[],"categories_nodes":[],"categories_segments":[],"categories_sizes":[],"default_left":[0,0,0,0,0,0,0,0,0,0,0,0,0,0,0,0,0,0,0,0,0,0,0,0,0,0,0,0,0,0,0],"id":17,"left_children":[1,3,5,7,9,11,13,15,17,19,21,23,25,27,29,-1,-1,-1,-1,-1,-1,-1,-1,-1,-1,-1,-1,-1,-1,-1,-1],"loss_changes":[6.0012046E3,4.3781543E2,8.0270107E3,7.961963E1,5.598554E2,1.6527944E3,1.2833232E3,1.6999512E1,2.2528564E1,1.73677E2,1.0247156E2,2.7189E3,4.419337E2,1.7758447E2,2.3263687E3,0E0,0E0,0E0,0E0,0E0,0E0,0E0,0E0,0E0,0E0,0E0,0E0,0E0,0E0,0E0,0E0],"parents":[2147483647,0,0,1,1,2,2,3,3,4,4,5,5,6,6,7,7,8,8,9,9,10,10,11,11,12,12,13,13,14,14],"right_children":[2,4,6,8,10,12,14,16,18,20,22,24,26,28,30,-1,-1,-1,-1,-1,-1,-1,-1,-1,-1,-1,-1,-1,-1,-1,-1],"split_conditions":[5E0,3E0,2.1E1,7E0,5E0,1.7E1,3E0,5E0,1E0,4E0,4E0,1.3E1,2E0,2.3E1,7E0,-2.0353627E-1,-1.7531893E-1,-8.946352E-2,-1.5345429E-1,-6.237021E-2,7.103223E-2,-1.1556673E-1,-2.4827302E-1,4.21854E-2,1.6784984E-1,-8.366685E-2,2.319943E-2,-1.9279283E-1,-2.9745516E-1,-1.7484507E-2,-2.513816E-1],"split_indices":[1,1,1,0,0,1,0,0,1,0,1,1,0,1,0,0,0,0,0,0,0,0,0,0,0,0,0,0,0,0,0],"split_type":[0,0,0,0,0,0,0,0,0,0,0,0,0,0,0,0,0,0,0,0,0,0,0,0,0,0,0,0,0,0,0],"sum_hessian":[1.6087E4,2.235E3,1.3852E4,1.485E3,7.5E2,1.0737E4,3.115E3,1.209E3,2.76E2,4.8E2,2.7E2,7.139E3,3.598E3,8.71E2,2.244E3,8.29E2,3.8E2,8.5E1,1.91E2,3.45E2,1.35E2,9E1,1.8E2,4.24E3,2.899E3,4.4E2,3.158E3,6.48E2,2.23E2,1.675E3,5.69E2],"tree_param":{"num_deleted":"0","num_feature":"2","num_nodes":"31","size_leaf_vector":"1"}},{"base_weights":[-1.5215324E-3,-1.3700082E0,2.1936476E-1,-1.6531764E0,-8.0788064E-1,7.370875E-1,-6.988985E-1,-1.7536888E0,-1.2081468E0,-3.2699907E-1,-2.113212E0,1.0781996E0,1.3233279E-1,-4.2162347E-1,-2.0660024E0,-1.5183023E-1,-1.8130988E-1,-8.0621175E-2,-1.3818878E-1,-5.6151208E-2,7.0408196E-3,-1.4717402E-1,-2.4068177E-1,6.78724E-2,1.482259E-1,-2.4687143E-1,4.4590723E-2,-1.8457111E-2,-1.6388266E-1,-1.8142474E-1,-3.2737166E-1],"categories":[],"categories_nodes":[],"categories_segments":[],"categories_sizes":[],"default_left":[0,0,0,0,0,0,0,0,0,0,0,0,0,0,0,0,0,0,0,0,0,0,0,0,0,0,0,0,0,0,0],"id":18,"left_children":[1,3,5,7,9,11,13,15,17,19,21,23,25,27,29,-1,-1,-1,-1,-1,-1,-1,-1,-1,-1,-1,-1,-1,-1,-1,-1],"loss_changes":[4.863381E3,3.545835E2,6.586311E3,6.435156E1,4.7071912E2,1.8273726E3,1.8925525E3,1.4168213E1,1.8229523E1,5.1297985E1,3.450244E1,9.1323096E2,2.6078281E3,1.1982961E3,2.5006934E2,0E0,0E0,0E0,0E0,0E0,0E0,0E0,0E0,0E0,0E0,0E0,0E0,0E0,0E0,0E0,0E0],"parents":[2147483647,0,0,1,1,2,2,3,3,4,4,5,5,6,6,7,7,8,8,9,9,10,10,11,11,12,12,13,13,14,14],"right_children":[2,4,6,8,10,12,14,16,18,20,22,24,26,28,30,-1,-1,-1,-1,-1,-1,-1,-1,-1,-1,-1,-1,-1,-1,-1,-1],"split_conditions":[5E0,3E0,1.9E1,7E0,6E0,6E0,2.3E1,2E0,1E0,4E0,4E0,1.3E1,8E0,7E0,7E0,-1.5183023E-1,-1.8130988E-1,-8.0621175E-2,-1.3818878E-1,-5.6151208E-2,7.0408196E-3,-1.4717402E-1,-2.4068177E-1,6.78724E-2,1.482259E-1,-2.4687143E-1,4.4590723E-2,-1.8457111E-2,-1.6388266E-1,-1.8142474E-1,-3.2737166E-1],"split_indices":[1,1,1,0,0,0,1,0,1,0,1,1,1,0,0,0,0,0,0,0,0,0,0,0,0,0,0,0,0,0,0],"split_type":[0,0,0,0,0,0,0,0,0,0,0,0,0,0,0,0,0,0,0,0,0,0,0,0,0,0,0,0,0,0,0],"sum_hessian":[1.6087E4,2.235E3,1.3852E4,1.485E3,7.5E2,8.858E3,4.994E3,1.209E3,2.76E2,5.49E2,2.01E2,5.663E3,3.195E3,4.153E3,8.41E2,2.49E2,9.6E2,8.5E1,1.91E2,3.45E2,2.04E2,6.5E1,1.36E2,2.849E3,2.814E3,3.43E2,2.852E3,3.477E3,6.76E2,6.98E2,1.43E2],"tree_param":{"num_deleted":"0","num_feature":"2","num_nodes":"31","size_leaf_vector":"1"}},{"base_weights":[-1.4729053E-3,-1.2334496E0,1.9737944E-1,-1.4882302E0,-7.276742E-1,5.3425044E-1,-9.635699E-1,-1.6197731E0,-1.195918E0,-1.8471257E-1,-1.6886958E0,6.988857E-1,-2.6228407E-1,-1.5654311E0,-2.8858408E-1,-1.3670795E-1,-1.6994028E-1,-1.03731774E-1,-1.5530044E-1,-5.055229E-2,6.328248E-2,-9.381806E-2,-2.0566969E-1,9.2844956E-2,8.039245E-3,-1.6924153E-1,9.276021E-3,-1.2806618E-1,-2.4470821E-1,8.312901E-2,-2.058265E-1],"categories":[],"categories_nodes":[],"categories_segments":[],"categories_sizes":[],"default_left":[0,0,0,0,0,0,0,0,0,0,0,0,0,0,0,0,0,0,0,0,0,0,0,0,0,0,0,0,0,0,0],"id":19,"left_children":[1,3,5,7,9,11,13,15,17,19,21,23,25,27,29,-1,-1,-1,-1,-1,-1,-1,-1,-1,-1,-1,-1,-1,-1,-1,-1],"loss_changes":[3.9415051E3,2.87052E2,5.4182866E3,5.5201904E1,3.9155826E2,1.4083396E3,1.2654163E3,1.8241455E1,2.4723816E1,1.264739E2,7.291803E1,1.2634385E3,9.344352E2,4.1037378E2,2.9149863E3,0E0,0E0,0E0,0E0,0E0,0E0,0E0,0E0,0E0,0E0,0E0,0E0,0E0,0E0,0E0,0E0],"parents":[2147483647,0,0,1,1,2,2,3,3,4,4,5,5,6,6,7,7,8,8,9,9,10,10,11,11,12,12,13,13,14,14],"right_children":[2,4,6,8,10,12,14,16,18,20,22,24,26,28,30,-1,-1,-1,-1,-1,-1,-1,-1,-1,-1,-1,-1,-1,-1,-1,-1],"split_conditions":[5E0,3E0,2.1E1,6E0,5E0,7E0,5E0,2E0,2E0,4E0,4E0,1.8E1,1E1,2.3E1,7E0,-1.3670795E-1,-1.6994028E-1,-1.03731774E-1,-1.5530044E-1,-5.055229E-2,6.328248E-2,-9.381806E-2,-2.0566969E-1,9.2844956E-2,8.039245E-3,-1.6924153E-1,9.276021E-3,-1.2806618E-1,-2.4470821E-1,8.312901E-2,-2.058265E-1],"split_indices":[1,1,1,0,0,0,0,0,1,0,1,1,1,1,0,0,0,0,0,0,0,0,0,0,0,0,0,0,0,0,0],"split_type":[0,0,0,0,0,0,0,0,0,0,0,0,0,0,0,0,0,0,0,0,0,0,0,0,0,0,0,0,0,0,0],"sum_hessian":[1.6087E4,2.235E3,1.3852E4,1.485E3,7.5E2,1.0737E4,3.115E3,1.021E3,4.64E2,4.8E2,2.7E2,8.898E3,1.839E3,1.646E3,1.469E3,2.49E2,7.72E2,3.24E2,1.4E2,3.45E2,1.35E2,9E1,1.8E2,6.489E3,2.409E3,3.65E2,1.474E3,1.246E3,4E2,9E2,5.69E2],"tree_param":{"num_deleted":"0","num_feature":"2","num_nodes":"31","size_leaf_vector":"1"}},{"base_weights":[-1.4126932E-3,-1.1104859E0,1.7760189E-1,-1.3397878E0,-6.552885E-1,5.453382E-1,-6.870751E-1,-1.5000584E0,-1.1352761E0,-2.5749284E-1,-1.7351514E0,7.921855E-1,1.0089869E-1,-1.2557241E0,-5.81423E-2,-1.2309182E-1,-1.6132855E-1,-9.2528515E-2,-1.2784778E-1,-7.567661E-2,-1.1788662E-2,-1.23439945E-1,-1.9637243E-1,2.7699253E-1,7.198978E-2,-2.1901874E-1,3.527468E-2,-8.035868E-2,-1.7521231E-1,8.777951E-2,-1.6483846E-1],"categories":[],"categories_nodes":[],"categories_segments":[],"categories_sizes":[],"default_left":[0,0,0,0,0,0,0,0,0,0,0,0,0,0,0,0,0,0,0,0,0,0,0,0,0,0,0,0,0,0,0],"id":20,"left_children":[1,3,5,7,9,11,13,15,17,19,21,23,25,27,29,-1,-1,-1,-1,-1,-1,-1,-1,-1,-1,-1,-1,-1,-1,-1,-1],"loss_changes":[3.194313E3,2.3251074E2,4.4052563E3,4.7003906E1,3.221564E2,1.0662886E3,1.4784192E3,2.3307495E1,1.857367E1,3.82467E1,2.0696533E1,8.914026E2,2.0041364E3,4.8585205E2,2.9245999E3,0E0,0E0,0E0,0E0,0E0,0E0,0E0,0E0,0E0,0E0,0E0,0E0,0E0,0E0,0E0,0E0],"parents":[2147483647,0,0,1,1,2,2,3,3,4,4,5,5,6,6,7,7,8,8,9,9,10,10,11,11,12,12,13,13,14,14],"right_children":[2,4,6,8,10,12,14,16,18,20,22,24,26,28,30,-1,-1,-1,-1,-1,-1,-1,-1,-1,-1,-1,-1,-1,-1,-1,-1],"split_conditions":[5E0,3E0,2E1,5E0,6E0,6E0,5E0,2E0,1E0,4E0,4E0,6E0,8E0,2.2E1,7E0,-1.2309182E-1,-1.6132855E-1,-9.2528515E-2,-1.2784778E-1,-7.567661E-2,-1.1788662E-2,-1.23439945E-1,-1.9637243E-1,2.7699253E-1,7.198978E-2,-2.1901874E-1,3.527468E-2,-8.035868E-2,-1.7521231E-1,8.777951E-2,-1.6483846E-1],"split_indices":[1,1,1,0,0,0,0,0,1,1,1,1,1,1,0,0,0,0,0,0,0,0,0,0,0,0,0,0,0,0,0],"split_type":[0,0,0,0,0,0,0,0,0,0,0,0,0,0,0,0,0,0,0,0,0,0,0,0,0,0,0,0,0,0,0],"sum_hessian":[1.6087E4,2.235E3,1.3852E4,1.485E3,7.5E2,9.719E3,4.133E3,8.29E2,6.56E2,5.49E2,2.01E2,6.248E3,3.471E3,2.17E3,1.963E3,2.49E2,5.8E2,2.69E2,3.87E2,1.19E2,4.3E2,6.5E1,1.36E2,2.19E2,6.029E3,3.43E2,3.128E3,1.137E3,1.033E3,1.236E3,7.27E2],"tree_param":{"num_deleted":"0","num_feature":"2","num_nodes":"31","size_leaf_vector":"1"}},{"base_weights":[-1.3382339E-3,-9.9984527E-1,1.5982996E-1,-1.2061489E0,-5.90302E-1,6.1184335E-1,-4.4029936E-1,-1.2863916E0,-8.512753E-1,-1.419651E-1,-1.3838804E0,2.2862846E-1,1.0554814E0,-2.3959677E-1,-1.6580555E0,-1.3503952E-1,-1.143585E-1,-5.3255E-2,-9.89604E-2,-4.260054E-2,5.817107E-2,-7.3643185E-2,-1.7017475E-1,4.6253435E-2,-1.03891395E-1,1.9869928E-1,7.813477E-2,-8.9275405E-2,2.1220278E-2,-1.4656463E-1,-2.5805277E-1],"categories":[],"categories_nodes":[],"categories_segments":[],"categories_sizes":[],"default_left":[0,0,0,0,0,0,0,0,0,0,0,0,0,0,0,0,0,0,0,0,0,0,0,0,0,0,0,0,0,0,0],"id":21,"left_children":[1,3,5,7,9,11,13,15,17,19,21,23,25,27,29,-1,-1,-1,-1,-1,-1,-1,-1,-1,-1,-1,-1,-1,-1,-1,-1],"loss_changes":[2.5891626E3,1.8820825E2,3.7581245E3,4.1220215E1,2.6700214E2,1.3431675E3,1.4543123E3,9.515259E0,1.1685577E1,9.911884E1,5.4519226E1,1.257876E3,9.335713E2,1.5084258E3,1.4566626E2,0E0,0E0,0E0,0E0,0E0,0E0,0E0,0E0,0E0,0E0,0E0,0E0,0E0,0E0,0E0,0E0],"parents":[2147483647,0,0,1,1,2,2,3,3,4,4,5,5,6,6,7,7,8,8,9,9,10,10,11,11,12,12,13,13,14,14],"right_children":[2,4,6,8,10,12,14,16,18,20,22,24,26,28,30,-1,-1,-1,-1,-1,-1,-1,-1,-1,-1,-1,-1,-1,-1,-1,-1],"split_conditions":[5E0,3E0,1.8E1,7E0,5E0,1.3E1,2.3E1,5E0,1E0,4E0,4E0,7E0,3E0,4E0,7E0,-1.3503952E-1,-1.143585E-1,-5.3255E-2,-9.89604E-2,-4.260054E-2,5.817107E-2,-7.3643185E-2,-1.7017475E-1,4.6253435E-2,-1.03891395E-1,1.9869928E-1,7.813477E-2,-8.9275405E-2,2.1220278E-2,-1.4656463E-1,-2.5805277E-1],"split_indices":[1,1,1,0,0,1,1,0,1,0,1,0,0,0,0,0,0,0,0,0,0,0,0,0,0,0,0,0,0,0,0],"split_type":[0,0,0,0,0,0,0,0,0,0,0,0,0,0,0,0,0,0,0,0,0,0,0,0,0,0,0,0,0,0,0],"sum_hessian":[1.6087E4,2.235E3,1.3852E4,1.485E3,7.5E2,7.901E3,5.951E3,1.209E3,2.76E2,4.8E2,2.7E2,4.24E3,3.661E3,5.11E3,8.41E2,8.29E2,3.8E2,8.5E1,1.91E2,3.45E2,1.35E2,9E1,1.8E2,3.58E3,6.6E2,8.31E2,2.83E3,2.089E3,3.021E3,6.98E2,1.43E2],"tree_param":{"num_deleted":"0","num_feature":"2","num_nodes":"31","size_leaf_vector":"1"}},{"base_weights":[-1.2592662E-3,-9.001423E-1,1.4382872E-1,-1.05277E0,-4.4901657E-1,5.506869E-1,-3.9634886E-1,-1.1830233E0,-8.90244E-1,2.1757808E-1,-6.74001E-1,2.0575221E-1,9.5000887E-1,-1.1472622E0,-1.1788542E-1,-9.948113E-2,-1.2806182E-1,-7.3840074E-2,-9.741508E-2,-2.1900194E-2,-1.532513E-1,4.1629404E-2,-9.351798E-2,1.7885315E-1,7.032407E-2,-7.0351265E-2,-1.522014E-1,2.0367363E-2,-1.1972638E-1],"categories":[],"categories_nodes":[],"categories_segments":[],"categories_sizes":[],"default_left":[0,0,0,0,0,0,0,0,0,0,0,0,0,0,0,0,0,0,0,0,0,0,0,0,0,0,0,0,0],"id":22,"left_children":[1,3,5,7,9,11,13,15,17,-1,19,21,23,25,27,-1,-1,-1,-1,-1,-1,-1,-1,-1,-1,-1,-1,-1,-1],"loss_changes":[2.0982803E3,1.5348535E2,3.0447708E3,3.430005E1,3.3630185E2,1.0882258E3,1.2444392E3,1.5698486E1,8.797974E0,0E0,2.039598E2,1.0191365E3,7.5648584E2,2.6666577E2,1.5076292E3,0E0,0E0,0E0,0E0,0E0,0E0,0E0,0E0,0E0,0E0,0E0,0E0,0E0,0E0],"parents":[2147483647,0,0,1,1,2,2,3,3,4,4,5,5,6,6,7,7,8,8,10,10,11,11,12,12,13,13,14,14],"right_children":[2,4,6,8,10,12,14,16,18,-1,20,22,24,26,28,-1,-1,-1,-1,-1,-1,-1,-1,-1,-1,-1,-1,-1,-1],"split_conditions":[5E0,4E0,1.8E1,5E0,2E0,1.3E1,3E0,2E0,1E0,2.1757808E-1,5E0,7E0,3E0,2.1E1,7E0,-9.948113E-2,-1.2806182E-1,-7.3840074E-2,-9.741508E-2,-2.1900194E-2,-1.532513E-1,4.1629404E-2,-9.351798E-2,1.7885315E-1,7.032407E-2,-7.0351265E-2,-1.522014E-1,2.0367363E-2,-1.1972638E-1],"split_indices":[1,1,1,0,0,1,0,0,1,0,0,0,0,1,0,0,0,0,0,0,0,0,0,0,0,0,0,0,0],"split_type":[0,0,0,0,0,0,0,0,0,0,0,0,0,0,0,0,0,0,0,0,0,0,0,0,0,0,0,0,0],"sum_hessian":[1.6087E4,2.235E3,1.3852E4,1.669E3,5.66E2,7.901E3,5.951E3,9.23E2,7.46E2,4.4E1,5.22E2,4.24E3,3.661E3,1.609E3,4.342E3,3.19E2,6.04E2,2.69E2,4.77E2,3.42E2,1.8E2,3.58E3,6.6E2,8.31E2,2.83E3,7.38E2,8.71E2,3.346E3,9.96E2],"tree_param":{"num_deleted":"0","num_feature":"2","num_nodes":"29","size_leaf_vector":"1"}},{"base_weights":[-1.1633608E-3,1.2612218E-1,-9.176576E-1,-8.102875E-1,3.0218053E-1,-1.418366E0,-3.5936907E-1,-9.804144E-1,-4.725792E-1,5.4500103E-1,-6.26502E-2,-1.1707261E0,-1.8063592E0,5.822827E-1,-1.890533E0,-1.0490936E-1,-6.768682E-2,-1.7134788E-2,-1.2904242E-1,1.8516442E-2,1.0710432E-1,-6.62129E-2,1.5777458E-2,-1.3444676E-1,-6.7682356E-2,-2.3714674E-1,-1.6445471E-1,1.830803E-1,-5.8049638E-2,-1.6667067E-1,-2.2053722E-1],"categories":[],"categories_nodes":[],"categories_segments":[],"categories_sizes":[],"default_left":[0,0,0,0,0,0,0,0,0,0,0,0,0,0,0,0,0,0,0,0,0,0,0,0,0,0,0,0,0,0,0],"id":23,"left_children":[1,3,5,7,9,11,13,15,17,19,21,23,25,27,29,-1,-1,-1,-1,-1,-1,-1,-1,-1,-1,-1,-1,-1,-1,-1,-1],"loss_changes":[1.8768851E3,2.3292607E3,5.4794727E2,1.280022E2,1.0535271E3,9.723462E1,1.3405547E3,3.0269043E1,1.8479561E2,1.3513269E3,6.281657E2,5.3494446E1,3.2767944E1,8.3727264E2,2.1270386E1,0E0,0E0,0E0,0E0,0E0,0E0,0E0,0E0,0E0,0E0,0E0,0E0,0E0,0E0,0E0,0E0],"parents":[2147483647,0,0,1,1,2,2,3,3,4,4,5,5,6,6,7,7,8,8,9,9,10,10,11,11,12,12,13,13,14,14],"right_children":[2,4,6,8,10,12,14,16,18,20,22,24,26,28,30,-1,-1,-1,-1,-1,-1,-1,-1,-1,-1,-1,-1,-1,-1,-1,-1],"split_conditions":[2.2E1,5E0,5E0,3E0,1.7E1,2.3E1,7E0,7E0,6E0,1.3E1,3E0,4E0,2E0,2.3E1,2.3E1,-1.0490936E-1,-6.768682E-2,-1.7134788E-2,-1.2904242E-1,1.8516442E-2,1.0710432E-1,-6.62129E-2,1.5777458E-2,-1.3444676E-1,-6.7682356E-2,-2.3714674E-1,-1.6445471E-1,1.830803E-1,-5.8049638E-2,-1.6667067E-1,-2.2053722E-1],"split_indices":[1,1,0,1,1,1,0,0,0,1,0,0,0,1,1,0,0,0,0,0,0,0,0,0,0,0,0,0,0,0,0],"split_type":[0,0,0,0,0,0,0,0,0,0,0,0,0,0,0,0,0,0,0,0,0,0,0,0,0,0,0,0,0,0,0],"sum_hessian":[1.6087E4,1.4126E4,1.961E3,2.235E3,1.1891E4,1.033E3,9.28E2,1.485E3,7.5E2,7.139E3,4.752E3,6.33E2,4E2,5.75E2,3.53E2,1.209E3,2.76E2,5.49E2,2.01E2,4.24E3,2.899E3,1.277E3,3.475E3,4.67E2,1.66E2,8.6E1,3.14E2,2.77E2,2.98E2,2.1E2,1.43E2],"tree_param":{"num_deleted":"0","num_feature":"2","num_nodes":"31","size_leaf_vector":"1"}},{"base_weights":[-1.1162139E-3,1.13492474E-1,-8.263332E-1,-7.294012E-1,2.7196848E-1,-1.2771132E0,-3.237145E-1,-8.82489E-1,-4.255158E-1,3.948769E-1,-3.162232E-1,-1.0539725E0,-1.6267245E0,5.242712E-1,-1.7025734E0,-9.44271E-2,-6.094255E-2,-1.5424413E-2,-1.16202034E-1,-2.5092993E-2,5.1247466E-2,-2.965798E-1,-2.199584E-2,-1.2103082E-1,-6.095466E-2,-2.1370463E-1,-1.4806144E-1,1.6483812E-1,-5.226413E-2,-1.5008257E-1,-1.9863664E-1],"categories":[],"categories_nodes":[],"categories_segments":[],"categories_sizes":[],"default_left":[0,0,0,0,0,0,0,0,0,0,0,0,0,0,0,0,0,0,0,0,0,0,0,0,0,0,0,0,0,0,0],"id":24,"left_children":[1,3,5,7,9,11,13,15,17,19,21,23,25,27,29,-1,-1,-1,-1,-1,-1,-1,-1,-1,-1,-1,-1,-1,-1,-1,-1],"loss_changes":[1.5216493E3,1.8872607E3,4.441178E2,1.03645874E2,8.5984186E2,7.895044E1,1.0871283E3,2.4493896E1,1.4986513E2,7.472036E2,5.2375256E2,4.3312256E1,2.6735718E1,6.787241E2,1.7286987E1,0E0,0E0,0E0,0E0,0E0,0E0,0E0,0E0,0E0,0E0,0E0,0E0,0E0,0E0,0E0,0E0],"parents":[2147483647,0,0,1,1,2,2,3,3,4,4,5,5,6,6,7,7,8,8,9,9,10,10,11,11,12,12,13,13,14,14],"right_children":[2,4,6,8,10,12,14,16,18,20,22,24,26,28,30,-1,-1,-1,-1,-1,-1,-1,-1,-1,-1,-1,-1,-1,-1,-1,-1],"split_conditions":[2.2E1,5E0,5E0,3E0,7E0,2.3E1,7E0,7E0,6E0,2E0,6E0,4E0,2E0,2.3E1,2.3E1,-9.44271E-2,-6.094255E-2,-1.5424413E-2,-1.16202034E-1,-2.5092993E-2,5.1247466E-2,-2.965798E-1,-2.199584E-2,-1.2103082E-1,-6.095466E-2,-2.1370463E-1,-1.4806144E-1,1.6483812E-1,-5.226413E-2,-1.5008257E-1,-1.9863664E-1],"split_indices":[1,1,0,1,0,1,0,0,0,0,1,0,0,1,1,0,0,0,0,0,0,0,0,0,0,0,0,0,0,0,0],"split_type":[0,0,0,0,0,0,0,0,0,0,0,0,0,0,0,0,0,0,0,0,0,0,0,0,0,0,0,0,0,0,0],"sum_hessian":[1.6087E4,1.4126E4,1.961E3,2.235E3,1.1891E4,1.033E3,9.28E2,1.485E3,7.5E2,9.836E3,2.055E3,6.33E2,4E2,5.75E2,3.53E2,1.209E3,2.76E2,5.49E2,2.01E2,1.515E3,8.321E3,7.1E1,1.984E3,4.67E2,1.66E2,8.6E1,3.14E2,2.77E2,2.98E2,2.1E2,1.43E2],"tree_param":{"num_deleted":"0","num_feature":"2","num_nodes":"31","size_leaf_vector":"1"}},{"base_weights":[-1.0888246E-3,1.3520722E-1,-5.685367E-1,-5.3316647E-1,3.3657727E-1,-1.067944E0,-2.396349E-1,-2.4198586E-1,-1.1683254E0,5.413624E-1,-2.6086602E-2,-1.1704456E0,-8.208148E-1,2.1967961E-1,-1.2956378E0,-6.1531454E-2,9.530067E-2,-7.529649E-2,-2.1556437E-1,2.1163851E-2,9.360485E-2,-7.658235E-2,7.7189766E-3,-1.0831652E-1,-1.4180997E-1,-4.7759447E-2,-1.03625976E-1,7.60981E-2,-8.872952E-2,-9.0195835E-2,-1.5333013E-1],"categories":[],"categories_nodes":[],"categories_segments":[],"categories_sizes":[],"default_left":[0,0,0,0,0,0,0,0,0,0,0,0,0,0,0,0,0,0,0,0,0,0,0,0,0,0,0,0,0,0,0],"id":25,"left_children":[1,3,5,7,9,11,13,15,17,19,21,23,25,27,29,-1,-1,-1,-1,-1,-1,-1,-1,-1,-1,-1,-1,-1,-1,-1,-1],"loss_changes":[1.2443373E3,1.7462213E3,5.1156555E2,5.55295E2,7.404678E2,3.0373901E1,9.121551E2,9.2005005E2,3.8550464E2,8.290376E2,2.7501312E2,1.73125E1,2.6569E1,7.8623553E2,5.194806E1,0E0,0E0,0E0,0E0,0E0,0E0,0E0,0E0,0E0,0E0,0E0,0E0,0E0,0E0,0E0,0E0],"parents":[2147483647,0,0,1,1,2,2,3,3,4,4,5,5,6,6,7,7,8,8,9,9,10,10,11,11,12,12,13,13,14,14],"right_children":[2,4,6,8,10,12,14,16,18,20,22,24,26,28,30,-1,-1,-1,-1,-1,-1,-1,-1,-1,-1,-1,-1,-1,-1,-1,-1],"split_conditions":[2.1E1,7E0,4E0,6E0,1.7E1,3E0,7E0,5E0,5E0,1.3E1,2E0,2.3E1,2.2E1,2.3E1,2.2E1,-6.1531454E-2,9.530067E-2,-7.529649E-2,-2.1556437E-1,2.1163851E-2,9.360485E-2,-7.658235E-2,7.7189766E-3,-1.0831652E-1,-1.4180997E-1,-4.7759447E-2,-1.03625976E-1,7.60981E-2,-8.872952E-2,-9.0195835E-2,-1.5333013E-1],"split_indices":[1,1,0,0,1,0,0,1,1,1,0,1,1,1,1,0,0,0,0,0,0,0,0,0,0,0,0,0,0,0,0],"split_type":[0,0,0,0,0,0,0,0,0,0,0,0,0,0,0,0,0,0,0,0,0,0,0,0,0,0,0,0,0,0,0],"sum_hessian":[1.6087E4,1.2972E4,3.115E3,3.003E3,9.969E3,1.236E3,1.879E3,2.06E3,9.43E2,6.371E3,3.598E3,8.71E2,3.65E2,1.31E3,5.69E2,1.57E3,4.9E2,6.65E2,2.78E2,3.472E3,2.899E3,4.4E2,3.158E3,6.48E2,2.23E2,1.42E2,2.23E2,8.8E2,4.3E2,2.16E2,3.53E2],"tree_param":{"num_deleted":"0","num_feature":"2","num_nodes":"31","size_leaf_vector":"1"}},{"base_weights":[-1.0340526E-3,1.2167011E-1,-5.1189417E-1,-4.7993547E-1,3.02924E-1,-8.702183E-1,-1.1007665E-1,-2.1777095E-1,-1.0518011E0,4.87244E-1,-2.3497203E-2,-7.1676177E-1,-1.3452559E0,5.5837184E-1,-1.1665013E0,-7.710437E-2,4.6789892E-2,-6.777816E-2,-1.9408518E-1,2.9819934E-2,1.0904985E-1,-6.894152E-2,6.947314E-3,-9.08063E-2,-4.9780873E-3,-1.1502999E-1,-1.7294507E-1,1.023792E-1,-3.821188E-2,-8.121783E-2,-1.3804041E-1],"categories":[],"categories_nodes":[],"categories_segments":[],"categories_sizes":[],"default_left":[0,0,0,0,0,0,0,0,0,0,0,0,0,0,0,0,0,0,0,0,0,0,0,0,0,0,0,0,0,0,0],"id":26,"left_children":[1,3,5,7,9,11,13,15,17,19,21,23,25,27,29,-1,-1,-1,-1,-1,-1,-1,-1,-1,-1,-1,-1,-1,-1,-1,-1],"loss_changes":[1.00853314E3,1.4147649E3,4.485487E2,4.501391E2,5.9986597E2,1.19098145E2,1.0387146E3,7.822268E2,3.1258557E2,7.263508E2,2.2286421E2,1.5906488E2,2.804596E1,3.947799E2,4.207953E1,0E0,0E0,0E0,0E0,0E0,0E0,0E0,0E0,0E0,0E0,0E0,0E0,0E0,0E0,0E0,0E0],"parents":[2147483647,0,0,1,1,2,2,3,3,4,4,5,5,6,6,7,7,8,8,9,9,10,10,11,11,12,12,13,13,14,14],"right_children":[2,4,6,8,10,12,14,16,18,20,22,24,26,28,30,-1,-1,-1,-1,-1,-1,-1,-1,-1,-1,-1,-1,-1,-1,-1,-1],"split_conditions":[2.1E1,7E0,5E0,6E0,1.7E1,2.3E1,7E0,4E0,5E0,1.5E1,2E0,4E0,4E0,2.3E1,2.2E1,-7.710437E-2,4.6789892E-2,-6.777816E-2,-1.9408518E-1,2.9819934E-2,1.0904985E-1,-6.894152E-2,6.947314E-3,-9.08063E-2,-4.9780873E-3,-1.1502999E-1,-1.7294507E-1,1.023792E-1,-3.821188E-2,-8.121783E-2,-1.3804041E-1],"split_indices":[1,1,0,0,1,1,0,1,1,1,0,0,0,1,1,0,0,0,0,0,0,0,0,0,0,0,0,0,0,0,0],"split_type":[0,0,0,0,0,0,0,0,0,0,0,0,0,0,0,0,0,0,0,0,0,0,0,0,0,0,0,0,0,0,0],"sum_hessian":[1.6087E4,1.2972E4,3.115E3,3.003E3,9.969E3,1.646E3,1.469E3,2.06E3,9.43E2,6.371E3,3.598E3,1.246E3,4E2,9E2,5.69E2,1.14E3,9.2E2,6.65E2,2.78E2,4.852E3,1.519E3,4.4E2,3.158E3,9.68E2,2.78E2,2.68E2,1.32E2,6.02E2,2.98E2,2.16E2,3.53E2],"tree_param":{"num_deleted":"0","num_feature":"2","num_nodes":"31","size_leaf_vector":"1"}},{"base_weights":[-9.774234E-4,1.0948662E-1,-4.608776E-1,-3.0246395E-1,3.3607095E-1,-7.834295E-1,-9.917433E-2,-1.18157096E-1,-7.237464E-1,6.054244E-1,-2.1164607E-2,-4.6138182E-1,-9.739071E-1,5.026061E-1,-1.0502357E0,-6.940069E-2,2.0023571E-2,-9.413677E-2,-1.631776E-2,4.295038E-2,9.8151945E-2,-6.206304E-2,6.252819E-3,-7.455482E-2,8.051043E-2,-8.22128E-2,-1.21144846E-1,-1.4028728E-2,1.1646389E-1,-8.961796E-2,-1.4997618E-1],"categories":[],"categories_nodes":[],"categories_segments":[],"categories_sizes":[],"default_left":[0,0,0,0,0,0,0,0,0,0,0,0,0,0,0,0,0,0,0,0,0,0,0,0,0,0,0,0,0,0,0],"id":27,"left_children":[1,3,5,7,9,11,13,15,17,19,21,23,25,27,29,-1,-1,-1,-1,-1,-1,-1,-1,-1,-1,-1,-1,-1,-1,-1,-1],"loss_changes":[8.173599E2,1.2110215E3,3.6346014E2,3.573932E2,8.0539636E2,1.0058234E2,8.4185315E2,5.875809E2,1.7075671E2,3.1530762E2,1.8060414E2,2.2157442E2,3.628363E1,3.836439E2,3.812976E1,0E0,0E0,0E0,0E0,0E0,0E0,0E0,0E0,0E0,0E0,0E0,0E0,0E0,0E0,0E0,0E0],"parents":[2147483647,0,0,1,1,2,2,3,3,4,4,5,5,6,6,7,7,8,8,9,9,10,10,11,11,12,12,13,13,14,14],"right_children":[2,4,6,8,10,12,14,16,18,20,22,24,26,28,30,-1,-1,-1,-1,-1,-1,-1,-1,-1,-1,-1,-1,-1,-1,-1,-1],"split_conditions":[2.1E1,1E1,5E0,6E0,1.7E1,2.2E1,7E0,4E0,8E0,1.5E1,2E0,4E0,2.3E1,6E0,2.3E1,-6.940069E-2,2.0023571E-2,-9.413677E-2,-1.631776E-2,4.295038E-2,9.8151945E-2,-6.206304E-2,6.252819E-3,-7.455482E-2,8.051043E-2,-8.22128E-2,-1.21144846E-1,-1.4028728E-2,1.1646389E-1,-8.961796E-2,-1.4997618E-1],"split_indices":[1,1,0,0,1,1,0,1,1,1,0,0,1,0,1,0,0,0,0,0,0,0,0,0,0,0,0,0,0,0,0],"split_type":[0,0,0,0,0,0,0,0,0,0,0,0,0,0,0,0,0,0,0,0,0,0,0,0,0,0,0,0,0,0,0],"sum_hessian":[1.6087E4,1.2972E4,3.115E3,4.603E3,8.369E3,1.646E3,1.469E3,3.203E3,1.4E3,4.771E3,3.598E3,6.13E2,1.033E3,9E2,5.69E2,1.14E3,2.063E3,1.008E3,3.92E2,3.252E3,1.519E3,4.4E2,3.158E3,5.01E2,1.12E2,6.33E2,4E2,4.57E2,4.43E2,4.26E2,1.43E2],"tree_param":{"num_deleted":"0","num_feature":"2","num_nodes":"31","size_leaf_vector":"1"}},{"base_weights":[-9.0497633E-4,4.813118E-2,-8.888543E-1,-4.8099187E-1,1.3905272E-1,-1.1112078E0,-4.409842E-1,-5.773383E-1,-2.8971115E-1,2.4702439E-1,-3.7308788E-1,-1.552158E-1,-1.0282795E0,5.116126E-2,-1.350827E-1,-6.632951E-2,-3.871767E-2,-4.22914E-3,-7.277893E-2,-2.675938E-2,3.4233883E-2,-2.176549E-1,-3.1376112E-2,-6.0709335E-2,-1.2869489E-1],"categories":[],"categories_nodes":[],"categories_segments":[],"categories_sizes":[],"default_left":[0,0,0,0,0,0,0,0,0,0,0,0,0,0,0,0,0,0,0,0,0,0,0,0,0],"id":28,"left_children":[1,3,5,7,9,11,13,15,17,19,21,-1,23,-1,-1,-1,-1,-1,-1,-1,-1,-1,-1,-1,-1],"loss_changes":[7.005404E2,7.335799E2,8.336096E1,4.1040466E1,7.1961255E2,1.8954773E1,2.4423755E2,2.4032898E1,8.136952E1,5.272379E2,2.417644E2,0E0,5.107791E1,0E0,0E0,0E0,0E0,0E0,0E0,0E0,0E0,0E0,0E0,0E0,0E0],"parents":[2147483647,0,0,1,1,2,2,3,3,4,4,5,5,6,6,7,7,8,8,9,9,10,10,12,12],"right_children":[2,4,6,8,10,12,14,16,18,20,22,-1,24,-1,-1,-1,-1,-1,-1,-1,-1,-1,-1,-1,-1],"split_conditions":[2.3E1,5E0,6E0,3E0,7E0,2E0,7E0,6E0,5E0,2E0,6E0,-1.552158E-1,4E0,5.116126E-2,-1.350827E-1,-6.632951E-2,-3.871767E-2,-4.22914E-3,-7.277893E-2,-2.675938E-2,3.4233883E-2,-2.176549E-1,-3.1376112E-2,-6.0709335E-2,-1.2869489E-1],"split_indices":[1,1,0,1,0,0,0,0,0,0,1,0,0,0,0,0,0,0,0,0,0,0,0,0,0],"split_type":[0,0,0,0,0,0,0,0,0,0,0,0,0,0,0,0,0,0,0,0,0,0,0,0,0],"sum_hessian":[1.6087E4,1.5246E4,8.41E2,2.235E3,1.3011E4,5.61E2,2.8E2,1.485E3,7.5E2,1.0746E4,2.265E3,8.6E1,4.75E2,1.37E2,1.43E2,1.021E3,4.64E2,4.8E2,2.7E2,1.679E3,9.067E3,7.1E1,2.194E3,1.82E2,2.93E2],"tree_param":{"num_deleted":"0","num_feature":"2","num_nodes":"25","size_leaf_vector":"1"}},{"base_weights":[-8.6719025E-4,9.510516E-2,-4.0043345E-1,-2.5397384E-1,2.871081E-1,-6.934976E-1,-7.180955E-2,-4.250783E-2,-5.4099584E-1,5.2999467E-1,-3.5020746E-2,-4.3222708E-1,-8.479721E-1,4.4480315E-1,-8.8829416E-1,-6.1506134E-2,2.6349677E-2,-3.518055E-2,-6.5763555E-2,3.7143547E-2,8.689835E-2,5.508205E-3,-4.9093656E-2,-6.842887E-2,6.913757E-2,-7.584473E-2,-9.8740034E-2,-1.0317464E-2,1.0090577E-1,-6.1089884E-2,-1.0558267E-1],"categories":[],"categories_nodes":[],"categories_segments":[],"categories_sizes":[],"default_left":[0,0,0,0,0,0,0,0,0,0,0,0,0,0,0,0,0,0,0,0,0,0,0,0,0,0,0,0,0,0,0],"id":29,"left_children":[1,3,5,7,9,11,13,15,17,19,21,23,25,27,29,-1,-1,-1,-1,-1,-1,-1,-1,-1,-1,-1,-1,-1,-1,-1,-1],"loss_changes":[6.169696E2,8.6957776E2,3.0004553E2,2.794186E2,6.548939E2,6.6105774E1,6.2045044E2,4.648031E2,4.2865723E1,2.5617126E2,1.478714E2,1.7436835E2,1.2157837E1,2.7869238E2,2.5844452E1,0E0,0E0,0E0,0E0,0E0,0E0,0E0,0E0,0E0,0E0,0E0,0E0,0E0,0E0,0E0,0E0],"parents":[2147483647,0,0,1,1,2,2,3,3,4,4,5,5,6,6,7,7,8,8,9,9,10,10,11,11,12,12,13,13,14,14],"right_children":[2,4,6,8,10,12,14,16,18,20,22,24,26,28,30,-1,-1,-1,-1,-1,-1,-1,-1,-1,-1,-1,-1,-1,-1,-1,-1],"split_conditions":[2.1E1,1E1,5E0,5E0,1.7E1,2.2E1,7E0,4E0,4E0,1.5E1,7E0,4E0,2.3E1,6E0,2.2E1,-6.1506134E-2,2.6349677E-2,-3.518055E-2,-6.5763555E-2,3.7143547E-2,8.689835E-2,5.508205E-3,-4.9093656E-2,-6.842887E-2,6.913757E-2,-7.584473E-2,-9.8740034E-2,-1.0317464E-2,1.0090577E-1,-6.1089884E-2,-1.0558267E-1],"split_indices":[1,1,0,0,1,1,0,1,1,1,0,0,1,0,1,0,0,0,0,0,0,0,0,0,0,0,0,0,0,0,0],"split_type":[0,0,0,0,0,0,0,0,0,0,0,0,0,0,0,0,0,0,0,0,0,0,0,0,0,0,0,0,0,0,0],"sum_hessian":[1.6087E4,1.2972E4,3.115E3,4.603E3,8.369E3,1.646E3,1.469E3,2.651E3,1.952E3,4.771E3,3.598E3,6.13E2,1.033E3,9E2,5.69E2,9.23E2,1.728E3,7.46E2,1.206E3,3.252E3,1.519E3,3.005E3,5.93E2,5.01E2,1.12E2,6.33E2,4E2,4.57E2,4.43E2,2.16E2,3.53E2],"tree_param":{"num_deleted":"0","num_feature":"2","num_nodes":"31","size_leaf_vector":"1"}},{"base_weights":[-7.9962E-4,8.559013E-2,-3.6047018E-1,-2.286062E-1,2.5840667E-1,-6.2425333E-1,-6.4680174E-2,-8.124724E-2,-5.6544375E-1,4.7702092E-1,-3.1531017E-2,-3.890031E-1,-7.6334363E-1,4.004237E-1,-7.9975724E-1,-5.0692488E-2,1.54111E-2,-7.532226E-2,-8.189585E-3,3.3430316E-2,7.821419E-2,-5.375051E-2,3.9113523E-3,-6.1599594E-2,6.2284995E-2,-6.827222E-2,-8.889064E-2,7.890501E-2,-3.8466692E-2,-5.500908E-2,-9.505421E-2],"categories":[],"categories_nodes":[],"categories_segments":[],"categories_sizes":[],"default_left":[0,0,0,0,0,0,0,0,0,0,0,0,0,0,0,0,0,0,0,0,0,0,0,0,0,0,0,0,0,0,0],"id":30,"left_children":[1,3,5,7,9,11,13,15,17,19,21,23,25,27,29,-1,-1,-1,-1,-1,-1,-1,-1,-1,-1,-1,-1,-1,-1,-1,-1],"loss_changes":[4.999148E2,7.044711E2,2.4308368E2,2.2847832E2,5.305433E2,5.3594604E1,5.028944E2,3.2107645E2,1.271492E2,2.0754102E2,1.286648E2,1.4140927E2,9.860413E0,2.7520483E2,2.0935303E1,0E0,0E0,0E0,0E0,0E0,0E0,0E0,0E0,0E0,0E0,0E0,0E0,0E0,0E0,0E0,0E0],"parents":[2147483647,0,0,1,1,2,2,3,3,4,4,5,5,6,6,7,7,8,8,9,9,10,10,11,11,12,12,13,13,14,14],"right_children":[2,4,6,8,10,12,14,16,18,20,22,24,26,28,30,-1,-1,-1,-1,-1,-1,-1,-1,-1,-1,-1,-1,-1,-1,-1,-1],"split_conditions":[2.1E1,1E1,5E0,6E0,1.7E1,2.2E1,7E0,4E0,8E0,1.5E1,2E0,4E0,2.3E1,2.3E1,2.2E1,-5.0692488E-2,1.54111E-2,-7.532226E-2,-8.189585E-3,3.3430316E-2,7.821419E-2,-5.375051E-2,3.9113523E-3,-6.1599594E-2,6.2284995E-2,-6.827222E-2,-8.889064E-2,7.890501E-2,-3.8466692E-2,-5.500908E-2,-9.505421E-2],"split_indices":[1,1,0,0,1,1,0,1,1,1,0,0,1,1,1,0,0,0,0,0,0,0,0,0,0,0,0,0,0,0,0],"split_type":[0,0,0,0,0,0,0,0,0,0,0,0,0,0,0,0,0,0,0,0,0,0,0,0,0,0,0,0,0,0,0],"sum_hessian":[1.6087E4,1.2972E4,3.115E3,4.603E3,8.369E3,1.646E3,1.469E3,3.203E3,1.4E3,4.771E3,3.598E3,6.13E2,1.033E3,9E2,5.69E2,1.14E3,2.063E3,1.008E3,3.92E2,3.252E3,1.519E3,4.4E2,3.158E3,5.01E2,1.12E2,6.33E2,4E2,6.02E2,2.98E2,2.16E2,3.53E2],"tree_param":{"num_deleted":"0","num_feature":"2","num_nodes":"31","size_leaf_vector":"1"}},{"base_weights":[-7.398107E-4,3.6666673E-2,-6.780984E-1,-3.4981978E-1,1.03078224E-1,-8.531798E-1,-3.2552248E-1,-7.647925E-2,-4.027542E-1,1.916253E-1,-3.1692114E-1,-6.373723E-1,-1.0477343E0,3.988361E-2,-1.0174389E-1,-3.6163744E-2,1.9530118E-1,-9.604325E-2,-3.0289043E-2,1.4218765E-1,1.6014641E-2,-1.8227911E-1,-2.673815E-2,-1.2132525E-1,-3.6011036E-2,-1.123625E-1,-9.789616E-2],"categories":[],"categories_nodes":[],"categories_segments":[],"categories_sizes":[],"default_left":[0,0,0,0,0,0,0,0,0,0,0,0,0,0,0,0,0,0,0,0,0,0,0,0,0,0,0],"id":31,"left_children":[1,3,5,7,9,11,13,15,17,19,21,23,25,-1,-1,-1,-1,-1,-1,-1,-1,-1,-1,-1,-1,-1,-1],"loss_changes":[4.0765625E2,3.913833E2,5.1698456E1,3.2322144E1,4.8397336E2,2.2928497E1,1.4124176E2,2.1136252E2,1.0401996E2,4.1597098E2,1.6855687E2,4.251422E1,4.3444824E-1,0E0,0E0,0E0,0E0,0E0,0E0,0E0,0E0,0E0,0E0,0E0,0E0,0E0,0E0],"parents":[2147483647,0,0,1,1,2,2,3,3,4,4,5,5,6,6,7,7,8,8,9,9,10,10,11,11,12,12],"right_children":[2,4,6,8,10,12,14,16,18,20,22,24,26,-1,-1,-1,-1,-1,-1,-1,-1,-1,-1,-1,-1,-1,-1],"split_conditions":[2.3E1,5E0,6E0,2E0,7E0,4E0,7E0,4E0,3E0,6E0,6E0,2E0,5E0,3.988361E-2,-1.0174389E-1,-3.6163744E-2,1.9530118E-1,-9.604325E-2,-3.0289043E-2,1.4218765E-1,1.6014641E-2,-1.8227911E-1,-2.673815E-2,-1.2132525E-1,-3.6011036E-2,-1.123625E-1,-9.789616E-2],"split_indices":[1,1,0,0,0,0,0,1,0,1,1,0,0,0,0,0,0,0,0,0,0,0,0,0,0,0,0],"split_type":[0,0,0,0,0,0,0,0,0,0,0,0,0,0,0,0,0,0,0,0,0,0,0,0,0,0,0],"sum_hessian":[1.6087E4,1.5246E4,8.41E2,2.235E3,1.3011E4,5.61E2,2.8E2,3.63E2,1.872E3,1.0746E4,2.265E3,2.68E2,2.93E2,1.37E2,1.43E2,3.19E2,4.4E1,2.83E2,1.589E3,2.67E2,1.0479E4,7.1E1,2.194E3,8.6E1,1.82E2,1.32E2,1.61E2],"tree_param":{"num_deleted":"0","num_feature":"2","num_nodes":"27","size_leaf_vector":"1"}},{"base_weights":[-6.9353945E-4,1.0181815E-1,-2.2837402E-1,-1.9854066E-1,3.148439E-1,-4.6504232E-1,3.5856985E-2,-2.8072849E-2,-4.299191E-1,4.7501758E-1,5.235913E-2,3.8071167E-2,-5.725885E-1,4.2281446E-1,-6.9185555E-1,-4.5511514E-2,2.0016033E-2,-2.1835696E-2,-5.6049656E-2,1.1163064E-2,8.338699E-2,5.8280826E-2,-4.947645E-2,-1.4242636E-2,1.1706061E-2,-7.649463E-2,-5.119997E-2,-1.0328065E-2,8.91011E-2,-1.0162796E-1,-6.49461E-2],"categories":[],"categories_nodes":[],"categories_segments":[],"categories_sizes":[],"default_left":[0,0,0,0,0,0,0,0,0,0,0,0,0,0,0,0,0,0,0,0,0,0,0,0,0,0,0,0,0,0,0],"id":32,"left_children":[1,3,5,7,9,11,13,15,17,19,21,23,25,27,29,-1,-1,-1,-1,-1,-1,-1,-1,-1,-1,-1,-1,-1,-1,-1,-1],"loss_changes":[3.7551572E2,7.099028E2,3.1237946E2,1.8158153E2,2.7287726E2,1.4259625E2,6.6513556E2,2.5856888E2,5.3829742E1,5.2555835E2,7.145228E2,6.6463623E0,2.4910706E1,3.799111E2,1.0618134E1,0E0,0E0,0E0,0E0,0E0,0E0,0E0,0E0,0E0,0E0,0E0,0E0,0E0,0E0,0E0,0E0],"parents":[2147483647,0,0,1,1,2,2,3,3,4,4,5,5,6,6,7,7,8,8,9,9,10,10,11,11,12,12,13,13,14,14],"right_children":[2,4,6,8,10,12,14,16,18,20,22,24,26,28,30,-1,-1,-1,-1,-1,-1,-1,-1,-1,-1,-1,-1,-1,-1,-1,-1],"split_conditions":[1.9E1,1E1,5E0,5E0,6E0,2E1,7E0,4E0,4E0,1.5E1,1.5E1,2E0,2E0,6E0,2E1,-4.5511514E-2,2.0016033E-2,-2.1835696E-2,-5.6049656E-2,1.1163064E-2,8.338699E-2,5.8280826E-2,-4.947645E-2,-1.4242636E-2,1.1706061E-2,-7.649463E-2,-5.119997E-2,-1.0328065E-2,8.91011E-2,-1.0162796E-1,-6.49461E-2],"split_indices":[1,1,0,0,0,1,0,1,1,1,1,0,0,0,1,0,0,0,0,0,0,0,0,0,0,0,0,0,0,0,0],"split_type":[0,0,0,0,0,0,0,0,0,0,0,0,0,0,0,0,0,0,0,0,0,0,0,0,0,0,0,0,0,0,0],"sum_hessian":[1.6087E4,1.1093E4,4.994E3,4.603E3,6.49E3,2.634E3,2.36E3,2.651E3,1.952E3,4.03E3,2.46E3,4.64E2,2.17E3,1.541E3,8.19E2,9.23E2,1.728E3,7.46E2,1.206E3,2.003E3,2.027E3,1.249E3,1.211E3,1.41E2,3.23E2,5.17E2,1.653E3,7.26E2,8.15E2,9.2E1,7.27E2],"tree_param":{"num_deleted":"0","num_feature":"2","num_nodes":"31","size_leaf_vector":"1"}},{"base_weights":[-6.378411E-4,9.163618E-2,-2.0558025E-1,-1.7870899E-1,2.833751E-1,-4.1858765E-1,3.223427E-2,-2.527499E-2,-3.8696715E-1,4.2753878E-1,4.7126822E-2,3.4258228E-2,-5.1538855E-1,3.805843E-1,-6.2287307E-1,-4.0965296E-2,1.8015621E-2,-1.965504E-2,-5.0449353E-2,1.004725E-2,7.5052366E-2,4.2677235E-2,-5.8484502E-2,-1.2828449E-2,1.0539035E-2,-4.5756903E-2,-7.037671E-2,-9.296659E-3,8.020193E-2,-5.732369E-2,-8.5190654E-2],"categories":[],"categories_nodes":[],"categories_segments":[],"categories_sizes":[],"default_left":[0,0,0,0,0,0,0,0,0,0,0,0,0,0,0,0,0,0,0,0,0,0,0,0,0,0,0,0,0,0,0],"id":33,"left_children":[1,3,5,7,9,11,13,15,17,19,21,23,25,27,29,-1,-1,-1,-1,-1,-1,-1,-1,-1,-1,-1,-1,-1,-1,-1,-1],"loss_changes":[3.0425677E2,5.7511584E2,2.5304149E2,1.471059E2,2.2105298E2,1.1552521E2,5.39033E2,2.0948427E2,4.3607025E1,4.2574915E2,5.9070575E2,5.3898535E0,2.3324402E1,3.0781293E2,8.83371E0,0E0,0E0,0E0,0E0,0E0,0E0,0E0,0E0,0E0,0E0,0E0,0E0,0E0,0E0,0E0,0E0],"parents":[2147483647,0,0,1,1,2,2,3,3,4,4,5,5,6,6,7,7,8,8,9,9,10,10,11,11,12,12,13,13,14,14],"right_children":[2,4,6,8,10,12,14,16,18,20,22,24,26,28,30,-1,-1,-1,-1,-1,-1,-1,-1,-1,-1,-1,-1,-1,-1,-1,-1],"split_conditions":[1.9E1,1E1,5E0,5E0,6E0,2E1,7E0,4E0,4E0,1.5E1,1.6E1,2E0,4E0,6E0,2.3E1,-4.0965296E-2,1.8015621E-2,-1.965504E-2,-5.0449353E-2,1.004725E-2,7.5052366E-2,4.2677235E-2,-5.8484502E-2,-1.2828449E-2,1.0539035E-2,-4.5756903E-2,-7.037671E-2,-9.296659E-3,8.020193E-2,-5.732369E-2,-8.5190654E-2],"split_indices":[1,1,0,0,0,1,0,1,1,1,1,0,0,0,1,0,0,0,0,0,0,0,0,0,0,0,0,0,0,0,0],"split_type":[0,0,0,0,0,0,0,0,0,0,0,0,0,0,0,0,0,0,0,0,0,0,0,0,0,0,0,0,0,0,0],"sum_hessian":[1.6087E4,1.1093E4,4.994E3,4.603E3,6.49E3,2.634E3,2.36E3,2.651E3,1.952E3,4.03E3,2.46E3,4.64E2,2.17E3,1.541E3,8.19E2,9.23E2,1.728E3,7.46E2,1.206E3,2.003E3,2.027E3,1.537E3,9.23E2,1.41E2,3.23E2,1.663E3,5.07E2,7.26E2,8.15E2,6.76E2,1.43E2],"tree_param":{"num_deleted":"0","num_feature":"2","num_nodes":"31","size_leaf_vector":"1"}},{"base_weights":[-5.873038E-4,3.0117486E-2,-5.565913E-1,-1.6085804E-1,1.12720005E-1,-6.8423206E-1,-2.9932898E-1,-5.34368E-2,-4.064089E-1,3.6112246E-1,-8.913411E-2,-4.695369E-1,-8.783435E-2,1.911654E-2,-7.673074E-2,2.821787E-3,-6.82787E-2,-5.792541E-2,3.8393016E-3,2.4089608E-2,6.1818518E-2,-3.694536E-2,1.0305309E-2,-9.724753E-2,-2.2786925E-2],"categories":[],"categories_nodes":[],"categories_segments":[],"categories_sizes":[],"default_left":[0,0,0,0,0,0,0,0,0,0,0,0,0,0,0,0,0,0,0,0,0,0,0,0,0],"id":34,"left_children":[1,3,5,7,9,11,13,15,17,19,21,23,-1,-1,-1,-1,-1,-1,-1,-1,-1,-1,-1,-1,-1],"loss_changes":[2.7467087E2,2.4054045E2,2.7444092E1,1.2141974E2,5.337336E2,2.300879E1,6.4647644E1,1.6467084E2,1.0773372E2,1.4733319E2,3.1643903E2,3.2473736E1,0E0,0E0,0E0,0E0,0E0,0E0,0E0,0E0,0E0,0E0,0E0,0E0,0E0],"parents":[2147483647,0,0,1,1,2,2,3,3,4,4,5,5,6,6,7,7,8,8,9,9,10,10,11,11],"right_children":[2,4,6,8,10,12,14,16,18,20,22,24,-1,-1,-1,-1,-1,-1,-1,-1,-1,-1,-1,-1,-1],"split_conditions":[2.3E1,1E1,6E0,6E0,1.7E1,4E0,7E0,9E0,8E0,1.5E1,4E0,2E0,-8.783435E-2,1.911654E-2,-7.673074E-2,2.821787E-3,-6.82787E-2,-5.792541E-2,3.8393016E-3,2.4089608E-2,6.1818518E-2,-3.694536E-2,1.0305309E-2,-9.724753E-2,-2.2786925E-2],"split_indices":[1,1,0,0,1,0,0,1,1,1,0,0,0,0,0,0,0,0,0,0,0,0,0,0,0],"split_type":[0,0,0,0,0,0,0,0,0,0,0,0,0,0,0,0,0,0,0,0,0,0,0,0,0],"sum_hessian":[1.6087E4,1.5246E4,8.41E2,4.603E3,1.0643E4,5.61E2,2.8E2,3.203E3,1.4E3,4.771E3,5.872E3,2.68E2,2.93E2,1.37E2,1.43E2,2.836E3,3.67E2,1.008E3,3.92E2,3.252E3,1.519E3,2.388E3,3.484E3,8.6E1,1.82E2],"tree_param":{"num_deleted":"0","num_feature":"2","num_nodes":"25","size_leaf_vector":"1"}},{"base_weights":[-5.4886163E-4,2.7101742E-2,-5.012474E-1,8.1558295E-2,-2.2909662E-1,-6.161787E-1,-2.6960108E-1,-2.7578577E-1,1.4236602E-1,-1.282314E-1,-5.262883E-1,-4.2302942E-1,-7.908079E-2,1.7218746E-2,-6.911095E-2,-1.9281777E-6,-3.44069E-2,1.3010937E-1,1.1272086E-2,-4.2829257E-2,2.1649286E-2,-8.692316E-2,-4.7086947E-2,-8.7634556E-2,-2.0520685E-2],"categories":[],"categories_nodes":[],"categories_segments":[],"categories_sizes":[],"default_left":[0,0,0,0,0,0,0,0,0,0,0,0,0,0,0,0,0,0,0,0,0,0,0,0,0],"id":35,"left_children":[1,3,5,7,9,11,13,15,17,19,21,23,-1,-1,-1,-1,-1,-1,-1,-1,-1,-1,-1,-1,-1],"loss_changes":[2.2274579E2,2.1273993E2,2.2250793E1,2.7328497E2,8.005917E1,1.862143E1,5.244615E1,3.4440475E1,3.6902008E2,2.0665913E2,1.2457443E1,2.6381897E1,0E0,0E0,0E0,0E0,0E0,0E0,0E0,0E0,0E0,0E0,0E0,0E0,0E0],"parents":[2147483647,0,0,1,1,2,2,3,3,4,4,5,5,6,6,7,7,8,8,9,9,10,10,11,11],"right_children":[2,4,6,8,10,12,14,16,18,20,22,24,-1,-1,-1,-1,-1,-1,-1,-1,-1,-1,-1,-1,-1],"split_conditions":[2.3E1,7E0,6E0,5E0,1.9E1,4E0,7E0,2E0,6E0,1.3E1,2E1,2E0,-7.908079E-2,1.7218746E-2,-6.911095E-2,-1.9281777E-6,-3.44069E-2,1.3010937E-1,1.1272086E-2,-4.2829257E-2,2.1649286E-2,-8.692316E-2,-4.7086947E-2,-8.7634556E-2,-2.0520685E-2],"split_indices":[1,0,0,1,1,0,0,0,1,1,1,0,0,0,0,0,0,0,0,0,0,0,0,0,0],"split_type":[0,0,0,0,0,0,0,0,0,0,0,0,0,0,0,0,0,0,0,0,0,0,0,0,0],"sum_hessian":[1.6087E4,1.5246E4,8.41E2,1.2574E4,2.672E3,5.61E2,2.8E2,1.828E3,1.0746E4,1.996E3,6.76E2,2.68E2,2.93E2,1.37E2,1.43E2,3.63E2,1.465E3,2.67E2,1.0479E4,1.067E3,9.29E2,9.2E1,5.84E2,8.6E1,1.82E2],"tree_param":{"num_deleted":"0","num_feature":"2","num_nodes":"25","size_leaf_vector":"1"}},{"base_weights":[-5.1202317E-4,9.276213E-2,-1.3075401E-1,-8.082477E-2,4.0038696E-1,-4.4035378E-1,-1.8202875E-2,-1.874489E-2,-3.8935053E-1,1.030685E0,2.2223212E-1,2.6952785E-1,-5.1988685E-1,9.589449E-2,-3.873604E-1,-2.4822608E-2,1.1395819E-2,-8.027132E-3,-5.999284E-2,-3.660177E-2,2.2625418E-1,5.6003917E-2,3.7969497E-3,-3.1977158E-2,1.2085565E-1,-1.4437185E-1,-3.4007676E-2,1.6497547E-2,-3.8148817E-2,-1.1645837E-2,-5.0053474E-2],"categories":[],"categories_nodes":[],"categories_segments":[],"categories_sizes":[],"default_left":[0,0,0,0,0,0,0,0,0,0,0,0,0,0,0,0,0,0,0,0,0,0,0,0,0,0,0,0,0,0,0],"id":36,"left_children":[1,3,5,7,9,11,13,15,17,19,21,23,25,27,29,-1,-1,-1,-1,-1,-1,-1,-1,-1,-1,-1,-1,-1,-1,-1,-1],"loss_changes":[1.9545255E2,5.00654E2,2.339467E2,1.1479724E2,3.7953784E2,1.0120184E2,2.0747766E2,1.5201851E2,6.5297424E1,1.2826287E3,1.641816E2,1.0054627E2,2.669529E2,1.2415938E2,3.559828E1,0E0,0E0,0E0,0E0,0E0,0E0,0E0,0E0,0E0,0E0,0E0,0E0,0E0,0E0,0E0,0E0],"parents":[2147483647,0,0,1,1,2,2,3,3,4,4,5,5,6,6,7,7,8,8,9,9,10,10,11,11,12,12,13,13,14,14],"right_children":[2,4,6,8,10,12,14,16,18,20,22,24,26,28,30,-1,-1,-1,-1,-1,-1,-1,-1,-1,-1,-1,-1,-1,-1,-1,-1],"split_conditions":[1.7E1,1.2E1,3E0,7E0,3E0,1.8E1,7E0,5E0,5E0,1.5E1,1.4E1,2E0,1.9E1,2.3E1,1.9E1,-2.4822608E-2,1.1395819E-2,-8.027132E-3,-5.999284E-2,-3.660177E-2,2.2625418E-1,5.6003917E-2,3.7969497E-3,-3.1977158E-2,1.2085565E-1,-1.4437185E-1,-3.4007676E-2,1.6497547E-2,-3.8148817E-2,-1.1645837E-2,-5.0053474E-2],"split_indices":[1,1,0,0,0,1,0,1,1,1,1,0,1,1,1,0,0,0,0,0,0,0,0,0,0,0,0,0,0,0,0],"split_type":[0,0,0,0,0,0,0,0,0,0,0,0,0,0,0,0,0,0,0,0,0,0,0,0,0,0,0,0,0,0,0],"sum_hessian":[1.6087E4,9.374E3,6.713E3,5.993E3,3.381E3,1.789E3,4.924E3,4.99E3,1.003E3,7.44E2,2.637E3,1.8E2,1.609E3,3.762E3,1.162E3,1.828E3,3.162E3,4.07E2,5.96E2,3.49E2,3.95E2,9.3E2,1.707E3,1.11E2,6.9E1,2.61E2,1.348E3,3.287E3,4.75E2,3.43E2,8.19E2],"tree_param":{"num_deleted":"0","num_feature":"2","num_nodes":"31","size_leaf_vector":"1"}},{"base_weights":[-4.611858E-4,8.350362E-2,-1.177042E-1,-7.2756164E-2,3.604219E-1,-3.9636832E-1,-1.6399331E-2,-1.6873458E-2,-3.5048306E-1,9.278715E-1,2.0003131E-1,2.4306595E-1,-4.6800885E-1,8.6299464E-2,-3.486772E-1,-2.544549E-2,1.0891012E-2,-1.3302374E-3,-5.08209E-2,-3.2952026E-2,2.0368595E-1,3.9778657E-2,-6.6281096E-3,-2.880804E-2,1.0894277E-1,-1.2998982E-1,-3.0609408E-2,-9.786059E-3,2.435641E-2,-1.0484594E-2,-4.5054216E-2],"categories":[],"categories_nodes":[],"categories_segments":[],"categories_sizes":[],"default_left":[0,0,0,0,0,0,0,0,0,0,0,0,0,0,0,0,0,0,0,0,0,0,0,0,0,0,0,0,0,0,0],"id":37,"left_children":[1,3,5,7,9,11,13,15,17,19,21,23,25,27,29,-1,-1,-1,-1,-1,-1,-1,-1,-1,-1,-1,-1,-1,-1,-1,-1],"loss_changes":[1.5838474E2,4.0569363E2,1.8952994E2,9.302174E1,3.076223E2,8.211258E1,1.6809341E2,1.4917796E2,5.3388115E1,1.0395233E3,1.3895578E2,8.168094E1,2.164613E2,1.0900732E2,2.8839203E1,0E0,0E0,0E0,0E0,0E0,0E0,0E0,0E0,0E0,0E0,0E0,0E0,0E0,0E0,0E0,0E0],"parents":[2147483647,0,0,1,1,2,2,3,3,4,4,5,5,6,6,7,7,8,8,9,9,10,10,11,11,12,12,13,13,14,14],"right_children":[2,4,6,8,10,12,14,16,18,20,22,24,26,28,30,-1,-1,-1,-1,-1,-1,-1,-1,-1,-1,-1,-1,-1,-1,-1,-1],"split_conditions":[1.7E1,1.2E1,3E0,7E0,3E0,1.8E1,7E0,3E0,4E0,1.5E1,1.5E1,2E0,1.9E1,5E0,1.9E1,-2.544549E-2,1.0891012E-2,-1.3302374E-3,-5.08209E-2,-3.2952026E-2,2.0368595E-1,3.9778657E-2,-6.6281096E-3,-2.880804E-2,1.0894277E-1,-1.2998982E-1,-3.0609408E-2,-9.786059E-3,2.435641E-2,-1.0484594E-2,-4.5054216E-2],"split_indices":[1,1,0,0,0,1,0,0,1,1,1,0,1,0,1,0,0,0,0,0,0,0,0,0,0,0,0,0,0,0,0],"split_type":[0,0,0,0,0,0,0,0,0,0,0,0,0,0,0,0,0,0,0,0,0,0,0,0,0,0,0,0,0,0,0],"sum_hessian":[1.6087E4,9.374E3,6.713E3,5.993E3,3.381E3,1.789E3,4.924E3,4.99E3,1.003E3,7.44E2,2.637E3,1.8E2,1.609E3,3.762E3,1.162E3,1.727E3,3.263E3,3.2E2,6.83E2,3.49E2,3.95E2,1.513E3,1.124E3,1.11E2,6.9E1,2.61E2,1.348E3,1.733E3,2.029E3,3.43E2,8.19E2],"tree_param":{"num_deleted":"0","num_feature":"2","num_nodes":"31","size_leaf_vector":"1"}},{"base_weights":[-4.1400534E-4,2.1828514E-2,-4.0318274E-1,-2.2114591E-1,5.9418436E-2,-5.102061E-1,-1.8770123E-1,-1.0999797E-1,-4.502757E-1,-2.3915786E-1,1.0875877E-1,-3.1954226E-1,-6.829216E-2,1.6878568E-2,-5.28031E-2,-2.9296925E-2,5.506576E-2,-9.172583E-2,-3.720669E-2,-7.250481E-2,-1.5221949E-2,1.8084584E-2,-1.7976468E-2,-7.258438E-2,-1.2463637E-2],"categories":[],"categories_nodes":[],"categories_segments":[],"categories_sizes":[],"default_left":[0,0,0,0,0,0,0,0,0,0,0,0,0,0,0,0,0,0,0,0,0,0,0,0,0],"id":38,"left_children":[1,3,5,7,9,11,13,15,17,19,21,23,-1,-1,-1,-1,-1,-1,-1,-1,-1,-1,-1,-1,-1],"loss_changes":[1.4413463E2,1.3926993E2,1.9322052E1,5.198017E1,1.9456015E2,1.8288803E1,3.4180916E1,1.6661444E2,2.4018997E1,7.900984E1,2.3574538E2,2.1211794E1,0E0,0E0,0E0,0E0,0E0,0E0,0E0,0E0,0E0,0E0,0E0,0E0,0E0],"parents":[2147483647,0,0,1,1,2,2,3,3,4,4,5,5,6,6,7,7,8,8,9,9,10,10,11,11],"right_children":[2,4,6,8,10,12,14,16,18,20,22,24,-1,-1,-1,-1,-1,-1,-1,-1,-1,-1,-1,-1,-1],"split_conditions":[2.3E1,2E0,6E0,1.8E1,5E0,4E0,7E0,1.5E1,1.9E1,3E0,7E0,2E0,-6.829216E-2,1.6878568E-2,-5.28031E-2,-2.9296925E-2,5.506576E-2,-9.172583E-2,-3.720669E-2,-7.250481E-2,-1.5221949E-2,1.8084584E-2,-1.7976468E-2,-7.258438E-2,-1.2463637E-2],"split_indices":[1,0,0,1,1,0,0,1,1,0,0,0,0,0,0,0,0,0,0,0,0,0,0,0,0],"split_type":[0,0,0,0,0,0,0,0,0,0,0,0,0,0,0,0,0,0,0,0,0,0,0,0,0],"sum_hessian":[1.6087E4,1.5246E4,8.41E2,2.042E3,1.3204E4,5.61E2,2.8E2,1.376E3,6.66E2,1.872E3,1.1332E4,2.68E2,2.93E2,1.37E2,1.43E2,1.078E3,2.98E2,9.4E1,5.72E2,2.83E2,1.589E3,9.067E3,2.265E3,8.6E1,1.82E2],"tree_param":{"num_deleted":"0","num_feature":"2","num_nodes":"25","size_leaf_vector":"1"}},{"base_weights":[-3.964988E-4,5.965943E-2,-1.337819E-1,-1.1246263E-1,1.8173467E-1,-3.105313E-1,6.353637E-2,8.302671E-3,-2.7639356E-1,7.085038E-1,1.3545303E-1,6.4068004E-2,-3.9062256E-1,3.00163E-1,-3.815146E-1,-2.8034393E-2,1.6255435E-2,-7.1596736E-3,-4.0291127E-2,-1.5906072E-1,1.09608494E-1,2.5853876E-2,-7.083559E-3,1.8995868E-2,-1.6383123E-2,-3.2824125E-2,-5.9418928E-2,-9.111498E-3,6.48397E-2,-6.713738E-2,-3.4396183E-2],"categories":[],"categories_nodes":[],"categories_segments":[],"categories_sizes":[],"default_left":[0,0,0,0,0,0,0,0,0,0,0,0,0,0,0,0,0,0,0,0,0,0,0,0,0,0,0,0,0,0,0],"id":39,"left_children":[1,3,5,7,9,11,13,15,17,19,21,23,25,27,29,-1,-1,-1,-1,-1,-1,-1,-1,-1,-1,-1,-1,-1,-1,-1,-1],"loss_changes":[1.2888226E2,2.3312576E2,1.7422476E2,9.114847E1,1.581529E2,7.908063E1,2.4875356E2,1.18123795E2,5.0574203E1,4.6867563E2,1.5155292E2,1.3372151E1,2.7374023E1,2.1016626E2,8.694794E0,0E0,0E0,0E0,0E0,0E0,0E0,0E0,0E0,0E0,0E0,0E0,0E0,0E0,0E0,0E0,0E0],"parents":[2147483647,0,0,1,1,2,2,3,3,4,4,5,5,6,6,7,7,8,8,9,9,10,10,11,11,12,12,13,13,14,14],"right_children":[2,4,6,8,10,12,14,16,18,20,22,24,26,28,30,-1,-1,-1,-1,-1,-1,-1,-1,-1,-1,-1,-1,-1,-1,-1,-1],"split_conditions":[1.9E1,1E1,5E0,5E0,1.1E1,2E1,7E0,4E0,4E0,2E0,6E0,4E0,4E0,6E0,2E1,-2.8034393E-2,1.6255435E-2,-7.1596736E-3,-4.0291127E-2,-1.5906072E-1,1.09608494E-1,2.5853876E-2,-7.083559E-3,1.8995868E-2,-1.6383123E-2,-3.2824125E-2,-5.9418928E-2,-9.111498E-3,6.48397E-2,-6.713738E-2,-3.4396183E-2],"split_indices":[1,1,0,0,1,1,0,1,1,0,0,0,0,0,1,0,0,0,0,0,0,0,0,0,0,0,0,0,0,0,0],"split_type":[0,0,0,0,0,0,0,0,0,0,0,0,0,0,0,0,0,0,0,0,0,0,0,0,0,0,0,0,0,0,0],"sum_hessian":[1.6087E4,1.1093E4,4.994E3,4.603E3,6.49E3,2.634E3,2.36E3,2.651E3,1.952E3,5.23E2,5.967E3,4.64E2,2.17E3,1.541E3,8.19E2,9.23E2,1.728E3,7.46E2,1.206E3,7.5E1,4.48E2,3.737E3,2.23E3,2.99E2,1.65E2,1.663E3,5.07E2,7.26E2,8.15E2,9.2E1,7.27E2],"tree_param":{"num_deleted":"0","num_feature":"2","num_nodes":"31","size_leaf_vector":"1"}},{"base_weights":[-3.7090635E-4,7.038363E-2,-9.9167965E-2,-4.6681277E-2,3.3177742E-1,-2.7981362E-1,1.913531E-2,-2.464337E-1,3.145357E-2,1.0410646E0,1.2600285E-1,1.0333E-1,-3.2844096E-1,1.3231537E-1,-2.6271212E-1,1.1084704E-2,-9.353251E-2,-2.1312578E-2,2.2799527E-2,-8.986398E-3,1.7723969E-1,4.9995184E-2,7.263769E-4,-3.397258E-2,3.6533486E-2,-8.4385075E-2,-2.2429898E-2,2.2001103E-2,-3.6974918E-2,-6.940392E-3,-3.4348693E-2],"categories":[],"categories_nodes":[],"categories_segments":[],"categories_sizes":[],"default_left":[0,0,0,0,0,0,0,0,0,0,0,0,0,0,0,0,0,0,0,0,0,0,0,0,0,0,0,0,0,0,0],"id":40,"left_children":[1,3,5,7,9,11,13,15,17,19,21,23,25,27,29,-1,-1,-1,-1,-1,-1,-1,-1,-1,-1,-1,-1,-1,-1,-1,-1],"loss_changes":[1.12467575E2,2.8689084E2,1.4349005E2,1.01082726E2,4.231333E2,4.9537216E1,1.2948297E2,4.4830215E2,2.2386272E2,5.3941846E2,9.985727E1,3.4948944E1,1.2637825E2,1.2758901E2,1.8135742E1,0E0,0E0,0E0,0E0,0E0,0E0,0E0,0E0,0E0,0E0,0E0,0E0,0E0,0E0,0E0,0E0],"parents":[2147483647,0,0,1,1,2,2,3,3,4,4,5,5,6,6,7,7,8,8,9,9,10,10,11,11,12,12,13,13,14,14],"right_children":[2,4,6,8,10,12,14,16,18,20,22,24,26,28,30,-1,-1,-1,-1,-1,-1,-1,-1,-1,-1,-1,-1,-1,-1,-1,-1],"split_conditions":[1.7E1,1.3E1,4E0,3E0,3E0,1.8E1,7E0,9E0,7E0,1.5E1,1.4E1,2E0,1.9E1,2.3E1,1.9E1,1.1084704E-2,-9.353251E-2,-2.1312578E-2,2.2799527E-2,-8.986398E-3,1.7723969E-1,4.9995184E-2,7.263769E-4,-3.397258E-2,3.6533486E-2,-8.4385075E-2,-2.2429898E-2,2.2001103E-2,-3.6974918E-2,-6.940392E-3,-3.4348693E-2],"split_indices":[1,1,0,0,0,1,0,1,1,1,1,0,1,1,1,0,0,0,0,0,0,0,0,0,0,0,0,0,0,0,0],"split_type":[0,0,0,0,0,0,0,0,0,0,0,0,0,0,0,0,0,0,0,0,0,0,0,0,0,0,0,0,0,0,0],"sum_hessian":[1.6087E4,9.374E3,6.713E3,6.475E3,2.899E3,2.656E3,4.057E3,1.82E3,4.655E3,6.51E2,2.248E3,2.99E2,2.357E3,2.895E3,1.162E3,1.199E3,6.21E2,2.074E3,2.581E3,2.56E2,3.95E2,5.41E2,1.707E3,1.11E2,1.88E2,3.95E2,1.962E3,2.465E3,4.3E2,3.43E2,8.19E2],"tree_param":{"num_deleted":"0","num_feature":"2","num_nodes":"31","size_leaf_vector":"1"}},{"base_weights":[-3.3550902E-4,-2.0492676E-1,3.0866146E-2,9.64198E-2,-2.7794614E-1,-1.8608674E-1,6.4479806E-2,-1.4597821E-1,8.950893E-1,-3.5788625E-1,-1.9086161E-1,-6.458893E-1,-1.0384146E-1,1.1979622E-1,-1.5782295E-1,-7.5708204E-3,-3.913518E-2,1.7731714E-1,1.3265945E-2,1.0064284E-3,-3.7854366E-2,-4.428842E-2,-1.323047E-1,-2.530372E-2,-6.229482E-3,1.415105E-1,9.022343E-3,-4.725155E-2,-3.8800896E-3],"categories":[],"categories_nodes":[],"categories_segments":[],"categories_sizes":[],"default_left":[0,0,0,0,0,0,0,0,0,0,0,0,0,0,0,0,0,0,0,0,0,0,0,0,0,0,0,0,0],"id":41,"left_children":[1,3,5,7,9,11,13,15,17,-1,19,21,23,25,27,-1,-1,-1,-1,-1,-1,-1,-1,-1,-1,-1,-1,-1,-1],"loss_changes":[1.0270546E2,4.687362E1,1.0181642E2,8.066656E1,4.920213E2,7.076341E1,1.4866493E2,5.48794E0,6.470395E1,0E0,6.301752E1,3.845453E1,9.839985E0,3.706734E2,9.021159E1,0E0,0E0,0E0,0E0,0E0,0E0,0E0,0E0,0E0,0E0,0E0,0E0,0E0,0E0],"parents":[2147483647,0,0,1,1,2,2,3,3,4,4,5,5,6,6,7,7,8,8,10,10,11,11,12,12,13,13,14,14],"right_children":[2,4,6,8,10,12,14,16,18,-1,20,22,24,26,28,-1,-1,-1,-1,-1,-1,-1,-1,-1,-1,-1,-1,-1,-1],"split_conditions":[2E0,6E0,5E0,4E0,7E0,3E0,7E0,3E0,5E0,-3.5788625E-1,1.7E1,4E0,4E0,6E0,1.3E1,-7.5708204E-3,-3.913518E-2,1.7731714E-1,1.3265945E-2,1.0064284E-3,-3.7854366E-2,-4.428842E-2,-1.323047E-1,-2.530372E-2,-6.229482E-3,1.415105E-1,9.022343E-3,-4.725155E-2,-3.8800896E-3],"split_indices":[0,1,1,1,1,0,0,1,1,0,1,1,0,1,1,0,0,0,0,0,0,0,0,0,0,0,0,0,0],"split_type":[0,0,0,0,0,0,0,0,0,0,0,0,0,0,0,0,0,0,0,0,0,0,0,0,0,0,0,0,0],"sum_hessian":[1.6087E4,2.128E3,1.3959E4,4.15E2,1.713E3,1.872E3,1.2087E4,3.19E2,9.6E1,4.3E1,1.67E3,2.83E2,1.589E3,9.679E3,2.408E3,2.49E2,7E1,4.4E1,5.2E1,8.07E2,8.63E2,2.19E2,6.4E1,3.45E2,1.244E3,2.15E2,9.464E3,6.6E2,1.748E3],"tree_param":{"num_deleted":"0","num_feature":"2","num_nodes":"29","size_leaf_vector":"1"}},{"base_weights":[-3.24217E-4,6.392511E-2,-9.0037815E-2,-9.33424E-2,2.1564256E-1,-2.4566503E-1,1.1882237E-2,1.4700743E-2,-2.4000756E-1,6.5760285E-1,1.6108787E-1,1.0135809E-1,-2.897114E-1,1.10059164E-1,-2.3259951E-1,-9.070443E-3,3.2727048E-2,-3.694145E-3,-3.654843E-2,-1.3423306E-1,9.946571E-2,-2.5616795E-2,2.6813015E-2,-2.6854018E-2,3.200208E-2,-7.575512E-2,-1.9518552E-2,1.889999E-2,-3.418617E-2,-5.8614444E-3,-3.0530471E-2],"categories":[],"categories_nodes":[],"categories_segments":[],"categories_sizes":[],"default_left":[0,0,0,0,0,0,0,0,0,0,0,0,0,0,0,0,0,0,0,0,0,0,0,0,0,0,0,0,0,0,0],"id":42,"left_children":[1,3,5,7,9,11,13,15,17,19,21,23,25,27,29,-1,-1,-1,-1,-1,-1,-1,-1,-1,-1,-1,-1,-1,-1,-1,-1],"loss_changes":[9.2737595E1,2.2370975E2,1.0649725E2,7.2959274E1,1.1495177E2,4.0641876E1,9.742761E1,8.740371E1,4.974907E1,3.545562E2,1.8984608E2,2.4350826E1,1.0412987E2,1.0337931E2,1.4693611E1,0E0,0E0,0E0,0E0,0E0,0E0,0E0,0E0,0E0,0E0,0E0,0E0,0E0,0E0,0E0,0E0],"parents":[2147483647,0,0,1,1,2,2,3,3,4,4,5,5,6,6,7,7,8,8,9,9,10,10,11,11,12,12,13,13,14,14],"right_children":[2,4,6,8,10,12,14,16,18,20,22,24,26,28,30,-1,-1,-1,-1,-1,-1,-1,-1,-1,-1,-1,-1,-1,-1,-1,-1],"split_conditions":[1.7E1,1E1,4E0,5E0,1.1E1,1.8E1,7E0,4E0,4E0,2E0,1.2E1,2E0,1.9E1,2.3E1,1.9E1,-9.070443E-3,3.2727048E-2,-3.694145E-3,-3.654843E-2,-1.3423306E-1,9.946571E-2,-2.5616795E-2,2.6813015E-2,-2.6854018E-2,3.200208E-2,-7.575512E-2,-1.9518552E-2,1.889999E-2,-3.418617E-2,-5.8614444E-3,-3.0530471E-2],"split_indices":[1,1,0,0,1,1,0,0,1,0,1,0,1,1,1,0,0,0,0,0,0,0,0,0,0,0,0,0,0,0,0],"split_type":[0,0,0,0,0,0,0,0,0,0,0,0,0,0,0,0,0,0,0,0,0,0,0,0,0,0,0,0,0,0,0],"sum_hessian":[1.6087E4,9.374E3,6.713E3,4.603E3,4.771E3,2.656E3,4.057E3,2.651E3,1.952E3,5.23E2,4.248E3,2.99E2,2.357E3,2.895E3,1.162E3,1.983E3,6.68E2,7.46E2,1.206E3,7.5E1,4.48E2,8.67E2,3.381E3,1.11E2,1.88E2,3.95E2,1.962E3,2.465E3,4.3E2,3.43E2,8.19E2],"tree_param":{"num_deleted":"0","num_feature":"2","num_nodes":"31","size_leaf_vector":"1"}},{"base_weights":[-3.0366774E-4,4.571851E-2,-1.0251983E-1,1.3225417E-1,-1.1642721E-1,-2.194745E-1,1.379616E-1,-1.6414985E-2,5.1390505E-1,3.0774513E-2,-5.843517E-1,-1.8878844E-1,-3.719682E-1,5.5258876E-1,-2.7481124E-1,-1.9251203E-2,1.0040711E-2,1.6308175E-2,1.1089682E-1,-3.960961E-2,2.5392566E-2,-1.0526277E-1,-1.6199186E-2,-2.4111409E-2,1.816666E-3,-2.0741174E-2,-5.2126657E-2,6.337295E-2,1.4934874E-2,-5.3693753E-2,-2.4094785E-2],"categories":[],"categories_nodes":[],"categories_segments":[],"categories_sizes":[],"default_left":[0,0,0,0,0,0,0,0,0,0,0,0,0,0,0,0,0,0,0,0,0,0,0,0,0,0,0,0,0,0,0],"id":43,"left_children":[1,3,5,7,9,11,13,15,17,19,21,23,25,27,29,-1,-1,-1,-1,-1,-1,-1,-1,-1,-1,-1,-1,-1,-1,-1,-1],"loss_changes":[7.5686035E1,1.556796E2,1.4051678E2,4.1046356E2,2.659609E2,1.5657333E1,2.7997693E2,1.07137856E2,4.2318842E2,2.7996463E2,1.8257913E2,3.0325745E1,1.3699112E1,2.6604187E1,7.149349E0,0E0,0E0,0E0,0E0,0E0,0E0,0E0,0E0,0E0,0E0,0E0,0E0,0E0,0E0,0E0,0E0],"parents":[2147483647,0,0,1,1,2,2,3,3,4,4,5,5,6,6,7,7,8,8,9,9,10,10,11,11,12,12,13,13,14,14],"right_children":[2,4,6,8,10,12,14,16,18,20,22,24,26,28,30,-1,-1,-1,-1,-1,-1,-1,-1,-1,-1,-1,-1,-1,-1,-1,-1],"split_conditions":[1.9E1,6E0,6E0,1.5E1,1.6E1,2.3E1,7E0,3E0,4E0,8E0,7E0,5E0,4E0,2.3E1,2E1,-1.9251203E-2,1.0040711E-2,1.6308175E-2,1.1089682E-1,-3.960961E-2,2.5392566E-2,-1.0526277E-1,-1.6199186E-2,-2.4111409E-2,1.816666E-3,-2.0741174E-2,-5.2126657E-2,6.337295E-2,1.4934874E-2,-5.3693753E-2,-2.4094785E-2],"split_indices":[1,0,0,1,1,1,0,0,0,1,0,0,0,1,1,0,0,0,0,0,0,0,0,0,0,0,0,0,0,0,0],"split_type":[0,0,0,0,0,0,0,0,0,0,0,0,0,0,0,0,0,0,0,0,0,0,0,0,0,0,0,0,0,0,0],"sum_hessian":[1.6087E4,1.1093E4,4.994E3,7.233E3,3.86E3,3.36E3,1.634E3,5.206E3,2.027E3,2.937E3,9.23E2,2.799E3,5.61E2,8.15E2,8.19E2,2.076E3,3.13E3,1.276E3,7.51E2,1.008E3,1.929E3,4.37E2,4.86E2,2.234E3,5.65E2,2.68E2,2.93E2,6.78E2,1.37E2,9.2E1,7.27E2],"tree_param":{"num_deleted":"0","num_feature":"2","num_nodes":"31","size_leaf_vector":"1"}},{"base_weights":[-2.801984E-4,5.3903196E-2,-7.593838E-2,-3.2557804E-2,2.4696097E-1,-2.0792721E-1,1.0500816E-2,9.950275E-3,-2.4781403E-1,9.0308446E-1,5.663661E-2,-1.13431506E-1,-3.1631076E-1,6.092289E-2,-2.956515E-1,-1.8447675E-2,1.085966E-2,4.6685785E-3,-4.2921815E-2,-9.319204E-3,1.5473774E-1,-4.4714235E-2,1.4043982E-2,-3.6548615E-2,1.2768461E-2,-3.5195183E-2,-1.867476E-2,1.5308703E-2,-1.6195722E-2,-4.69317E-2,-1.1289953E-2],"categories":[],"categories_nodes":[],"categories_segments":[],"categories_sizes":[],"default_left":[0,0,0,0,0,0,0,0,0,0,0,0,0,0,0,0,0,0,0,0,0,0,0,0,0,0,0,0,0,0,0],"id":44,"left_children":[1,3,5,7,9,11,13,15,17,19,21,23,25,27,29,-1,-1,-1,-1,-1,-1,-1,-1,-1,-1,-1,-1,-1,-1,-1,-1],"loss_changes":[6.595551E1,1.5649522E2,7.6602264E1,5.925871E1,3.6209003E2,2.7176529E1,6.266069E1,1.0376201E2,5.70763E1,4.1865906E2,9.501175E1,8.6407135E1,5.646454E0,7.1612114E1,1.8164467E1,0E0,0E0,0E0,0E0,0E0,0E0,0E0,0E0,0E0,0E0,0E0,0E0,0E0,0E0,0E0,0E0],"parents":[2147483647,0,0,1,1,2,2,3,3,4,4,5,5,6,6,7,7,8,8,9,9,10,10,11,11,12,12,13,13,14,14],"right_children":[2,4,6,8,10,12,14,16,18,20,22,24,26,28,30,-1,-1,-1,-1,-1,-1,-1,-1,-1,-1,-1,-1,-1,-1,-1,-1],"split_conditions":[1.7E1,1.3E1,4E0,7E0,3E0,2.1E1,2.3E1,3E0,5E0,1.5E1,4E0,1.9E1,2.3E1,7E0,6E0,-1.8447675E-2,1.085966E-2,4.6685785E-3,-4.2921815E-2,-9.319204E-3,1.5473774E-1,-4.4714235E-2,1.4043982E-2,-3.6548615E-2,1.2768461E-2,-3.5195183E-2,-1.867476E-2,1.5308703E-2,-1.6195722E-2,-4.69317E-2,-1.1289953E-2],"split_indices":[1,1,0,0,0,1,1,0,1,1,0,1,1,0,0,0,0,0,0,0,0,0,0,0,0,0,0,0,0,0,0],"split_type":[0,0,0,0,0,0,0,0,0,0,0,0,0,0,0,0,0,0,0,0,0,0,0,0,0,0,0,0,0,0,0],"sum_hessian":[1.6087E4,9.374E3,6.713E3,6.475E3,2.899E3,2.656E3,4.057E3,5.408E3,1.067E3,6.51E2,2.248E3,1.42E3,1.236E3,3.484E3,5.73E2,1.82E3,3.588E3,4.07E2,6.6E2,2.56E2,3.95E2,3.2E2,1.928E3,6.94E2,7.26E2,9.68E2,2.68E2,2.465E3,1.019E3,2.93E2,2.8E2],"tree_param":{"num_deleted":"0","num_feature":"2","num_nodes":"31","size_leaf_vector":"1"}},{"base_weights":[-2.5647014E-4,-1.5276545E-1,2.3002261E-2,1.3378075E-1,-2.2222313E-1,-1.5818247E-1,5.1074397E-2,-8.490332E-2,8.538335E-1,-3.183404E-1,-1.441177E-1,-5.3531754E-1,-9.072048E-2,6.9695693E-1,3.5363555E-2,-2.1585661E-3,-3.0665701E-2,1.6455258E-1,1.6553184E-2,5.401668E-5,-2.792328E-2,-3.5224043E-2,-1.1467277E-1,-2.396022E-2,-4.9271653E-3,3.1201008E-1,-1.08810626E-1,9.268536E-3,-6.3322163E-3],"categories":[],"categories_nodes":[],"categories_segments":[],"categories_sizes":[],"default_left":[0,0,0,0,0,0,0,0,0,0,0,0,0,0,0,0,0,0,0,0,0,0,0,0,0,0,0,0,0],"id":45,"left_children":[1,3,5,7,9,11,13,15,17,-1,19,21,23,25,27,-1,-1,-1,-1,-1,-1,-1,-1,-1,-1,-1,-1,-1,-1],"loss_changes":[5.7070312E1,4.2402866E1,7.1012024E1,6.5577545E1,3.9596246E2,4.7604828E1,1.2263664E2,4.486476E0,5.258516E1,0E0,3.266062E1,3.1385674E1,9.800042E0,1.2448035E3,6.676793E1,0E0,0E0,0E0,0E0,0E0,0E0,0E0,0E0,0E0,0E0,0E0,0E0,0E0,0E0],"parents":[2147483647,0,0,1,1,2,2,3,3,4,4,5,5,6,6,7,7,8,8,10,10,11,11,12,12,13,13,14,14],"right_children":[2,4,6,8,10,12,14,16,18,-1,20,22,24,26,28,-1,-1,-1,-1,-1,-1,-1,-1,-1,-1,-1,-1,-1,-1],"split_conditions":[2E0,6E0,5E0,4E0,7E0,3E0,6E0,3E0,5E0,-3.183404E-1,1.7E1,4E0,4E0,5E0,1.9E1,-2.1585661E-3,-3.0665701E-2,1.6455258E-1,1.6553184E-2,5.401668E-5,-2.792328E-2,-3.5224043E-2,-1.1467277E-1,-2.396022E-2,-4.9271653E-3,3.1201008E-1,-1.08810626E-1,9.268536E-3,-6.3322163E-3],"split_indices":[0,1,1,1,1,0,1,1,1,0,1,1,0,0,1,0,0,0,0,0,0,0,0,0,0,0,0,0,0],"split_type":[0,0,0,0,0,0,0,0,0,0,0,0,0,0,0,0,0,0,0,0,0,0,0,0,0,0,0,0,0],"sum_hessian":[1.6087E4,2.128E3,1.3959E4,4.15E2,1.713E3,1.872E3,1.2087E4,3.19E2,9.6E1,4.3E1,1.67E3,2.83E2,1.589E3,2.86E2,1.1801E4,2.49E2,7E1,4.4E1,5.2E1,8.07E2,8.63E2,2.19E2,6.4E1,3.45E2,1.244E3,1.21E2,1.65E2,7.465E3,4.336E3],"tree_param":{"num_deleted":"0","num_feature":"2","num_nodes":"29","size_leaf_vector":"1"}},{"base_weights":[-2.4104572E-4,-1.3758156E-1,2.0704383E-2,1.2075908E-1,-2.002024E-1,-1.424597E-1,4.5984466E-2,-7.651549E-2,7.7031684E-1,-2.8722987E-1,-1.297222E-1,-4.8231357E-1,-8.166664E-2,6.2796926E-1,3.182791E-2,-1.9435674E-3,-2.7642308E-2,1.48463E-1,1.4929026E-2,4.8682716E-5,-2.513416E-2,-3.1717643E-2,-1.0338191E-1,-1.2595347E-2,4.69436E-3,2.8106484E-1,-9.799513E-2,8.34187E-3,-5.6991247E-3],"categories":[],"categories_nodes":[],"categories_segments":[],"categories_sizes":[],"default_left":[0,0,0,0,0,0,0,0,0,0,0,0,0,0,0,0,0,0,0,0,0,0,0,0,0,0,0,0,0],"id":46,"left_children":[1,3,5,7,9,11,13,15,17,-1,19,21,23,25,27,-1,-1,-1,-1,-1,-1,-1,-1,-1,-1,-1,-1,-1,-1],"loss_changes":[4.6282486E1,3.44661E1,5.7588776E1,5.3365692E1,3.2242487E2,3.8658207E1,9.957181E1,3.646048E0,4.280828E1,0E0,2.6461983E1,2.5537125E1,9.062138E0,1.0100022E3,5.4084476E1,0E0,0E0,0E0,0E0,0E0,0E0,0E0,0E0,0E0,0E0,0E0,0E0,0E0,0E0],"parents":[2147483647,0,0,1,1,2,2,3,3,4,4,5,5,6,6,7,7,8,8,10,10,11,11,12,12,13,13,14,14],"right_children":[2,4,6,8,10,12,14,16,18,-1,20,22,24,26,28,-1,-1,-1,-1,-1,-1,-1,-1,-1,-1,-1,-1,-1,-1],"split_conditions":[2E0,6E0,5E0,4E0,7E0,3E0,6E0,3E0,5E0,-2.8722987E-1,1.7E1,4E0,7E0,5E0,1.9E1,-1.9435674E-3,-2.7642308E-2,1.48463E-1,1.4929026E-2,4.8682716E-5,-2.513416E-2,-3.1717643E-2,-1.0338191E-1,-1.2595347E-2,4.69436E-3,2.8106484E-1,-9.799513E-2,8.34187E-3,-5.6991247E-3],"split_indices":[0,1,1,1,1,0,1,1,1,0,1,1,0,0,1,0,0,0,0,0,0,0,0,0,0,0,0,0,0],"split_type":[0,0,0,0,0,0,0,0,0,0,0,0,0,0,0,0,0,0,0,0,0,0,0,0,0,0,0,0,0],"sum_hessian":[1.6087E4,2.128E3,1.3959E4,4.15E2,1.713E3,1.872E3,1.2087E4,3.19E2,9.6E1,4.3E1,1.67E3,2.83E2,1.589E3,2.86E2,1.1801E4,2.49E2,7E1,4.4E1,5.2E1,8.07E2,8.63E2,2.19E2,6.4E1,1.182E3,4.07E2,1.21E2,1.65E2,7.465E3,4.336E3],"tree_param":{"num_deleted":"0","num_feature":"2","num_nodes":"29","size_leaf_vector":"1"}},{"base_weights":[-2.2577043E-4,1.18543515E-2,-2.1897328E-1,-7.278564E-2,4.846377E-2,-2.8323957E-1,-8.966143E-2,-2.9869387E-2,-4.0545216E-1,5.800591E-1,2.0936409E-2,-1.4303942E-1,-4.1055453E-1,1.5767446E-2,-3.26069E-2,6.4470754E-3,-2.4516553E-2,-2.3145972E-1,2.7953908E-2,-1.1727623E-1,8.7545864E-2,-2.5067968E-2,4.6411E-3,-4.5135073E-2,4.3164365E-4,-3.7953235E-2,-4.334891E-2],"categories":[],"categories_nodes":[],"categories_segments":[],"categories_sizes":[],"default_left":[0,0,0,0,0,0,0,0,0,0,0,0,0,0,0,0,0,0,0,0,0,0,0,0,0,0,0],"id":47,"left_children":[1,3,5,7,9,11,13,15,17,19,21,23,25,-1,-1,-1,-1,-1,-1,-1,-1,-1,-1,-1,-1,-1,-1],"loss_changes":[4.251508E1,4.72482E1,6.971958E0,6.571828E1,1.5574597E2,9.972736E0,1.6482067E1,8.2864655E1,6.885222E2,2.7234473E2,7.004194E1,1.2223015E1,4.465103E-2,0E0,0E0,0E0,0E0,0E0,0E0,0E0,0E0,0E0,0E0,0E0,0E0,0E0,0E0],"parents":[2147483647,0,0,1,1,2,2,3,3,4,4,5,5,6,6,7,7,8,8,9,9,10,10,11,11,12,12],"right_children":[2,4,6,8,10,12,14,16,18,20,22,24,26,-1,-1,-1,-1,-1,-1,-1,-1,-1,-1,-1,-1,-1,-1],"split_conditions":[2.3E1,1E1,6E0,9E0,1.1E1,4E0,7E0,6E0,3E0,2E0,1.2E1,2E0,5E0,1.5767446E-2,-3.26069E-2,6.4470754E-3,-2.4516553E-2,-2.3145972E-1,2.7953908E-2,-1.1727623E-1,8.7545864E-2,-2.5067968E-2,4.6411E-3,-4.5135073E-2,4.3164365E-4,-3.7953235E-2,-4.334891E-2],"split_indices":[1,1,0,1,1,0,0,0,0,0,1,0,0,0,0,0,0,0,0,0,0,0,0,0,0,0,0],"split_type":[0,0,0,0,0,0,0,0,0,0,0,0,0,0,0,0,0,0,0,0,0,0,0,0,0,0,0],"sum_hessian":[1.6087E4,1.5246E4,8.41E2,4.603E3,1.0643E4,5.61E2,2.8E2,4.078E3,5.25E2,5.23E2,1.012E4,2.68E2,2.93E2,1.37E2,1.43E2,2.836E3,1.242E3,1.38E2,3.87E2,7.5E1,4.48E2,8.67E2,9.253E3,8.6E1,1.82E2,1.32E2,1.61E2],"tree_param":{"num_deleted":"0","num_feature":"2","num_nodes":"27","size_leaf_vector":"1"}},{"base_weights":[-2.2883572E-4,4.1918255E-2,-5.90803E-2,-2.9778963E-2,2.0201111E-1,-1.700067E-1,1.3563996E-2,6.199057E-3,-2.119656E-1,7.9945546E-1,2.8718196E-2,1.15383595E-1,-2.0624381E-1,8.586453E-2,-1.6648407E-1,-1.4621632E-2,8.353041E-3,1.1832676E-3,-4.691098E-2,-9.680885E-3,1.3791032E-1,2.254913E-2,-1.6808044E-2,-1.7388059E-2,2.861889E-2,-6.672188E-2,-1.1314533E-2,1.36974305E-2,-2.0676324E-2,-1.1029902E-2,-2.9457284E-2],"categories":[],"categories_nodes":[],"categories_segments":[],"categories_sizes":[],"default_left":[0,0,0,0,0,0,0,0,0,0,0,0,0,0,0,0,0,0,0,0,0,0,0,0,0,0,0,0,0,0,0],"id":48,"left_children":[1,3,5,7,9,11,13,15,17,19,21,23,25,27,29,-1,-1,-1,-1,-1,-1,-1,-1,-1,-1,-1,-1,-1,-1,-1,-1],"loss_changes":[3.9907444E1,1.0761425E2,5.4104866E1,4.2449646E1,3.0022235E2,2.750174E1,5.28396E1,6.3765316E1,6.146727E1,3.3885892E2,8.71297E1,1.4872121E1,1.011206E2,4.33413E1,8.337242E0,0E0,0E0,0E0,0E0,0E0,0E0,0E0,0E0,0E0,0E0,0E0,0E0,0E0,0E0,0E0,0E0],"parents":[2147483647,0,0,1,1,2,2,3,3,4,4,5,5,6,6,7,7,8,8,9,9,10,10,11,11,12,12,13,13,14,14],"right_children":[2,4,6,8,10,12,14,16,18,20,22,24,26,28,30,-1,-1,-1,-1,-1,-1,-1,-1,-1,-1,-1,-1,-1,-1,-1,-1],"split_conditions":[1.7E1,1.3E1,4E0,7E0,3E0,1.8E1,7E0,3E0,8E0,1.5E1,1.5E1,2E0,1.9E1,2.3E1,2.2E1,-1.4621632E-2,8.353041E-3,1.1832676E-3,-4.691098E-2,-9.680885E-3,1.3791032E-1,2.254913E-2,-1.6808044E-2,-1.7388059E-2,2.861889E-2,-6.672188E-2,-1.1314533E-2,1.36974305E-2,-2.0676324E-2,-1.1029902E-2,-2.9457284E-2],"split_indices":[1,1,0,0,0,1,0,0,1,1,1,0,1,1,1,0,0,0,0,0,0,0,0,0,0,0,0,0,0,0,0],"split_type":[0,0,0,0,0,0,0,0,0,0,0,0,0,0,0,0,0,0,0,0,0,0,0,0,0,0,0,0,0,0,0],"sum_hessian":[1.6087E4,9.374E3,6.713E3,6.475E3,2.899E3,2.656E3,4.057E3,5.408E3,1.067E3,6.51E2,2.248E3,2.99E2,2.357E3,2.895E3,1.162E3,1.82E3,3.588E3,5.71E2,4.96E2,2.56E2,3.95E2,1.124E3,1.124E3,1.11E2,1.88E2,3.95E2,1.962E3,2.465E3,4.3E2,8.09E2,3.53E2],"tree_param":{"num_deleted":"0","num_feature":"2","num_nodes":"31","size_leaf_vector":"1"}},{"base_weights":[-2.0783149E-4,3.7735395E-2,-5.3189296E-2,-6.393232E-2,1.3581596E-1,-1.5303136E-1,1.219601E-2,-2.5881888E-2,-3.588825E-1,5.331015E-1,8.6789496E-2,1.0388186E-1,-1.8565263E-1,7.727574E-2,-1.4987026E-1,1.8221786E-2,-1.1258113E-2,-2.0702854E-1,2.551481E-2,-1.04259886E-1,7.986252E-2,-2.2068944E-2,1.656792E-2,-1.5664844E-2,2.5772054E-2,-6.006657E-2,-1.0183663E-2,1.23282485E-2,-1.8613478E-2,-3.165871E-3,-1.9927869E-2],"categories":[],"categories_nodes":[],"categories_segments":[],"categories_sizes":[],"default_left":[0,0,0,0,0,0,0,0,0,0,0,0,0,0,0,0,0,0,0,0,0,0,0,0,0,0,0,0,0,0,0],"id":49,"left_children":[1,3,5,7,9,11,13,15,17,19,21,23,25,27,29,-1,-1,-1,-1,-1,-1,-1,-1,-1,-1,-1,-1,-1,-1,-1,-1],"loss_changes":[3.2343517E1,9.349269E1,4.3832237E1,5.1661324E1,9.290038E1,2.2287163E1,4.2812233E1,7.3614204E1,5.532772E2,2.200668E2,1.031042E2,1.2064262E1,8.196123E1,3.511859E1,6.7863655E0,0E0,0E0,0E0,0E0,0E0,0E0,0E0,0E0,0E0,0E0,0E0,0E0,0E0,0E0,0E0,0E0],"parents":[2147483647,0,0,1,1,2,2,3,3,4,4,5,5,6,6,7,7,8,8,9,9,10,10,11,11,12,12,13,13,14,14],"right_children":[2,4,6,8,10,12,14,16,18,20,22,24,26,28,30,-1,-1,-1,-1,-1,-1,-1,-1,-1,-1,-1,-1,-1,-1,-1,-1],"split_conditions":[1.7E1,1E1,4E0,9E0,1.1E1,1.8E1,7E0,3E0,3E0,2E0,1.2E1,2E0,1.9E1,2.3E1,1.9E1,1.8221786E-2,-1.1258113E-2,-2.0702854E-1,2.551481E-2,-1.04259886E-1,7.986252E-2,-2.2068944E-2,1.656792E-2,-1.5664844E-2,2.5772054E-2,-6.006657E-2,-1.0183663E-2,1.23282485E-2,-1.8613478E-2,-3.165871E-3,-1.9927869E-2],"split_indices":[1,1,0,1,1,1,0,0,0,0,1,0,1,1,1,0,0,0,0,0,0,0,0,0,0,0,0,0,0,0,0],"split_type":[0,0,0,0,0,0,0,0,0,0,0,0,0,0,0,0,0,0,0,0,0,0,0,0,0,0,0,0,0,0,0],"sum_hessian":[1.6087E4,9.374E3,6.713E3,4.603E3,4.771E3,2.656E3,4.057E3,4.078E3,5.25E2,5.23E2,4.248E3,2.99E2,2.357E3,2.895E3,1.162E3,1.199E3,2.879E3,1.38E2,3.87E2,7.5E1,4.48E2,8.67E2,3.381E3,1.11E2,1.88E2,3.95E2,1.962E3,2.465E3,4.3E2,3.43E2,8.19E2],"tree_param":{"num_deleted":"0","num_feature":"2","num_nodes":"31","size_leaf_vector":"1"}}]},"name":"gbtree"},"learner_model_param":{"base_score":"[1.3854355E1]","boost_from_average":"1","num_class":"0","num_feature":"2","num_target":"1"},"objective":{"name":"reg:squarederror","reg_loss_param":{"scale_pos_weight":"1"}}},"version":[3,2,0]}