{"learner":{"attributes":{},"feature_names":["day_of_week","hour_of_day"],"feature_types":[],"gradient_booster":{"model":{"cats":{"enc":[],"feature_segments":[],"sorted_idx":[]},"gbtree_model_param":{"num_parallel_tree":"1","num_trees":"50"},"iteration_indptr":[0,1,2,3,4,5,6,7,8,9,10,11,12,13,14,15,16,17,18,19,20,21,22,23,24,25,26,27,28,29,30,31,32,33,34,35,36,37,38,39,40,41,42,43,44,45,46,47,48,49,50],"tree_info":[0,0,0,0,0,0,0,0,0,0,0,0,0,0,0,0,0,0,0,0,0,0,0,0,0,0,0,0,0,0,0,0,0,0,0,0,0,0,0,0,0,0,0,0,0,0,0,0,0,0],"trees":[{"base_weights":[3.897077E-7,-9.969152E0,1.1349808E0,-1.048587E1,-5.8233414E0,3.5561233E0,-5.0062113E0,-1.1417881E0,-8.555001E0,-4.356217E0,-8.326969E-1,3.9178271E0,-2.7137703E-1,-2.5018406E0,-7.727405E0,-7.941589E-1,-9.533998E-1,-6.460319E-1,-2.2489655E-1,7.3721975E-2,4.483853E-1,-1.7078382E-1,1.230841E-2,-4.6415862E-1,-8.7867245E-2,-9.777915E-1,-6.353292E-1],"categories":[],"categories_nodes":[],"categories_segments":[],"categories_sizes":[],"default_left":[0,0,0,0,0,0,0,0,0,0,0,0,0,0,0,0,0,0,0,0,0,0,0,0,0,0,0],"id":0,"left_children":[1,3,5,7,9,11,13,-1,15,17,-1,19,21,23,25,-1,-1,-1,-1,-1,-1,-1,-1,-1,-1,-1,-1],"loss_changes":[1.3859489E5,2.6209844E3,1.6352894E5,1.9034609E3,4.816377E2,1.0921375E4,2.1174938E4,0E0,1.4408203E2,3.889535E2,0E0,1.2971492E4,3.8665057E2,5.625926E3,4.1361562E3,0E0,0E0,0E0,0E0,0E0,0E0,0E0,0E0,0E0,0E0,0E0,0E0],"parents":[2147483647,0,0,1,1,2,2,3,3,4,4,5,5,6,6,8,8,9,9,11,11,12,12,13,13,14,14],"right_children":[2,4,6,8,10,12,14,-1,16,18,-1,20,22,24,26,-1,-1,-1,-1,-1,-1,-1,-1,-1,-1,-1,-1],"split_conditions":[4E0,3E0,2E1,6E0,6E0,1.9E1,2.2E1,-1.1417881E0,2E0,2E0,-8.326969E-1,7E0,3E0,4E0,4E0,-7.941589E-1,-9.533998E-1,-6.460319E-1,-2.2489655E-1,7.3721975E-2,4.483853E-1,-1.7078382E-1,1.230841E-2,-4.6415862E-1,-8.7867245E-2,-9.777915E-1,-6.353292E-1],"split_indices":[1,1,1,0,0,1,1,0,1,0,0,1,0,0,0,0,0,0,0,0,0,0,0,0,0,0,0],"split_type":[0,0,0,0,0,0,0,0,0,0,0,0,0,0,0,0,0,0,0,0,0,0,0,0,0,0,0],"sum_hessian":[1.2247E4,1.251E3,1.0996E4,1.111E3,1.4E2,7.887E3,3.109E3,7.46E2,3.65E2,9E1,5E1,7.206E3,6.81E2,1.62E3,1.489E3,2.3E2,1.35E2,4.4E1,4.6E1,1.089E3,6.117E3,1.46E2,5.35E2,6.98E2,9.22E2,5.95E2,8.94E2],"tree_param":{"num_deleted":"0","num_feature":"2","num_nodes":"27","size_leaf_vector":"1"}},{"base_weights":[-5.2187894E-4,-8.975905E0,1.0213187E0,-9.439881E0,-5.25309E0,3.2005568E0,-4.5062866E0,-1.0277622E0,-7.704276E0,-3.9301658E0,-7.5105995E-1,3.7133029E0,8.29931E-1,-2.2519972E0,-6.955747E0,-6.806347E-1,-8.243114E-1,-5.8286434E-1,-2.0288542E-1,1.7691079E-1,4.7641984E-1,1.8422584E-1,-2.4447156E-2,-4.1780916E-1,-7.909009E-2,-8.8017637E-1,-5.718673E-1],"categories":[],"categories_nodes":[],"categories_segments":[],"categories_sizes":[],"default_left":[0,0,0,0,0,0,0,0,0,0,0,0,0,0,0,0,0,0,0,0,0,0,0,0,0,0,0],"id":1,"left_children":[1,3,5,7,9,11,13,-1,15,17,-1,19,21,23,25,-1,-1,-1,-1,-1,-1,-1,-1,-1,-1,-1,-1],"loss_changes":[1.1234062E5,2.1129922E3,1.3248394E5,1.5376484E3,3.9158057E2,9.585008E3,1.715711E4,0E0,1.20978516E2,3.1664783E2,0E0,1.3241375E4,1.5275068E3,4.5585293E3,3.3523203E3,0E0,0E0,0E0,0E0,0E0,0E0,0E0,0E0,0E0,0E0,0E0,0E0],"parents":[2147483647,0,0,1,1,2,2,3,3,4,4,5,5,6,6,8,8,9,9,11,11,12,12,13,13,14,14],"right_children":[2,4,6,8,10,12,14,-1,16,18,-1,20,22,24,26,-1,-1,-1,-1,-1,-1,-1,-1,-1,-1,-1,-1],"split_conditions":[4E0,3E0,2E1,6E0,6E0,1.8E1,2.2E1,-1.0277622E0,1E0,2E0,-7.5105995E-1,1E1,1.9E1,4E0,4E0,-6.806347E-1,-8.243114E-1,-5.8286434E-1,-2.0288542E-1,1.7691079E-1,4.7641984E-1,1.8422584E-1,-2.4447156E-2,-4.1780916E-1,-7.909009E-2,-8.8017637E-1,-5.718673E-1],"split_indices":[1,1,1,0,0,1,1,0,1,0,0,1,1,0,0,0,0,0,0,0,0,0,0,0,0,0,0],"split_type":[0,0,0,0,0,0,0,0,0,0,0,0,0,0,0,0,0,0,0,0,0,0,0,0,0,0,0],"sum_hessian":[1.2247E4,1.251E3,1.0996E4,1.111E3,1.4E2,7.887E3,3.109E3,7.46E2,3.65E2,9E1,5E1,6.484E3,1.403E3,1.62E3,1.489E3,1.42E2,2.23E2,4.4E1,4.6E1,2.276E3,4.208E3,7.22E2,6.81E2,6.98E2,9.22E2,5.95E2,8.94E2],"tree_param":{"num_deleted":"0","num_feature":"2","num_nodes":"27","size_leaf_vector":"1"}},{"base_weights":[-8.94315E-4,-8.081565E0,9.1908395E-1,-8.498171E0,-4.7386804E0,2.8806047E0,-4.0562844E0,-9.251235E-1,-6.9379606E0,-3.5457835E0,-6.774267E-1,3.4062712E0,5.383632E-1,-2.027104E0,-6.261147E0,-6.418445E-1,-7.7693576E-1,-5.258731E-1,-1.8302855E-1,4.0049657E-1,7.63323E-2,-6.220867E-1,2.4018882E-1,-3.7608796E-1,-7.118965E-2,-7.923064E-1,-5.1474446E-1],"categories":[],"categories_nodes":[],"categories_segments":[],"categories_sizes":[],"default_left":[0,0,0,0,0,0,0,0,0,0,0,0,0,0,0,0,0,0,0,0,0,0,0,0,0,0,0],"id":2,"left_children":[1,3,5,7,9,11,13,-1,15,17,-1,19,21,23,25,-1,-1,-1,-1,-1,-1,-1,-1,-1,-1,-1,-1],"loss_changes":[9.105957E4,1.7033438E3,1.0733458E5,1.2423438E3,3.183623E2,9.710176E3,1.3901652E4,0E0,1.082168E2,2.577838E2,0E0,1.0190242E4,1.8241348E4,3.6936475E3,2.7170273E3,0E0,0E0,0E0,0E0,0E0,0E0,0E0,0E0,0E0,0E0,0E0,0E0],"parents":[2147483647,0,0,1,1,2,2,3,3,4,4,5,5,6,6,8,8,9,9,11,11,12,12,13,13,14,14],"right_children":[2,4,6,8,10,12,14,-1,16,18,-1,20,22,24,26,-1,-1,-1,-1,-1,-1,-1,-1,-1,-1,-1,-1],"split_conditions":[4E0,3E0,2E1,6E0,6E0,7E0,2.2E1,-9.251235E-1,2E0,2E0,-6.774267E-1,1.8E1,9E0,4E0,4E0,-6.418445E-1,-7.7693576E-1,-5.258731E-1,-1.8302855E-1,4.0049657E-1,7.63323E-2,-6.220867E-1,2.4018882E-1,-3.7608796E-1,-7.118965E-2,-7.923064E-1,-5.1474446E-1],"split_indices":[1,1,1,0,0,0,1,0,1,0,0,1,1,0,0,0,0,0,0,0,0,0,0,0,0,0,0],"split_type":[0,0,0,0,0,0,0,0,0,0,0,0,0,0,0,0,0,0,0,0,0,0,0,0,0,0,0],"sum_hessian":[1.2247E4,1.251E3,1.0996E4,1.111E3,1.4E2,7.887E3,3.109E3,7.46E2,3.65E2,9E1,5E1,6.441E3,1.446E3,1.62E3,1.489E3,2.3E2,1.35E2,4.4E1,4.6E1,5.251E3,1.19E3,3.12E2,1.134E3,6.98E2,9.22E2,5.95E2,8.94E2],"tree_param":{"num_deleted":"0","num_feature":"2","num_nodes":"27","size_leaf_vector":"1"}},{"base_weights":[-1.2448307E-3,-7.276388E0,8.2702476E-1,-7.6504617E0,-4.2746444E0,2.867705E0,-3.052693E0,-8.32735E-1,-6.2480407E0,-3.1989954E0,-6.1101234E-1,3.3970957E0,5.746897E-1,-1.3793459E0,-5.6359096E0,-5.493116E-1,-6.7020863E-1,-4.744544E-1,-1.6511513E-1,1.10129856E-1,3.5625312E-1,-7.779453E-1,1.962954E-1,-2.7662003E-1,-4.2360123E-2,-6.7628187E-1,-4.2689466E-1],"categories":[],"categories_nodes":[],"categories_segments":[],"categories_sizes":[],"default_left":[0,0,0,0,0,0,0,0,0,0,0,0,0,0,0,0,0,0,0,0,0,0,0,0,0,0,0],"id":3,"left_children":[1,3,5,7,9,11,13,-1,15,17,-1,19,21,23,25,-1,-1,-1,-1,-1,-1,-1,-1,-1,-1,-1,-1],"loss_changes":[7.380977E4,1.3731328E3,8.707491E4,1.0035742E3,2.5883447E2,8.746629E3,1.6379266E4,0E0,8.863965E1,2.0986237E2,0E0,2.2198438E3,1.5707036E4,3.0500806E3,2.2663906E3,0E0,0E0,0E0,0E0,0E0,0E0,0E0,0E0,0E0,0E0,0E0,0E0],"parents":[2147483647,0,0,1,1,2,2,3,3,4,4,5,5,6,6,8,8,9,9,11,11,12,12,13,13,14,14],"right_children":[2,4,6,8,10,12,14,-1,16,18,-1,20,22,24,26,-1,-1,-1,-1,-1,-1,-1,-1,-1,-1,-1,-1],"split_conditions":[4E0,3E0,1.9E1,6E0,6E0,7E0,2.2E1,-8.32735E-1,1E0,2E0,-6.1101234E-1,5E0,7E0,4E0,5E0,-5.493116E-1,-6.7020863E-1,-4.744544E-1,-1.6511513E-1,1.10129856E-1,3.5625312E-1,-7.779453E-1,1.962954E-1,-2.7662003E-1,-4.2360123E-2,-6.7628187E-1,-4.2689466E-1],"split_indices":[1,1,1,0,0,0,1,0,1,0,0,1,1,0,0,0,0,0,0,0,0,0,0,0,0,0,0],"split_type":[0,0,0,0,0,0,0,0,0,0,0,0,0,0,0,0,0,0,0,0,0,0,0,0,0,0,0],"sum_hessian":[1.2247E4,1.251E3,1.0996E4,1.111E3,1.4E2,7.206E3,3.79E3,7.46E2,3.65E2,9E1,5E1,5.854E3,1.352E3,2.301E3,1.489E3,1.42E2,2.23E2,4.4E1,4.6E1,3.94E2,5.46E3,1.92E2,1.16E3,9.38E2,1.363E3,8.14E2,6.75E2],"tree_param":{"num_deleted":"0","num_feature":"2","num_nodes":"27","size_leaf_vector":"1"}},{"base_weights":[-1.5153842E-3,-6.5513873E0,7.4418265E-1,-6.887261E0,-3.8560493E0,2.341314E0,-3.3069162E0,-7.4957293E-1,-5.6265683E0,-2.8861241E0,-5.5110914E-1,2.7696233E0,4.3287694E-1,-1.6814631E0,-5.073059E0,-5.1863897E-1,-6.332854E-1,-4.2806336E-1,-1.4895491E-1,3.2668248E-1,5.7476908E-2,-5.198819E-1,1.9855537E-1,-3.1091055E-1,-5.9846934E-2,-6.4569396E-1,-4.1458344E-1],"categories":[],"categories_nodes":[],"categories_segments":[],"categories_sizes":[],"default_left":[0,0,0,0,0,0,0,0,0,0,0,0,0,0,0,0,0,0,0,0,0,0,0,0,0,0,0],"id":4,"left_children":[1,3,5,7,9,11,13,-1,15,17,-1,19,21,23,25,-1,-1,-1,-1,-1,-1,-1,-1,-1,-1,-1,-1],"loss_changes":[5.9826887E4,1.1068672E3,7.115985E4,8.1083203E2,2.1043677E2,6.446453E3,8.919602E3,0E0,8.094141E1,1.7084967E2,0E0,7.0281797E3,1.2663185E4,2.504412E3,1.8851523E3,0E0,0E0,0E0,0E0,0E0,0E0,0E0,0E0,0E0,0E0,0E0,0E0],"parents":[2147483647,0,0,1,1,2,2,3,3,4,4,5,5,6,6,8,8,9,9,11,11,12,12,13,13,14,14],"right_children":[2,4,6,8,10,12,14,-1,16,18,-1,20,22,24,26,-1,-1,-1,-1,-1,-1,-1,-1,-1,-1,-1,-1],"split_conditions":[4E0,3E0,2E1,6E0,6E0,7E0,2.2E1,-7.4957293E-1,2E0,2E0,-5.5110914E-1,1.8E1,9E0,4E0,4E0,-5.1863897E-1,-6.332854E-1,-4.2806336E-1,-1.4895491E-1,3.2668248E-1,5.7476908E-2,-5.198819E-1,1.9855537E-1,-3.1091055E-1,-5.9846934E-2,-6.4569396E-1,-4.1458344E-1],"split_indices":[1,1,1,0,0,0,1,0,1,0,0,1,1,0,0,0,0,0,0,0,0,0,0,0,0,0,0],"split_type":[0,0,0,0,0,0,0,0,0,0,0,0,0,0,0,0,0,0,0,0,0,0,0,0,0,0,0],"sum_hessian":[1.2247E4,1.251E3,1.0996E4,1.111E3,1.4E2,7.887E3,3.109E3,7.46E2,3.65E2,9E1,5E1,6.441E3,1.446E3,1.62E3,1.489E3,2.3E2,1.35E2,4.4E1,4.6E1,5.251E3,1.19E3,3.12E2,1.134E3,6.98E2,9.22E2,5.95E2,8.94E2],"tree_param":{"num_deleted":"0","num_feature":"2","num_nodes":"27","size_leaf_vector":"1"}},{"base_weights":[-1.722738E-3,-5.898669E0,6.696402E-1,-6.200245E0,-3.478445E0,1.8641542E0,-3.743159E0,-6.7471606E-1,-5.067059E0,-2.6038523E0,-4.970788E-1,2.3319442E0,-4.638149E-1,-5.0999203E0,-2.7842898E0,-4.669996E-1,-5.7042253E-1,-3.351061E-1,-3.782678E-2,2.2375013E-3,2.7430424E-1,-1.5753464E-1,-1.0705448E-2,-3.951002E-1,-5.8123296E-1,-1.5882905E-1,-5.6955683E-1],"categories":[],"categories_nodes":[],"categories_segments":[],"categories_sizes":[],"default_left":[0,0,0,0,0,0,0,0,0,0,0,0,0,0,0,0,0,0,0,0,0,0,0,0,0,0,0],"id":5,"left_children":[1,3,5,7,9,11,13,-1,15,17,-1,19,21,23,25,-1,-1,-1,-1,-1,-1,-1,-1,-1,-1,-1,-1],"loss_changes":[4.849367E4,8.922461E2,5.7973816E4,6.5498047E2,1.7108887E2,9.426387E3,3.0339453E3,0E0,6.595703E1,1.5006317E2,0E0,6.8426914E3,5.74433E2,7.701582E2,4.778548E3,0E0,0E0,0E0,0E0,0E0,0E0,0E0,0E0,0E0,0E0,0E0,0E0],"parents":[2147483647,0,0,1,1,2,2,3,3,4,4,5,5,6,6,8,8,9,9,11,11,12,12,13,13,14,14],"right_children":[2,4,6,8,10,12,14,-1,16,18,-1,20,22,24,26,-1,-1,-1,-1,-1,-1,-1,-1,-1,-1,-1,-1],"split_conditions":[4E0,3E0,2.1E1,6E0,6E0,1.9E1,4E0,-6.7471606E-1,2E0,3E0,-4.970788E-1,7E0,3E0,2.2E1,7E0,-4.669996E-1,-5.7042253E-1,-3.351061E-1,-3.782678E-2,2.2375013E-3,2.7430424E-1,-1.5753464E-1,-1.0705448E-2,-3.951002E-1,-5.8123296E-1,-1.5882905E-1,-5.6955683E-1],"split_indices":[1,1,1,0,0,1,0,0,1,0,0,1,0,1,0,0,0,0,0,0,0,0,0,0,0,0,0],"split_type":[0,0,0,0,0,0,0,0,0,0,0,0,0,0,0,0,0,0,0,0,0,0,0,0,0,0,0],"sum_hessian":[1.2247E4,1.251E3,1.0996E4,1.111E3,1.4E2,8.654E3,2.342E3,7.46E2,3.65E2,9E1,5E1,7.206E3,1.448E3,9.68E2,1.374E3,2.3E2,1.35E2,6.7E1,2.3E1,1.089E3,6.117E3,3.51E2,1.097E3,3.73E2,5.95E2,9.75E2,3.99E2],"tree_param":{"num_deleted":"0","num_feature":"2","num_nodes":"27","size_leaf_vector":"1"}},{"base_weights":[-1.8917354E-3,-5.310864E0,6.025309E-1,-5.58176E0,-3.136771E0,1.6777511E0,-3.3695707E0,-6.0733476E0,-4.5631876E0,-2.3475654E0,-4.4834557E-1,2.235335E0,1.1417428E-2,-1.9712337E0,-4.168772E0,-6.169045E-1,-5.567068E-1,-3.9688995E-1,-4.9222055E-1,-3.5344234E-1,-1.1612641E-1,7.816123E-2,3.0212444E-1,8.7111615E-2,-4.1754983E-2,-3.5569578E-1,-7.34161E-2,-5.037552E-1,-3.1151858E-1],"categories":[],"categories_nodes":[],"categories_segments":[],"categories_sizes":[],"default_left":[0,0,0,0,0,0,0,0,0,0,0,0,0,0,0,0,0,0,0,0,0,0,0,0,0,0,0,0,0],"id":6,"left_children":[1,3,5,7,9,11,13,15,17,19,-1,21,23,25,27,-1,-1,-1,-1,-1,-1,-1,-1,-1,-1,-1,-1,-1,-1],"loss_changes":[3.9305355E4,7.198633E2,4.6972562E4,5.2908203E2,1.3933118E2,8.0415156E3,2.610209E3,1.8515625E0,5.85542E1,1.24020996E2,0E0,7.406711E3,8.009907E2,1.6726433E3,1.3481562E3,0E0,0E0,0E0,0E0,0E0,0E0,0E0,0E0,0E0,0E0,0E0,0E0,0E0,0E0],"parents":[2147483647,0,0,1,1,2,2,3,3,4,4,5,5,6,6,7,7,8,8,9,9,11,11,12,12,13,13,14,14],"right_children":[2,4,6,8,10,12,14,16,18,20,-1,22,24,26,28,-1,-1,-1,-1,-1,-1,-1,-1,-1,-1,-1,-1,-1,-1],"split_conditions":[4E0,3E0,2.1E1,6E0,6E0,1.8E1,2.2E1,2E0,1E0,2E0,-4.4834557E-1,1E1,1.9E1,4E0,5E0,-6.169045E-1,-5.567068E-1,-3.9688995E-1,-4.9222055E-1,-3.5344234E-1,-1.1612641E-1,7.816123E-2,3.0212444E-1,8.7111615E-2,-4.1754983E-2,-3.5569578E-1,-7.34161E-2,-5.037552E-1,-3.1151858E-1],"split_indices":[1,1,1,0,0,1,1,1,1,0,0,1,1,0,0,0,0,0,0,0,0,0,0,0,0,0,0,0,0],"split_type":[0,0,0,0,0,0,0,0,0,0,0,0,0,0,0,0,0,0,0,0,0,0,0,0,0,0,0,0,0],"sum_hessian":[1.2247E4,1.251E3,1.0996E4,1.111E3,1.4E2,8.654E3,2.342E3,7.46E2,3.65E2,9E1,5E1,6.484E3,2.17E3,8.53E2,1.489E3,6.18E2,1.28E2,1.42E2,2.23E2,4.4E1,4.6E1,2.276E3,4.208E3,7.22E2,1.448E3,3.73E2,4.8E2,8.14E2,6.75E2],"tree_param":{"num_deleted":"0","num_feature":"2","num_nodes":"29","size_leaf_vector":"1"}},{"base_weights":[-2.0126428E-3,-4.7821584E0,5.422035E-1,-5.0254393E0,-2.8296041E0,1.5100254E0,-3.0331447E0,-5.467584E0,-4.109298E0,-2.1179693E0,-4.0439016E-1,2.0118606E0,1.0296467E-2,-1.774613E0,-3.752442E0,-5.5608344E-1,-5.015771E-1,-3.7735292E-1,-4.6493956E-1,-2.7529073E-1,-2.3072999E-2,2.4911623E-1,-2.9714722E-3,-9.276938E-2,3.6173947E-2,-3.202213E-1,-6.608978E-2,-3.311449E-1,-5.8652294E-1],"categories":[],"categories_nodes":[],"categories_segments":[],"categories_sizes":[],"default_left":[0,0,0,0,0,0,0,0,0,0,0,0,0,0,0,0,0,0,0,0,0,0,0,0,0,0,0,0,0],"id":7,"left_children":[1,3,5,7,9,11,13,15,17,19,-1,21,23,25,27,-1,-1,-1,-1,-1,-1,-1,-1,-1,-1,-1,-1,-1,-1],"loss_changes":[3.186494E4,5.8050195E2,3.80575E4,4.279668E2,1.1327844E2,6.513877E3,2.1143613E3,3.5800781E0,4.8828613E1,1.08408264E2,0E0,6.345842E3,7.16006E2,1.3556924E3,1.3688457E3,0E0,0E0,0E0,0E0,0E0,0E0,0E0,0E0,0E0,0E0,0E0,0E0,0E0,0E0],"parents":[2147483647,0,0,1,1,2,2,3,3,4,4,5,5,6,6,7,7,8,8,9,9,11,11,12,12,13,13,14,14],"right_children":[2,4,6,8,10,12,14,16,18,20,-1,22,24,26,28,-1,-1,-1,-1,-1,-1,-1,-1,-1,-1,-1,-1,-1,-1],"split_conditions":[4E0,3E0,2.1E1,6E0,6E0,1.8E1,2.2E1,5E0,2E0,3E0,-4.0439016E-1,7E0,3E0,4E0,7E0,-5.5608344E-1,-5.015771E-1,-3.7735292E-1,-4.6493956E-1,-2.7529073E-1,-2.3072999E-2,2.4911623E-1,-2.9714722E-3,-9.276938E-2,3.6173947E-2,-3.202213E-1,-6.608978E-2,-3.311449E-1,-5.8652294E-1],"split_indices":[1,1,1,0,0,1,1,0,1,0,0,0,0,0,0,0,0,0,0,0,0,0,0,0,0,0,0,0,0],"split_type":[0,0,0,0,0,0,0,0,0,0,0,0,0,0,0,0,0,0,0,0,0,0,0,0,0,0,0,0,0],"sum_hessian":[1.2247E4,1.251E3,1.0996E4,1.111E3,1.4E2,8.654E3,2.342E3,7.46E2,3.65E2,9E1,5E1,6.484E3,2.17E3,8.53E2,1.489E3,6.09E2,1.37E2,2.3E2,1.35E2,6.7E1,2.3E1,5.251E3,1.233E3,5.91E2,1.579E3,3.73E2,4.8E2,1.234E3,2.55E2],"tree_param":{"num_deleted":"0","num_feature":"2","num_nodes":"29","size_leaf_vector":"1"}},{"base_weights":[-2.114958E-3,-4.3060217E0,4.878817E-1,-4.524604E0,-2.5516279E0,1.7086471E0,-1.8330216E0,-4.922241E0,-3.7006698E0,-1.9094512E0,-3.6474407E-1,-2.6243272E-1,2.059541E0,-8.3233863E-1,-3.377813E0,-5.0081664E-1,-4.471777E-1,-3.2000715E-1,-4.0037274E-1,-2.9196626E-1,-9.016011E-2,2.1105786E-1,-5.757789E-1,2.3652263E-1,9.50915E-2,-2.1447258E-1,-3.5792913E-2,-4.2036754E-1,-2.3771392E-1],"categories":[],"categories_nodes":[],"categories_segments":[],"categories_sizes":[],"default_left":[0,0,0,0,0,0,0,0,0,0,0,0,0,0,0,0,0,0,0,0,0,0,0,0,0,0,0,0,0],"id":8,"left_children":[1,3,5,7,9,11,13,15,17,19,-1,21,23,25,27,-1,-1,-1,-1,-1,-1,-1,-1,-1,-1,-1,-1,-1,-1],"loss_changes":[2.5831906E4,4.685703E2,3.1160697E4,3.4610742E2,9.225781E1,4.9851875E3,5.857493E3,6.515625E0,4.2713867E1,9.0018524E1,0E0,1.4226345E4,2.071084E3,1.4324781E3,1.2213711E3,0E0,0E0,0E0,0E0,0E0,0E0,0E0,0E0,0E0,0E0,0E0,0E0,0E0,0E0],"parents":[2147483647,0,0,1,1,2,2,3,3,4,4,5,5,6,6,7,7,8,8,9,9,11,11,12,12,13,13,14,14],"right_children":[2,4,6,8,10,12,14,16,18,20,-1,22,24,26,28,-1,-1,-1,-1,-1,-1,-1,-1,-1,-1,-1,-1,-1,-1],"split_conditions":[4E0,3E0,1.9E1,6E0,6E0,7E0,2.2E1,2E0,1E0,2E0,-3.6474407E-1,6E0,1.7E1,3E0,5E0,-5.0081664E-1,-4.471777E-1,-3.2000715E-1,-4.0037274E-1,-2.9196626E-1,-9.016011E-2,2.1105786E-1,-5.757789E-1,2.3652263E-1,9.50915E-2,-2.1447258E-1,-3.5792913E-2,-4.2036754E-1,-2.3771392E-1],"split_indices":[1,1,1,0,0,1,1,1,1,0,0,0,1,0,0,0,0,0,0,0,0,0,0,0,0,0,0,0,0],"split_type":[0,0,0,0,0,0,0,0,0,0,0,0,0,0,0,0,0,0,0,0,0,0,0,0,0,0,0,0,0],"sum_hessian":[1.2247E4,1.251E3,1.0996E4,1.111E3,1.4E2,7.206E3,3.79E3,7.46E2,3.65E2,9E1,5E1,1.089E3,6.117E3,2.301E3,1.489E3,6.18E2,1.28E2,1.42E2,2.23E2,4.4E1,4.6E1,7.61E2,3.28E2,4.794E3,1.323E3,6.1E2,1.691E3,8.14E2,6.75E2],"tree_param":{"num_deleted":"0","num_feature":"2","num_nodes":"29","size_leaf_vector":"1"}},{"base_weights":[-2.177371E-3,-3.8773484E0,4.390081E-1,-4.0736437E0,-2.3017619E0,1.3944958E0,-1.9845695E0,-4.4312863E0,-3.3325713E0,-1.7227051E0,-3.2898483E0,1.9324169E0,4.1902858E-1,-1.0127734E0,-3.0404735E0,-4.5150754E-1,-4.0288028E-1,-3.048573E-1,-3.7904465E-1,-2.2622502E-1,-1.2221447E-2,-2.7650437E-1,-3.6881205E-1,2.2074778E-1,7.158729E-2,-5.1837605E-1,1.1630328E-1,-1.9843239E-1,-2.7590817E-2,-2.622662E-1,-5.044212E-1],"categories":[],"categories_nodes":[],"categories_segments":[],"categories_sizes":[],"default_left":[0,0,0,0,0,0,0,0,0,0,0,0,0,0,0,0,0,0,0,0,0,0,0,0,0,0,0,0,0,0,0],"id":9,"left_children":[1,3,5,7,9,11,13,15,17,19,21,23,25,27,29,-1,-1,-1,-1,-1,-1,-1,-1,-1,-1,-1,-1,-1,-1,-1,-1],"loss_changes":[2.0941727E4,3.7784375E2,2.5468504E4,2.7995508E2,7.5006836E1,4.138218E3,3.188165E3,7.0009766E0,3.6037354E1,7.830536E1,4.619751E-1,1.6996445E3,1.1698668E4,1.1599292E3,1.2341777E3,0E0,0E0,0E0,0E0,0E0,0E0,0E0,0E0,0E0,0E0,0E0,0E0,0E0,0E0,0E0,0E0],"parents":[2147483647,0,0,1,1,2,2,3,3,4,4,5,5,6,6,7,7,8,8,9,9,10,10,11,11,12,12,13,13,14,14],"right_children":[2,4,6,8,10,12,14,16,18,20,22,24,26,28,30,-1,-1,-1,-1,-1,-1,-1,-1,-1,-1,-1,-1,-1,-1,-1,-1],"split_conditions":[4E0,3E0,2E1,6E0,6E0,6E0,2.2E1,5E0,2E0,3E0,7E0,1.8E1,7E0,4E0,7E0,-4.5150754E-1,-4.0288028E-1,-3.048573E-1,-3.7904465E-1,-2.2622502E-1,-1.2221447E-2,-2.7650437E-1,-3.6881205E-1,2.2074778E-1,7.158729E-2,-5.1837605E-1,1.1630328E-1,-1.9843239E-1,-2.7590817E-2,-2.622662E-1,-5.044212E-1],"split_indices":[1,1,1,0,0,0,1,0,1,0,0,1,1,0,0,0,0,0,0,0,0,0,0,0,0,0,0,0,0,0,0],"split_type":[0,0,0,0,0,0,0,0,0,0,0,0,0,0,0,0,0,0,0,0,0,0,0,0,0,0,0,0,0,0,0],"sum_hessian":[1.2247E4,1.251E3,1.0996E4,1.111E3,1.4E2,7.887E3,3.109E3,7.46E2,3.65E2,9E1,5E1,5.083E3,2.804E3,1.62E3,1.489E3,6.09E2,1.37E2,2.3E2,1.35E2,6.7E1,2.3E1,2.5E1,2.5E1,4.145E3,9.38E2,3.28E2,2.476E3,6.98E2,9.22E2,1.234E3,2.55E2],"tree_param":{"num_deleted":"0","num_feature":"2","num_nodes":"31","size_leaf_vector":"1"}},{"base_weights":[-2.2471945E-3,-3.491548E0,3.9500725E-1,-3.6676626E0,-2.0778534E0,1.111753E0,-2.2528071E0,-3.9893012E0,-3.0011828E0,-1.5530549E0,-2.9735165E0,1.4233865E0,-2.976665E-1,-3.605102E0,-1.7022635E0,-4.0664935E-1,-3.587974E-1,-2.5795767E-1,-3.2569352E-1,-2.4129866E-1,-6.966724E-2,-2.4991737E-1,-3.3334935E-1,1.9488688E-1,3.363342E-2,-4.326178E-1,7.06491E-2,-3.0897614E-1,-4.9097395E-1,-9.733128E-2,-4.008782E-1],"categories":[],"categories_nodes":[],"categories_segments":[],"categories_sizes":[],"default_left":[0,0,0,0,0,0,0,0,0,0,0,0,0,0,0,0,0,0,0,0,0,0,0,0,0,0,0,0,0,0,0],"id":10,"left_children":[1,3,5,7,9,11,13,15,17,19,21,23,25,27,29,-1,-1,-1,-1,-1,-1,-1,-1,-1,-1,-1,-1,-1,-1,-1,-1],"loss_changes":[1.6978824E4,3.040918E2,2.087272E4,2.2640234E2,6.165796E1,3.8018926E3,1.7382197E3,8.550781E0,3.1063232E1,6.533411E1,3.7738037E-1,4.0482002E3,6.3460244E3,4.4E2,2.7988887E3,0E0,0E0,0E0,0E0,0E0,0E0,0E0,0E0,0E0,0E0,0E0,0E0,0E0,0E0,0E0,0E0],"parents":[2147483647,0,0,1,1,2,2,3,3,4,4,5,5,6,6,7,7,8,8,9,9,10,10,11,11,12,12,13,13,14,14],"right_children":[2,4,6,8,10,12,14,16,18,20,22,24,26,28,30,-1,-1,-1,-1,-1,-1,-1,-1,-1,-1,-1,-1,-1,-1,-1,-1],"split_conditions":[4E0,3E0,2.1E1,6E0,6E0,7E0,3E0,2E0,1E0,2E0,7E0,1.7E1,9E0,2.3E1,7E0,-4.0664935E-1,-3.587974E-1,-2.5795767E-1,-3.2569352E-1,-2.4129866E-1,-6.966724E-2,-2.4991737E-1,-3.3334935E-1,1.9488688E-1,3.363342E-2,-4.326178E-1,7.06491E-2,-3.0897614E-1,-4.9097395E-1,-9.733128E-2,-4.008782E-1],"split_indices":[1,1,1,0,0,0,0,1,1,0,0,1,1,1,0,0,0,0,0,0,0,0,0,0,0,0,0,0,0,0,0],"split_type":[0,0,0,0,0,0,0,0,0,0,0,0,0,0,0,0,0,0,0,0,0,0,0,0,0,0,0,0,0,0,0],"sum_hessian":[1.2247E4,1.251E3,1.0996E4,1.111E3,1.4E2,8.654E3,2.342E3,7.46E2,3.65E2,9E1,5E1,7.087E3,1.567E3,6.76E2,1.666E3,6.18E2,1.28E2,1.42E2,2.23E2,4.4E1,4.6E1,2.5E1,2.5E1,4.777E3,2.31E3,3.12E2,1.255E3,4.87E2,1.89E2,1.267E3,3.99E2],"tree_param":{"num_deleted":"0","num_feature":"2","num_nodes":"31","size_leaf_vector":"1"}},{"base_weights":[-2.3226184E-3,-2.6552577E0,4.3840224E-1,-3.3021097E0,-1.5165278E0,1.4645537E0,-1.3790653E0,-3.591396E0,-2.7026591E0,-1.9407797E-1,-5.0960608E0,1.884977E0,7.3348635E-1,-6.494261E-1,-2.5054078E0,-3.6667192E-1,-3.2324213E-1,-2.4623905E-1,-3.0908903E-1,-1.4011669E-1,1.0014441E-2,-2.6876017E-1,-6.06908E-1,4.2815772E-1,1.7880213E-1,-3.1249884E-1,1.1884346E-1,-1.6853665E-1,-2.7495269E-2,-3.2741725E-1,-1.5748626E-1],"categories":[],"categories_nodes":[],"categories_segments":[],"categories_sizes":[],"default_left":[0,0,0,0,0,0,0,0,0,0,0,0,0,0,0,0,0,0,0,0,0,0,0,0,0,0,0,0,0,0,0],"id":11,"left_children":[1,3,5,7,9,11,13,15,17,19,21,23,25,27,29,-1,-1,-1,-1,-1,-1,-1,-1,-1,-1,-1,-1,-1,-1,-1,-1],"loss_changes":[1.4321702E4,1.2803408E3,1.959195E4,1.8312793E2,3.00021E3,2.0622158E3,3.1139062E3,8.345703E0,2.6529541E1,1.6493112E2,3.8442383E2,9.8267773E2,4.3097256E3,8.9255634E2,1.0607461E3,0E0,0E0,0E0,0E0,0E0,0E0,0E0,0E0,0E0,0E0,0E0,0E0,0E0,0E0,0E0,0E0],"parents":[2147483647,0,0,1,1,2,2,3,3,4,4,5,5,6,6,7,7,8,8,9,9,10,10,11,11,12,12,13,13,14,14],"right_children":[2,4,6,8,10,12,14,16,18,20,22,24,26,28,30,-1,-1,-1,-1,-1,-1,-1,-1,-1,-1,-1,-1,-1,-1,-1,-1],"split_conditions":[5E0,3E0,1.9E1,6E0,6E0,6E0,2.2E1,5E0,2E0,4E0,4E0,6E0,8E0,3E0,5E0,-3.6667192E-1,-3.2324213E-1,-2.4623905E-1,-3.0908903E-1,-1.4011669E-1,1.0014441E-2,-2.6876017E-1,-6.06908E-1,4.2815772E-1,1.7880213E-1,-3.1249884E-1,1.1884346E-1,-1.6853665E-1,-2.7495269E-2,-3.2741725E-1,-1.5748626E-1],"split_indices":[1,1,1,0,0,0,1,0,1,1,1,1,1,0,0,0,0,0,0,0,0,0,0,0,0,0,0,0,0,0,0],"split_type":[0,0,0,0,0,0,0,0,0,0,0,0,0,0,0,0,0,0,0,0,0,0,0,0,0,0,0,0,0,0,0],"sum_hessian":[1.2247E4,1.744E3,1.0503E4,1.111E3,6.33E2,6.713E3,3.79E3,7.46E2,3.65E2,4.63E2,1.7E2,4.261E3,2.452E3,2.301E3,1.489E3,6.09E2,1.37E2,2.3E2,1.35E2,9E1,3.73E2,5E1,1.2E2,1.64E2,4.097E3,2.58E2,2.194E3,6.1E2,1.691E3,8.14E2,6.75E2],"tree_param":{"num_deleted":"0","num_feature":"2","num_nodes":"31","size_leaf_vector":"1"}},{"base_weights":[-2.296061E-3,-2.391022E0,3.9453647E-1,-2.9730184E0,-1.3664615E0,1.3181598E0,-1.2413385E0,-3.2331798E0,-2.4339104E0,-1.7495072E-1,-4.5915756E0,7.282223E-1,1.7720052E0,-5.845687E-1,-2.2551925E0,-3.3025604E-1,-2.8751984E-1,-2.0789056E-1,-2.649677E-1,-1.26259E-1,9.015656E-3,-2.4241112E-1,-5.4671884E-1,1.1676981E-1,-1.3665752E-1,2.4365155E-1,5.3048152E-2,-3.174604E-2,-2.0245878E-1,-1.8946794E-1,-3.985578E-1],"categories":[],"categories_nodes":[],"categories_segments":[],"categories_sizes":[],"default_left":[0,0,0,0,0,0,0,0,0,0,0,0,0,0,0,0,0,0,0,0,0,0,0,0,0,0,0,0,0,0,0],"id":12,"left_children":[1,3,5,7,9,11,13,15,17,19,21,23,25,27,29,-1,-1,-1,-1,-1,-1,-1,-1,-1,-1,-1,-1,-1,-1,-1,-1],"loss_changes":[1.1611117E4,1.0364648E3,1.587247E4,1.4809473E2,2.4355054E3,1.7963193E3,2.5229897E3,9.057129E0,2.2526611E1,1.3390408E2,3.11281E2,2.6907056E3,3.1287783E3,8.84801E2,9.219502E2,0E0,0E0,0E0,0E0,0E0,0E0,0E0,0E0,0E0,0E0,0E0,0E0,0E0,0E0,0E0,0E0],"parents":[2147483647,0,0,1,1,2,2,3,3,4,4,5,5,6,6,7,7,8,8,9,9,10,10,11,11,12,12,13,13,14,14],"right_children":[2,4,6,8,10,12,14,16,18,20,22,24,26,28,30,-1,-1,-1,-1,-1,-1,-1,-1,-1,-1,-1,-1,-1,-1,-1,-1],"split_conditions":[5E0,3E0,1.9E1,6E0,6E0,1.2E1,2.2E1,2E0,1E0,4E0,4E0,7E0,1.7E1,7E0,7E0,-3.3025604E-1,-2.8751984E-1,-2.0789056E-1,-2.649677E-1,-1.26259E-1,9.015656E-3,-2.4241112E-1,-5.4671884E-1,1.1676981E-1,-1.3665752E-1,2.4365155E-1,5.3048152E-2,-3.174604E-2,-2.0245878E-1,-1.8946794E-1,-3.985578E-1],"split_indices":[1,1,1,0,0,1,1,1,1,1,1,0,1,0,0,0,0,0,0,0,0,0,0,0,0,0,0,0,0,0,0],"split_type":[0,0,0,0,0,0,0,0,0,0,0,0,0,0,0,0,0,0,0,0,0,0,0,0,0,0,0,0,0,0,0],"sum_hessian":[1.2247E4,1.744E3,1.0503E4,1.111E3,6.33E2,6.713E3,3.79E3,7.46E2,3.65E2,4.63E2,1.7E2,2.92E3,3.793E3,2.301E3,1.489E3,6.18E2,1.28E2,1.42E2,2.23E2,9E1,3.73E2,5E1,1.2E2,2.414E3,5.06E2,2.47E3,1.323E3,1.942E3,3.59E2,1.234E3,2.55E2],"tree_param":{"num_deleted":"0","num_feature":"2","num_nodes":"31","size_leaf_vector":"1"}},{"base_weights":[-2.27424E-3,-2.153064E0,3.5503066E-1,-2.6766975E0,-1.231245E0,1.1863847E0,-1.1174215E0,-2.9106889E0,-2.1918113E0,-1.5770847E-1,-4.137033E0,1.5476631E0,5.581928E-1,-7.6771027E-1,-2.7875087E0,-2.97843E-1,-2.590162E-1,-1.9884829E-1,-2.521054E-1,-1.13771856E-1,8.1164865E-3,-2.1864532E-1,-4.924988E-1,3.739952E-1,1.459016E-1,-1.8979777E-1,1.11245394E-1,-1.5570821E-1,-2.0573065E-2,-3.749827E-1,-1.8765803E-1],"categories":[],"categories_nodes":[],"categories_segments":[],"categories_sizes":[],"default_left":[0,0,0,0,0,0,0,0,0,0,0,0,0,0,0,0,0,0,0,0,0,0,0,0,0,0,0,0,0,0,0],"id":13,"left_children":[1,3,5,7,9,11,13,15,17,19,21,23,25,27,29,-1,-1,-1,-1,-1,-1,-1,-1,-1,-1,-1,-1,-1,-1,-1,-1],"loss_changes":[9.413202E3,8.3900684E2,1.2859578E4,1.1978711E2,1.9770914E3,1.5228926E3,2.2119873E3,8.504883E0,1.9488525E1,1.0871395E2,2.5205322E2,8.2281934E2,3.3415278E3,1.3908431E3,5.6801514E2,0E0,0E0,0E0,0E0,0E0,0E0,0E0,0E0,0E0,0E0,0E0,0E0,0E0,0E0,0E0,0E0],"parents":[2147483647,0,0,1,1,2,2,3,3,4,4,5,5,6,6,7,7,8,8,9,9,10,10,11,11,12,12,13,13,14,14],"right_children":[2,4,6,8,10,12,14,16,18,20,22,24,26,28,30,-1,-1,-1,-1,-1,-1,-1,-1,-1,-1,-1,-1,-1,-1,-1,-1],"split_conditions":[5E0,3E0,1.9E1,6E0,6E0,6E0,2.3E1,5E0,2E0,4E0,4E0,6E0,9E0,4E0,5E0,-2.97843E-1,-2.590162E-1,-1.9884829E-1,-2.521054E-1,-1.13771856E-1,8.1164865E-3,-2.1864532E-1,-4.924988E-1,3.739952E-1,1.459016E-1,-1.8979777E-1,1.11245394E-1,-1.5570821E-1,-2.0573065E-2,-3.749827E-1,-1.8765803E-1],"split_indices":[1,1,1,0,0,0,1,0,1,1,1,1,1,0,0,0,0,0,0,0,0,0,0,0,0,0,0,0,0,0,0],"split_type":[0,0,0,0,0,0,0,0,0,0,0,0,0,0,0,0,0,0,0,0,0,0,0,0,0,0,0,0,0,0,0],"sum_hessian":[1.2247E4,1.744E3,1.0503E4,1.111E3,6.33E2,6.713E3,3.79E3,7.46E2,3.65E2,4.63E2,1.7E2,4.261E3,2.452E3,3.135E3,6.55E2,6.09E2,1.37E2,2.3E2,1.35E2,9E1,3.73E2,5E1,1.2E2,1.64E2,4.097E3,4.51E2,2.001E3,1.303E3,1.832E3,3.17E2,3.38E2],"tree_param":{"num_deleted":"0","num_feature":"2","num_nodes":"31","size_leaf_vector":"1"}},{"base_weights":[-2.219976E-3,-1.9388034E0,3.194994E-1,-2.409934E0,-1.1094092E0,8.5410184E-1,-1.5429609E0,-2.567022E0,-1.7963747E0,-1.4216569E-1,-3.7274888E0,1.2453374E0,9.29167E-2,-2.3951542E0,-9.412748E-1,-2.6810753E-1,-2.3037393E-1,-1.469797E-1,-1.9358924E-1,7.668491E-2,-3.720989E-2,-1.9720952E-1,-4.4365597E-1,6.273539E-2,2.1567027E-1,3.3846762E-2,-3.592841E-2,-2.1091287E-1,-3.2998195E-1,-5.0555817E-3,-3.1122762E-1],"categories":[],"categories_nodes":[],"categories_segments":[],"categories_sizes":[],"default_left":[0,0,0,0,0,0,0,0,0,0,0,0,0,0,0,0,0,0,0,0,0,0,0,0,0,0,0,0,0,0,0],"id":14,"left_children":[1,3,5,7,9,11,13,15,17,19,21,23,25,27,29,-1,-1,-1,-1,-1,-1,-1,-1,-1,-1,-1,-1,-1,-1,-1,-1],"loss_changes":[7.63157E3,6.791904E2,1.04598955E4,1.02566895E2,1.6049614E3,2.4305493E3,1.1991255E3,2.033789E1,7.6342163E0,9.726723E1,2.0409424E2,3.0349053E3,3.0791983E2,2.4377637E2,2.658752E3,0E0,0E0,0E0,0E0,0E0,0E0,0E0,0E0,0E0,0E0,0E0,0E0,0E0,0E0,0E0,0E0],"parents":[2147483647,0,0,1,1,2,2,3,3,4,4,5,5,6,6,7,7,8,8,9,9,10,10,11,11,12,12,13,13,14,14],"right_children":[2,4,6,8,10,12,14,16,18,20,22,24,26,28,30,-1,-1,-1,-1,-1,-1,-1,-1,-1,-1,-1,-1,-1,-1,-1,-1],"split_conditions":[5E0,3E0,2.1E1,7E0,6E0,1.7E1,4E0,5E0,1E0,2E0,4E0,1.3E1,6E0,2.3E1,7E0,-2.6810753E-1,-2.3037393E-1,-1.469797E-1,-1.9358924E-1,7.668491E-2,-3.720989E-2,-1.9720952E-1,-4.4365597E-1,6.273539E-2,2.1567027E-1,3.3846762E-2,-3.592841E-2,-2.1091287E-1,-3.2998195E-1,-5.0555817E-3,-3.1122762E-1],"split_indices":[1,1,1,0,0,1,0,0,1,0,1,1,0,1,0,0,0,0,0,0,0,0,0,0,0,0,0,0,0,0,0],"split_type":[0,0,0,0,0,0,0,0,0,0,0,0,0,0,0,0,0,0,0,0,0,0,0,0,0,0,0,0,0,0,0],"sum_hessian":[1.2247E4,1.744E3,1.0503E4,1.111E3,6.33E2,8.161E3,2.342E3,8.82E2,2.29E2,4.63E2,1.7E2,5.39E3,2.771E3,9.68E2,1.374E3,6.09E2,2.73E2,7.2E1,1.57E2,9.3E1,3.7E2,5E1,1.2E2,3.213E3,2.177E3,1.796E3,9.75E2,7.38E2,2.3E2,9.75E2,3.99E2],"tree_param":{"num_deleted":"0","num_feature":"2","num_nodes":"31","size_leaf_vector":"1"}},{"base_weights":[-2.1627152E-3,-1.7457488E0,2.8749454E-1,-2.1696951E0,-9.994172E-1,9.661478E-1,-9.14501E-1,-2.3108845E0,-1.618218E0,-1.2786442E-1,-3.3584878E0,1.2897443E0,4.0351644E-1,-6.1450386E-1,-2.3472397E0,-2.4134074E-1,-2.0742062E-1,-1.3248305E-1,-1.7435284E-1,-1.04346655E-1,9.525767E-3,-1.7787527E-1,-3.9965704E-1,3.3058697E-1,1.2082533E-1,-3.128247E-1,7.321289E-2,-3.475784E-2,-1.9505107E-1,-3.135974E-1,-1.600441E-1],"categories":[],"categories_nodes":[],"categories_segments":[],"categories_sizes":[],"default_left":[0,0,0,0,0,0,0,0,0,0,0,0,0,0,0,0,0,0,0,0,0,0,0,0,0,0,0,0,0,0,0],"id":15,"left_children":[1,3,5,7,9,11,13,15,17,19,21,23,25,27,29,-1,-1,-1,-1,-1,-1,-1,-1,-1,-1,-1,-1,-1,-1,-1,-1],"loss_changes":[6.1862607E3,5.49958E2,8.569396E3,8.284375E1,1.3031091E3,1.2218682E3,1.6279958E3,1.6419922E1,6.145935E0,9.489045E1,1.6525928E2,6.9623584E2,2.8491968E3,1.1176643E3,3.8138208E2,0E0,0E0,0E0,0E0,0E0,0E0,0E0,0E0,0E0,0E0,0E0,0E0,0E0,0E0,0E0,0E0],"parents":[2147483647,0,0,1,1,2,2,3,3,4,4,5,5,6,6,7,7,8,8,9,9,10,10,11,11,12,12,13,13,14,14],"right_children":[2,4,6,8,10,12,14,16,18,20,22,24,26,28,30,-1,-1,-1,-1,-1,-1,-1,-1,-1,-1,-1,-1,-1,-1,-1,-1],"split_conditions":[5E0,3E0,1.9E1,7E0,6E0,6E0,2.3E1,5E0,1E0,4E0,4E0,6E0,7E0,7E0,5E0,-2.4134074E-1,-2.0742062E-1,-1.3248305E-1,-1.7435284E-1,-1.04346655E-1,9.525767E-3,-1.7787527E-1,-3.9965704E-1,3.3058697E-1,1.2082533E-1,-3.128247E-1,7.321289E-2,-3.475784E-2,-1.9505107E-1,-3.135974E-1,-1.600441E-1],"split_indices":[1,1,1,0,0,0,1,0,1,1,1,1,1,0,0,0,0,0,0,0,0,0,0,0,0,0,0,0,0,0,0],"split_type":[0,0,0,0,0,0,0,0,0,0,0,0,0,0,0,0,0,0,0,0,0,0,0,0,0,0,0,0,0,0,0],"sum_hessian":[1.2247E4,1.744E3,1.0503E4,1.111E3,6.33E2,6.713E3,3.79E3,8.82E2,2.29E2,4.63E2,1.7E2,4.261E3,2.452E3,3.135E3,6.55E2,6.09E2,2.73E2,7.2E1,1.57E2,9E1,3.73E2,5E1,1.2E2,1.64E2,4.097E3,2.08E2,2.244E3,2.614E3,5.21E2,3.17E2,3.38E2],"tree_param":{"num_deleted":"0","num_feature":"2","num_nodes":"31","size_leaf_vector":"1"}},{"base_weights":[-2.1031997E-3,-1.5719922E0,2.5869823E-1,-1.9534053E0,-9.005357E-1,6.99666E-1,-1.2775536E0,-2.0803041E0,-1.4577303E0,-1.1528205E-1,-3.0260162E0,1.0260093E0,6.47396E-2,-2.0552905E0,-7.285319E-1,-2.1724622E-1,-1.8675424E-1,-1.1941625E-1,-1.5702793E-1,7.3485754E-2,-3.3037055E-2,-1.6043654E-1,-3.6002162E-1,4.03934E-2,1.7609571E-1,-7.450504E-2,1.9212944E-2,-2.2776881E-1,-1.5344088E-1,4.5521925E-3,-2.615402E-1],"categories":[],"categories_nodes":[],"categories_segments":[],"categories_sizes":[],"default_left":[0,0,0,0,0,0,0,0,0,0,0,0,0,0,0,0,0,0,0,0,0,0,0,0,0,0,0,0,0,0,0],"id":16,"left_children":[1,3,5,7,9,11,13,15,17,19,21,23,25,27,29,-1,-1,-1,-1,-1,-1,-1,-1,-1,-1,-1,-1,-1,-1,-1,-1],"loss_changes":[5.0150967E3,4.4513916E2,7.1166978E3,6.6913574E1,1.0578235E3,1.6911321E3,9.9895044E2,1.32561035E1,4.947632E0,8.508761E1,1.3381323E2,2.4640156E3,2.8609995E2,1.0875708E2,2.0083601E3,0E0,0E0,0E0,0E0,0E0,0E0,0E0,0E0,0E0,0E0,0E0,0E0,0E0,0E0,0E0,0E0],"parents":[2147483647,0,0,1,1,2,2,3,3,4,4,5,5,6,6,7,7,8,8,9,9,10,10,11,11,12,12,13,13,14,14],"right_children":[2,4,6,8,10,12,14,16,18,20,22,24,26,28,30,-1,-1,-1,-1,-1,-1,-1,-1,-1,-1,-1,-1,-1,-1,-1,-1],"split_conditions":[5E0,3E0,2.1E1,7E0,6E0,1.7E1,4E0,5E0,1E0,2E0,4E0,1.2E1,2E0,3E0,7E0,-2.1724622E-1,-1.8675424E-1,-1.1941625E-1,-1.5702793E-1,7.3485754E-2,-3.3037055E-2,-1.6043654E-1,-3.6002162E-1,4.03934E-2,1.7609571E-1,-7.450504E-2,1.9212944E-2,-2.2776881E-1,-1.5344088E-1,4.5521925E-3,-2.615402E-1],"split_indices":[1,1,1,0,0,1,0,0,1,0,1,1,0,0,0,0,0,0,0,0,0,0,0,0,0,0,0,0,0,0,0],"split_type":[0,0,0,0,0,0,0,0,0,0,0,0,0,0,0,0,0,0,0,0,0,0,0,0,0,0,0,0,0,0,0],"sum_hessian":[1.2247E4,1.744E3,1.0503E4,1.111E3,6.33E2,8.161E3,2.342E3,8.82E2,2.29E2,4.63E2,1.7E2,5.39E3,2.771E3,9.68E2,1.374E3,6.09E2,2.73E2,7.2E1,1.57E2,9.3E1,3.7E2,5E1,1.2E2,2.92E3,2.47E3,3.76E2,2.395E3,6.76E2,2.92E2,9.75E2,3.99E2],"tree_param":{"num_deleted":"0","num_feature":"2","num_nodes":"31","size_leaf_vector":"1"}},{"base_weights":[-2.0266348E-3,-1.4154578E0,2.3278292E-1,-1.7586766E0,-8.11239E-1,6.29719E-1,-1.1500704E0,-1.8727313E0,-1.3131593E0,-1.0366632E-1,-2.7264583E0,9.2344815E-1,5.8245894E-2,-1.7096901E0,-4.6876502E-1,-1.9555722E-1,-1.6814698E-1,-1.076382E-1,-1.4142454E-1,-9.590983E-2,1.0475072E-2,-1.4470746E-1,-3.24317E-1,5.1539958E-2,1.8831076E-1,-6.707432E-2,1.7292479E-2,-1.392957E-1,-2.6694533E-1,6.765596E-2,-2.3545153E-1],"categories":[],"categories_nodes":[],"categories_segments":[],"categories_sizes":[],"default_left":[0,0,0,0,0,0,0,0,0,0,0,0,0,0,0,0,0,0,0,0,0,0,0,0,0,0,0,0,0,0,0],"id":17,"left_children":[1,3,5,7,9,11,13,15,17,19,21,23,25,27,29,-1,-1,-1,-1,-1,-1,-1,-1,-1,-1,-1,-1,-1,-1,-1,-1],"loss_changes":[4.0652832E3,3.604502E2,5.766416E3,5.4045166E1,8.588867E2,1.3700056E3,8.925188E2,1.0702393E1,3.982727E0,8.282545E1,1.0835034E2,2.110079E3,2.3185425E2,3.8721118E2,2.2866575E3,0E0,0E0,0E0,0E0,0E0,0E0,0E0,0E0,0E0,0E0,0E0,0E0,0E0,0E0,0E0,0E0],"parents":[2147483647,0,0,1,1,2,2,3,3,4,4,5,5,6,6,7,7,8,8,9,9,10,10,11,11,12,12,13,13,14,14],"right_children":[2,4,6,8,10,12,14,16,18,20,22,24,26,28,30,-1,-1,-1,-1,-1,-1,-1,-1,-1,-1,-1,-1,-1,-1,-1,-1],"split_conditions":[5E0,3E0,2.1E1,7E0,6E0,1.7E1,5E0,5E0,1E0,4E0,4E0,1.4E1,2E0,2.3E1,7E0,-1.9555722E-1,-1.6814698E-1,-1.076382E-1,-1.4142454E-1,-9.590983E-2,1.0475072E-2,-1.4470746E-1,-3.24317E-1,5.1539958E-2,1.8831076E-1,-6.707432E-2,1.7292479E-2,-1.392957E-1,-2.6694533E-1,6.765596E-2,-2.3545153E-1],"split_indices":[1,1,1,0,0,1,0,0,1,1,1,1,0,1,0,0,0,0,0,0,0,0,0,0,0,0,0,0,0,0,0],"split_type":[0,0,0,0,0,0,0,0,0,0,0,0,0,0,0,0,0,0,0,0,0,0,0,0,0,0,0,0,0,0,0],"sum_hessian":[1.2247E4,1.744E3,1.0503E4,1.111E3,6.33E2,8.161E3,2.342E3,8.82E2,2.29E2,4.63E2,1.7E2,5.39E3,2.771E3,1.285E3,1.057E3,6.09E2,2.73E2,7.2E1,1.57E2,9E1,3.73E2,5E1,1.2E2,3.783E3,1.607E3,3.76E2,2.395E3,9.68E2,3.17E2,6.58E2,3.99E2],"tree_param":{"num_deleted":"0","num_feature":"2","num_nodes":"31","size_leaf_vector":"1"}},{"base_weights":[-1.9506237E-3,-1.274581E0,2.0946807E-1,-1.5833601E0,-7.3098963E-1,6.432447E-1,-8.220392E-1,-1.6858702E0,-1.1829262E0,-9.3483835E-2,-2.4565551E0,9.3168646E-1,1.36916E-1,-1.4018121E0,-1.4432393E-1,-1.7603357E-1,-1.5139364E-1,-9.702182E-2,-1.273716E-1,7.0158765E-2,-2.9467855E-2,-1.3052043E-1,-2.9215333E-1,2.8859088E-1,8.605675E-2,-2.908414E-1,3.9381426E-2,-1.1664257E-1,-2.4033473E-1,9.162306E-2,-2.0066331E-1],"categories":[],"categories_nodes":[],"categories_segments":[],"categories_sizes":[],"default_left":[0,0,0,0,0,0,0,0,0,0,0,0,0,0,0,0,0,0,0,0,0,0,0,0,0,0,0,0,0,0,0],"id":18,"left_children":[1,3,5,7,9,11,13,15,17,19,21,23,25,27,29,-1,-1,-1,-1,-1,-1,-1,-1,-1,-1,-1,-1,-1,-1,-1,-1],"loss_changes":[3.2956873E3,2.9174048E2,4.7004775E3,4.365161E1,6.972073E2,1.0798853E3,1.2217817E3,8.640137E0,3.2059326E0,7.4430115E1,8.773218E1,6.5226245E2,2.1017283E3,3.9231006E2,2.836079E3,0E0,0E0,0E0,0E0,0E0,0E0,0E0,0E0,0E0,0E0,0E0,0E0,0E0,0E0,0E0,0E0],"parents":[2147483647,0,0,1,1,2,2,3,3,4,4,5,5,6,6,7,7,8,8,9,9,10,10,11,11,12,12,13,13,14,14],"right_children":[2,4,6,8,10,12,14,16,18,20,22,24,26,28,30,-1,-1,-1,-1,-1,-1,-1,-1,-1,-1,-1,-1,-1,-1,-1,-1],"split_conditions":[5E0,3E0,2E1,7E0,6E0,6E0,5E0,5E0,1E0,2E0,4E0,6E0,7E0,2.3E1,7E0,-1.7603357E-1,-1.5139364E-1,-9.702182E-2,-1.273716E-1,7.0158765E-2,-2.9467855E-2,-1.3052043E-1,-2.9215333E-1,2.8859088E-1,8.605675E-2,-2.908414E-1,3.9381426E-2,-1.1664257E-1,-2.4033473E-1,9.162306E-2,-2.0066331E-1],"split_indices":[1,1,1,0,0,0,0,0,1,0,1,1,1,1,0,0,0,0,0,0,0,0,0,0,0,0,0,0,0,0,0],"split_type":[0,0,0,0,0,0,0,0,0,0,0,0,0,0,0,0,0,0,0,0,0,0,0,0,0,0,0,0,0,0,0],"sum_hessian":[1.2247E4,1.744E3,1.0503E4,1.111E3,6.33E2,7.394E3,3.109E3,8.82E2,2.29E2,4.63E2,1.7E2,4.71E3,2.684E3,1.675E3,1.434E3,6.09E2,2.73E2,7.2E1,1.57E2,9.3E1,3.7E2,5E1,1.2E2,1.64E2,4.546E3,2.08E2,2.476E3,1.358E3,3.17E2,9.14E2,5.2E2],"tree_param":{"num_deleted":"0","num_feature":"2","num_nodes":"31","size_leaf_vector":"1"}},{"base_weights":[-1.8600052E-3,-1.1476581E0,1.884884E-1,-1.4255203E0,-6.5849346E-1,7.225395E-1,-5.206236E-1,-1.5176541E0,-1.065609E0,-8.404813E-2,-2.2133715E0,2.5431785E-1,1.1675111E0,-3.1046778E-1,-1.755777E0,-1.5845908E-1,-1.3630955E-1,-8.745252E-2,-1.1471502E-1,-4.094396E-2,4.1783404E-2,-1.1772432E-1,-2.6317945E-1,5.9103876E-2,-1.350091E-1,1.376633E-1,3.0719867E-2,-9.148973E-2,1.25140175E-2,-1.4830421E-1,-3.3706063E-1],"categories":[],"categories_nodes":[],"categories_segments":[],"categories_sizes":[],"default_left":[0,0,0,0,0,0,0,0,0,0,0,0,0,0,0,0,0,0,0,0,0,0,0,0,0,0,0,0,0,0,0],"id":19,"left_children":[1,3,5,7,9,11,13,15,17,19,21,23,25,27,29,-1,-1,-1,-1,-1,-1,-1,-1,-1,-1,-1,-1,-1,-1,-1,-1],"loss_changes":[2.6715151E3,2.3624243E2,3.9782625E3,3.5256836E1,5.660979E2,1.2481082E3,1.1709153E3,6.975342E0,2.5804443E0,7.594607E1,7.103705E1,1.5788331E3,5.522612E2,1.01590393E3,2.8391687E2,0E0,0E0,0E0,0E0,0E0,0E0,0E0,0E0,0E0,0E0,0E0,0E0,0E0,0E0,0E0,0E0],"parents":[2147483647,0,0,1,1,2,2,3,3,4,4,5,5,6,6,7,7,8,8,9,9,10,10,11,11,12,12,13,13,14,14],"right_children":[2,4,6,8,10,12,14,16,18,20,22,24,26,28,30,-1,-1,-1,-1,-1,-1,-1,-1,-1,-1,-1,-1,-1,-1,-1,-1],"split_conditions":[5E0,3E0,1.8E1,7E0,6E0,1.2E1,2.3E1,5E0,1E0,4E0,4E0,7E0,1.7E1,4E0,7E0,-1.5845908E-1,-1.3630955E-1,-8.745252E-2,-1.1471502E-1,-4.094396E-2,4.1783404E-2,-1.1772432E-1,-2.6317945E-1,5.9103876E-2,-1.350091E-1,1.376633E-1,3.0719867E-2,-9.148973E-2,1.25140175E-2,-1.4830421E-1,-3.3706063E-1],"split_indices":[1,1,1,0,0,1,1,0,1,0,1,0,1,0,0,0,0,0,0,0,0,0,0,0,0,0,0,0,0,0,0],"split_type":[0,0,0,0,0,0,0,0,0,0,0,0,0,0,0,0,0,0,0,0,0,0,0,0,0,0,0,0,0,0,0],"sum_hessian":[1.2247E4,1.744E3,1.0503E4,1.111E3,6.33E2,5.991E3,4.512E3,8.82E2,2.29E2,4.63E2,1.7E2,2.92E3,3.071E3,3.857E3,6.55E2,6.09E2,2.73E2,7.2E1,1.57E2,2.81E2,1.82E2,5E1,1.2E2,2.414E3,5.06E2,2.47E3,6.01E2,1.615E3,2.242E3,5.62E2,9.3E1],"tree_param":{"num_deleted":"0","num_feature":"2","num_nodes":"31","size_leaf_vector":"1"}},{"base_weights":[-1.7838831E-3,2.043881E-1,-8.734603E-1,-1.0333948E0,4.6899563E-1,-1.3051726E0,-3.4788808E-1,-1.2459313E0,-4.9264762E-1,6.2413543E-1,-2.3827106E-1,-1.0705736E0,-2.0159311E0,5.648154E-1,-1.8506974E0,-1.4214565E-1,-1.0374653E-1,2.871094E-1,-8.69489E-2,8.725663E-2,1.5258837E-2,-2.1983281E-1,9.58774E-3,-1.3146175E-1,-2.8520962E-2,-1.7926903E-1,-2.5790298E-1,1.1660705E-1,-4.493488E-2,-1.4813961E-1,-3.0371317E-1],"categories":[],"categories_nodes":[],"categories_segments":[],"categories_sizes":[],"default_left":[0,0,0,0,0,0,0,0,0,0,0,0,0,0,0,0,0,0,0,0,0,0,0,0,0,0,0,0,0,0,0],"id":20,"left_children":[1,3,5,7,9,11,13,15,17,19,21,23,25,27,29,-1,-1,-1,-1,-1,-1,-1,-1,-1,-1,-1,-1,-1,-1,-1,-1],"loss_changes":[2.2013308E3,3.244964E3,5.311633E2,1.9993652E2,8.957258E2,2.1227344E2,1.4522185E3,4.433716E1,6.286894E2,7.840481E2,9.623323E2,1.853468E2,3.535132E1,4.0236322E2,1.707616E2,0E0,0E0,0E0,0E0,0E0,0E0,0E0,0E0,0E0,0E0,0E0,0E0,0E0,0E0,0E0,0E0],"parents":[2147483647,0,0,1,1,2,2,3,3,4,4,5,5,6,6,7,7,8,8,9,9,10,10,11,11,12,12,13,13,14,14],"right_children":[2,4,6,8,10,12,14,16,18,20,22,24,26,28,30,-1,-1,-1,-1,-1,-1,-1,-1,-1,-1,-1,-1,-1,-1,-1,-1],"split_conditions":[2.1E1,5E0,5E0,4E0,7E0,2.3E1,7E0,5E0,2E0,1.7E1,9E0,4E0,4E0,2.3E1,2.3E1,-1.4214565E-1,-1.0374653E-1,2.871094E-1,-8.69489E-2,8.725663E-2,1.5258837E-2,-2.1983281E-1,9.58774E-3,-1.3146175E-1,-2.8520962E-2,-1.7926903E-1,-2.5790298E-1,1.1660705E-1,-4.493488E-2,-1.4813961E-1,-3.0371317E-1],"split_indices":[1,1,0,1,0,1,0,0,0,1,1,0,0,1,1,0,0,0,0,0,0,0,0,0,0,0,0,0,0,0,0],"split_type":[0,0,0,0,0,0,0,0,0,0,0,0,0,0,0,0,0,0,0,0,0,0,0,0,0,0,0,0,0,0,0],"sum_hessian":[1.2247E4,9.905E3,2.342E3,1.744E3,8.161E3,1.285E3,1.057E3,1.251E3,4.93E2,6.693E3,1.468E3,9.68E2,3.17E2,6.58E2,3.99E2,6.76E2,5.75E2,4.9E1,4.44E2,4.383E3,2.31E3,2.13E2,1.255E3,7.38E2,2.3E2,2.3E2,8.7E1,4.13E2,2.45E2,3.06E2,9.3E1],"tree_param":{"num_deleted":"0","num_feature":"2","num_nodes":"31","size_leaf_vector":"1"}},{"base_weights":[-1.6980654E-3,1.8393347E-1,-7.8653127E-1,-9.300815E-1,4.2208245E-1,-1.4726979E0,-5.073944E-1,-1.1215346E0,-4.4297743E-1,5.6173676E-1,-2.1458727E-1,-1.3278584E0,-1.8369552E0,-1.4126459E-1,-1.6667572E0,-1.2795208E-1,-9.33899E-2,1.5401303E-2,-2.2845598E-1,7.853289E-2,1.3733618E-2,-1.9795229E-1,8.629712E-3,-1.4615916E-1,-1.1968165E-1,-2.2362235E-1,-1.4141475E-1,-8.429303E-2,5.0844308E-2,-1.333739E-1,-2.7366492E-1],"categories":[],"categories_nodes":[],"categories_segments":[],"categories_sizes":[],"default_left":[0,0,0,0,0,0,0,0,0,0,0,0,0,0,0,0,0,0,0,0,0,0,0,0,0,0,0,0,0,0,0],"id":21,"left_children":[1,3,5,7,9,11,13,15,17,19,21,23,25,27,29,-1,-1,-1,-1,-1,-1,-1,-1,-1,-1,-1,-1,-1,-1,-1,-1],"loss_changes":[1.7845532E3,2.6284695E3,4.4801794E2,1.622378E2,7.2583386E2,3.3278442E1,7.0736816E2,3.5919067E1,5.4345886E2,6.351035E2,7.8027094E2,6.8027954E0,2.8912292E1,5.784813E2,1.3886755E2,0E0,0E0,0E0,0E0,0E0,0E0,0E0,0E0,0E0,0E0,0E0,0E0,0E0,0E0,0E0,0E0],"parents":[2147483647,0,0,1,1,2,2,3,3,4,4,5,5,6,6,7,7,8,8,9,9,10,10,11,11,12,12,13,13,14,14],"right_children":[2,4,6,8,10,12,14,16,18,20,22,24,26,28,30,-1,-1,-1,-1,-1,-1,-1,-1,-1,-1,-1,-1,-1,-1,-1,-1],"split_conditions":[2.1E1,5E0,3E0,4E0,7E0,2.3E1,7E0,5E0,6E0,1.7E1,9E0,2E0,2E0,5E0,2.3E1,-1.2795208E-1,-9.33899E-2,1.5401303E-2,-2.2845598E-1,7.853289E-2,1.3733618E-2,-1.9795229E-1,8.629712E-3,-1.4615916E-1,-1.1968165E-1,-2.2362235E-1,-1.4141475E-1,-8.429303E-2,5.0844308E-2,-1.333739E-1,-2.7366492E-1],"split_indices":[1,1,0,1,0,1,0,0,0,1,1,0,0,0,1,0,0,0,0,0,0,0,0,0,0,0,0,0,0,0,0],"split_type":[0,0,0,0,0,0,0,0,0,0,0,0,0,0,0,0,0,0,0,0,0,0,0,0,0,0,0,0,0,0,0],"sum_hessian":[1.2247E4,9.905E3,2.342E3,1.744E3,8.161E3,6.76E2,1.666E3,1.251E3,4.93E2,6.693E3,1.468E3,4.87E2,1.89E2,1.267E3,3.99E2,6.76E2,5.75E2,3.73E2,1.2E2,4.383E3,2.31E3,2.13E2,1.255E3,2.36E2,2.51E2,9.5E1,9.4E1,6.09E2,6.58E2,3.06E2,9.3E1],"tree_param":{"num_deleted":"0","num_feature":"2","num_nodes":"31","size_leaf_vector":"1"}},{"base_weights":[-1.6591637E-3,1.2723081E-1,-9.323475E-1,-8.373222E-1,3.1392163E-1,-1.3458072E0,-4.3249243E-1,-1.0464978E0,-4.6911937E-1,5.387875E-1,-1.3174972E-1,-1.1340618E0,-1.6731763E0,4.113008E-1,-1.8184474E0,-1.1189882E-1,-7.636478E-2,-8.854141E-4,-1.7152828E-1,1.2048428E-2,9.3635425E-2,-8.155777E-2,1.359915E-2,-1.2094539E-1,-9.180653E-2,-1.4497252E-1,-2.2407225E-1,1.6201429E-1,-4.552337E-2,-1.4339161E-1,-2.4658957E-1],"categories":[],"categories_nodes":[],"categories_segments":[],"categories_sizes":[],"default_left":[0,0,0,0,0,0,0,0,0,0,0,0,0,0,0,0,0,0,0,0,0,0,0,0,0,0,0,0,0,0,0],"id":22,"left_children":[1,3,5,7,9,11,13,15,17,19,21,23,25,27,29,-1,-1,-1,-1,-1,-1,-1,-1,-1,-1,-1,-1,-1,-1,-1,-1],"loss_changes":[1.4693445E3,1.9376703E3,3.073562E2,1.3390723E2,9.035207E2,5.459729E1,7.913025E2,2.1945923E1,3.636255E2,9.963772E2,5.537719E2,6.9993286E0,3.7079956E1,4.4173648E2,6.0198853E1,0E0,0E0,0E0,0E0,0E0,0E0,0E0,0E0,0E0,0E0,0E0,0E0,0E0,0E0,0E0,0E0],"parents":[2147483647,0,0,1,1,2,2,3,3,4,4,5,5,6,6,7,7,8,8,9,9,10,10,11,11,12,12,13,13,14,14],"right_children":[2,4,6,8,10,12,14,16,18,20,22,24,26,28,30,-1,-1,-1,-1,-1,-1,-1,-1,-1,-1,-1,-1,-1,-1,-1,-1],"split_conditions":[2.2E1,5E0,5E0,3E0,1.8E1,2.3E1,7E0,7E0,6E0,1.2E1,3E0,4E0,4E0,2.3E1,2.3E1,-1.1189882E-1,-7.636478E-2,-8.854141E-4,-1.7152828E-1,1.2048428E-2,9.3635425E-2,-8.155777E-2,1.359915E-2,-1.2094539E-1,-9.180653E-2,-1.4497252E-1,-2.2407225E-1,1.6201429E-1,-4.552337E-2,-1.4339161E-1,-2.4658957E-1],"split_indices":[1,1,0,1,1,1,0,0,0,1,0,0,0,1,1,0,0,0,0,0,0,0,0,0,0,0,0,0,0,0,0],"split_type":[0,0,0,0,0,0,0,0,0,0,0,0,0,0,0,0,0,0,0,0,0,0,0,0,0,0,0,0,0,0,0],"sum_hessian":[1.2247E4,1.0758E4,1.489E3,1.744E3,9.014E3,8.14E2,6.75E2,1.111E3,6.33E2,5.991E3,3.023E3,4.97E2,3.17E2,4.2E2,2.55E2,8.82E2,2.29E2,4.63E2,1.7E2,2.92E3,3.071E3,8.5E2,2.173E3,3.65E2,1.32E2,2.3E2,8.7E1,1.75E2,2.45E2,1.62E2,9.3E1],"tree_param":{"num_deleted":"0","num_feature":"2","num_nodes":"31","size_leaf_vector":"1"}},{"base_weights":[-1.5895624E-3,1.5031806E-1,-6.438411E-1,-7.537967E-1,3.4359545E-1,-1.2139539E0,-4.1192138E-1,-9.420172E-1,-4.224797E-1,4.7173026E-1,-2.4052857E-1,-1.4091166E0,-1.0231793E0,-1.0286852E-1,-1.3905891E0,-1.007216E-1,-6.876148E-2,-8.326273E-3,-1.803105E-1,6.581243E-2,1.1793403E-2,-1.5548803E-1,7.3036775E-3,-1.2158892E-1,-1.8714683E-1,-6.61801E-2,-1.2568973E-1,-6.747704E-2,4.2666562E-2,-1.13151245E-1,-2.2219293E-1],"categories":[],"categories_nodes":[],"categories_segments":[],"categories_sizes":[],"default_left":[0,0,0,0,0,0,0,0,0,0,0,0,0,0,0,0,0,0,0,0,0,0,0,0,0,0,0,0,0,0,0],"id":23,"left_children":[1,3,5,7,9,11,13,15,17,19,21,23,25,27,29,-1,-1,-1,-1,-1,-1,-1,-1,-1,-1,-1,-1,-1,-1,-1,-1],"loss_changes":[1.1950472E3,1.7312823E3,3.092923E2,1.0842139E2,6.110118E2,2.3764282E1,5.040579E2,1.7751831E1,2.9677206E2,4.4136145E2,6.055401E2,2.738507E1,2.839154E1,3.84291E2,8.363818E1,0E0,0E0,0E0,0E0,0E0,0E0,0E0,0E0,0E0,0E0,0E0,0E0,0E0,0E0,0E0,0E0],"parents":[2147483647,0,0,1,1,2,2,3,3,4,4,5,5,6,6,7,7,8,8,9,9,10,10,11,11,12,12,13,13,14,14],"right_children":[2,4,6,8,10,12,14,16,18,20,22,24,26,28,30,-1,-1,-1,-1,-1,-1,-1,-1,-1,-1,-1,-1,-1,-1,-1,-1],"split_conditions":[2.1E1,5E0,3E0,3E0,7E0,2E0,7E0,7E0,7E0,1.7E1,1E1,2.3E1,2.2E1,5E0,2.3E1,-1.007216E-1,-6.876148E-2,-8.326273E-3,-1.803105E-1,6.581243E-2,1.1793403E-2,-1.5548803E-1,7.3036775E-3,-1.2158892E-1,-1.8714683E-1,-6.61801E-2,-1.2568973E-1,-6.747704E-2,4.2666562E-2,-1.13151245E-1,-2.2219293E-1],"split_indices":[1,1,0,1,0,0,0,0,0,1,1,1,1,0,1,0,0,0,0,0,0,0,0,0,0,0,0,0,0,0,0],"split_type":[0,0,0,0,0,0,0,0,0,0,0,0,0,0,0,0,0,0,0,0,0,0,0,0,0,0,0,0,0,0,0],"sum_hessian":[1.2247E4,9.905E3,2.342E3,1.744E3,8.161E3,6.76E2,1.666E3,1.111E3,6.33E2,6.693E3,1.468E3,3.31E2,3.45E2,1.267E3,3.99E2,8.82E2,2.29E2,5.09E2,1.24E2,4.383E3,2.31E3,2.82E2,1.186E3,2.36E2,9.5E1,1.37E2,2.08E2,6.09E2,6.58E2,3.06E2,9.3E1],"tree_param":{"num_deleted":"0","num_feature":"2","num_nodes":"31","size_leaf_vector":"1"}},{"base_weights":[-1.5359914E-3,1.0471919E-1,-7.68783E-1,-6.786222E-1,2.5633606E-1,-1.108171E0,-3.5847226E-1,-8.219488E-1,-3.139997E-1,4.7516814E-1,-6.9175676E-2,-9.280284E-1,-1.3867964E0,3.2788268E-1,-1.4858041E0,-9.595818E-2,-6.587553E-2,2.5836584E-1,-6.3887365E-2,1.6314935E-2,1.20912574E-1,-7.962512E-2,4.6871617E-3,-9.8655984E-2,-7.599794E-2,-1.1652922E-1,-1.9524859E-1,1.4166255E-1,-4.523881E-2,-1.1789473E-1,-2.0021002E-1],"categories":[],"categories_nodes":[],"categories_segments":[],"categories_sizes":[],"default_left":[0,0,0,0,0,0,0,0,0,0,0,0,0,0,0,0,0,0,0,0,0,0,0,0,0,0,0,0,0,0,0],"id":24,"left_children":[1,3,5,7,9,11,13,15,17,19,21,23,25,27,29,-1,-1,-1,-1,-1,-1,-1,-1,-1,-1,-1,-1,-1,-1,-1,-1],"loss_changes":[9.985861E2,1.2779963E3,2.0709204E2,9.093579E1,6.4219305E2,3.9619812E1,5.2354205E2,2.748883E1,4.6668924E2,1.2343882E3,3.0589722E2,4.148651E0,3.7570984E1,3.5828632E2,3.8197388E1,0E0,0E0,0E0,0E0,0E0,0E0,0E0,0E0,0E0,0E0,0E0,0E0,0E0,0E0,0E0,0E0],"parents":[2147483647,0,0,1,1,2,2,3,3,4,4,5,5,6,6,7,7,8,8,9,9,10,10,11,11,12,12,13,13,14,14],"right_children":[2,4,6,8,10,12,14,16,18,20,22,24,26,28,30,-1,-1,-1,-1,-1,-1,-1,-1,-1,-1,-1,-1,-1,-1,-1,-1],"split_conditions":[2.2E1,5E0,5E0,4E0,1.7E1,2.3E1,7E0,5E0,2E0,1.4E1,2E0,4E0,4E0,2.3E1,2.3E1,-9.595818E-2,-6.587553E-2,2.5836584E-1,-6.3887365E-2,1.6314935E-2,1.20912574E-1,-7.962512E-2,4.6871617E-3,-9.8655984E-2,-7.599794E-2,-1.1652922E-1,-1.9524859E-1,1.4166255E-1,-4.523881E-2,-1.1789473E-1,-2.0021002E-1],"split_indices":[1,1,0,1,1,1,0,0,0,1,0,0,0,1,1,0,0,0,0,0,0,0,0,0,0,0,0,0,0,0,0],"split_type":[0,0,0,0,0,0,0,0,0,0,0,0,0,0,0,0,0,0,0,0,0,0,0,0,0,0,0,0,0,0,0],"sum_hessian":[1.2247E4,1.0758E4,1.489E3,1.744E3,9.014E3,8.14E2,6.75E2,1.251E3,4.93E2,5.39E3,3.624E3,4.97E2,3.17E2,4.2E2,2.55E2,6.76E2,5.75E2,4.9E1,4.44E2,3.783E3,1.607E3,4.98E2,3.126E3,3.65E2,1.32E2,2.3E2,8.7E1,1.75E2,2.45E2,1.62E2,9.3E1],"tree_param":{"num_deleted":"0","num_feature":"2","num_nodes":"31","size_leaf_vector":"1"}},{"base_weights":[-1.4325855E-3,9.4255954E-2,-6.9237995E-1,-3.609433E-1,3.163036E-1,-9.9795073E-1,-3.229531E-1,-8.11432E-2,-9.784646E-1,6.9658214E-1,-6.2278803E-2,-8.355762E-1,-1.2490971E0,2.9532322E-1,-1.3384663E0,-8.048469E-2,2.9915882E-2,-1.2844226E-1,-1.8397247E-2,5.3598475E-2,1.4803557E-1,5.9827855E-3,-6.706943E-2,-8.881732E-2,-6.8455294E-2,-1.0492674E-1,-1.759456E-1,1.2757678E-1,-4.0733352E-2,-1.0617759E-1,-1.8040201E-1],"categories":[],"categories_nodes":[],"categories_segments":[],"categories_sizes":[],"default_left":[0,0,0,0,0,0,0,0,0,0,0,0,0,0,0,0,0,0,0,0,0,0,0,0,0,0,0,0,0,0,0],"id":25,"left_children":[1,3,5,7,9,11,13,15,17,19,21,23,25,27,29,-1,-1,-1,-1,-1,-1,-1,-1,-1,-1,-1,-1,-1,-1,-1,-1],"loss_changes":[8.0985095E2,1.08759E3,1.6787787E2,6.094973E2,1.0412109E3,3.2191772E1,4.248339E2,6.6876465E2,2.6715295E2,4.5335266E2,2.693471E2,3.3478088E0,3.0585083E1,2.9055328E2,3.1060974E1,0E0,0E0,0E0,0E0,0E0,0E0,0E0,0E0,0E0,0E0,0E0,0E0,0E0,0E0,0E0,0E0],"parents":[2147483647,0,0,1,1,2,2,3,3,4,4,5,5,6,6,7,7,8,8,9,9,10,10,11,11,12,12,13,13,14,14],"right_children":[2,4,6,8,10,12,14,16,18,20,22,24,26,28,30,-1,-1,-1,-1,-1,-1,-1,-1,-1,-1,-1,-1,-1,-1,-1,-1],"split_conditions":[2.2E1,1E1,5E0,6E0,1.7E1,2.3E1,7E0,4E0,8E0,1.6E1,7E0,4E0,4E0,2.3E1,2.3E1,-8.048469E-2,2.9915882E-2,-1.2844226E-1,-1.8397247E-2,5.3598475E-2,1.4803557E-1,5.9827855E-3,-6.706943E-2,-8.881732E-2,-6.8455294E-2,-1.0492674E-1,-1.759456E-1,1.2757678E-1,-4.0733352E-2,-1.0617759E-1,-1.8040201E-1],"split_indices":[1,1,0,0,1,1,0,1,1,1,0,0,0,1,1,0,0,0,0,0,0,0,0,0,0,0,0,0,0,0,0],"split_type":[0,0,0,0,0,0,0,0,0,0,0,0,0,0,0,0,0,0,0,0,0,0,0,0,0,0,0,0,0,0,0],"sum_hessian":[1.2247E4,1.0758E4,1.489E3,3.527E3,7.231E3,8.14E2,6.75E2,2.428E3,1.099E3,3.607E3,3.624E3,4.97E2,3.17E2,4.2E2,2.55E2,8.36E2,1.592E3,7.93E2,3.06E2,2.995E3,6.12E2,3.019E3,6.05E2,3.65E2,1.32E2,2.3E2,8.7E1,1.75E2,2.45E2,1.62E2,9.3E1],"tree_param":{"num_deleted":"0","num_feature":"2","num_nodes":"31","size_leaf_vector":"1"}},{"base_weights":[-1.3460768E-3,1.1245408E-1,-4.8248267E-1,-3.249053E-1,3.5432452E-1,-9.572245E-1,-2.8939167E-1,-7.3050186E-2,-8.8075185E-1,6.2697995E-1,-6.8818784E-4,-1.1143317E0,-8.0370766E-1,-4.901271E-2,-1.0506696E0,-7.244584E-2,2.69261E-2,-1.0384705E-1,4.9248602E-2,3.2788794E-2,9.98781E-2,2.2719977E-2,-4.202722E-2,-9.6672766E-2,-1.4671217E-1,-6.0669273E-2,-9.299486E-2,-4.6992302E-2,3.4067515E-2,-8.7122895E-2,-1.6255376E-1],"categories":[],"categories_nodes":[],"categories_segments":[],"categories_sizes":[],"default_left":[0,0,0,0,0,0,0,0,0,0,0,0,0,0,0,0,0,0,0,0,0,0,0,0,0,0,0,0,0,0,0],"id":26,"left_children":[1,3,5,7,9,11,13,15,17,19,21,23,25,27,29,-1,-1,-1,-1,-1,-1,-1,-1,-1,-1,-1,-1,-1,-1,-1,-1],"loss_changes":[6.7067413E2,1.0480144E3,2.1450201E2,4.938302E2,6.17463E2,1.5432678E1,3.0500143E2,5.41824E2,2.3875537E2,4.008921E2,2.65149E2,1.5870026E1,8.04129E0,2.0814206E2,3.9845673E1,0E0,0E0,0E0,0E0,0E0,0E0,0E0,0E0,0E0,0E0,0E0,0E0,0E0,0E0,0E0,0E0],"parents":[2147483647,0,0,1,1,2,2,3,3,4,4,5,5,6,6,7,7,8,8,9,9,10,10,11,11,12,12,13,13,14,14],"right_children":[2,4,6,8,10,12,14,16,18,20,22,24,26,28,30,-1,-1,-1,-1,-1,-1,-1,-1,-1,-1,-1,-1,-1,-1,-1,-1],"split_conditions":[2.1E1,1E1,3E0,6E0,1.7E1,2E0,7E0,4E0,9E0,1.4E1,6E0,2.3E1,2.2E1,5E0,2.3E1,-7.244584E-2,2.69261E-2,-1.0384705E-1,4.9248602E-2,3.2788794E-2,9.98781E-2,2.2719977E-2,-4.202722E-2,-9.6672766E-2,-1.4671217E-1,-6.0669273E-2,-9.299486E-2,-4.6992302E-2,3.4067515E-2,-8.7122895E-2,-1.6255376E-1],"split_indices":[1,1,0,0,1,0,0,1,1,1,0,1,1,0,1,0,0,0,0,0,0,0,0,0,0,0,0,0,0,0,0],"split_type":[0,0,0,0,0,0,0,0,0,0,0,0,0,0,0,0,0,0,0,0,0,0,0,0,0,0,0,0,0,0,0],"sum_hessian":[1.2247E4,9.905E3,2.342E3,3.527E3,6.378E3,6.76E2,1.666E3,2.428E3,1.099E3,3.607E3,2.771E3,3.31E2,3.45E2,1.267E3,3.99E2,8.36E2,1.592E3,9.86E2,1.13E2,2E3,1.607E3,1.796E3,9.75E2,2.36E2,9.5E1,1.37E2,2.08E2,6.09E2,6.58E2,3.06E2,9.3E1],"tree_param":{"num_deleted":"0","num_feature":"2","num_nodes":"31","size_leaf_vector":"1"}},{"base_weights":[-1.2643487E-3,7.767946E-2,-5.713014E-1,-2.9244307E-1,2.5822628E-1,-8.214452E-1,-2.688775E-1,-6.576385E-2,-7.927261E-1,5.643184E-1,-4.6501625E-2,-6.835334E-1,-1.0348374E0,2.3201092E-1,-1.0915539E0,-6.520992E-2,2.4235189E-2,-9.347285E-2,4.4366963E-2,4.2734504E-2,1.23284675E-1,-7.162409E-2,6.0388814E-3,-4.869194E-2,-7.406351E-2,-8.382761E-2,-1.5390512E-1,1.1150422E-1,-4.0069442E-2,-8.696612E-2,-1.464713E-1],"categories":[],"categories_nodes":[],"categories_segments":[],"categories_sizes":[],"default_left":[0,0,0,0,0,0,0,0,0,0,0,0,0,0,0,0,0,0,0,0,0,0,0,0,0,0,0,0,0,0,0],"id":27,"left_children":[1,3,5,7,9,11,13,15,17,19,21,23,25,27,29,-1,-1,-1,-1,-1,-1,-1,-1,-1,-1,-1,-1,-1,-1,-1,-1],"loss_changes":[5.512154E2,7.190397E2,1.12496826E2,4.0003638E2,6.745897E2,2.3277588E1,2.7881195E2,4.3897903E2,1.9354297E2,3.2985986E2,2.5955237E2,5.230423E0,3.0226501E1,2.3565892E2,1.992331E1,0E0,0E0,0E0,0E0,0E0,0E0,0E0,0E0,0E0,0E0,0E0,0E0,0E0,0E0,0E0,0E0],"parents":[2147483647,0,0,1,1,2,2,3,3,4,4,5,5,6,6,7,7,8,8,9,9,10,10,11,11,12,12,13,13,14,14],"right_children":[2,4,6,8,10,12,14,16,18,20,22,24,26,28,30,-1,-1,-1,-1,-1,-1,-1,-1,-1,-1,-1,-1,-1,-1,-1,-1],"split_conditions":[2.2E1,1E1,5E0,6E0,1.7E1,2.3E1,7E0,4E0,9E0,1.6E1,2E0,2E0,4E0,2.3E1,2.3E1,-6.520992E-2,2.4235189E-2,-9.347285E-2,4.4366963E-2,4.2734504E-2,1.23284675E-1,-7.162409E-2,6.0388814E-3,-4.869194E-2,-7.406351E-2,-8.382761E-2,-1.5390512E-1,1.1150422E-1,-4.0069442E-2,-8.696612E-2,-1.464713E-1],"split_indices":[1,1,0,0,1,1,0,1,1,1,0,0,0,1,1,0,0,0,0,0,0,0,0,0,0,0,0,0,0,0,0],"split_type":[0,0,0,0,0,0,0,0,0,0,0,0,0,0,0,0,0,0,0,0,0,0,0,0,0,0,0,0,0,0,0],"sum_hessian":[1.2247E4,1.0758E4,1.489E3,3.527E3,7.231E3,8.14E2,6.75E2,2.428E3,1.099E3,3.607E3,3.624E3,4.97E2,3.17E2,4.2E2,2.55E2,8.36E2,1.592E3,9.86E2,1.13E2,2.995E3,6.12E2,4.98E2,3.126E3,1.14E2,3.83E2,2.3E2,8.7E1,1.75E2,2.45E2,1.62E2,9.3E1],"tree_param":{"num_deleted":"0","num_feature":"2","num_nodes":"31","size_leaf_vector":"1"}},{"base_weights":[-1.17957E-3,9.48317E-2,-4.346779E-1,-5.437801E-1,1.6539307E-1,-2.3923147E-1,-9.4467425E-1,-6.4594716E-1,-3.272867E-1,2.922066E-1,-2.9706562E-1,-7.734163E-1,4.610786E-1,-8.753132E-1,-1.3197997E-1,-5.8007043E-2,-7.425002E-2,-4.8262417E-2,5.480144E-2,-1.0870113E-2,3.691436E-2,-5.9755124E-2,2.8976528E-2,-2.5915492E-2,-9.715368E-2,1.1047651E-1,-1.46239195E-2,-1.0616888E-1,-7.413314E-2],"categories":[],"categories_nodes":[],"categories_segments":[],"categories_sizes":[],"default_left":[0,0,0,0,0,0,0,0,0,0,0,0,0,0,0,0,0,0,0,0,0,0,0,0,0,0,0,0,0],"id":28,"left_children":[1,3,5,7,9,11,13,15,17,19,21,23,25,27,-1,-1,-1,-1,-1,-1,-1,-1,-1,-1,-1,-1,-1,-1,-1],"loss_changes":[5.0981186E2,4.519649E2,2.2115652E2,2.1862854E1,5.2971906E2,6.0152734E2,1.4846558E1,3.8753967E0,4.4045876E1,2.1866687E2,3.4296692E2,9.266797E1,2.7224347E2,1.2247772E1,0E0,0E0,0E0,0E0,0E0,0E0,0E0,0E0,0E0,0E0,0E0,0E0,0E0,0E0,0E0],"parents":[2147483647,0,0,1,1,2,2,3,3,4,4,5,5,6,6,7,7,8,8,9,9,10,10,11,11,12,12,13,13],"right_children":[2,4,6,8,10,12,14,16,18,20,22,24,26,28,-1,-1,-1,-1,-1,-1,-1,-1,-1,-1,-1,-1,-1,-1,-1],"split_conditions":[7E0,4E0,1.9E1,5E0,2.1E1,1.3E1,2.3E1,3E0,3E0,2E0,5E0,4E0,1.6E1,2.1E1,-1.3197997E-1,-5.8007043E-2,-7.425002E-2,-4.8262417E-2,5.480144E-2,-1.0870113E-2,3.691436E-2,-5.9755124E-2,2.8976528E-2,-2.5915492E-2,-9.715368E-2,1.1047651E-1,-1.46239195E-2,-1.0616888E-1,-7.413314E-2],"split_indices":[0,1,1,0,1,1,1,0,1,0,0,1,1,1,0,0,0,0,0,0,0,0,0,0,0,0,0,0,0],"split_type":[0,0,0,0,0,0,0,0,0,0,0,0,0,0,0,0,0,0,0,0,0,0,0,0,0,0,0,0,0],"sum_hessian":[1.2247E4,1.0027E4,2.22E3,9.97E2,9.03E3,1.606E3,6.14E2,6.76E2,3.21E2,7.087E3,1.943E3,9.11E2,6.95E2,5.21E2,9.3E1,4.06E2,2.7E2,2.73E2,4.8E1,1.141E3,5.946E3,1.285E3,6.58E2,2.54E2,6.57E2,3.37E2,3.58E2,2.15E2,3.06E2],"tree_param":{"num_deleted":"0","num_feature":"2","num_nodes":"29","size_leaf_vector":"1"}},{"base_weights":[-1.1002009E-3,8.533527E-2,-3.9136308E-1,-1.9179867E-1,2.2295898E-1,-2.338114E-1,-9.049985E-1,1.0113929E-1,-6.6778713E-1,-5.04592E-1,3.7172425E-1,-6.962093E-1,3.002908E-1,-1.26896E-1,-7.917278E-1,-3.1196749E-2,1.351558E-1,-8.3129264E-2,-5.154257E-2,-1.6235499E-2,-2.740523E-1,6.527146E-2,9.827191E-3,-2.3334097E-2,-8.745303E-2,9.946144E-2,-2.1843256E-2,-6.674399E-2,-1.18922375E-1],"categories":[],"categories_nodes":[],"categories_segments":[],"categories_sizes":[],"default_left":[0,0,0,0,0,0,0,0,0,0,0,0,0,0,0,0,0,0,0,0,0,0,0,0,0,0,0,0,0],"id":29,"left_children":[1,3,5,7,9,11,13,15,17,19,21,23,25,-1,27,-1,-1,-1,-1,-1,-1,-1,-1,-1,-1,-1,-1,-1,-1],"loss_changes":[4.1318976E2,3.825127E2,1.7952084E2,4.641075E2,7.254658E2,4.203012E2,2.0474152E1,1.0650446E3,3.1159851E1,8.703735E2,4.274594E2,7.507156E1,2.8474512E2,0E0,1.8967789E1,0E0,0E0,0E0,0E0,0E0,0E0,0E0,0E0,0E0,0E0,0E0,0E0,0E0,0E0],"parents":[2147483647,0,0,1,1,2,2,3,3,4,4,5,5,6,6,7,7,8,8,9,9,10,10,11,11,12,12,14,14],"right_children":[2,4,6,8,10,12,14,16,18,20,22,24,26,-1,28,-1,-1,-1,-1,-1,-1,-1,-1,-1,-1,-1,-1,-1,-1],"split_conditions":[7E0,3E0,2E1,1.8E1,7E0,1.3E1,2.1E1,1.4E1,2E0,6E0,1.7E1,4E0,1.6E1,-1.26896E-1,2.3E1,-3.1196749E-2,1.351558E-1,-8.3129264E-2,-5.154257E-2,-1.6235499E-2,-2.740523E-1,6.527146E-2,9.827191E-3,-2.3334097E-2,-8.745303E-2,9.946144E-2,-2.1843256E-2,-6.674399E-2,-1.18922375E-1],"split_indices":[0,0,1,1,1,1,1,1,0,1,1,1,1,0,1,0,0,0,0,0,0,0,0,0,0,0,0,0,0],"split_type":[0,0,0,0,0,0,0,0,0,0,0,0,0,0,0,0,0,0,0,0,0,0,0,0,0,0,0,0,0],"sum_hessian":[1.2247E4,1.0027E4,2.22E3,3.327E3,6.7E3,1.7E3,5.2E2,2.06E3,1.267E3,1.137E3,5.563E3,9.11E2,7.89E2,1.21E2,3.99E2,1.549E3,5.11E2,6.09E2,6.58E2,9.87E2,1.5E2,2.743E3,2.82E3,2.54E2,6.57E2,3.37E2,4.52E2,3.06E2,9.3E1],"tree_param":{"num_deleted":"0","num_feature":"2","num_nodes":"29","size_leaf_vector":"1"}},{"base_weights":[-1.0385582E-3,3.9010543E-2,-7.0879495E-1,-2.2764254E-1,1.556375E-1,-8.368485E-1,-4.4588083E-1,-4.6107553E-2,-6.282978E-1,4.346911E-1,-7.019364E-2,-6.4189786E-1,-1.0473092E0,3.2025191E-3,-1.0715667E-1,1.0640148E-2,-1.2265152E-1,-8.608903E-2,-2.4692998E-3,3.143788E-2,1.02200106E-1,1.6239655E-3,-4.856123E-2,-1.0975876E-1,-3.1551473E-2,-1.3375345E-1,-8.311536E-2],"categories":[],"categories_nodes":[],"categories_segments":[],"categories_sizes":[],"default_left":[0,0,0,0,0,0,0,0,0,0,0,0,0,0,0,0,0,0,0,0,0,0,0,0,0,0,0],"id":30,"left_children":[1,3,5,7,9,11,13,15,17,19,21,23,25,-1,-1,-1,-1,-1,-1,-1,-1,-1,-1,-1,-1,-1,-1],"loss_changes":[3.4719727E2,3.605654E2,2.1712463E1,2.5657288E2,5.083417E2,1.7380707E1,6.492144E1,4.3740598E2,1.5441208E2,2.546222E2,1.6011276E2,3.4010193E1,1.2062424E1,0E0,0E0,0E0,0E0,0E0,0E0,0E0,0E0,0E0,0E0,0E0,0E0,0E0,0E0],"parents":[2147483647,0,0,1,1,2,2,3,3,4,4,5,5,6,6,7,7,8,8,9,9,10,10,11,11,12,12],"right_children":[2,4,6,8,10,12,14,16,18,20,22,24,26,-1,-1,-1,-1,-1,-1,-1,-1,-1,-1,-1,-1,-1,-1],"split_conditions":[2.3E1,1E1,6E0,6E0,1.7E1,4E0,7E0,9E0,8E0,1.6E1,7E0,2E0,5E0,3.2025191E-3,-1.0715667E-1,1.0640148E-2,-1.2265152E-1,-8.608903E-2,-2.4692998E-3,3.143788E-2,1.02200106E-1,1.6239655E-3,-4.856123E-2,-1.0975876E-1,-3.1551473E-2,-1.3375345E-1,-8.311536E-2],"split_indices":[1,1,0,0,1,0,0,1,1,1,0,0,0,0,0,0,0,0,0,0,0,0,0,0,0,0,0],"split_type":[0,0,0,0,0,0,0,0,0,0,0,0,0,0,0,0,0,0,0,0,0,0,0,0,0,0,0],"sum_hessian":[1.2247E4,1.1592E4,6.55E2,3.527E3,8.065E3,4.39E2,2.16E2,2.428E3,1.099E3,3.607E3,4.458E3,2.3E2,2.09E2,1.23E2,9.3E1,2.151E3,2.77E2,7.93E2,3.06E2,2.995E3,6.12E2,3.691E3,7.67E2,9.5E1,1.35E2,8.7E1,1.22E2],"tree_param":{"num_deleted":"0","num_feature":"2","num_nodes":"27","size_leaf_vector":"1"}},{"base_weights":[-9.819895E-4,7.1117595E-2,-3.2651716E-1,-4.622472E-1,1.3005093E-1,-1.7807218E-1,-7.138742E-1,-5.6698835E-1,-2.4059506E-1,2.2962663E-1,-2.3307797E-1,-5.9131956E-1,3.6368024E-1,-6.671857E-1,-9.655499E-2,-5.0169982E-2,-6.629494E-2,-3.809513E-2,5.491643E-2,-1.1511326E-2,2.957883E-2,-4.8802588E-2,2.6479164E-2,-1.2434691E-2,-7.713906E-2,8.641023E-2,-1.0848224E-2,-8.2708426E-2,-5.525106E-2],"categories":[],"categories_nodes":[],"categories_segments":[],"categories_sizes":[],"default_left":[0,0,0,0,0,0,0,0,0,0,0,0,0,0,0,0,0,0,0,0,0,0,0,0,0,0,0,0,0],"id":31,"left_children":[1,3,5,7,9,11,13,15,17,19,21,23,25,27,-1,-1,-1,-1,-1,-1,-1,-1,-1,-1,-1,-1,-1,-1,-1],"loss_changes":[2.8749542E2,3.152699E2,1.2758305E2,2.3033249E1,3.2660376E2,3.5998666E2,6.5822754E0,3.908905E0,3.5902153E1,1.6170105E2,2.4688272E2,7.659253E1,1.6454498E2,9.114624E0,0E0,0E0,0E0,0E0,0E0,0E0,0E0,0E0,0E0,0E0,0E0,0E0,0E0,0E0,0E0],"parents":[2147483647,0,0,1,1,2,2,3,3,4,4,5,5,6,6,7,7,8,8,9,9,10,10,11,11,12,12,13,13],"right_children":[2,4,6,8,10,12,14,16,18,20,22,24,26,28,-1,-1,-1,-1,-1,-1,-1,-1,-1,-1,-1,-1,-1,-1,-1],"split_conditions":[7E0,4E0,1.9E1,5E0,2.1E1,1.3E1,2.3E1,3E0,3E0,2E0,5E0,4E0,1.6E1,2.1E1,-9.655499E-2,-5.0169982E-2,-6.629494E-2,-3.809513E-2,5.491643E-2,-1.1511326E-2,2.957883E-2,-4.8802588E-2,2.6479164E-2,-1.2434691E-2,-7.713906E-2,8.641023E-2,-1.0848224E-2,-8.2708426E-2,-5.525106E-2],"split_indices":[0,1,1,0,1,1,1,0,1,0,0,1,1,1,0,0,0,0,0,0,0,0,0,0,0,0,0,0,0],"split_type":[0,0,0,0,0,0,0,0,0,0,0,0,0,0,0,0,0,0,0,0,0,0,0,0,0,0,0,0,0],"sum_hessian":[1.2247E4,1.0027E4,2.22E3,9.97E2,9.03E3,1.606E3,6.14E2,6.76E2,3.21E2,7.087E3,1.943E3,9.11E2,6.95E2,5.21E2,9.3E1,4.06E2,2.7E2,2.73E2,4.8E1,1.141E3,5.946E3,1.285E3,6.58E2,2.54E2,6.57E2,3.37E2,3.58E2,2.15E2,3.06E2],"tree_param":{"num_deleted":"0","num_feature":"2","num_nodes":"29","size_leaf_vector":"1"}},{"base_weights":[-9.127676E-4,3.3623077E-2,-6.1123765E-1,-1.9505568E-1,1.3364105E-1,-7.2615945E-1,-3.7539974E-1,-3.847137E-2,-5.4064494E-1,3.7109336E-1,-5.8523465E-2,-5.297285E-1,-9.3877566E-1,2.5833191E-4,-8.700221E-2,1.0210487E-2,-1.1265346E-1,-6.614146E-2,5.0970793E-2,2.619766E-2,9.037896E-2,-5.0514877E-2,1.2659229E-3,-9.4067775E-2,-2.357516E-2,-1.15705326E-1,-7.749773E-2],"categories":[],"categories_nodes":[],"categories_segments":[],"categories_sizes":[],"default_left":[0,0,0,0,0,0,0,0,0,0,0,0,0,0,0,0,0,0,0,0,0,0,0,0,0,0,0],"id":32,"left_children":[1,3,5,7,9,11,13,15,17,19,21,23,25,-1,-1,-1,-1,-1,-1,-1,-1,-1,-1,-1,-1,-1,-1],"loss_changes":[2.5818494E2,2.65181E2,1.7506912E1,1.908929E2,3.680725E2,1.7879044E1,4.057231E1,3.7164474E2,1.3987286E2,2.0948218E2,1.4176688E2,2.768525E1,6.6115417E0,0E0,0E0,0E0,0E0,0E0,0E0,0E0,0E0,0E0,0E0,0E0,0E0,0E0,0E0],"parents":[2147483647,0,0,1,1,2,2,3,3,4,4,5,5,6,6,7,7,8,8,9,9,10,10,11,11,12,12],"right_children":[2,4,6,8,10,12,14,16,18,20,22,24,26,-1,-1,-1,-1,-1,-1,-1,-1,-1,-1,-1,-1,-1,-1],"split_conditions":[2.3E1,1E1,6E0,6E0,1.7E1,4E0,7E0,9E0,9E0,1.6E1,2E0,2E0,5E0,2.5833191E-4,-8.700221E-2,1.0210487E-2,-1.1265346E-1,-6.614146E-2,5.0970793E-2,2.619766E-2,9.037896E-2,-5.0514877E-2,1.2659229E-3,-9.4067775E-2,-2.357516E-2,-1.15705326E-1,-7.749773E-2],"split_indices":[1,1,0,0,1,0,0,1,1,1,0,0,0,0,0,0,0,0,0,0,0,0,0,0,0,0,0],"split_type":[0,0,0,0,0,0,0,0,0,0,0,0,0,0,0,0,0,0,0,0,0,0,0,0,0,0,0],"sum_hessian":[1.2247E4,1.1592E4,6.55E2,3.527E3,8.065E3,4.39E2,2.16E2,2.428E3,1.099E3,3.607E3,4.458E3,2.3E2,2.09E2,1.23E2,9.3E1,2.151E3,2.77E2,9.86E2,1.13E2,2.995E3,6.12E2,6.12E2,3.846E3,9.5E1,1.35E2,8.7E1,1.22E2],"tree_param":{"num_deleted":"0","num_feature":"2","num_nodes":"27","size_leaf_vector":"1"}},{"base_weights":[-8.579421E-4,6.2580556E-2,-2.8728768E-1,-1.6497557E-1,1.7558521E-1,-1.6904502E-1,-6.727838E-1,3.7555948E-1,-3.7570408E-1,-3.6911806E-1,3.1078988E-1,-5.247084E-1,1.9442235E-1,-1.0141659E-1,-5.6698024E-1,-4.618385E-2,1.0203425E-1,-1.6663195E-1,-5.5543305E-3,-1.164076E-2,-1.0896639E-1,7.387424E-2,1.7304813E-2,-4.6078935E-3,-7.25246E-2,6.32335E-2,-1.8301772E-2,-4.9870115E-2,-7.839453E-2],"categories":[],"categories_nodes":[],"categories_segments":[],"categories_sizes":[],"default_left":[0,0,0,0,0,0,0,0,0,0,0,0,0,0,0,0,0,0,0,0,0,0,0,0,0,0,0,0,0],"id":33,"left_children":[1,3,5,7,9,11,13,15,17,19,21,23,25,-1,27,-1,-1,-1,-1,-1,-1,-1,-1,-1,-1,-1,-1,-1,-1],"loss_changes":[2.2257236E2,2.57898E2,1.0112407E2,3.7922073E2,4.9361945E2,2.1999373E2,1.824321E1,5.047752E2,9.895321E2,2.425984E2,3.1635822E2,8.251216E1,1.3928638E2,0E0,5.5347137E0,0E0,0E0,0E0,0E0,0E0,0E0,0E0,0E0,0E0,0E0,0E0,0E0,0E0,0E0],"parents":[2147483647,0,0,1,1,2,2,3,3,4,4,5,5,6,6,7,7,8,8,9,9,10,10,11,11,12,12,14,14],"right_children":[2,4,6,8,10,12,14,16,18,20,22,24,26,-1,28,-1,-1,-1,-1,-1,-1,-1,-1,-1,-1,-1,-1,-1,-1],"split_conditions":[7E0,3E0,2E1,9E0,8E0,1.2E1,2.1E1,4E0,1.3E1,6E0,1.3E1,4E0,1.6E1,-1.0141659E-1,2.3E1,-4.618385E-2,1.0203425E-1,-1.6663195E-1,-5.5543305E-3,-1.164076E-2,-1.0896639E-1,7.387424E-2,1.7304813E-2,-4.6078935E-3,-7.25246E-2,6.32335E-2,-1.8301772E-2,-4.9870115E-2,-7.839453E-2],"split_indices":[0,0,1,1,1,1,1,1,1,1,1,1,1,0,1,0,0,0,0,0,0,0,0,0,0,0,0,0,0],"split_type":[0,0,0,0,0,0,0,0,0,0,0,0,0,0,0,0,0,0,0,0,0,0,0,0,0,0,0,0,0],"sum_hessian":[1.2247E4,1.0027E4,2.22E3,3.327E3,6.7E3,1.7E3,5.2E2,9.33E2,2.394E3,1.332E3,5.368E3,8.59E2,8.41E2,1.21E2,3.99E2,4.06E2,5.27E2,4.75E2,1.919E3,9.87E2,3.45E2,1.306E3,4.062E3,2.54E2,6.05E2,3.89E2,4.52E2,3.06E2,9.3E1],"tree_param":{"num_deleted":"0","num_feature":"2","num_nodes":"29","size_leaf_vector":"1"}},{"base_weights":[-8.0540107E-4,3.0149393E-2,-5.4784524E-1,-2.911215E-1,8.706761E-2,-6.616964E-1,-3.1447032E-1,2.0601338E-2,-3.5559297E-1,1.5627682E-1,-2.2783457E-1,-4.7579184E-1,-8.6304045E-1,-1.4837912E-3,-7.063847E-2,-4.10254E-2,2.1830831E-1,-6.667424E-2,-2.1388933E-2,1.4877701E-1,1.2400396E-2,-2.3281856E-1,-1.6560515E-2,-6.2241137E-2,1.9881532E-2,-1.0597708E-1,-7.152736E-2],"categories":[],"categories_nodes":[],"categories_segments":[],"categories_sizes":[],"default_left":[0,0,0,0,0,0,0,0,0,0,0,0,0,0,0,0,0,0,0,0,0,0,0,0,0,0,0],"id":34,"left_children":[1,3,5,7,9,11,13,15,17,19,21,23,25,-1,-1,-1,-1,-1,-1,-1,-1,-1,-1,-1,-1,-1,-1],"loss_changes":[2.0741808E2,2.120169E2,1.7221832E1,3.507698E1,2.14686E2,1.605893E1,2.5471882E1,2.8041064E2,6.361299E1,3.4680707E2,2.3161334E2,2.2972092E1,5.34671E0,0E0,0E0,0E0,0E0,0E0,0E0,0E0,0E0,0E0,0E0,0E0,0E0,0E0,0E0],"parents":[2147483647,0,0,1,1,2,2,3,3,4,4,5,5,6,6,7,7,8,8,9,9,10,10,11,11,12,12],"right_children":[2,4,6,8,10,12,14,16,18,20,22,24,26,-1,-1,-1,-1,-1,-1,-1,-1,-1,-1,-1,-1,-1,-1],"split_conditions":[2.3E1,5E0,6E0,2E0,7E0,4E0,7E0,4E0,4E0,6E0,6E0,3E0,5E0,-1.4837912E-3,-7.063847E-2,-4.10254E-2,2.1830831E-1,-6.667424E-2,-2.1388933E-2,1.4877701E-1,1.2400396E-2,-2.3281856E-1,-1.6560515E-2,-6.2241137E-2,1.9881532E-2,-1.0597708E-1,-7.152736E-2],"split_indices":[1,1,0,0,0,0,0,1,0,1,1,0,0,0,0,0,0,0,0,0,0,0,0,0,0,0,0],"split_type":[0,0,0,0,0,0,0,0,0,0,0,0,0,0,0,0,0,0,0,0,0,0,0,0,0,0,0],"sum_hessian":[1.2247E4,1.1592E4,6.55E2,1.744E3,9.848E3,4.39E2,2.16E2,2.99E2,1.445E3,8.074E3,1.774E3,2.3E2,2.09E2,1.23E2,9.3E1,2.5E2,4.9E1,4.51E2,9.94E2,1.9E2,7.884E3,5E1,1.724E3,1.89E2,4.1E1,8.7E1,1.22E2],"tree_param":{"num_deleted":"0","num_feature":"2","num_nodes":"27","size_leaf_vector":"1"}},{"base_weights":[-7.4844266E-4,4.4366825E-2,-3.265165E-1,-1.621889E-1,1.4512515E-1,-5.2503645E-1,-8.6693645E-2,-3.7047323E-2,-4.383768E-1,-1.5752009E-1,2.4971487E-1,-4.8081303E-1,-6.4245516E-1,1.8692607E-1,-5.363312E-1,8.69055E-3,-9.964338E-2,-3.631147E-3,-6.819109E-2,-1.12548925E-1,7.185751E-3,1.2736304E-1,1.8075377E-2,-5.11185E-2,-4.0720243E-2,-4.3082934E-2,-9.5499806E-2,9.068497E-2,-3.2890115E-2,-4.7527604E-2,-6.364977E-2],"categories":[],"categories_nodes":[],"categories_segments":[],"categories_sizes":[],"default_left":[0,0,0,0,0,0,0,0,0,0,0,0,0,0,0,0,0,0,0,0,0,0,0,0,0,0,0,0,0,0,0],"id":35,"left_children":[1,3,5,7,9,11,13,15,17,19,21,23,25,27,29,-1,-1,-1,-1,-1,-1,-1,-1,-1,-1,-1,-1,-1,-1,-1,-1],"loss_changes":[1.8002472E2,2.2394212E2,7.089281E1,1.21920586E2,2.2895804E2,3.923111E0,8.3268326E1,2.8894003E2,1.0768347E2,4.126134E2,3.7930032E2,1.1243286E0,1.4139824E1,1.5663924E2,1.2631073E0,0E0,0E0,0E0,0E0,0E0,0E0,0E0,0E0,0E0,0E0,0E0,0E0,0E0,0E0,0E0,0E0],"parents":[2147483647,0,0,1,1,2,2,3,3,4,4,5,5,6,6,7,7,8,8,9,9,10,10,11,11,12,12,13,13,14,14],"right_children":[2,4,6,8,10,12,14,16,18,20,22,24,26,28,30,-1,-1,-1,-1,-1,-1,-1,-1,-1,-1,-1,-1,-1,-1,-1,-1],"split_conditions":[2.2E1,1E1,5E0,6E0,3E0,4E0,7E0,9E0,4E0,1.3E1,1.1E1,3E0,2.3E1,2.3E1,2.3E1,8.69055E-3,-9.964338E-2,-3.631147E-3,-6.819109E-2,-1.12548925E-1,7.185751E-3,1.2736304E-1,1.8075377E-2,-5.11185E-2,-4.0720243E-2,-4.3082934E-2,-9.5499806E-2,9.068497E-2,-3.2890115E-2,-4.7527604E-2,-6.364977E-2],"split_indices":[1,1,0,0,0,0,0,1,1,1,1,0,1,1,1,0,0,0,0,0,0,0,0,0,0,0,0,0,0,0,0],"split_type":[0,0,0,0,0,0,0,0,0,0,0,0,0,0,0,0,0,0,0,0,0,0,0,0,0,0,0,0,0,0,0],"sum_hessian":[1.2247E4,1.0758E4,1.489E3,3.527E3,7.231E3,8.14E2,6.75E2,2.428E3,1.099E3,1.857E3,5.374E3,5.95E2,2.19E2,4.2E2,2.55E2,2.151E3,2.77E2,4.15E2,6.84E2,3.55E2,1.502E3,3.38E2,5.036E3,4.17E2,1.78E2,1.32E2,8.7E1,1.75E2,2.45E2,1.62E2,9.3E1],"tree_param":{"num_deleted":"0","num_feature":"2","num_nodes":"31","size_leaf_vector":"1"}},{"base_weights":[-7.067691E-4,7.793424E-2,-1.7616047E-1,-1.4601593E-1,2.3814885E-1,-3.9521366E-1,8.392466E-2,-3.337979E-2,-3.9460427E-1,3.681194E-1,2.8652603E-2,3.4455904E-3,-4.8607957E-1,4.237386E-1,-5.3506E-1,7.821923E-3,-8.971485E-2,-5.0300736E-2,5.4739952E-2,-1.1117677E-2,7.11502E-2,5.0119527E-2,-5.000763E-2,-3.271602E-2,1.555363E-2,-8.215021E-2,-3.8371857E-2,6.256443E-2,-2.9614452E-2,-6.8274915E-2,-4.5397017E-2],"categories":[],"categories_nodes":[],"categories_segments":[],"categories_sizes":[],"default_left":[0,0,0,0,0,0,0,0,0,0,0,0,0,0,0,0,0,0,0,0,0,0,0,0,0,0,0,0,0,0,0],"id":36,"left_children":[1,3,5,7,9,11,13,15,17,19,21,23,25,27,29,-1,-1,-1,-1,-1,-1,-1,-1,-1,-1,-1,-1,-1,-1,-1,-1],"loss_changes":[1.6900987E2,3.0350858E2,2.1601581E2,9.877095E1,1.3425238E2,7.455179E1,3.649556E2,2.3421544E2,1.1260306E2,5.009019E2,4.7221152E2,1.9308916E1,5.722888E1,1.629756E2,7.055359E0,0E0,0E0,0E0,0E0,0E0,0E0,0E0,0E0,0E0,0E0,0E0,0E0,0E0,0E0,0E0,0E0],"parents":[2147483647,0,0,1,1,2,2,3,3,4,4,5,5,6,6,7,7,8,8,9,9,10,10,11,11,12,12,13,13,14,14],"right_children":[2,4,6,8,10,12,14,16,18,20,22,24,26,28,30,-1,-1,-1,-1,-1,-1,-1,-1,-1,-1,-1,-1,-1,-1,-1,-1],"split_conditions":[1.9E1,1E1,5E0,6E0,6E0,2E1,7E0,9E0,9E0,1.4E1,1.5E1,2E0,2.1E1,2.3E1,2.1E1,7.821923E-3,-8.971485E-2,-5.0300736E-2,5.4739952E-2,-1.1117677E-2,7.11502E-2,5.0119527E-2,-5.000763E-2,-3.271602E-2,1.555363E-2,-8.215021E-2,-3.8371857E-2,6.256443E-2,-2.9614452E-2,-6.8274915E-2,-4.5397017E-2],"split_indices":[1,1,0,0,0,1,0,1,1,1,1,0,1,1,1,0,0,0,0,0,0,0,0,0,0,0,0,0,0,0,0],"split_type":[0,0,0,0,0,0,0,0,0,0,0,0,0,0,0,0,0,0,0,0,0,0,0,0,0,0,0,0,0,0,0],"sum_hessian":[1.2247E4,8.457E3,3.79E3,3.527E3,4.93E3,2.057E3,1.733E3,2.428E3,1.099E3,3.042E3,1.888E3,3.82E2,1.675E3,1.119E3,6.14E2,2.151E3,2.77E2,9.86E2,1.13E2,1.27E3,1.772E3,9.97E2,8.91E2,1.2E2,2.62E2,3.9E2,1.285E3,8.74E2,2.45E2,2.15E2,3.99E2],"tree_param":{"num_deleted":"0","num_feature":"2","num_nodes":"31","size_leaf_vector":"1"}},{"base_weights":[-6.5535173E-4,7.0138775E-2,-1.5860209E-1,-1.3143644E-1,2.1434629E-1,-3.5575905E-1,7.548535E-2,-3.0075714E-2,-3.5513985E-1,3.3132747E-1,2.5787221E-2,3.0562473E-3,-4.3754336E-1,3.8139385E-1,-4.8173904E-1,-4.2079743E-2,1.7523764E-2,-5.6473006E-2,8.264799E-3,-1.0006759E-2,6.403922E-2,2.9621137E-2,-7.730929E-2,-2.9471481E-2,1.4004196E-2,-7.395618E-2,-3.453764E-2,5.63151E-2,-2.6665047E-2,-6.147907E-2,-4.086868E-2],"categories":[],"categories_nodes":[],"categories_segments":[],"categories_sizes":[],"default_left":[0,0,0,0,0,0,0,0,0,0,0,0,0,0,0,0,0,0,0,0,0,0,0,0,0,0,0,0,0,0,0],"id":37,"left_children":[1,3,5,7,9,11,13,15,17,19,21,23,25,27,29,-1,-1,-1,-1,-1,-1,-1,-1,-1,-1,-1,-1,-1,-1,-1,-1],"loss_changes":[1.369646E2,2.4589088E2,1.7498898E2,7.9985794E1,1.0875876E2,6.0394257E1,2.9576077E2,1.9492903E2,1.0097833E2,4.0578427E2,4.0832187E2,1.5663988E1,4.639792E1,1.3207124E2,5.7263794E0,0E0,0E0,0E0,0E0,0E0,0E0,0E0,0E0,0E0,0E0,0E0,0E0,0E0,0E0,0E0,0E0],"parents":[2147483647,0,0,1,1,2,2,3,3,4,4,5,5,6,6,7,7,8,8,9,9,10,10,11,11,12,12,13,13,14,14],"right_children":[2,4,6,8,10,12,14,16,18,20,22,24,26,28,30,-1,-1,-1,-1,-1,-1,-1,-1,-1,-1,-1,-1,-1,-1,-1,-1],"split_conditions":[1.9E1,1E1,5E0,6E0,6E0,2E1,7E0,4E0,7E0,1.4E1,1.7E1,2E0,2.1E1,2.3E1,2.1E1,-4.2079743E-2,1.7523764E-2,-5.6473006E-2,8.264799E-3,-1.0006759E-2,6.403922E-2,2.9621137E-2,-7.730929E-2,-2.9471481E-2,1.4004196E-2,-7.395618E-2,-3.453764E-2,5.63151E-2,-2.6665047E-2,-6.147907E-2,-4.086868E-2],"split_indices":[1,1,0,0,0,1,0,1,1,1,1,0,1,1,1,0,0,0,0,0,0,0,0,0,0,0,0,0,0,0,0],"split_type":[0,0,0,0,0,0,0,0,0,0,0,0,0,0,0,0,0,0,0,0,0,0,0,0,0,0,0,0,0,0,0],"sum_hessian":[1.2247E4,8.457E3,3.79E3,3.527E3,4.93E3,2.057E3,1.733E3,2.428E3,1.099E3,3.042E3,1.888E3,3.82E2,1.675E3,1.119E3,6.14E2,8.36E2,1.592E3,7.43E2,3.56E2,1.27E3,1.772E3,1.411E3,4.77E2,1.2E2,2.62E2,3.9E2,1.285E3,8.74E2,2.45E2,2.15E2,3.99E2],"tree_param":{"num_deleted":"0","num_feature":"2","num_nodes":"31","size_leaf_vector":"1"}},{"base_weights":[-6.113178E-4,7.230416E-2,-1.255999E-1,-6.938807E-2,2.8744802E-1,-4.8190615E-1,1.3624339E-2,3.8031177E-3,-3.9322096E-1,4.6979833E-1,1.1851389E-1,-9.0374017E-1,-3.8254437E-1,1.1405316E-1,-3.3023295E-1,-1.4360157E-2,2.917482E-2,8.978731E-3,-5.9581812E-2,8.9721E-3,1.0128863E-1,3.080374E-2,-7.396704E-2,-7.030965E-2,-1.0250696E-1,-5.5439807E-2,-2.082653E-2,1.8825842E-2,-3.108487E-2,2.0294987E-2,-4.3373168E-2],"categories":[],"categories_nodes":[],"categories_segments":[],"categories_sizes":[],"default_left":[0,0,0,0,0,0,0,0,0,0,0,0,0,0,0,0,0,0,0,0,0,0,0,0,0,0,0,0,0,0,0],"id":38,"left_children":[1,3,5,7,9,11,13,15,17,19,21,23,25,27,29,-1,-1,-1,-1,-1,-1,-1,-1,-1,-1,-1,-1,-1,-1,-1,-1],"loss_changes":[1.1163249E2,2.3584583E2,2.2388058E2,1.1057E2,9.457788E1,5.2801422E1,1.1213238E2,1.6158548E2,8.420975E1,3.0478467E2,2.5981104E2,5.146179E0,3.067366E1,7.92933E1,4.0592888E1,0E0,0E0,0E0,0E0,0E0,0E0,0E0,0E0,0E0,0E0,0E0,0E0,0E0,0E0,0E0,0E0],"parents":[2147483647,0,0,1,1,2,2,3,3,4,4,5,5,6,6,7,7,8,8,9,9,10,10,11,11,12,12,13,13,14,14],"right_children":[2,4,6,8,10,12,14,16,18,20,22,24,26,28,30,-1,-1,-1,-1,-1,-1,-1,-1,-1,-1,-1,-1,-1,-1,-1,-1],"split_conditions":[1.8E1,1.2E1,3E0,7E0,5E0,1.9E1,7E0,5E0,4E0,1.6E1,1.7E1,2E0,2E0,2.3E1,1.9E1,-1.4360157E-2,2.917482E-2,8.978731E-3,-5.9581812E-2,8.9721E-3,1.0128863E-1,3.080374E-2,-7.396704E-2,-7.030965E-2,-1.0250696E-1,-5.5439807E-2,-2.082653E-2,1.8825842E-2,-3.108487E-2,2.0294987E-2,-4.3373168E-2],"split_indices":[1,1,0,0,0,1,0,0,1,1,1,0,0,1,1,0,0,0,0,0,0,0,0,0,0,0,0,0,0,0,0],"split_type":[0,0,0,0,0,0,0,0,0,0,0,0,0,0,0,0,0,0,0,0,0,0,0,0,0,0,0,0,0,0,0],"sum_hessian":[1.2247E4,7.735E3,4.512E3,4.664E3,3.071E3,1.267E3,3.245E3,3.805E3,8.59E2,1.476E3,1.595E3,2.4E2,1.027E3,2.512E3,7.33E2,2.517E3,1.288E3,2.54E2,6.05E2,8.69E2,6.07E2,1.307E3,2.88E2,9.3E1,1.47E2,5.16E2,5.11E2,2.139E3,3.73E2,1.19E2,6.14E2],"tree_param":{"num_deleted":"0","num_feature":"2","num_nodes":"31","size_leaf_vector":"1"}},{"base_weights":[-5.7073426E-4,-2.1971741E-1,3.530142E-2,-5.4761257E-2,-5.20605E-1,-2.693985E-1,8.381599E-2,-3.086588E-1,6.017931E-1,-6.392776E-1,-2.915179E-1,-5.821346E-1,-1.2706071E-1,1.4873712E-1,-1.6694677E-1,1.7194355E-2,-6.7027055E-2,8.413212E-2,8.036604E-3,-3.973056E-2,-9.113134E-2,-2.9044673E-3,-6.029023E-2,-3.8002174E-2,-9.280639E-2,6.6453083E-3,-1.9418653E-2,1.4457636E-1,1.2211512E-2,-1.8699849E-1,-1.1907994E-2],"categories":[],"categories_nodes":[],"categories_segments":[],"categories_sizes":[],"default_left":[0,0,0,0,0,0,0,0,0,0,0,0,0,0,0,0,0,0,0,0,0,0,0,0,0,0,0,0,0,0,0],"id":39,"left_children":[1,3,5,7,9,11,13,15,17,19,21,23,25,27,29,-1,-1,-1,-1,-1,-1,-1,-1,-1,-1,-1,-1,-1,-1,-1,-1],"loss_changes":[9.629251E1,8.54896E1,1.5562196E2,1.8588683E2,1.6397308E1,6.429354E1,1.4786171E2,1.3984354E2,3.8775177E1,2.6033783E1,1.71458E1,3.1249695E1,1.2937727E1,2.489188E2,1.5205486E2,0E0,0E0,0E0,0E0,0E0,0E0,0E0,0E0,0E0,0E0,0E0,0E0,0E0,0E0,0E0,0E0],"parents":[2147483647,0,0,1,1,2,2,3,3,4,4,5,5,6,6,7,7,8,8,9,9,10,10,11,11,12,12,13,13,14,14],"right_children":[2,4,6,8,10,12,14,16,18,20,22,24,26,28,30,-1,-1,-1,-1,-1,-1,-1,-1,-1,-1,-1,-1,-1,-1,-1,-1],"split_conditions":[2E0,1.8E1,5E0,1.4E1,2.2E1,4E0,7E0,6E0,1.7E1,2E1,2.3E1,4E0,5E0,6E0,6E0,1.7194355E-2,-6.7027055E-2,8.413212E-2,8.036604E-3,-3.973056E-2,-9.113134E-2,-2.9044673E-3,-6.029023E-2,-3.8002174E-2,-9.280639E-2,6.6453083E-3,-1.9418653E-2,1.4457636E-1,1.2211512E-2,-1.8699849E-1,-1.1907994E-2],"split_indices":[0,1,1,1,1,0,0,1,1,1,1,1,0,1,1,0,0,0,0,0,0,0,0,0,0,0,0,0,0,0,0],"split_type":[0,0,0,0,0,0,0,0,0,0,0,0,0,0,0,0,0,0,0,0,0,0,0,0,0,0,0,0,0,0,0],"sum_hessian":[1.2247E4,1.722E3,1.0525E4,1.113E3,6.09E2,1.445E3,9.08E3,8.03E2,3.1E2,4E2,2.09E2,4.51E2,9.94E2,7.213E3,1.867E3,3.45E2,4.58E2,2.12E2,9.8E1,2.13E2,1.87E2,1.14E2,9.5E1,2.86E2,1.65E2,2.56E2,7.38E2,1.44E2,7.069E3,5E1,1.817E3],"tree_param":{"num_deleted":"0","num_feature":"2","num_nodes":"31","size_leaf_vector":"1"}},{"base_weights":[-5.4108724E-4,5.7692967E-2,-1.304654E-1,-1.0491639E-1,1.7402396E-1,-3.0309206E-1,7.4491985E-2,-1.6882531E-2,-2.9921576E-1,-6.534921E-2,2.5506732E-1,1.398902E-2,-3.7537068E-1,3.2318893E-1,-3.7854064E-1,8.58512E-3,-8.120843E-2,7.642623E-3,-5.2690607E-2,-9.494534E-2,2.8717762E-2,1.1025834E-1,1.6912498E-2,-1.7110256E-2,9.909204E-3,-6.53029E-2,-2.906586E-2,-3.1857815E-2,4.6732098E-2,-4.985719E-2,-3.127774E-2],"categories":[],"categories_nodes":[],"categories_segments":[],"categories_sizes":[],"default_left":[0,0,0,0,0,0,0,0,0,0,0,0,0,0,0,0,0,0,0,0,0,0,0,0,0,0,0,0,0,0,0],"id":40,"left_children":[1,3,5,7,9,11,13,15,17,19,21,23,25,27,29,-1,-1,-1,-1,-1,-1,-1,-1,-1,-1,-1,-1,-1,-1,-1,-1],"loss_changes":[9.267615E1,1.6001408E2,1.3415237E2,6.034113E1,9.56761E1,4.7170853E1,1.9548834E2,1.9850453E2,9.412329E1,3.8923737E2,2.681469E2,6.0499144E0,3.923143E1,1.0374799E2,4.6986465E0,0E0,0E0,0E0,0E0,0E0,0E0,0E0,0E0,0E0,0E0,0E0,0E0,0E0,0E0,0E0,0E0],"parents":[2147483647,0,0,1,1,2,2,3,3,4,4,5,5,6,6,7,7,8,8,9,9,10,10,11,11,12,12,13,13,14,14],"right_children":[2,4,6,8,10,12,14,16,18,20,22,24,26,28,30,-1,-1,-1,-1,-1,-1,-1,-1,-1,-1,-1,-1,-1,-1,-1,-1],"split_conditions":[1.9E1,1E1,5E0,6E0,3E0,2E1,7E0,9E0,4E0,1.3E1,1.1E1,2E0,2.1E1,2E1,2.1E1,8.58512E-3,-8.120843E-2,7.642623E-3,-5.2690607E-2,-9.494534E-2,2.8717762E-2,1.1025834E-1,1.6912498E-2,-1.7110256E-2,9.909204E-3,-6.53029E-2,-2.906586E-2,-3.1857815E-2,4.6732098E-2,-4.985719E-2,-3.127774E-2],"split_indices":[1,1,0,0,0,1,0,1,1,1,1,0,1,1,1,0,0,0,0,0,0,0,0,0,0,0,0,0,0,0,0],"split_type":[0,0,0,0,0,0,0,0,0,0,0,0,0,0,0,0,0,0,0,0,0,0,0,0,0,0,0,0,0,0,0],"sum_hessian":[1.2247E4,8.457E3,3.79E3,3.527E3,4.93E3,2.057E3,1.733E3,2.428E3,1.099E3,1.247E3,3.683E3,3.82E2,1.675E3,1.119E3,6.14E2,2.151E3,2.77E2,4.15E2,6.84E2,3.55E2,8.92E2,3.38E2,3.345E3,1.2E2,2.62E2,3.9E2,1.285E3,2.05E2,9.14E2,2.15E2,3.99E2],"tree_param":{"num_deleted":"0","num_feature":"2","num_nodes":"31","size_leaf_vector":"1"}},{"base_weights":[-5.052222E-4,-1.9962786E-1,3.257451E-2,2.3497926E-2,-2.4578147E-1,1.3630971E-1,-1.05164E-1,-3.5530064E-1,1.9245967E-1,-5.327765E-1,-1.1516084E-1,2.2279336E-1,-1.0734928E-2,-3.331994E-1,5.265403E-2,-2.1566512E-2,-9.897284E-2,-3.507072E-2,-8.443494E-2,-2.4442406E-2,-3.1107047E-4,1.83071E-1,1.4921923E-2,-1.4412071E-1,1.3786319E-2,-6.174323E-2,-2.7498681E-2,2.9846162E-2,-1.4909166E-2],"categories":[],"categories_nodes":[],"categories_segments":[],"categories_sizes":[],"default_left":[0,0,0,0,0,0,0,0,0,0,0,0,0,0,0,0,0,0,0,0,0,0,0,0,0,0,0,0,0],"id":41,"left_children":[1,3,5,7,9,11,13,15,-1,17,19,21,23,25,27,-1,-1,-1,-1,-1,-1,-1,-1,-1,-1,-1,-1,-1,-1],"loss_changes":[8.068314E1,1.7975891E1,1.5009897E2,2.1672385E2,5.4145515E1,7.62024E1,1.6243182E2,2.2022305E1,0E0,2.534488E1,1.4410781E1,4.4607678E2,4.72094E2,3.0373993E1,1.3235228E2,0E0,0E0,0E0,0E0,0E0,0E0,0E0,0E0,0E0,0E0,0E0,0E0,0E0,0E0],"parents":[2147483647,0,0,1,1,2,2,3,3,4,4,5,5,6,6,7,7,9,9,10,10,11,11,12,12,13,13,14,14],"right_children":[2,4,6,8,10,12,14,16,-1,18,20,22,24,26,28,-1,-1,-1,-1,-1,-1,-1,-1,-1,-1,-1,-1,-1,-1],"split_conditions":[5E0,2E0,1.8E1,4E0,4E0,6E0,4E0,3E0,1.9245967E-1,4E0,2E0,6E0,7E0,1.9E1,6E0,-2.1566512E-2,-9.897284E-2,-3.507072E-2,-8.443494E-2,-2.4442406E-2,-3.1107047E-4,1.83071E-1,1.4921923E-2,-1.4412071E-1,1.3786319E-2,-6.174323E-2,-2.7498681E-2,2.9846162E-2,-1.4909166E-2],"split_indices":[1,0,1,1,0,0,0,1,0,1,1,1,1,1,0,0,0,0,0,0,0,0,0,0,0,0,0,0,0],"split_type":[0,0,0,0,0,0,0,0,0,0,0,0,0,0,0,0,0,0,0,0,0,0,0,0,0,0,0,0,0],"sum_hessian":[1.2247E4,1.744E3,1.0503E4,2.99E2,1.445E3,5.991E3,4.512E3,2.5E2,4.9E1,4.51E2,9.94E2,3.772E3,2.219E3,1.845E3,2.667E3,2.06E2,4.4E1,2.86E2,1.65E2,4.61E2,5.33E2,1.64E2,3.608E3,2.08E2,2.011E3,3.12E2,1.533E3,1.202E3,1.465E3],"tree_param":{"num_deleted":"0","num_feature":"2","num_nodes":"29","size_leaf_vector":"1"}},{"base_weights":[-4.610106E-4,1.8251294E-2,-3.3114895E-1,-1.7970659E-1,5.33227E-2,-4.2840737E-1,-1.324169E-1,2.1388052E-2,-2.213032E-1,-2.101031E-1,9.440233E-2,-1.959809E-1,-6.8203646E-1,6.2238923E-3,-3.8778827E-2,-3.202507E-2,1.7359869E-1,-4.797634E-2,-1.0366971E-2,-7.038788E-2,-5.537755E-3,1.9670954E-2,-5.464718E-3,-3.1872865E-2,3.6397275E-2,-7.706141E-2,-6.1311882E-2],"categories":[],"categories_nodes":[],"categories_segments":[],"categories_sizes":[],"default_left":[0,0,0,0,0,0,0,0,0,0,0,0,0,0,0,0,0,0,0,0,0,0,0,0,0,0,0],"id":42,"left_children":[1,3,5,7,9,11,13,15,17,19,21,23,25,-1,-1,-1,-1,-1,-1,-1,-1,-1,-1,-1,-1,-1,-1],"loss_changes":[7.579585E1,8.049585E1,1.2622681E1,1.460141E1,1.0660015E2,2.5804382E1,1.0811103E1,1.7628796E2,4.3913834E1,1.0149623E2,1.2994614E2,1.59933405E1,8.0947876E-1,0E0,0E0,0E0,0E0,0E0,0E0,0E0,0E0,0E0,0E0,0E0,0E0,0E0,0E0],"parents":[2147483647,0,0,1,1,2,2,3,3,4,4,5,5,6,6,7,7,8,8,9,9,10,10,11,11,12,12],"right_children":[2,4,6,8,10,12,14,16,18,20,22,24,26,-1,-1,-1,-1,-1,-1,-1,-1,-1,-1,-1,-1,-1,-1],"split_conditions":[2.3E1,5E0,6E0,2E0,2E0,4E0,7E0,4E0,4E0,1.1E1,6E0,3E0,5E0,6.2238923E-3,-3.8778827E-2,-3.202507E-2,1.7359869E-1,-4.797634E-2,-1.0366971E-2,-7.038788E-2,-5.537755E-3,1.9670954E-2,-5.464718E-3,-3.1872865E-2,3.6397275E-2,-7.706141E-2,-6.1311882E-2],"split_indices":[1,1,0,0,0,0,0,1,0,1,0,0,0,0,0,0,0,0,0,0,0,0,0,0,0,0,0],"split_type":[0,0,0,0,0,0,0,0,0,0,0,0,0,0,0,0,0,0,0,0,0,0,0,0,0,0,0],"sum_hessian":[1.2247E4,1.1592E4,6.55E2,1.744E3,9.848E3,4.39E2,2.16E2,2.99E2,1.445E3,1.328E3,8.52E3,2.3E2,2.09E2,1.23E2,9.3E1,2.5E2,4.9E1,4.51E2,9.94E2,3.16E2,1.012E3,5.052E3,3.468E3,1.89E2,4.1E1,8.7E1,1.22E2],"tree_param":{"num_deleted":"0","num_feature":"2","num_nodes":"27","size_leaf_vector":"1"}},{"base_weights":[-4.2661405E-4,2.7374422E-2,-2.0117219E-1,-1.6168825E-1,6.396754E-2,-3.0538887E-1,2.3550298E-2,1.9721065E-2,-1.9921322E-1,-2.1024764E-1,1.0666815E-1,-2.4370055E-1,-3.85871E-1,3.7824464E-1,-2.785861E-1,-2.883532E-2,1.5658596E-1,-4.318933E-2,-9.331314E-3,-6.3371204E-2,-6.069429E-3,2.2657901E-2,-6.4628944E-3,-3.4703553E-2,3.868423E-2,-1.7636333E-2,-6.1449196E-2,7.947918E-2,5.6065437E-3,-2.3602685E-2,-3.49422E-2],"categories":[],"categories_nodes":[],"categories_segments":[],"categories_sizes":[],"default_left":[0,0,0,0,0,0,0,0,0,0,0,0,0,0,0,0,0,0,0,0,0,0,0,0,0,0,0,0,0,0,0],"id":43,"left_children":[1,3,5,7,9,11,13,15,17,19,21,23,25,27,29,-1,-1,-1,-1,-1,-1,-1,-1,-1,-1,-1,-1,-1,-1,-1,-1],"loss_changes":[6.83608E1,7.4445335E1,3.4902737E1,1.1882805E1,1.0558046E2,4.9601364E0,5.0794926E1,1.4334918E2,3.5590343E1,7.690811E1,1.6025015E2,3.786022E1,2.0966675E1,2.9211658E1,6.892948E-1,0E0,0E0,0E0,0E0,0E0,0E0,0E0,0E0,0E0,0E0,0E0,0E0,0E0,0E0,0E0,0E0],"parents":[2147483647,0,0,1,1,2,2,3,3,4,4,5,5,6,6,7,7,8,8,9,9,10,10,11,11,12,12,13,13,14,14],"right_children":[2,4,6,8,10,12,14,16,18,20,22,24,26,28,30,-1,-1,-1,-1,-1,-1,-1,-1,-1,-1,-1,-1,-1,-1,-1,-1],"split_conditions":[2.2E1,5E0,6E0,2E0,2E0,2.3E1,7E0,4E0,4E0,1.1E1,6E0,5E0,4E0,2.3E1,2.3E1,-2.883532E-2,1.5658596E-1,-4.318933E-2,-9.331314E-3,-6.3371204E-2,-6.069429E-3,2.2657901E-2,-6.4628944E-3,-3.4703553E-2,3.868423E-2,-1.7636333E-2,-6.1449196E-2,7.947918E-2,5.6065437E-3,-2.3602685E-2,-3.49422E-2],"split_indices":[1,1,0,0,0,1,0,1,0,1,0,0,0,1,1,0,0,0,0,0,0,0,0,0,0,0,0,0,0,0,0],"split_type":[0,0,0,0,0,0,0,0,0,0,0,0,0,0,0,0,0,0,0,0,0,0,0,0,0,0,0,0,0,0,0],"sum_hessian":[1.2247E4,1.0758E4,1.489E3,1.744E3,9.014E3,1.017E3,4.72E2,2.99E2,1.445E3,1.214E3,7.8E3,5.78E2,4.39E2,2.17E2,2.55E2,2.5E2,4.9E1,4.51E2,9.94E2,3.16E2,8.98E2,4.588E3,3.212E3,4.97E2,8.1E1,2.3E2,2.09E2,9.4E1,1.23E2,1.62E2,9.3E1],"tree_param":{"num_deleted":"0","num_feature":"2","num_nodes":"31","size_leaf_vector":"1"}},{"base_weights":[-3.8613455E-4,5.5663537E-2,-9.6464105E-2,-2.2473354E-2,2.511751E-1,-3.07722E-1,4.9742248E-2,2.8279565E-2,-2.4546719E-1,8.2990605E-1,7.652175E-2,-5.8205444E-1,-2.5154614E-1,2.613821E-1,-1.2396341E-1,-9.018351E-3,2.5929121E-2,1.5676133E-2,-3.613806E-2,5.09982E-2,1.318354E-1,2.3092508E-2,-3.7092764E-2,-7.946521E-2,1.2778254E-2,-3.0300256E-3,-2.9255752E-2,2.2173429E-1,-7.821088E-3,-7.029927E-2,1.457185E-2],"categories":[],"categories_nodes":[],"categories_segments":[],"categories_sizes":[],"default_left":[0,0,0,0,0,0,0,0,0,0,0,0,0,0,0,0,0,0,0,0,0,0,0,0,0,0,0,0,0,0,0],"id":44,"left_children":[1,3,5,7,9,11,13,15,17,19,21,23,25,27,29,-1,-1,-1,-1,-1,-1,-1,-1,-1,-1,-1,-1,-1,-1,-1,-1],"loss_changes":[6.596255E1,1.1818593E2,1.3940945E2,6.2570568E1,2.232163E2,2.8302032E1,9.8116196E1,1.2328142E2,4.7845936E1,7.933597E1,1.1739653E2,4.7336273E1,1.3910034E1,7.992428E2,2.2902377E2,0E0,0E0,0E0,0E0,0E0,0E0,0E0,0E0,0E0,0E0,0E0,0E0,0E0,0E0,0E0,0E0],"parents":[2147483647,0,0,1,1,2,2,3,3,4,4,5,5,6,6,7,7,8,8,9,9,10,10,11,11,12,12,13,13,14,14],"right_children":[2,4,6,8,10,12,14,16,18,20,22,24,26,28,30,-1,-1,-1,-1,-1,-1,-1,-1,-1,-1,-1,-1,-1,-1,-1,-1],"split_conditions":[1.8E1,1.4E1,4E0,7E0,3E0,1.9E1,6E0,5E0,3E0,2E0,1.7E1,3E0,2E1,1.9E1,2E1,-9.018351E-3,2.5929121E-2,1.5676133E-2,-3.613806E-2,5.09982E-2,1.318354E-1,2.3092508E-2,-3.7092764E-2,-7.946521E-2,1.2778254E-2,-3.0300256E-3,-2.9255752E-2,2.2173429E-1,-7.821088E-3,-7.029927E-2,1.457185E-2],"split_indices":[1,1,0,0,0,1,0,0,1,0,1,0,1,1,1,0,0,0,0,0,0,0,0,0,0,0,0,0,0,0,0],"split_type":[0,0,0,0,0,0,0,0,0,0,0,0,0,0,0,0,0,0,0,0,0,0,0,0,0,0,0,0,0,0,0],"sum_hessian":[1.2247E4,7.735E3,4.512E3,5.527E3,2.208E3,1.845E3,2.667E3,4.503E3,1.024E3,5.11E2,1.697E3,3.12E2,1.533E3,1.202E3,1.465E3,2.977E3,1.526E3,2.29E2,7.95E2,3.1E2,2.01E2,1.262E3,4.35E2,2.4E2,7.2E1,2.4E2,1.293E3,1.77E2,1.025E3,4.65E2,1E3],"tree_param":{"num_deleted":"0","num_feature":"2","num_nodes":"31","size_leaf_vector":"1"}},{"base_weights":[-3.2923953E-4,5.0118517E-2,-8.680464E-2,-4.0827155E-2,1.8820818E-1,-2.7700338E-1,4.4827163E-2,1.1801805E-2,-2.7369344E-1,3.2102153E-1,6.517965E-2,-5.240621E-1,-2.2641252E-1,2.3542161E-1,-1.1160528E-1,-2.6573453E-2,9.560919E-3,-1.4672388E-2,-1.0949595E-1,-3.1715987E-4,7.843883E-2,2.2484986E-2,-6.577056E-2,-7.15517E-2,1.1518021E-2,-2.7283055E-3,-2.6332427E-2,1.9968536E-1,-7.03974E-3,-9.439122E-2,4.6441285E-3],"categories":[],"categories_nodes":[],"categories_segments":[],"categories_sizes":[],"default_left":[0,0,0,0,0,0,0,0,0,0,0,0,0,0,0,0,0,0,0,0,0,0,0,0,0,0,0,0,0,0,0],"id":45,"left_children":[1,3,5,7,9,11,13,15,17,19,21,23,25,27,29,-1,-1,-1,-1,-1,-1,-1,-1,-1,-1,-1,-1,-1,-1,-1,-1],"loss_changes":[5.3436127E1,9.716145E1,1.13000824E2,5.7175186E1,5.017504E1,2.295433E1,7.9573105E1,8.8551414E1,8.9516525E1,2.2187793E2,1.8436336E2,3.8389244E1,1.12680435E1,6.481719E2,1.9288622E2,0E0,0E0,0E0,0E0,0E0,0E0,0E0,0E0,0E0,0E0,0E0,0E0,0E0,0E0,0E0,0E0],"parents":[2147483647,0,0,1,1,2,2,3,3,4,4,5,5,6,6,7,7,8,8,9,9,10,10,11,11,12,12,13,13,14,14],"right_children":[2,4,6,8,10,12,14,16,18,20,22,24,26,28,30,-1,-1,-1,-1,-1,-1,-1,-1,-1,-1,-1,-1,-1,-1,-1,-1],"split_conditions":[1.8E1,1.2E1,4E0,7E0,5E0,1.9E1,6E0,3E0,1.1E1,1.6E1,1.7E1,3E0,2E1,1.9E1,1.9E1,-2.6573453E-2,9.560919E-3,-1.4672388E-2,-1.0949595E-1,-3.1715987E-4,7.843883E-2,2.2484986E-2,-6.577056E-2,-7.15517E-2,1.1518021E-2,-2.7283055E-3,-2.6332427E-2,1.9968536E-1,-7.03974E-3,-9.439122E-2,4.6441285E-3],"split_indices":[1,1,0,0,0,1,0,1,1,1,1,0,1,1,1,0,0,0,0,0,0,0,0,0,0,0,0,0,0,0,0],"split_type":[0,0,0,0,0,0,0,0,0,0,0,0,0,0,0,0,0,0,0,0,0,0,0,0,0,0,0,0,0,0,0],"sum_hessian":[1.2247E4,7.735E3,4.512E3,4.664E3,3.071E3,1.845E3,2.667E3,3.805E3,8.59E2,1.476E3,1.595E3,3.12E2,1.533E3,1.202E3,1.465E3,8.82E2,2.923E3,7.45E2,1.14E2,8.69E2,6.07E2,1.307E3,2.88E2,2.4E2,7.2E1,2.4E2,1.293E3,1.77E2,1.025E3,2.33E2,1.232E3],"tree_param":{"num_deleted":"0","num_feature":"2","num_nodes":"31","size_leaf_vector":"1"}},{"base_weights":[-3.0415444E-4,2.191829E-2,-1.6076788E-1,-1.4639257E-1,4.947623E-2,-2.3627308E-1,2.0757846E-3,-6.997105E-2,-6.8503594E-1,-1.679519E-1,8.9772545E-2,-1.0680569E-1,-2.6958814E-1,3.2168204E-1,-2.7009702E-1,-2.7321298E-2,1.0596574E-2,-8.5962124E-2,-5.8578666E-2,-3.6831584E-2,-7.676348E-3,1.818571E-2,-4.177609E-3,1.2490406E-2,-3.832621E-2,-3.1231761E-2,-1.4133495E-2,6.9713496E-2,3.1442468E-3,-2.3166686E-2,-3.338632E-2],"categories":[],"categories_nodes":[],"categories_segments":[],"categories_sizes":[],"default_left":[0,0,0,0,0,0,0,0,0,0,0,0,0,0,0,0,0,0,0,0,0,0,0,0,0,0,0,0,0,0,0],"id":46,"left_children":[1,3,5,7,9,11,13,15,17,19,21,23,25,27,29,-1,-1,-1,-1,-1,-1,-1,-1,-1,-1,-1,-1,-1,-1,-1,-1],"loss_changes":[4.367862E1,4.9910713E1,1.832085E1,6.2274277E1,8.10244E1,4.3620567E0,4.123227E1,4.747946E1,2.754013E0,2.6391407E1,9.4505775E1,1.3499977E1,4.389332E0,2.3733824E1,5.499935E-1,0E0,0E0,0E0,0E0,0E0,0E0,0E0,0E0,0E0,0E0,0E0,0E0,0E0,0E0,0E0,0E0],"parents":[2147483647,0,0,1,1,2,2,3,3,4,4,5,5,6,6,7,7,8,8,9,9,10,10,11,11,12,12,13,13,14,14],"right_children":[2,4,6,8,10,12,14,16,18,20,22,24,26,28,30,-1,-1,-1,-1,-1,-1,-1,-1,-1,-1,-1,-1,-1,-1,-1,-1],"split_conditions":[2.2E1,2E0,6E0,2E1,5E0,2E0,7E0,1.1E1,2.1E1,4E0,6E0,2.3E1,5E0,2.3E1,2.3E1,-2.7321298E-2,1.0596574E-2,-8.5962124E-2,-5.8578666E-2,-3.6831584E-2,-7.676348E-3,1.818571E-2,-4.177609E-3,1.2490406E-2,-3.832621E-2,-3.1231761E-2,-1.4133495E-2,6.9713496E-2,3.1442468E-3,-2.3166686E-2,-3.338632E-2],"split_indices":[1,0,0,1,1,0,0,1,1,0,0,1,0,1,1,0,0,0,0,0,0,0,0,0,0,0,0,0,0,0,0],"split_type":[0,0,0,0,0,0,0,0,0,0,0,0,0,0,0,0,0,0,0,0,0,0,0,0,0,0,0,0,0,0,0],"sum_hessian":[1.2247E4,1.0758E4,1.489E3,1.513E3,9.245E3,1.017E3,4.72E2,1.326E3,1.87E2,1.445E3,7.8E3,2.09E2,8.08E2,2.17E2,2.55E2,6.15E2,7.11E2,6.5E1,1.22E2,4.51E2,9.94E2,4.588E3,3.212E3,1.14E2,9.5E1,6.05E2,2.03E2,9.4E1,1.23E2,1.62E2,9.3E1],"tree_param":{"num_deleted":"0","num_feature":"2","num_nodes":"31","size_leaf_vector":"1"}},{"base_weights":[-2.9414953E-4,4.9057566E-2,-6.914909E-2,8.4748445E-3,4.8082268E-1,-2.812771E-1,-3.5054296E-2,-7.0749424E-2,9.401011E-2,9.131904E-1,-2.4313395E-1,-3.5858136E-1,-9.624804E-2,1.3095066E-2,-1.5256248E-1,1.8365063E-2,-2.7846018E-2,-3.3052158E-2,3.295807E-2,2.507384E-2,1.6784398E-1,7.7893795E-3,-5.762148E-2,-2.0153677E-2,-6.1730124E-2,1.1252242E-2,-3.4533508E-2,1.2861651E-2,-1.6327702E-2,-2.8113738E-2,-3.7075889E-3],"categories":[],"categories_nodes":[],"categories_segments":[],"categories_sizes":[],"default_left":[0,0,0,0,0,0,0,0,0,0,0,0,0,0,0,0,0,0,0,0,0,0,0,0,0,0,0,0,0,0,0],"id":47,"left_children":[1,3,5,7,9,11,13,15,17,19,21,23,25,27,29,-1,-1,-1,-1,-1,-1,-1,-1,-1,-1,-1,-1,-1,-1,-1,-1],"loss_changes":[4.1623436E1,1.2501685E2,3.6976948E1,4.4209557E1,1.9210052E2,1.0092388E1,2.4936558E1,1.7902571E2,3.138315E2,1.9424442E2,2.4638369E1,2.0150238E1,1.0959281E1,6.373287E1,1.901073E1,0E0,0E0,0E0,0E0,0E0,0E0,0E0,0E0,0E0,0E0,0E0,0E0,0E0,0E0,0E0,0E0],"parents":[2147483647,0,0,1,1,2,2,3,3,4,4,5,5,6,6,7,7,8,8,9,9,10,10,11,11,12,12,13,13,14,14],"right_children":[2,4,6,8,10,12,14,16,18,20,22,24,26,28,30,-1,-1,-1,-1,-1,-1,-1,-1,-1,-1,-1,-1,-1,-1,-1,-1],"split_conditions":[1.7E1,1.6E1,2E0,5E0,6E0,2.2E1,2.2E1,8E0,8E0,4E0,7E0,2E1,2.3E1,6E0,5E0,1.8365063E-2,-2.7846018E-2,-3.3052158E-2,3.295807E-2,2.507384E-2,1.6784398E-1,7.7893795E-3,-5.762148E-2,-2.0153677E-2,-6.1730124E-2,1.1252242E-2,-3.4533508E-2,1.2861651E-2,-1.6327702E-2,-2.8113738E-2,-3.7075889E-3],"split_indices":[1,1,0,0,0,1,1,1,1,0,0,1,1,0,0,0,0,0,0,0,0,0,0,0,0,0,0,0,0,0,0],"split_type":[0,0,0,0,0,0,0,0,0,0,0,0,0,0,0,0,0,0,0,0,0,0,0,0,0,0,0,0,0,0,0],"sum_hessian":[1.2247E4,7.134E3,5.113E3,6.522E3,6.12E2,7.07E2,4.406E3,3.386E3,3.136E3,3.83E2,2.29E2,4.98E2,2.09E2,3.126E3,1.28E3,1.522E3,1.864E3,1.119E3,2.017E3,2.06E2,1.77E2,1.17E2,1.12E2,3.11E2,1.87E2,1.14E2,9.5E1,1.889E3,1.237E3,6.05E2,6.75E2],"tree_param":{"num_deleted":"0","num_feature":"2","num_nodes":"31","size_leaf_vector":"1"}},{"base_weights":[-2.65519E-4,4.4170022E-2,-6.2261477E-2,7.625386E-3,4.3297344E-1,-2.5329798E-1,-3.1556666E-2,-6.367776E-2,8.460853E-2,8.2237333E-1,-2.1903756E-1,-3.2288733E-1,-8.673419E-2,1.1784689E-2,-1.3733095E-1,1.6529731E-2,-2.5062969E-2,-2.9749895E-2,2.9663816E-2,2.2578558E-2,1.5115379E-1,7.0170197E-3,-5.191037E-2,-1.8144766E-2,-5.5589955E-2,1.0136785E-2,-3.1116128E-2,1.1576204E-2,-1.4696245E-2,-2.530699E-2,-3.337364E-3],"categories":[],"categories_nodes":[],"categories_segments":[],"categories_sizes":[],"default_left":[0,0,0,0,0,0,0,0,0,0,0,0,0,0,0,0,0,0,0,0,0,0,0,0,0,0,0,0,0,0,0],"id":48,"left_children":[1,3,5,7,9,11,13,15,17,19,21,23,25,27,29,-1,-1,-1,-1,-1,-1,-1,-1,-1,-1,-1,-1,-1,-1,-1,-1],"loss_changes":[3.3743835E1,1.0137562E2,2.9989399E1,3.5811047E1,1.5581656E2,8.178471E0,2.0205074E1,1.4502988E2,2.54242E2,1.5753918E2,1.9996162E1,1.634476E1,8.896732E0,5.1631607E1,1.54044285E1,0E0,0E0,0E0,0E0,0E0,0E0,0E0,0E0,0E0,0E0,0E0,0E0,0E0,0E0,0E0,0E0],"parents":[2147483647,0,0,1,1,2,2,3,3,4,4,5,5,6,6,7,7,8,8,9,9,10,10,11,11,12,12,13,13,14,14],"right_children":[2,4,6,8,10,12,14,16,18,20,22,24,26,28,30,-1,-1,-1,-1,-1,-1,-1,-1,-1,-1,-1,-1,-1,-1,-1,-1],"split_conditions":[1.7E1,1.6E1,2E0,5E0,6E0,2.2E1,2.2E1,8E0,8E0,4E0,7E0,2E1,2.3E1,6E0,5E0,1.6529731E-2,-2.5062969E-2,-2.9749895E-2,2.9663816E-2,2.2578558E-2,1.5115379E-1,7.0170197E-3,-5.191037E-2,-1.8144766E-2,-5.5589955E-2,1.0136785E-2,-3.1116128E-2,1.1576204E-2,-1.4696245E-2,-2.530699E-2,-3.337364E-3],"split_indices":[1,1,0,0,0,1,1,1,1,0,0,1,1,0,0,0,0,0,0,0,0,0,0,0,0,0,0,0,0,0,0],"split_type":[0,0,0,0,0,0,0,0,0,0,0,0,0,0,0,0,0,0,0,0,0,0,0,0,0,0,0,0,0,0,0],"sum_hessian":[1.2247E4,7.134E3,5.113E3,6.522E3,6.12E2,7.07E2,4.406E3,3.386E3,3.136E3,3.83E2,2.29E2,4.98E2,2.09E2,3.126E3,1.28E3,1.522E3,1.864E3,1.119E3,2.017E3,2.06E2,1.77E2,1.17E2,1.12E2,3.11E2,1.87E2,1.14E2,9.5E1,1.889E3,1.237E3,6.05E2,6.75E2],"tree_param":{"num_deleted":"0","num_feature":"2","num_nodes":"31","size_leaf_vector":"1"}},{"base_weights":[-2.3946559E-4,3.6039576E-2,-6.242746E-2,-5.685193E-2,1.1389303E-1,-2.2603871E-1,5.0799217E-2,-1.8609785E-2,-3.6362177E-1,5.045204E-1,6.722843E-2,-4.9343988E-1,-1.7133036E-1,1.1677338E-1,-2.9669106E-1,3.904154E-2,-1.9185737E-2,-2.2862664E-1,4.961702E-2,-1.7905672E-1,8.976747E-2,-2.5397632E-2,1.3935215E-2,-6.59571E-2,6.1779935E-3,-1.9956157E-2,-1.1222856E-3,3.4992103E-2,-6.871903E-3,-4.9117133E-2,-1.071171E-2],"categories":[],"categories_nodes":[],"categories_segments":[],"categories_sizes":[],"default_left":[0,0,0,0,0,0,0,0,0,0,0,0,0,0,0,0,0,0,0,0,0,0,0,0,0,0,0,0,0,0,0],"id":49,"left_children":[1,3,5,7,9,11,13,15,17,19,21,23,25,27,29,-1,-1,-1,-1,-1,-1,-1,-1,-1,-1,-1,-1,-1,-1,-1,-1],"loss_changes":[2.7635218E1,5.5952644E1,8.3615524E1,4.1382095E1,7.668972E1,2.6920738E1,6.1199562E1,2.224418E2,6.474865E2,4.067506E2,8.716452E1,2.8911652E1,6.9314804E0,9.702733E1,1.5653324E1,0E0,0E0,0E0,0E0,0E0,0E0,0E0,0E0,0E0,0E0,0E0,0E0,0E0,0E0,0E0,0E0],"parents":[2147483647,0,0,1,1,2,2,3,3,4,4,5,5,6,6,7,7,8,8,9,9,10,10,11,11,12,12,13,13,14,14],"right_children":[2,4,6,8,10,12,14,16,18,20,22,24,26,28,30,-1,-1,-1,-1,-1,-1,-1,-1,-1,-1,-1,-1,-1,-1,-1,-1],"split_conditions":[1.8E1,1E1,4E0,9E0,1.1E1,1.9E1,2.3E1,3E0,3E0,2E0,1.2E1,3E0,2.3E1,6E0,6E0,3.904154E-2,-1.9185737E-2,-2.2862664E-1,4.961702E-2,-1.7905672E-1,8.976747E-2,-2.5397632E-2,1.3935215E-2,-6.59571E-2,6.1779935E-3,-1.9956157E-2,-1.1222856E-3,3.4992103E-2,-6.871903E-3,-4.9117133E-2,-1.071171E-2],"split_indices":[1,1,0,1,1,1,1,0,0,0,1,0,1,0,0,0,0,0,0,0,0,0,0,0,0,0,0,0,0,0,0],"split_type":[0,0,0,0,0,0,0,0,0,0,0,0,0,0,0,0,0,0,0,0,0,0,0,0,0,0,0,0,0,0,0],"sum_hessian":[1.2247E4,7.735E3,4.512E3,3.527E3,4.208E3,1.845E3,2.667E3,3.137E3,3.9E2,4.48E2,3.76E3,3.12E2,1.533E3,2.242E3,4.25E2,9.33E2,2.204E3,1.2E2,2.7E2,6.5E1,3.83E2,6.89E2,3.071E3,2.4E2,7.2E1,1.303E3,2.3E2,9.93E2,1.249E3,2.09E2,2.16E2],"tree_param":{"num_deleted":"0","num_feature":"2","num_nodes":"31","size_leaf_vector":"1"}}]},"name":"gbtree"},"learner_model_param":{"base_score":"[1.3493508E1]","boost_from_average":"1","num_class":"0","num_feature":"2","num_target":"1"},"objective":{"name":"reg:squarederror","reg_loss_param":{"scale_pos_weight":"1"}}},"version":[3,2,1]}