{"learner":{"attributes":{},"feature_names":["day_of_week","hour_of_day"],"feature_types":[],"gradient_booster":{"model":{"cats":{"enc":[],"feature_segments":[],"sorted_idx":[]},"gbtree_model_param":{"num_parallel_tree":"1","num_trees":"50"},"iteration_indptr":[0,1,2,3,4,5,6,7,8,9,10,11,12,13,14,15,16,17,18,19,20,21,22,23,24,25,26,27,28,29,30,31,32,33,34,35,36,37,38,39,40,41,42,43,44,45,46,47,48,49,50],"tree_info":[0,0,0,0,0,0,0,0,0,0,0,0,0,0,0,0,0,0,0,0,0,0,0,0,0,0,0,0,0,0,0,0,0,0,0,0,0,0,0,0,0,0,0,0,0,0,0,0,0,0],"trees":[{"base_weights":[-2.2745037E-7,-1.0044315E1,1.1051962E0,-1.0597699E1,-5.217123E0,3.840226E0,-4.2072897E0,-1.1571373E0,-8.49973E0,-3.0536553E-1,-8.1733465E-1,3.3930436E-1,4.4608426E0,-1.8948121E0,-7.863608E0,-7.767687E-1,-9.4114965E-1,3.0194548E-1,-5.870842E-1,4.9321714E-1,2.3890522E-1,-3.4430328E-1,-7.686629E-2,-1.0161248E0,-6.362303E-1],"categories":[],"categories_nodes":[],"categories_segments":[],"categories_sizes":[],"default_left":[0,0,0,0,0,0,0,0,0,0,0,0,0,0,0,0,0,0,0,0,0,0,0,0,0],"id":0,"left_children":[1,3,5,7,9,11,13,-1,15,-1,-1,17,19,21,23,-1,-1,-1,-1,-1,-1,-1,-1,-1,-1],"loss_changes":[1.2307614E5,2.8804531E3,1.4513984E5,1.9137422E3,7.1054614E2,1.4325484E4,2.8690352E4,0E0,1.378086E2,0E0,0E0,1.6561986E4,5.4575625E3,3.6256348E3,4.4713906E3,0E0,0E0,0E0,0E0,0E0,0E0,0E0,0E0,0E0,0E0],"parents":[2147483647,0,0,1,1,2,2,3,3,4,4,5,5,6,6,8,8,11,11,12,12,13,13,14,14],"right_children":[2,4,6,8,10,12,14,-1,16,-1,-1,18,20,22,24,-1,-1,-1,-1,-1,-1,-1,-1,-1,-1],"split_conditions":[4E0,3E0,1.9E1,6E0,6E0,7E0,2.2E1,-1.1571373E0,2E0,-3.0536553E-1,-8.1733465E-1,6E0,7E0,4E0,4E0,-7.767687E-1,-9.4114965E-1,3.0194548E-1,-5.870842E-1,4.9321714E-1,2.3890522E-1,-3.4430328E-1,-7.686629E-2,-1.0161248E0,-6.362303E-1],"split_indices":[1,1,1,0,0,1,1,0,1,0,0,0,0,0,0,0,0,0,0,0,0,0,0,0,0],"split_type":[0,0,0,0,0,0,0,0,0,0,0,0,0,0,0,0,0,0,0,0,0,0,0,0,0],"sum_hessian":[1.1085E4,1.098E3,9.987E3,9.84E2,1.14E2,6.593E3,3.394E3,6.69E2,3.15E2,6.7E1,4.7E1,9.93E2,5.6E3,2.08E3,1.314E3,1.8E2,1.35E2,6.94E2,2.99E2,4.561E3,1.039E3,8.75E2,1.205E3,5.17E2,7.97E2],"tree_param":{"num_deleted":"0","num_feature":"2","num_nodes":"25","size_leaf_vector":"1"}},{"base_weights":[-5.0765404E-4,-9.043522E0,9.945137E-1,-9.540849E0,-4.7051735E0,3.456271E0,-3.7871716E0,-1.0415963E0,-7.655194E0,-2.7527803E-1,-7.37304E-1,3.050869E-1,4.0148892E0,-1.7055335E0,-7.0785036E0,-6.99521E-1,-8.4772664E-1,2.7179438E-1,-5.285715E-1,4.4390622E-1,2.1503773E-1,-3.0991226E-1,-6.918605E-2,-9.1470855E-1,-5.72687E-1],"categories":[],"categories_nodes":[],"categories_segments":[],"categories_sizes":[],"default_left":[0,0,0,0,0,0,0,0,0,0,0,0,0,0,0,0,0,0,0,0,0,0,0,0,0],"id":1,"left_children":[1,3,5,7,9,11,13,-1,15,-1,-1,17,19,21,23,-1,-1,-1,-1,-1,-1,-1,-1,-1,-1],"loss_changes":[9.9760734E4,2.3262812E3,1.1758531E5,1.5456719E3,5.787073E2,1.1606258E4,2.3248305E4,0E0,1.12146484E2,0E0,0E0,1.342323E4,4.4201484E3,2.9375679E3,3.6243125E3,0E0,0E0,0E0,0E0,0E0,0E0,0E0,0E0,0E0,0E0],"parents":[2147483647,0,0,1,1,2,2,3,3,4,4,5,5,6,6,8,8,11,11,12,12,13,13,14,14],"right_children":[2,4,6,8,10,12,14,-1,16,-1,-1,18,20,22,24,-1,-1,-1,-1,-1,-1,-1,-1,-1,-1],"split_conditions":[4E0,3E0,1.9E1,6E0,6E0,7E0,2.2E1,-1.0415963E0,2E0,-2.7527803E-1,-7.37304E-1,6E0,7E0,4E0,4E0,-6.99521E-1,-8.4772664E-1,2.7179438E-1,-5.285715E-1,4.4390622E-1,2.1503773E-1,-3.0991226E-1,-6.918605E-2,-9.1470855E-1,-5.72687E-1],"split_indices":[1,1,1,0,0,1,1,0,1,0,0,0,0,0,0,0,0,0,0,0,0,0,0,0,0],"split_type":[0,0,0,0,0,0,0,0,0,0,0,0,0,0,0,0,0,0,0,0,0,0,0,0,0],"sum_hessian":[1.1085E4,1.098E3,9.987E3,9.84E2,1.14E2,6.593E3,3.394E3,6.69E2,3.15E2,6.7E1,4.7E1,9.93E2,5.6E3,2.08E3,1.314E3,1.8E2,1.35E2,6.94E2,2.99E2,4.561E3,1.039E3,8.75E2,1.205E3,5.17E2,7.97E2],"tree_param":{"num_deleted":"0","num_feature":"2","num_nodes":"25","size_leaf_vector":"1"}},{"base_weights":[-9.135129E-4,-8.1424465E0,8.9491606E-1,-8.589392E0,-4.243461E0,2.8078537E0,-4.11578E0,-9.37592E-1,-6.8945704E0,-2.4815503E-1,-6.651097E-1,3.3236911E0,4.702409E-1,-2.061311E0,-6.3717847E0,-6.2995535E-1,-7.6357734E-1,3.9254233E-1,5.181802E-2,-5.346426E-1,2.1694146E-1,-3.579813E-1,-8.443235E-2,-8.234143E-1,-5.1549E-1],"categories":[],"categories_nodes":[],"categories_segments":[],"categories_sizes":[],"default_left":[0,0,0,0,0,0,0,0,0,0,0,0,0,0,0,0,0,0,0,0,0,0,0,0,0],"id":2,"left_children":[1,3,5,7,9,11,13,-1,15,-1,-1,17,19,21,23,-1,-1,-1,-1,-1,-1,-1,-1,-1,-1],"loss_changes":[8.086222E4,1.8786953E3,9.5748016E4,1.2483828E3,4.713296E2,8.715371E3,1.277916E4,0E0,9.126172E1,0E0,0E0,9.995285E3,1.2939251E4,2.6691836E3,2.937707E3,0E0,0E0,0E0,0E0,0E0,0E0,0E0,0E0,0E0,0E0],"parents":[2147483647,0,0,1,1,2,2,3,3,4,4,5,5,6,6,8,8,11,11,12,12,13,13,14,14],"right_children":[2,4,6,8,10,12,14,-1,16,-1,-1,18,20,22,24,-1,-1,-1,-1,-1,-1,-1,-1,-1,-1],"split_conditions":[4E0,3E0,2E1,6E0,6E0,7E0,2.2E1,-9.37592E-1,2E0,-2.4815503E-1,-6.651097E-1,1.8E1,9E0,4E0,4E0,-6.2995535E-1,-7.6357734E-1,3.9254233E-1,5.181802E-2,-5.346426E-1,2.1694146E-1,-3.579813E-1,-8.443235E-2,-8.234143E-1,-5.1549E-1],"split_indices":[1,1,1,0,0,0,1,0,1,0,0,1,1,0,0,0,0,0,0,0,0,0,0,0,0],"split_type":[0,0,0,0,0,0,0,0,0,0,0,0,0,0,0,0,0,0,0,0,0,0,0,0,0],"sum_hessian":[1.1085E4,1.098E3,9.987E3,9.84E2,1.14E2,7.228E3,2.759E3,6.69E2,3.15E2,6.7E1,4.7E1,5.921E3,1.307E3,1.445E3,1.314E3,1.8E2,1.35E2,4.875E3,1.046E3,2.95E2,1.012E3,6.42E2,8.03E2,5.17E2,7.97E2],"tree_param":{"num_deleted":"0","num_feature":"2","num_nodes":"25","size_leaf_vector":"1"}},{"base_weights":[-1.26399E-3,-7.3311543E0,8.052589E-1,-7.7328196E0,-3.827057E0,2.8101184E0,-3.088953E0,-8.439728E-1,-6.209523E0,-2.2370449E-1,-5.9998435E-1,4.9140505E-2,3.2996027E0,-1.4150163E0,-5.735625E0,-7.080266E-1,-5.7035106E-1,2.054563E-1,-4.596919E-1,3.5576677E-1,1.2054286E-1,-2.5409898E-1,-5.959716E-2,-7.412319E-1,-4.6400568E-1],"categories":[],"categories_nodes":[],"categories_segments":[],"categories_sizes":[],"default_left":[0,0,0,0,0,0,0,0,0,0,0,0,0,0,0,0,0,0,0,0,0,0,0,0,0],"id":3,"left_children":[1,3,5,7,9,11,13,-1,15,-1,-1,17,19,21,23,-1,-1,-1,-1,-1,-1,-1,-1,-1,-1],"loss_changes":[6.554328E4,1.5172227E3,7.798847E4,1.00827344E3,3.8387512E2,8.911332E3,1.5032961E4,0E0,9.884863E1,0E0,0E0,9.270854E3,3.0226758E3,1.9176309E3,2.3811719E3,0E0,0E0,0E0,0E0,0E0,0E0,0E0,0E0,0E0,0E0],"parents":[2147483647,0,0,1,1,2,2,3,3,4,4,5,5,6,6,8,8,11,11,12,12,13,13,14,14],"right_children":[2,4,6,8,10,12,14,-1,16,-1,-1,18,20,22,24,-1,-1,-1,-1,-1,-1,-1,-1,-1,-1],"split_conditions":[4E0,3E0,1.9E1,6E0,6E0,7E0,2.2E1,-8.439728E-1,7E0,-2.2370449E-1,-5.9998435E-1,6E0,1.8E1,4E0,4E0,-7.080266E-1,-5.7035106E-1,2.054563E-1,-4.596919E-1,3.5576677E-1,1.2054286E-1,-2.5409898E-1,-5.959716E-2,-7.412319E-1,-4.6400568E-1],"split_indices":[1,1,1,0,0,1,1,0,0,0,0,0,1,0,0,0,0,0,0,0,0,0,0,0,0],"split_type":[0,0,0,0,0,0,0,0,0,0,0,0,0,0,0,0,0,0,0,0,0,0,0,0,0],"sum_hessian":[1.1085E4,1.098E3,9.987E3,9.84E2,1.14E2,6.593E3,3.394E3,6.69E2,3.15E2,6.7E1,4.7E1,9.93E2,5.6E3,2.08E3,1.314E3,1.11E2,2.04E2,6.94E2,2.99E2,4.985E3,6.15E2,8.75E2,1.205E3,5.17E2,7.97E2],"tree_param":{"num_deleted":"0","num_feature":"2","num_nodes":"25","size_leaf_vector":"1"}},{"base_weights":[-1.5201125E-3,-6.6007195E0,7.246034E-1,-6.961692E0,-3.4515138E0,2.2822936E0,-3.3555658E0,-7.5970143E-1,-5.5926166E0,-2.0166305E-1,-5.4123586E-1,2.7356386E0,2.2801824E-1,-1.7095742E0,-5.1629786E0,-5.0541556E-1,-6.2681234E-1,3.218731E-1,4.8320998E-2,-4.675022E-1,1.6604684E-1,-2.9686844E-1,-7.00473E-2,-6.672518E-1,-4.1766325E-1],"categories":[],"categories_nodes":[],"categories_segments":[],"categories_sizes":[],"default_left":[0,0,0,0,0,0,0,0,0,0,0,0,0,0,0,0,0,0,0,0,0,0,0,0,0],"id":4,"left_children":[1,3,5,7,9,11,13,-1,15,-1,-1,17,19,21,23,-1,-1,-1,-1,-1,-1,-1,-1,-1,-1],"loss_changes":[5.3127047E4,1.2252891E3,6.3487785E4,8.1426953E2,3.1264746E2,6.7317188E3,8.202139E3,0E0,8.3259766E1,0E0,0E0,6.4423516E3,9.194319E3,1.8351646E3,1.9300742E3,0E0,0E0,0E0,0E0,0E0,0E0,0E0,0E0,0E0,0E0],"parents":[2147483647,0,0,1,1,2,2,3,3,4,4,5,5,6,6,8,8,11,11,12,12,13,13,14,14],"right_children":[2,4,6,8,10,12,14,-1,16,-1,-1,18,20,22,24,-1,-1,-1,-1,-1,-1,-1,-1,-1,-1],"split_conditions":[4E0,3E0,2E1,6E0,6E0,7E0,2.2E1,-7.5970143E-1,2E0,-2.0166305E-1,-5.4123586E-1,1.8E1,9E0,4E0,4E0,-5.0541556E-1,-6.2681234E-1,3.218731E-1,4.8320998E-2,-4.675022E-1,1.6604684E-1,-2.9686844E-1,-7.00473E-2,-6.672518E-1,-4.1766325E-1],"split_indices":[1,1,1,0,0,0,1,0,1,0,0,1,1,0,0,0,0,0,0,0,0,0,0,0,0],"split_type":[0,0,0,0,0,0,0,0,0,0,0,0,0,0,0,0,0,0,0,0,0,0,0,0,0],"sum_hessian":[1.1085E4,1.098E3,9.987E3,9.84E2,1.14E2,7.228E3,2.759E3,6.69E2,3.15E2,6.7E1,4.7E1,5.921E3,1.307E3,1.445E3,1.314E3,1.8E2,1.35E2,4.875E3,1.046E3,2.95E2,1.012E3,6.42E2,8.03E2,5.17E2,7.97E2],"tree_param":{"num_deleted":"0","num_feature":"2","num_nodes":"25","size_leaf_vector":"1"}},{"base_weights":[-1.7302978E-3,-5.9430447E0,6.5200484E-1,-6.267443E0,-3.1128225E0,1.8189389E0,-3.8016763E0,-6.702736E0,-4.578511E0,-1.8179332E-1,-4.8823985E-1,2.4156818E0,-2.3985941E-2,-5.1714277E0,-2.8212743E0,-6.942658E-1,-6.075152E-1,-3.3861363E-1,-5.107927E-1,8.102714E-2,3.26813E-1,1.0148615E-1,-5.0802983E-2,-3.9098504E-1,-6.006555E-1,-1.9506724E-1,-5.120396E-1],"categories":[],"categories_nodes":[],"categories_segments":[],"categories_sizes":[],"default_left":[0,0,0,0,0,0,0,0,0,0,0,0,0,0,0,0,0,0,0,0,0,0,0,0,0,0,0],"id":5,"left_children":[1,3,5,7,9,11,13,15,17,-1,-1,19,21,23,25,-1,-1,-1,-1,-1,-1,-1,-1,-1,-1,-1,-1],"loss_changes":[4.306241E4,9.895E2,5.191607E4,6.9346875E2,2.5463562E2,8.704598E3,2.7705977E3,7.541406E1,1.12112305E2,0E0,0E0,8.179789E3,9.7453174E2,8.8680664E2,2.4139736E3,0E0,0E0,0E0,0E0,0E0,0E0,0E0,0E0,0E0,0E0,0E0,0E0],"parents":[2147483647,0,0,1,1,2,2,3,3,4,4,5,5,6,6,7,7,8,8,11,11,12,12,13,13,14,14],"right_children":[2,4,6,8,10,12,14,16,18,-1,-1,20,22,24,26,-1,-1,-1,-1,-1,-1,-1,-1,-1,-1,-1,-1],"split_conditions":[4E0,3E0,2.1E1,7E0,6E0,1.8E1,4E0,5E0,1E0,-1.8179332E-1,-4.8823985E-1,1E1,1.9E1,2.2E1,7E0,-6.942658E-1,-6.075152E-1,-3.3861363E-1,-5.107927E-1,8.102714E-2,3.26813E-1,1.0148615E-1,-5.0802983E-2,-3.9098504E-1,-6.006555E-1,-1.9506724E-1,-5.120396E-1],"split_indices":[1,1,1,0,0,1,0,0,1,0,0,1,1,1,0,0,0,0,0,0,0,0,0,0,0,0,0],"split_type":[0,0,0,0,0,0,0,0,0,0,0,0,0,0,0,0,0,0,0,0,0,0,0,0,0,0,0],"sum_hessian":[1.1085E4,1.098E3,9.987E3,9.84E2,1.14E2,7.914E3,2.073E3,7.8E2,2.04E2,6.7E1,4.7E1,5.978E3,1.936E3,8.63E2,1.21E3,5.57E2,2.23E2,6.5E1,1.39E2,2.074E3,3.904E3,6.15E2,1.321E3,3.46E2,5.17E2,8.79E2,3.31E2],"tree_param":{"num_deleted":"0","num_feature":"2","num_nodes":"27","size_leaf_vector":"1"}},{"base_weights":[-1.9234832E-3,-5.3513074E0,5.8668035E-1,-5.642883E0,-2.8073666E0,1.6371031E0,-3.4223275E0,-6.0341296E0,-4.1248035E0,-1.6388133E-1,-4.4043303E-1,2.174182E0,-2.156105E-2,-1.9982787E0,-4.242749E0,-6.2496364E-1,-5.4703486E-1,-3.0526534E-1,-4.600783E-1,-2.1637289E-2,2.6503226E-1,9.1354005E-2,-4.5726508E-2,-3.5199916E-1,-7.180067E-2,-5.139882E-1,-3.1282195E-1],"categories":[],"categories_nodes":[],"categories_segments":[],"categories_sizes":[],"default_left":[0,0,0,0,0,0,0,0,0,0,0,0,0,0,0,0,0,0,0,0,0,0,0,0,0,0,0],"id":6,"left_children":[1,3,5,7,9,11,13,15,17,-1,-1,19,21,23,25,-1,-1,-1,-1,-1,-1,-1,-1,-1,-1,-1,-1],"loss_changes":[3.490927E4,7.993418E2,4.2066598E4,5.6014453E2,2.0738788E2,7.050994E3,2.4146191E3,6.070117E1,9.057129E1,0E0,0E0,6.8061133E3,7.8960443E2,1.4781101E3,1.2987637E3,0E0,0E0,0E0,0E0,0E0,0E0,0E0,0E0,0E0,0E0,0E0,0E0],"parents":[2147483647,0,0,1,1,2,2,3,3,4,4,5,5,6,6,7,7,8,8,11,11,12,12,13,13,14,14],"right_children":[2,4,6,8,10,12,14,16,18,-1,-1,20,22,24,26,-1,-1,-1,-1,-1,-1,-1,-1,-1,-1,-1,-1],"split_conditions":[4E0,3E0,2.1E1,7E0,6E0,1.8E1,2.2E1,5E0,1E0,-1.6388133E-1,-4.4043303E-1,7E0,1.9E1,4E0,5E0,-6.2496364E-1,-5.4703486E-1,-3.0526534E-1,-4.600783E-1,-2.1637289E-2,2.6503226E-1,9.1354005E-2,-4.5726508E-2,-3.5199916E-1,-7.180067E-2,-5.139882E-1,-3.1282195E-1],"split_indices":[1,1,1,0,0,1,1,0,1,0,0,1,1,0,0,0,0,0,0,0,0,0,0,0,0,0,0],"split_type":[0,0,0,0,0,0,0,0,0,0,0,0,0,0,0,0,0,0,0,0,0,0,0,0,0,0,0],"sum_hessian":[1.1085E4,1.098E3,9.987E3,9.84E2,1.14E2,7.914E3,2.073E3,7.8E2,2.04E2,6.7E1,4.7E1,5.978E3,1.936E3,7.59E2,1.314E3,5.57E2,2.23E2,6.5E1,1.39E2,9.93E2,4.985E3,6.15E2,1.321E3,3.46E2,4.13E2,7.26E2,5.88E2],"tree_param":{"num_deleted":"0","num_feature":"2","num_nodes":"27","size_leaf_vector":"1"}},{"base_weights":[-2.0470305E-3,-4.818489E0,5.2791613E-1,-5.0805616E0,-2.5318844E0,1.4734293E0,-3.0806975E0,-5.432217E0,-3.7160566E0,-1.477342E-1,-3.9730725E-1,1.8826724E0,-3.949397E-1,-1.7990087E0,-3.819103E0,-5.625793E-1,-4.9257556E-1,-2.7520132E-1,-4.1439912E-1,2.4405642E-1,2.0024793E-2,-4.0574884E-1,7.497598E-2,-3.169007E-1,-6.463799E-2,-4.6266004E-1,-2.8159285E-1],"categories":[],"categories_nodes":[],"categories_segments":[],"categories_sizes":[],"default_left":[0,0,0,0,0,0,0,0,0,0,0,0,0,0,0,0,0,0,0,0,0,0,0,0,0,0,0],"id":7,"left_children":[1,3,5,7,9,11,13,15,17,-1,-1,19,21,23,25,-1,-1,-1,-1,-1,-1,-1,-1,-1,-1,-1,-1],"loss_changes":[2.8299969E4,6.4571875E2,3.4083516E4,4.5245312E2,1.6890668E2,6.0526875E3,1.9559766E3,4.885547E1,7.316797E1,0E0,0E0,6.093914E3,5.9689946E3,1.1980671E3,1.0522012E3,0E0,0E0,0E0,0E0,0E0,0E0,0E0,0E0,0E0,0E0,0E0,0E0],"parents":[2147483647,0,0,1,1,2,2,3,3,4,4,5,5,6,6,7,7,8,8,11,11,12,12,13,13,14,14],"right_children":[2,4,6,8,10,12,14,16,18,-1,-1,20,22,24,26,-1,-1,-1,-1,-1,-1,-1,-1,-1,-1,-1,-1],"split_conditions":[4E0,3E0,2.1E1,7E0,6E0,7E0,2.2E1,5E0,1E0,-1.477342E-1,-3.9730725E-1,1.8E1,1E1,4E0,5E0,-5.625793E-1,-4.9257556E-1,-2.7520132E-1,-4.1439912E-1,2.4405642E-1,2.0024793E-2,-4.0574884E-1,7.497598E-2,-3.169007E-1,-6.463799E-2,-4.6266004E-1,-2.8159285E-1],"split_indices":[1,1,1,0,0,0,1,0,1,0,0,1,1,0,0,0,0,0,0,0,0,0,0,0,0,0,0],"split_type":[0,0,0,0,0,0,0,0,0,0,0,0,0,0,0,0,0,0,0,0,0,0,0,0,0,0,0],"sum_hessian":[1.1085E4,1.098E3,9.987E3,9.84E2,1.14E2,7.914E3,2.073E3,7.8E2,2.04E2,6.7E1,4.7E1,6.492E3,1.422E3,7.59E2,1.314E3,5.57E2,2.23E2,6.5E1,1.39E2,4.875E3,1.617E3,3.38E2,1.084E3,3.46E2,4.13E2,7.26E2,5.88E2],"tree_param":{"num_deleted":"0","num_feature":"2","num_nodes":"27","size_leaf_vector":"1"}},{"base_weights":[-2.1566518E-3,-4.3387237E0,4.7500488E-1,-4.5742764E0,-2.2834353E0,1.6799618E0,-1.8654842E0,-4.8903465E0,-3.3478146E0,-1.3317798E-1,-3.5840425E-1,-3.2155165E-1,2.034867E0,-8.710554E-1,-3.4377587E0,-5.0642216E-1,-4.4353792E-1,-2.4809812E-1,-3.732552E-1,1.2249823E-1,-3.9032835E-1,2.4778254E-1,1.2889849E-1,-2.0102525E-1,-4.347682E-2,-4.7659013E-1,-2.9321072E-1],"categories":[],"categories_nodes":[],"categories_segments":[],"categories_sizes":[],"default_left":[0,0,0,0,0,0,0,0,0,0,0,0,0,0,0,0,0,0,0,0,0,0,0,0,0,0,0],"id":8,"left_children":[1,3,5,7,9,11,13,15,17,-1,-1,19,21,23,25,-1,-1,-1,-1,-1,-1,-1,-1,-1,-1,-1,-1],"loss_changes":[2.2941691E4,5.216133E2,2.8171176E4,3.6545898E2,1.3756573E2,4.6846875E3,5.3051406E3,3.9322266E1,5.9107666E1,0E0,0E0,5.5108154E3,1.8473477E3,1.0334187E3,8.6914844E2,0E0,0E0,0E0,0E0,0E0,0E0,0E0,0E0,0E0,0E0,0E0,0E0],"parents":[2147483647,0,0,1,1,2,2,3,3,4,4,5,5,6,6,7,7,8,8,11,11,12,12,13,13,14,14],"right_children":[2,4,6,8,10,12,14,16,18,-1,-1,20,22,24,26,-1,-1,-1,-1,-1,-1,-1,-1,-1,-1,-1,-1],"split_conditions":[4E0,3E0,1.9E1,7E0,6E0,7E0,2.2E1,5E0,1E0,-1.3317798E-1,-3.5840425E-1,6E0,6E0,3E0,3E0,-5.0642216E-1,-4.4353792E-1,-2.4809812E-1,-3.732552E-1,1.2249823E-1,-3.9032835E-1,2.4778254E-1,1.2889849E-1,-2.0102525E-1,-4.347682E-2,-4.7659013E-1,-2.9321072E-1],"split_indices":[1,1,1,0,0,1,1,0,1,0,0,0,0,0,0,0,0,0,0,0,0,0,0,0,0,0,0],"split_type":[0,0,0,0,0,0,0,0,0,0,0,0,0,0,0,0,0,0,0,0,0,0,0,0,0,0,0],"sum_hessian":[1.1085E4,1.098E3,9.987E3,9.84E2,1.14E2,6.593E3,3.394E3,7.8E2,2.04E2,6.7E1,4.7E1,9.93E2,5.6E3,2.08E3,1.314E3,5.57E2,2.23E2,6.5E1,1.39E2,6.94E2,2.99E2,3.512E3,2.088E3,5.75E2,1.505E3,3.6E2,9.54E2],"tree_param":{"num_deleted":"0","num_feature":"2","num_nodes":"27","size_leaf_vector":"1"}},{"base_weights":[-2.2085365E-3,-3.9067287E0,4.27414E-1,-4.1184444E0,-2.0593665E0,1.361703E0,-2.0198336E0,-4.5035233E0,-3.2889464E0,-1.2005607E-1,-3.2331046E-1,1.7060667E0,-1.9845203E-1,-1.0410675E0,-3.0945683E0,-4.6046096E-1,-3.9222297E-1,-2.8903028E-1,-3.7953112E-1,2.0050614E-1,3.1198477E-2,-3.5072908E-1,9.581406E-2,-1.9167392E-1,-3.39453E-2,-2.735335E-1,-4.9717936E-1],"categories":[],"categories_nodes":[],"categories_segments":[],"categories_sizes":[],"default_left":[0,0,0,0,0,0,0,0,0,0,0,0,0,0,0,0,0,0,0,0,0,0,0,0,0,0,0],"id":9,"left_children":[1,3,5,7,9,11,13,15,17,-1,-1,19,21,23,25,-1,-1,-1,-1,-1,-1,-1,-1,-1,-1,-1,-1],"loss_changes":[1.85981E4,4.2135547E2,2.2839682E4,2.998203E2,1.1203998E2,3.8841953E3,2.9000596E3,2.1308594E1,5.281787E1,0E0,0E0,2.4678008E3,5.0090483E3,8.877484E2,8.731875E2,0E0,0E0,0E0,0E0,0E0,0E0,0E0,0E0,0E0,0E0,0E0,0E0],"parents":[2147483647,0,0,1,1,2,2,3,3,4,4,5,5,6,6,7,7,8,8,11,11,12,12,13,13,14,14],"right_children":[2,4,6,8,10,12,14,16,18,-1,-1,20,22,24,26,-1,-1,-1,-1,-1,-1,-1,-1,-1,-1,-1,-1],"split_conditions":[4E0,3E0,2E1,6E0,6E0,7E0,2.2E1,2E0,2E0,-1.2005607E-1,-3.2331046E-1,1.8E1,1E1,4E0,7E0,-4.6046096E-1,-3.9222297E-1,-2.8903028E-1,-3.7953112E-1,2.0050614E-1,3.1198477E-2,-3.5072908E-1,9.581406E-2,-1.9167392E-1,-3.39453E-2,-2.735335E-1,-4.9717936E-1],"split_indices":[1,1,1,0,0,0,1,1,1,0,0,1,1,0,0,0,0,0,0,0,0,0,0,0,0,0,0],"split_type":[0,0,0,0,0,0,0,0,0,0,0,0,0,0,0,0,0,0,0,0,0,0,0,0,0,0,0],"sum_hessian":[1.1085E4,1.098E3,9.987E3,9.84E2,1.14E2,7.228E3,2.759E3,6.69E2,3.15E2,6.7E1,4.7E1,5.921E3,1.307E3,1.445E3,1.314E3,5.64E2,1.05E2,1.8E2,1.35E2,4.875E3,1.046E3,3.38E2,9.69E2,6.42E2,8.03E2,1.105E3,2.09E2],"tree_param":{"num_deleted":"0","num_feature":"2","num_nodes":"27","size_leaf_vector":"1"}},{"base_weights":[-2.256864E-3,-3.5178435E0,3.845705E-1,-3.7081442E0,-1.857285E0,1.3665719E0,-1.5228528E0,-3.9712126E0,-2.687829E0,-1.08227E0,-2.9165298E-1,2.5766537E-1,1.8753362E0,-7.2411966E-1,-2.7856975E0,-4.1093436E-1,-3.6093906E-1,-1.9519909E-1,-3.0155256E-1,-1.238964E-1,-9.686424E-2,9.240534E-2,-3.1575963E-1,2.1964847E-1,9.245799E-2,-4.275884E-2,-2.3133802E-1,-3.5078055E-1,-1.8896733E-1],"categories":[],"categories_nodes":[],"categories_segments":[],"categories_sizes":[],"default_left":[0,0,0,0,0,0,0,0,0,0,0,0,0,0,0,0,0,0,0,0,0,0,0,0,0,0,0,0,0],"id":10,"left_children":[1,3,5,7,9,11,13,15,17,19,-1,21,23,25,27,-1,-1,-1,-1,-1,-1,-1,-1,-1,-1,-1,-1,-1,-1],"loss_changes":[1.5077482E4,3.4040332E2,1.8710527E4,2.5371289E2,9.125049E1,3.719668E3,3.4224375E3,2.4200195E1,4.3545776E1,1.0604858E-2,0E0,4.725389E3,1.3780801E3,9.7971423E2,8.4420996E2,0E0,0E0,0E0,0E0,0E0,0E0,0E0,0E0,0E0,0E0,0E0,0E0,0E0,0E0],"parents":[2147483647,0,0,1,1,2,2,3,3,4,4,5,5,6,6,7,7,8,8,9,9,11,11,12,12,13,13,14,14],"right_children":[2,4,6,8,10,12,14,16,18,20,-1,22,24,26,28,-1,-1,-1,-1,-1,-1,-1,-1,-1,-1,-1,-1,-1,-1],"split_conditions":[4E0,3E0,1.9E1,7E0,6E0,1E1,2.2E1,5E0,1E0,2E0,-2.9165298E-1,7E0,1.7E1,7E0,5E0,-4.1093436E-1,-3.6093906E-1,-1.9519909E-1,-3.0155256E-1,-1.238964E-1,-9.686424E-2,9.240534E-2,-3.1575963E-1,2.1964847E-1,9.245799E-2,-4.275884E-2,-2.3133802E-1,-3.5078055E-1,-1.8896733E-1],"split_indices":[1,1,1,0,0,1,1,0,1,0,0,0,1,0,0,0,0,0,0,0,0,0,0,0,0,0,0,0,0],"split_type":[0,0,0,0,0,0,0,0,0,0,0,0,0,0,0,0,0,0,0,0,0,0,0,0,0,0,0,0,0],"sum_hessian":[1.1085E4,1.098E3,9.987E3,9.84E2,1.14E2,6.593E3,3.394E3,7.8E2,2.04E2,6.7E1,4.7E1,2.074E3,4.519E3,2.08E3,1.314E3,5.57E2,2.23E2,6.5E1,1.39E2,2.4E1,4.3E1,1.736E3,3.38E2,3.377E3,1.142E3,1.754E3,3.26E2,7.26E2,5.88E2],"tree_param":{"num_deleted":"0","num_feature":"2","num_nodes":"29","size_leaf_vector":"1"}},{"base_weights":[-2.2571937E-3,-2.6389372E0,4.2530528E-1,-3.3386178E0,-1.4101195E0,1.4173938E0,-1.370807E0,-3.5750797E0,-2.4214692E0,-1.677747E-1,-3.629519E0,1.9033642E0,6.022423E-1,-6.518393E-1,-2.5075378E0,-3.6991456E-1,-3.250063E-1,-1.7597495E-1,-2.7161267E-1,7.5706035E-2,-3.727287E-2,-2.4340196E-1,-4.5310098E-1,1.4768052E-1,2.4896292E-1,-2.2802423E-1,9.553939E-2,-3.848538E-2,-2.0827499E-1,-2.1670346E-1,-4.2889142E-1],"categories":[],"categories_nodes":[],"categories_segments":[],"categories_sizes":[],"default_left":[0,0,0,0,0,0,0,0,0,0,0,0,0,0,0,0,0,0,0,0,0,0,0,0,0,0,0,0,0,0,0],"id":11,"left_children":[1,3,5,7,9,11,13,15,17,19,21,23,25,27,29,-1,-1,-1,-1,-1,-1,-1,-1,-1,-1,-1,-1,-1,-1,-1,-1],"loss_changes":[1.2498874E4,1.3253711E3,1.7001293E4,2.0496094E2,1.5517281E3,2.4335264E3,2.7730063E3,1.9469727E1,3.5191406E1,6.8898796E1,2.066731E2,9.5911816E2,2.340419E3,7.942078E2,7.883379E2,0E0,0E0,0E0,0E0,0E0,0E0,0E0,0E0,0E0,0E0,0E0,0E0,0E0,0E0,0E0,0E0],"parents":[2147483647,0,0,1,1,2,2,3,3,4,4,5,5,6,6,7,7,8,8,9,9,10,10,11,11,12,12,13,13,14,14],"right_children":[2,4,6,8,10,12,14,16,18,20,22,24,26,28,30,-1,-1,-1,-1,-1,-1,-1,-1,-1,-1,-1,-1,-1,-1,-1,-1],"split_conditions":[5E0,3E0,1.9E1,7E0,5E0,6E0,2.2E1,5E0,1E0,2E0,7E0,1.4E1,8E0,7E0,7E0,-3.6991456E-1,-3.250063E-1,-1.7597495E-1,-2.7161267E-1,7.5706035E-2,-3.727287E-2,-2.4340196E-1,-4.5310098E-1,1.4768052E-1,2.4896292E-1,-2.2802423E-1,9.553939E-2,-3.848538E-2,-2.0827499E-1,-2.1670346E-1,-4.2889142E-1],"split_indices":[1,1,1,0,0,0,1,0,1,0,0,1,1,0,0,0,0,0,0,0,0,0,0,0,0,0,0,0,0,0,0],"split_type":[0,0,0,0,0,0,0,0,0,0,0,0,0,0,0,0,0,0,0,0,0,0,0,0,0,0,0,0,0,0,0],"sum_hessian":[1.1085E4,1.546E3,9.539E3,9.84E2,5.62E2,6.145E3,3.394E3,7.8E2,2.04E2,3.61E2,2.01E2,3.849E3,2.296E3,2.08E3,1.314E3,5.57E2,2.23E2,6.5E1,1.39E2,6.5E1,2.96E2,8.8E1,1.13E2,2.23E3,1.619E3,2.5E2,2.046E3,1.754E3,3.26E2,1.105E3,2.09E2],"tree_param":{"num_deleted":"0","num_feature":"2","num_nodes":"31","size_leaf_vector":"1"}},{"base_weights":[-2.2504553E-3,-2.3762074E0,3.8270906E-1,-3.0059159E0,-1.2702767E0,1.017162E0,-1.9016894E0,-3.2184615E0,-2.1815057E0,-1.5089142E-1,-3.2700152E0,1.3881838E0,-4.2796608E-2,-2.8792224E0,-1.2026883E0,-3.2906243E-1,-2.7580366E-1,-1.586441E-1,-2.446454E-1,-4.308864E-2,4.3910567E-2,-1.8718444E-1,-3.934776E-1,8.3319366E-2,2.038069E-1,-1.3251618E-1,1.4889901E-2,-2.6318523E-1,-3.798128E-1,-4.8210204E-2,-3.109054E-1],"categories":[],"categories_nodes":[],"categories_segments":[],"categories_sizes":[],"default_left":[0,0,0,0,0,0,0,0,0,0,0,0,0,0,0,0,0,0,0,0,0,0,0,0,0,0,0,0,0,0,0],"id":12,"left_children":[1,3,5,7,9,11,13,15,17,19,21,23,25,27,29,-1,-1,-1,-1,-1,-1,-1,-1,-1,-1,-1,-1,-1,-1,-1,-1],"loss_changes":[1.0132153E4,1.0735342E3,1.3828668E4,1.655752E2,1.2597697E3,2.9365908E3,1.4136943E3,1.6873535E1,2.8439453E1,5.9990234E1,1.8038354E2,1.9932227E3,4.7635797E2,1.863999E2,1.6620529E3,0E0,0E0,0E0,0E0,0E0,0E0,0E0,0E0,0E0,0E0,0E0,0E0,0E0,0E0,0E0,0E0],"parents":[2147483647,0,0,1,1,2,2,3,3,4,4,5,5,6,6,7,7,8,8,9,9,10,10,11,11,12,12,13,13,14,14],"right_children":[2,4,6,8,10,12,14,16,18,20,22,24,26,28,30,-1,-1,-1,-1,-1,-1,-1,-1,-1,-1,-1,-1,-1,-1,-1,-1],"split_conditions":[5E0,3E0,2.1E1,7E0,5E0,1.8E1,4E0,6E0,1E0,4E0,4E0,1.3E1,2E0,2.3E1,7E0,-3.2906243E-1,-2.7580366E-1,-1.586441E-1,-2.446454E-1,-4.308864E-2,4.3910567E-2,-1.8718444E-1,-3.934776E-1,8.3319366E-2,2.038069E-1,-1.3251618E-1,1.4889901E-2,-2.6318523E-1,-3.798128E-1,-4.8210204E-2,-3.109054E-1],"split_indices":[1,1,1,0,0,1,0,0,1,0,1,1,0,1,0,0,0,0,0,0,0,0,0,0,0,0,0,0,0,0,0],"split_type":[0,0,0,0,0,0,0,0,0,0,0,0,0,0,0,0,0,0,0,0,0,0,0,0,0,0,0,0,0,0,0],"sum_hessian":[1.1085E4,1.546E3,9.539E3,9.84E2,5.62E2,7.466E3,2.073E3,7.8E2,2.04E2,3.61E2,2.01E2,5.53E3,1.936E3,8.63E2,1.21E3,6.69E2,1.11E2,6.5E1,1.39E2,2.45E2,1.16E2,6.6E1,1.35E2,2.984E3,2.546E3,2.51E2,1.685E3,6.83E2,1.8E2,8.79E2,3.31E2],"tree_param":{"num_deleted":"0","num_feature":"2","num_nodes":"31","size_leaf_vector":"1"}},{"base_weights":[-2.2438169E-3,-2.1396132E0,3.4435079E-1,-2.7063477E0,-1.144279E0,1.1508857E0,-1.1158283E0,-2.8973897E0,-1.9653224E0,-1.3580003E-1,-2.9458883E0,1.5908226E0,4.130067E-1,-5.143231E-1,-2.0668674E0,-3.045466E-1,-2.6963693E-1,-1.4302008E-1,-2.2035562E-1,7.2493695E-2,-3.266177E-2,-1.9062841E-1,-3.731668E-1,3.98246E-1,1.4988293E-1,-2.136114E-1,7.2537415E-2,-1.4470464E-1,-1.5724283E-2,-2.7112046E-1,-1.2680557E-1],"categories":[],"categories_nodes":[],"categories_segments":[],"categories_sizes":[],"default_left":[0,0,0,0,0,0,0,0,0,0,0,0,0,0,0,0,0,0,0,0,0,0,0,0,0,0,0,0,0,0,0],"id":13,"left_children":[1,3,5,7,9,11,13,15,17,19,21,23,25,27,29,-1,-1,-1,-1,-1,-1,-1,-1,-1,-1,-1,-1,-1,-1,-1,-1],"loss_changes":[8.213253E3,8.695508E2,1.1236402E4,1.3374951E2,1.0225063E3,1.9944585E3,1.941063E3,1.5035645E1,2.2982666E1,5.9693043E1,1.5790027E2,8.410879E2,1.8305643E3,6.928643E2,6.7339746E2,0E0,0E0,0E0,0E0,0E0,0E0,0E0,0E0,0E0,0E0,0E0,0E0,0E0,0E0,0E0,0E0],"parents":[2147483647,0,0,1,1,2,2,3,3,4,4,5,5,6,6,7,7,8,8,9,9,10,10,11,11,12,12,13,13,14,14],"right_children":[2,4,6,8,10,12,14,16,18,20,22,24,26,28,30,-1,-1,-1,-1,-1,-1,-1,-1,-1,-1,-1,-1,-1,-1,-1,-1],"split_conditions":[5E0,3E0,1.9E1,7E0,5E0,6E0,2.2E1,4E0,1E0,2E0,7E0,6E0,8E0,3E0,5E0,-3.045466E-1,-2.6963693E-1,-1.4302008E-1,-2.2035562E-1,7.2493695E-2,-3.266177E-2,-1.9062841E-1,-3.731668E-1,3.98246E-1,1.4988293E-1,-2.136114E-1,7.2537415E-2,-1.4470464E-1,-1.5724283E-2,-2.7112046E-1,-1.2680557E-1],"split_indices":[1,1,1,0,0,0,1,0,1,0,0,1,1,0,0,0,0,0,0,0,0,0,0,0,0,0,0,0,0,0,0],"split_type":[0,0,0,0,0,0,0,0,0,0,0,0,0,0,0,0,0,0,0,0,0,0,0,0,0,0,0,0,0,0,0],"sum_hessian":[1.1085E4,1.546E3,9.539E3,9.84E2,5.62E2,6.145E3,3.394E3,7.8E2,2.04E2,3.61E2,2.01E2,3.849E3,2.296E3,2.08E3,1.314E3,4.41E2,3.39E2,6.5E1,1.39E2,6.5E1,2.96E2,8.8E1,1.13E2,1.41E2,3.708E3,2.5E2,2.046E3,5.75E2,1.505E3,7.26E2,5.88E2],"tree_param":{"num_deleted":"0","num_feature":"2","num_nodes":"31","size_leaf_vector":"1"}},{"base_weights":[-2.1649164E-3,-1.9265966E0,3.0989987E-1,-2.4366648E0,-1.0307819E0,8.2951874E-1,-1.5610276E0,-2.6698408E0,-1.934562E0,-1.2211023E-1,-2.6540906E0,1.135013E0,-4.3231994E-2,-2.38903E0,-9.689922E-1,-2.7597865E-1,-2.1652268E-1,-1.6290434E-1,-2.3269466E-1,-3.8322892E-2,4.2795226E-2,-1.4397328E-1,-3.232825E-1,6.3976996E-2,1.7149758E-1,1.6386807E-2,-1.0902466E-1,-2.18396E-1,-3.150791E-1,-3.097432E-2,-2.7134806E-1],"categories":[],"categories_nodes":[],"categories_segments":[],"categories_sizes":[],"default_left":[0,0,0,0,0,0,0,0,0,0,0,0,0,0,0,0,0,0,0,0,0,0,0,0,0,0,0,0,0,0,0],"id":14,"left_children":[1,3,5,7,9,11,13,15,17,19,21,23,25,27,29,-1,-1,-1,-1,-1,-1,-1,-1,-1,-1,-1,-1,-1,-1,-1,-1],"loss_changes":[6.6582656E3,7.043535E2,9.275788E3,1.1015723E2,8.301316E2,1.9909028E3,1.014374E3,2.4434082E1,3.4091553E1,5.2158646E1,1.3730933E2,1.5875303E3,4.2019153E2,1.2808789E2,1.3918724E3,0E0,0E0,0E0,0E0,0E0,0E0,0E0,0E0,0E0,0E0,0E0,0E0,0E0,0E0,0E0,0E0],"parents":[2147483647,0,0,1,1,2,2,3,3,4,4,5,5,6,6,7,7,8,8,9,9,10,10,11,11,12,12,13,13,14,14],"right_children":[2,4,6,8,10,12,14,16,18,20,22,24,26,28,30,-1,-1,-1,-1,-1,-1,-1,-1,-1,-1,-1,-1,-1,-1,-1,-1],"split_conditions":[5E0,3E0,2.1E1,6E0,5E0,1.8E1,4E0,2E0,2E0,4E0,4E0,1.3E1,7E0,2.3E1,7E0,-2.7597865E-1,-2.1652268E-1,-1.6290434E-1,-2.3269466E-1,-3.8322892E-2,4.2795226E-2,-1.4397328E-1,-3.232825E-1,6.3976996E-2,1.7149758E-1,1.6386807E-2,-1.0902466E-1,-2.18396E-1,-3.150791E-1,-3.097432E-2,-2.7134806E-1],"split_indices":[1,1,1,0,0,1,0,1,1,0,1,1,0,1,0,0,0,0,0,0,0,0,0,0,0,0,0,0,0,0,0],"split_type":[0,0,0,0,0,0,0,0,0,0,0,0,0,0,0,0,0,0,0,0,0,0,0,0,0,0,0,0,0,0,0],"sum_hessian":[1.1085E4,1.546E3,9.539E3,9.84E2,5.62E2,7.466E3,2.073E3,6.69E2,3.15E2,3.61E2,2.01E2,5.53E3,1.936E3,8.63E2,1.21E3,5.64E2,1.05E2,1.8E2,1.35E2,2.45E2,1.16E2,6.6E1,1.35E2,2.984E3,2.546E3,1.617E3,3.19E2,6.83E2,1.8E2,8.79E2,3.31E2],"tree_param":{"num_deleted":"0","num_feature":"2","num_nodes":"31","size_leaf_vector":"1"}},{"base_weights":[-2.1326025E-3,-1.7348104E0,2.7883747E-1,-2.1939E0,-9.28526E-1,7.4658626E-1,-1.4053278E0,-2.3529825E0,-1.5771326E0,-1.0988722E-1,-2.3909948E0,9.7437584E-1,-3.0331123E-1,-2.1507442E0,-8.723426E-1,-2.4747288E-1,-2.1877919E-1,-1.1289116E-1,-1.7771715E-1,6.912837E-2,-2.8755521E-2,-1.4867951E-1,-3.0759317E-1,1.3467325E-1,2.315484E-2,-2.1304248E-1,1.1459429E-2,-1.9658832E-1,-2.8374526E-1,-2.7880406E-2,-2.4429499E-1],"categories":[],"categories_nodes":[],"categories_segments":[],"categories_sizes":[],"default_left":[0,0,0,0,0,0,0,0,0,0,0,0,0,0,0,0,0,0,0,0,0,0,0,0,0,0,0,0,0,0,0],"id":15,"left_children":[1,3,5,7,9,11,13,15,17,19,21,23,25,27,29,-1,-1,-1,-1,-1,-1,-1,-1,-1,-1,-1,-1,-1,-1,-1,-1],"loss_changes":[5.3974883E3,5.705957E2,7.51634E3,9.293408E1,6.737798E2,1.7860713E3,8.2211523E2,1.029248E1,1.637439E1,5.172674E1,1.205293E2,1.6968853E3,1.0173072E3,1.0410278E2,1.1282323E3,0E0,0E0,0E0,0E0,0E0,0E0,0E0,0E0,0E0,0E0,0E0,0E0,0E0,0E0,0E0,0E0],"parents":[2147483647,0,0,1,1,2,2,3,3,4,4,5,5,6,6,7,7,8,8,9,9,10,10,11,11,12,12,13,13,14,14],"right_children":[2,4,6,8,10,12,14,16,18,20,22,24,26,28,30,-1,-1,-1,-1,-1,-1,-1,-1,-1,-1,-1,-1,-1,-1,-1,-1],"split_conditions":[5E0,3E0,2.1E1,7E0,5E0,7E0,4E0,4E0,1E0,2E0,7E0,1.7E1,1E1,2.3E1,7E0,-2.4747288E-1,-2.1877919E-1,-1.1289116E-1,-1.7771715E-1,6.912837E-2,-2.8755521E-2,-1.4867951E-1,-3.0759317E-1,1.3467325E-1,2.315484E-2,-2.1304248E-1,1.1459429E-2,-1.9658832E-1,-2.8374526E-1,-2.7880406E-2,-2.4429499E-1],"split_indices":[1,1,1,0,0,0,0,0,1,0,0,1,1,1,0,0,0,0,0,0,0,0,0,0,0,0,0,0,0,0,0],"split_type":[0,0,0,0,0,0,0,0,0,0,0,0,0,0,0,0,0,0,0,0,0,0,0,0,0,0,0,0,0,0,0],"sum_hessian":[1.1085E4,1.546E3,9.539E3,9.84E2,5.62E2,7.466E3,2.073E3,7.8E2,2.04E2,3.61E2,2.01E2,6.135E3,1.331E3,8.63E2,1.21E3,4.41E2,3.39E2,6.5E1,1.39E2,6.5E1,2.96E2,8.8E1,1.13E2,4.086E3,2.049E3,2.47E2,1.084E3,6.83E2,1.8E2,8.79E2,3.31E2],"tree_param":{"num_deleted":"0","num_feature":"2","num_nodes":"31","size_leaf_vector":"1"}},{"base_weights":[-2.0972935E-3,-1.5620875E0,2.508699E-1,-1.9752785E0,-8.3641225E-1,8.4834063E-1,-8.308108E-1,-2.1182814E0,-1.4208369E0,-9.87873E-2,-2.1541538E0,1.2157397E0,2.3217385E-1,-5.633236E-1,-2.3640294E0,-2.1970797E-1,-1.9125323E-1,-1.017731E-1,-1.6007237E-1,-3.422876E-2,4.14032E-2,-1.0992669E-1,-2.6580015E-1,8.505622E-2,1.7178975E-1,-1.9715977E-1,5.0228354E-2,-3.2184783E-2,-1.8038566E-1,-2.1388924E-1,-3.825713E-1],"categories":[],"categories_nodes":[],"categories_segments":[],"categories_sizes":[],"default_left":[0,0,0,0,0,0,0,0,0,0,0,0,0,0,0,0,0,0,0,0,0,0,0,0,0,0,0,0,0,0,0],"id":16,"left_children":[1,3,5,7,9,11,13,15,17,19,21,23,25,27,29,-1,-1,-1,-1,-1,-1,-1,-1,-1,-1,-1,-1,-1,-1,-1,-1],"loss_changes":[4.375219E3,4.6220435E2,6.166145E3,7.508765E1,5.470227E2,1.3910435E3,1.3910132E3,8.460205E0,1.3236145E1,4.5345257E1,1.0444165E2,7.0453955E2,1.3683025E3,8.657433E2,1.576731E2,0E0,0E0,0E0,0E0,0E0,0E0,0E0,0E0,0E0,0E0,0E0,0E0,0E0,0E0,0E0,0E0],"parents":[2147483647,0,0,1,1,2,2,3,3,4,4,5,5,6,6,7,7,8,8,9,9,10,10,11,11,12,12,13,13,14,14],"right_children":[2,4,6,8,10,12,14,16,18,20,22,24,26,28,30,-1,-1,-1,-1,-1,-1,-1,-1,-1,-1,-1,-1,-1,-1,-1,-1],"split_conditions":[5E0,3E0,1.9E1,7E0,5E0,6E0,2.3E1,5E0,1E0,4E0,4E0,1.4E1,8E0,7E0,7E0,-2.1970797E-1,-1.9125323E-1,-1.017731E-1,-1.6007237E-1,-3.422876E-2,4.14032E-2,-1.0992669E-1,-2.6580015E-1,8.505622E-2,1.7178975E-1,-1.9715977E-1,5.0228354E-2,-3.2184783E-2,-1.8038566E-1,-2.1388924E-1,-3.825713E-1],"split_indices":[1,1,1,0,0,0,1,0,1,0,1,1,1,0,0,0,0,0,0,0,0,0,0,0,0,0,0,0,0,0,0],"split_type":[0,0,0,0,0,0,0,0,0,0,0,0,0,0,0,0,0,0,0,0,0,0,0,0,0,0,0,0,0,0,0],"sum_hessian":[1.1085E4,1.546E3,9.539E3,9.84E2,5.62E2,6.145E3,3.394E3,7.8E2,2.04E2,3.61E2,2.01E2,3.849E3,2.296E3,2.891E3,5.03E2,5.57E2,2.23E2,6.5E1,1.39E2,2.45E2,1.16E2,6.6E1,1.35E2,2.23E3,1.619E3,2.5E2,2.046E3,2.421E3,4.7E2,4.38E2,6.5E1],"tree_param":{"num_deleted":"0","num_feature":"2","num_nodes":"31","size_leaf_vector":"1"}},{"base_weights":[-2.0445006E-3,-1.406552E0,2.2570969E-1,-1.7784337E0,-7.5342566E-1,6.118529E-1,-1.1646264E0,-1.9516294E0,-1.405587E0,-2.997482E-1,-2.5376487E0,8.0273914E-1,-2.6794413E-1,-1.7127606E0,-4.60238E-1,-2.0319715E-1,-1.5049797E-1,-1.148191E-1,-1.7378156E-1,-8.88888E-3,-1.1540332E-1,-1.4993453E-1,-2.7696416E-1,1.1246985E-1,1.6047042E-2,-1.3253084E-1,3.4104444E-2,-1.502962E-1,-2.471577E-1,4.134802E-2,-1.9799636E-1],"categories":[],"categories_nodes":[],"categories_segments":[],"categories_sizes":[],"default_left":[0,0,0,0,0,0,0,0,0,0,0,0,0,0,0,0,0,0,0,0,0,0,0,0,0,0,0,0,0,0,0],"id":17,"left_children":[1,3,5,7,9,11,13,15,17,19,21,23,25,27,29,-1,-1,-1,-1,-1,-1,-1,-1,-1,-1,-1,-1,-1,-1,-1,-1],"loss_changes":[3.5465347E3,3.744043E2,5.1224414E3,6.086377E1,4.549663E2,1.2542312E3,7.999817E2,2.098462E1,2.5027222E1,8.095773E1,2.3307556E1,1.2686489E3,8.5815704E2,1.8191113E2,1.2077997E3,0E0,0E0,0E0,0E0,0E0,0E0,0E0,0E0,0E0,0E0,0E0,0E0,0E0,0E0,0E0,0E0],"parents":[2147483647,0,0,1,1,2,2,3,3,4,4,5,5,6,6,7,7,8,8,9,9,10,10,11,11,12,12,13,13,14,14],"right_children":[2,4,6,8,10,12,14,16,18,20,22,24,26,28,30,-1,-1,-1,-1,-1,-1,-1,-1,-1,-1,-1,-1,-1,-1,-1,-1],"split_conditions":[5E0,3E0,2.1E1,6E0,7E0,7E0,5E0,2E0,2E0,5E0,4E0,1.7E1,1.2E1,2.3E1,7E0,-2.0319715E-1,-1.5049797E-1,-1.148191E-1,-1.7378156E-1,-8.88888E-3,-1.1540332E-1,-1.4993453E-1,-2.7696416E-1,1.1246985E-1,1.6047042E-2,-1.3253084E-1,3.4104444E-2,-1.502962E-1,-2.471577E-1,4.134802E-2,-1.9799636E-1],"split_indices":[1,1,1,0,0,0,0,1,1,0,1,1,1,1,0,0,0,0,0,0,0,0,0,0,0,0,0,0,0,0,0],"split_type":[0,0,0,0,0,0,0,0,0,0,0,0,0,0,0,0,0,0,0,0,0,0,0,0,0,0,0,0,0,0,0],"sum_hessian":[1.1085E4,1.546E3,9.539E3,9.84E2,5.62E2,7.466E3,2.073E3,6.69E2,3.15E2,4.49E2,1.13E2,6.135E3,1.331E3,1.165E3,9.08E2,5.64E2,1.05E2,1.8E2,1.35E2,3.61E2,8.8E1,2.2E1,9.1E1,4.086E3,2.049E3,4.86E2,8.45E2,9.15E2,2.5E2,5.77E2,3.31E2],"tree_param":{"num_deleted":"0","num_feature":"2","num_nodes":"31","size_leaf_vector":"1"}},{"base_weights":[-1.9953337E-3,-1.2666682E0,2.0308338E-1,-1.6012424E0,-6.79062E-1,7.719804E-1,-5.8164793E-1,-1.7204419E0,-1.1393104E0,-2.7004945E-1,-2.2876287E0,3.582438E-1,1.256563E0,-3.782075E-1,-1.9961003E0,-1.8133791E-1,-1.5945636E-1,-8.0442026E-2,-1.2890492E-1,6.656667E-2,-4.2975653E-2,-1.35593E-1,-2.4956878E-1,6.554458E-2,-1.019655E-1,1.9061784E-1,6.5127194E-2,-1.0445122E-1,9.586583E-3,-1.8024474E-1,-3.253942E-1],"categories":[],"categories_nodes":[],"categories_segments":[],"categories_sizes":[],"default_left":[0,0,0,0,0,0,0,0,0,0,0,0,0,0,0,0,0,0,0,0,0,0,0,0,0,0,0,0,0,0,0],"id":18,"left_children":[1,3,5,7,9,11,13,15,17,19,21,23,25,27,29,-1,-1,-1,-1,-1,-1,-1,-1,-1,-1,-1,-1,-1,-1,-1,-1],"loss_changes":[2.8754941E3,3.0304956E2,4.259404E3,5.227588E1,3.6979333E2,1.1084575E3,1.15315E3,6.2453613E0,9.243011E0,6.753429E1,1.8714783E1,1.2230685E3,1.0002554E3,1.1078816E3,1.1690161E2,0E0,0E0,0E0,0E0,0E0,0E0,0E0,0E0,0E0,0E0,0E0,0E0,0E0,0E0,0E0,0E0],"parents":[2147483647,0,0,1,1,2,2,3,3,4,4,5,5,6,6,7,7,8,8,9,9,10,10,11,11,12,12,13,13,14,14],"right_children":[2,4,6,8,10,12,14,16,18,20,22,24,26,28,30,-1,-1,-1,-1,-1,-1,-1,-1,-1,-1,-1,-1,-1,-1,-1,-1],"split_conditions":[5E0,3E0,1.8E1,7E0,7E0,1.3E1,2.3E1,4E0,1E0,2E0,4E0,7E0,5E0,4E0,7E0,-1.8133791E-1,-1.5945636E-1,-8.0442026E-2,-1.2890492E-1,6.656667E-2,-4.2975653E-2,-1.35593E-1,-2.4956878E-1,6.554458E-2,-1.019655E-1,1.9061784E-1,6.5127194E-2,-1.0445122E-1,9.586583E-3,-1.8024474E-1,-3.253942E-1],"split_indices":[1,1,1,0,0,1,1,0,1,0,1,0,0,0,0,0,0,0,0,0,0,0,0,0,0,0,0,0,0,0,0],"split_type":[0,0,0,0,0,0,0,0,0,0,0,0,0,0,0,0,0,0,0,0,0,0,0,0,0,0,0,0,0,0,0],"sum_hessian":[1.1085E4,1.546E3,9.539E3,9.84E2,5.62E2,5.53E3,4.009E3,7.8E2,2.04E2,4.49E2,1.13E2,2.984E3,2.546E3,3.506E3,5.03E2,4.41E2,3.39E2,6.5E1,1.39E2,6.5E1,3.84E2,2.2E1,9.1E1,2.455E3,5.29E2,1.227E3,1.319E3,1.457E3,2.049E3,4.38E2,6.5E1],"tree_param":{"num_deleted":"0","num_feature":"2","num_nodes":"31","size_leaf_vector":"1"}},{"base_weights":[-1.9122863E-3,2.2082676E-1,-9.698704E-1,-1.1405908E0,5.028533E-1,-1.4439031E0,-3.6074826E-1,-1.4416767E0,-6.117981E-1,7.666332E-1,4.407684E-2,-1.798255E0,-1.0765636E0,4.243779E-1,-1.726538E0,-1.5488343E-1,-1.0264007E-1,-5.6836577E-3,-1.6033044E-1,3.1285477E-1,6.935553E-2,-2.0030172E-1,2.1390557E-2,-1.6444865E-1,-2.2922146E-1,-4.650836E-2,-1.4218573E-1,1.1387243E-1,-1.05191566E-1,-5.969249E-2,-2.379947E-1],"categories":[],"categories_nodes":[],"categories_segments":[],"categories_sizes":[],"default_left":[0,0,0,0,0,0,0,0,0,0,0,0,0,0,0,0,0,0,0,0,0,0,0,0,0,0,0,0,0,0,0],"id":19,"left_children":[1,3,5,7,9,11,13,15,17,19,21,23,25,27,29,-1,-1,-1,-1,-1,-1,-1,-1,-1,-1,-1,-1,-1,-1,-1,-1],"loss_changes":[2.3903787E3,3.4611677E3,5.9833386E2,2.4541907E2,9.0359265E2,1.4983936E2,9.754691E2,4.2242554E1,3.0969843E2,8.161448E2,9.484847E2,4.1196045E1,1.2074426E2,6.107479E2,2.436283E2,0E0,0E0,0E0,0E0,0E0,0E0,0E0,0E0,0E0,0E0,0E0,0E0,0E0,0E0,0E0,0E0],"parents":[2147483647,0,0,1,1,2,2,3,3,4,4,5,5,6,6,7,7,8,8,9,9,10,10,11,11,12,12,13,13,14,14],"right_children":[2,4,6,8,10,12,14,16,18,20,22,24,26,28,30,-1,-1,-1,-1,-1,-1,-1,-1,-1,-1,-1,-1,-1,-1,-1,-1],"split_conditions":[2.1E1,5E0,5E0,3E0,6E0,3E0,7E0,7E0,5E0,6E0,7E0,2.3E1,2.2E1,2.3E1,2.2E1,-1.5488343E-1,-1.0264007E-1,-5.6836577E-3,-1.6033044E-1,3.1285477E-1,6.935553E-2,-2.0030172E-1,2.1390557E-2,-1.6444865E-1,-2.2922146E-1,-4.650836E-2,-1.4218573E-1,1.1387243E-1,-1.05191566E-1,-5.969249E-2,-2.379947E-1],"split_indices":[1,1,0,1,0,0,0,0,0,1,1,1,1,1,1,0,0,0,0,0,0,0,0,0,0,0,0,0,0,0,0],"split_type":[0,0,0,0,0,0,0,0,0,0,0,0,0,0,0,0,0,0,0,0,0,0,0,0,0,0,0,0,0,0,0],"sum_hessian":[1.1085E4,9.012E3,2.073E3,1.546E3,7.466E3,1.165E3,9.08E2,9.84E2,5.62E2,4.74E3,2.726E3,5.91E2,5.74E2,5.77E2,3.31E2,7.8E2,2.04E2,3.61E2,2.01E2,1.41E2,4.599E3,2.08E2,2.518E3,4.54E2,1.37E2,2.08E2,3.66E2,3.89E2,1.88E2,1.22E2,2.09E2],"tree_param":{"num_deleted":"0","num_feature":"2","num_nodes":"31","size_leaf_vector":"1"}},{"base_weights":[-1.8194704E-3,1.9871971E-1,-8.733035E-1,-1.0268054E0,4.5259526E-1,-1.3000121E0,-3.2499152E-1,-1.2977705E0,-5.50913E-1,6.8950665E-1,-2.8718574E-2,-1.6190944E0,-9.692352E-1,3.8195494E-1,-1.5547808E0,-1.4287212E-1,-1.0160152E-1,-2.0707889E-2,-1.9033204E-1,2.7405424E-2,1.3030888E-1,3.5947856E-2,-7.609865E-2,-1.4803992E-1,-2.0646544E-1,-4.1879736E-2,-1.2800589E-1,1.0251438E-1,-9.47281E-2,-5.3771783E-2,-2.1430854E-1],"categories":[],"categories_nodes":[],"categories_segments":[],"categories_sizes":[],"default_left":[0,0,0,0,0,0,0,0,0,0,0,0,0,0,0,0,0,0,0,0,0,0,0,0,0,0,0,0,0,0,0],"id":20,"left_children":[1,3,5,7,9,11,13,15,17,19,21,23,25,27,29,-1,-1,-1,-1,-1,-1,-1,-1,-1,-1,-1,-1,-1,-1,-1,-1],"loss_changes":[1.9376371E3,2.804687E3,4.848302E2,1.9877124E2,8.514723E2,1.21496216E2,7.9087415E2,3.489099E1,2.6140298E2,1.2752336E3,7.007008E2,3.3527344E1,9.784009E1,4.95132E2,1.9749744E2,0E0,0E0,0E0,0E0,0E0,0E0,0E0,0E0,0E0,0E0,0E0,0E0,0E0,0E0,0E0,0E0],"parents":[2147483647,0,0,1,1,2,2,3,3,4,4,5,5,6,6,7,7,8,8,9,9,10,10,11,11,12,12,13,13,14,14],"right_children":[2,4,6,8,10,12,14,16,18,20,22,24,26,28,30,-1,-1,-1,-1,-1,-1,-1,-1,-1,-1,-1,-1,-1,-1,-1,-1],"split_conditions":[2.1E1,5E0,5E0,3E0,1.7E1,3E0,7E0,6E0,7E0,1.3E1,6E0,2.3E1,2.2E1,2.3E1,2.2E1,-1.4287212E-1,-1.0160152E-1,-2.0707889E-2,-1.9033204E-1,2.7405424E-2,1.3030888E-1,3.5947856E-2,-7.609865E-2,-1.4803992E-1,-2.0646544E-1,-4.1879736E-2,-1.2800589E-1,1.0251438E-1,-9.47281E-2,-5.3771783E-2,-2.1430854E-1],"split_indices":[1,1,0,1,1,0,0,0,0,1,0,1,1,1,1,0,0,0,0,0,0,0,0,0,0,0,0,0,0,0,0],"split_type":[0,0,0,0,0,0,0,0,0,0,0,0,0,0,0,0,0,0,0,0,0,0,0,0,0,0,0,0,0,0,0],"sum_hessian":[1.1085E4,9.012E3,2.073E3,1.546E3,7.466E3,1.165E3,9.08E2,9.84E2,5.62E2,5.003E3,2.463E3,5.91E2,5.74E2,5.77E2,3.31E2,6.69E2,3.15E2,4.49E2,1.13E2,2.984E3,2.019E3,1.61E3,8.53E2,4.54E2,1.37E2,2.08E2,3.66E2,3.89E2,1.88E2,1.22E2,2.09E2],"tree_param":{"num_deleted":"0","num_feature":"2","num_nodes":"31","size_leaf_vector":"1"}},{"base_weights":[-1.7384955E-3,1.788106E-1,-7.8635144E-1,-9.244193E-1,4.0735188E-1,-1.1704607E0,-2.9277852E-1,-1.1682417E0,-4.9619648E-1,5.518409E-1,-2.5855795E-1,-1.4577839E0,-8.726071E-1,3.4377313E-1,-1.4001101E0,-1.2573256E-1,-8.231553E-2,-3.0517608E-3,-1.3282736E-1,7.897723E-2,7.721779E-3,-1.5969169E-1,4.759099E-3,-1.3326846E-1,-1.8596852E-1,-3.7711807E-2,-1.1524017E-1,9.228923E-2,-8.530537E-2,-4.8438303E-2,-1.9297974E-1],"categories":[],"categories_nodes":[],"categories_segments":[],"categories_sizes":[],"default_left":[0,0,0,0,0,0,0,0,0,0,0,0,0,0,0,0,0,0,0,0,0,0,0,0,0,0,0,0,0,0,0],"id":21,"left_children":[1,3,5,7,9,11,13,15,17,19,21,23,25,27,29,-1,-1,-1,-1,-1,-1,-1,-1,-1,-1,-1,-1,-1,-1,-1,-1],"loss_changes":[1.5705962E3,2.2728564E3,3.9285852E2,1.6094312E2,7.185923E2,9.851453E1,6.4121155E2,2.9245483E1,2.1811107E2,6.9286365E2,5.458459E2,2.7285889E1,7.928061E1,4.014022E2,1.6010156E2,0E0,0E0,0E0,0E0,0E0,0E0,0E0,0E0,0E0,0E0,0E0,0E0,0E0,0E0,0E0,0E0],"parents":[2147483647,0,0,1,1,2,2,3,3,4,4,5,5,6,6,7,7,8,8,9,9,10,10,11,11,12,12,13,13,14,14],"right_children":[2,4,6,8,10,12,14,16,18,20,22,24,26,28,30,-1,-1,-1,-1,-1,-1,-1,-1,-1,-1,-1,-1,-1,-1,-1,-1],"split_conditions":[2.1E1,5E0,5E0,3E0,7E0,3E0,7E0,7E0,5E0,1.7E1,1E1,2.3E1,2.2E1,2.3E1,2.2E1,-1.2573256E-1,-8.231553E-2,-3.0517608E-3,-1.3282736E-1,7.897723E-2,7.721779E-3,-1.5969169E-1,4.759099E-3,-1.3326846E-1,-1.8596852E-1,-3.7711807E-2,-1.1524017E-1,9.228923E-2,-8.530537E-2,-4.8438303E-2,-1.9297974E-1],"split_indices":[1,1,0,1,0,0,0,0,0,1,1,1,1,1,1,0,0,0,0,0,0,0,0,0,0,0,0,0,0,0,0],"split_type":[0,0,0,0,0,0,0,0,0,0,0,0,0,0,0,0,0,0,0,0,0,0,0,0,0,0,0,0,0,0,0],"sum_hessian":[1.1085E4,9.012E3,2.073E3,1.546E3,7.466E3,1.165E3,9.08E2,9.84E2,5.62E2,6.135E3,1.331E3,5.91E2,5.74E2,5.77E2,3.31E2,7.8E2,2.04E2,3.61E2,2.01E2,4.086E3,2.049E3,2.47E2,1.084E3,4.54E2,1.37E2,2.08E2,3.66E2,3.89E2,1.88E2,1.22E2,2.09E2],"tree_param":{"num_deleted":"0","num_feature":"2","num_nodes":"31","size_leaf_vector":"1"}},{"base_weights":[-1.6656169E-3,1.6088374E-1,-7.08057E-1,-8.3219963E-1,3.6660746E-1,-1.0538197E0,-2.637585E-1,-1.0516287E0,-4.4681814E-1,5.6334454E-1,-3.3083614E-2,-1.3125448E0,-7.8561234E-1,3.09408E-1,-1.2608262E0,-1.1605173E-1,-8.174292E-2,-1.5799357E-2,-1.5829958E-1,1.944682E-2,1.1081626E-1,3.1583633E-2,-6.912533E-2,-1.1997092E-1,-1.6750644E-1,-3.395864E-2,-1.0374756E-1,8.3084E-2,-7.681998E-2,-4.3633875E-2,-1.7377365E-1],"categories":[],"categories_nodes":[],"categories_segments":[],"categories_sizes":[],"default_left":[0,0,0,0,0,0,0,0,0,0,0,0,0,0,0,0,0,0,0,0,0,0,0,0,0,0,0,0,0,0,0],"id":22,"left_children":[1,3,5,7,9,11,13,15,17,19,21,23,25,27,29,-1,-1,-1,-1,-1,-1,-1,-1,-1,-1,-1,-1,-1,-1,-1,-1],"loss_changes":[1.2730468E3,1.8416683E3,3.1833362E2,1.3035046E2,5.871792E2,7.9880005E1,5.198708E2,2.4170532E1,1.8450175E2,1.0054408E3,5.6607227E2,2.2206238E1,6.424179E1,3.25416E2,1.2978632E2,0E0,0E0,0E0,0E0,0E0,0E0,0E0,0E0,0E0,0E0,0E0,0E0,0E0,0E0,0E0,0E0],"parents":[2147483647,0,0,1,1,2,2,3,3,4,4,5,5,6,6,7,7,8,8,9,9,10,10,11,11,12,12,13,13,14,14],"right_children":[2,4,6,8,10,12,14,16,18,20,22,24,26,28,30,-1,-1,-1,-1,-1,-1,-1,-1,-1,-1,-1,-1,-1,-1,-1,-1],"split_conditions":[2.1E1,5E0,5E0,3E0,1.7E1,3E0,7E0,6E0,7E0,1.3E1,6E0,2.3E1,2.2E1,2.3E1,2.2E1,-1.1605173E-1,-8.174292E-2,-1.5799357E-2,-1.5829958E-1,1.944682E-2,1.1081626E-1,3.1583633E-2,-6.912533E-2,-1.1997092E-1,-1.6750644E-1,-3.395864E-2,-1.0374756E-1,8.3084E-2,-7.681998E-2,-4.3633875E-2,-1.7377365E-1],"split_indices":[1,1,0,1,1,0,0,0,0,1,0,1,1,1,1,0,0,0,0,0,0,0,0,0,0,0,0,0,0,0,0],"split_type":[0,0,0,0,0,0,0,0,0,0,0,0,0,0,0,0,0,0,0,0,0,0,0,0,0,0,0,0,0,0,0],"sum_hessian":[1.1085E4,9.012E3,2.073E3,1.546E3,7.466E3,1.165E3,9.08E2,9.84E2,5.62E2,5.003E3,2.463E3,5.91E2,5.74E2,5.77E2,3.31E2,6.69E2,3.15E2,4.49E2,1.13E2,2.984E3,2.019E3,1.61E3,8.53E2,4.54E2,1.37E2,2.08E2,3.66E2,3.89E2,1.88E2,1.22E2,2.09E2],"tree_param":{"num_deleted":"0","num_feature":"2","num_nodes":"31","size_leaf_vector":"1"}},{"base_weights":[-1.5818874E-3,1.4476408E-1,-6.375581E-1,-7.492201E-1,3.2995877E-1,-9.4880235E-1,-2.3761493E-1,-9.466667E-1,-4.0244544E-1,4.5609233E-1,-2.5133657E-1,-1.1817759E0,-7.0729077E-1,2.7847812E-1,-1.1353986E0,-1.0207271E-1,-6.5989725E-2,-1.1718381E-3,-1.10066704E-1,-2.297788E-2,5.9143778E-2,-1.040679E-1,2.0334557E-2,-1.0800018E-1,-1.5087718E-1,-3.0579045E-2,-9.340109E-2,7.479689E-2,-6.917859E-2,-3.9306004E-2,-1.5647903E-1],"categories":[],"categories_nodes":[],"categories_segments":[],"categories_sizes":[],"default_left":[0,0,0,0,0,0,0,0,0,0,0,0,0,0,0,0,0,0,0,0,0,0,0,0,0,0,0,0,0,0,0],"id":23,"left_children":[1,3,5,7,9,11,13,15,17,19,21,23,25,27,29,-1,-1,-1,-1,-1,-1,-1,-1,-1,-1,-1,-1,-1,-1,-1,-1],"loss_changes":[1.0318947E3,1.4924496E3,2.5794598E2,1.0554132E2,5.4760144E2,6.477014E1,4.214922E2,2.0246094E1,1.5358142E2,5.697379E2,4.7826627E2,1.8072144E1,5.2055603E1,2.638138E2,1.0521124E2,0E0,0E0,0E0,0E0,0E0,0E0,0E0,0E0,0E0,0E0,0E0,0E0,0E0,0E0,0E0,0E0],"parents":[2147483647,0,0,1,1,2,2,3,3,4,4,5,5,6,6,7,7,8,8,9,9,10,10,11,11,12,12,13,13,14,14],"right_children":[2,4,6,8,10,12,14,16,18,20,22,24,26,28,30,-1,-1,-1,-1,-1,-1,-1,-1,-1,-1,-1,-1,-1,-1,-1,-1],"split_conditions":[2.1E1,5E0,5E0,3E0,7E0,3E0,7E0,7E0,5E0,2E0,1.2E1,2.3E1,2.2E1,2.3E1,2.2E1,-1.0207271E-1,-6.5989725E-2,-1.1718381E-3,-1.10066704E-1,-2.297788E-2,5.9143778E-2,-1.040679E-1,2.0334557E-2,-1.0800018E-1,-1.5087718E-1,-3.0579045E-2,-9.340109E-2,7.479689E-2,-6.917859E-2,-3.9306004E-2,-1.5647903E-1],"split_indices":[1,1,0,1,0,0,0,0,0,0,1,1,1,1,1,0,0,0,0,0,0,0,0,0,0,0,0,0,0,0,0],"split_type":[0,0,0,0,0,0,0,0,0,0,0,0,0,0,0,0,0,0,0,0,0,0,0,0,0,0,0,0,0,0,0],"sum_hessian":[1.1085E4,9.012E3,2.073E3,1.546E3,7.466E3,1.165E3,9.08E2,9.84E2,5.62E2,6.135E3,1.331E3,5.91E2,5.74E2,5.77E2,3.31E2,7.8E2,2.04E2,3.61E2,2.01E2,1.011E3,5.124E3,4.86E2,8.45E2,4.54E2,1.37E2,2.08E2,3.66E2,3.89E2,1.88E2,1.22E2,2.09E2],"tree_param":{"num_deleted":"0","num_feature":"2","num_nodes":"31","size_leaf_vector":"1"}},{"base_weights":[-1.5046231E-3,1.6120444E-1,-4.9240205E-1,-5.438457E-1,3.977028E-1,-1.0623355E0,-2.6127768E-1,-2.6774377E-1,-1.1398549E0,5.576601E-1,-3.6735733E-3,-1.2917526E0,-8.6897606E-1,2.2998158E-2,-1.2267222E0,-8.9887254E-2,4.0191043E-2,-6.5023035E-2,-1.7285012E-1,2.2780467E-2,9.558233E-2,4.3241438E-2,-8.0490105E-2,-1.9782327E-1,-1.1262462E-1,-4.691274E-2,-1.4222321E-1,-5.1391065E-2,4.9985137E-2,-1.8007922E-1,-1.0224487E-1],"categories":[],"categories_nodes":[],"categories_segments":[],"categories_sizes":[],"default_left":[0,0,0,0,0,0,0,0,0,0,0,0,0,0,0,0,0,0,0,0,0,0,0,0,0,0,0,0,0,0,0],"id":24,"left_children":[1,3,5,7,9,11,13,15,17,19,21,23,25,27,29,-1,-1,-1,-1,-1,-1,-1,-1,-1,-1,-1,-1,-1,-1,-1,-1],"loss_changes":[8.855566E2,1.388687E3,3.632848E2,3.4395282E2,4.0037256E2,3.418805E1,5.3932745E2,6.0515643E2,1.896748E2,5.854105E2,6.215913E2,3.8901306E1,9.55629E1,3.891614E2,5.057733E1,0E0,0E0,0E0,0E0,0E0,0E0,0E0,0E0,0E0,0E0,0E0,0E0,0E0,0E0,0E0,0E0],"parents":[2147483647,0,0,1,1,2,2,3,3,4,4,5,5,6,6,7,7,8,8,9,9,10,10,11,11,12,12,13,13,14,14],"right_children":[2,4,6,8,10,12,14,16,18,20,22,24,26,28,30,-1,-1,-1,-1,-1,-1,-1,-1,-1,-1,-1,-1,-1,-1,-1,-1],"split_conditions":[2E1,7E0,3E0,6E0,1.7E1,2E0,7E0,4E0,4E0,1.3E1,6E0,2.1E1,2.2E1,5E0,2.1E1,-8.9887254E-2,4.0191043E-2,-6.5023035E-2,-1.7285012E-1,2.2780467E-2,9.558233E-2,4.3241438E-2,-8.0490105E-2,-1.9782327E-1,-1.1262462E-1,-4.691274E-2,-1.4222321E-1,-5.1391065E-2,4.9985137E-2,-1.8007922E-1,-1.0224487E-1],"split_indices":[1,1,0,0,1,0,0,1,1,1,0,1,1,0,1,0,0,0,0,0,0,0,0,0,0,0,0,0,0,0,0],"split_type":[0,0,0,0,0,0,0,0,0,0,0,0,0,0,0,0,0,0,0,0,0,0,0,0,0,0,0,0,0,0,0],"sum_hessian":[1.1085E4,8.326E3,2.759E3,2.091E3,6.235E3,7.95E2,1.964E3,1.43E3,6.61E2,4.458E3,1.777E3,3.61E2,4.34E2,1.518E3,4.46E2,7.36E2,6.94E2,3.62E2,2.99E2,2.439E3,2.019E3,1.151E3,6.26E2,6.8E1,2.93E2,2.53E2,1.81E2,7.14E2,8.04E2,1.15E2,3.31E2],"tree_param":{"num_deleted":"0","num_feature":"2","num_nodes":"31","size_leaf_vector":"1"}},{"base_weights":[-1.4437526E-3,1.4505877E-1,-4.434456E-1,-3.2950833E-1,4.3713564E-1,-9.567294E-1,-2.3529424E-1,-1.8394017E-1,-1.0011151E0,6.688425E-1,-3.327191E-3,-1.163435E0,-7.8251296E-1,2.0697454E-2,-1.1046815E0,-7.904043E-2,1.2096896E-2,-5.232794E-2,-1.3181286E-1,5.4722846E-2,1.2253525E-1,3.8921043E-2,-7.245394E-2,-1.4633651E-1,-8.520426E-2,-4.2239893E-2,-1.2807903E-1,-2.7142232E-2,7.832127E-2,-9.692115E-2,-1.8720274E-1],"categories":[],"categories_nodes":[],"categories_segments":[],"categories_sizes":[],"default_left":[0,0,0,0,0,0,0,0,0,0,0,0,0,0,0,0,0,0,0,0,0,0,0,0,0,0,0,0,0,0,0],"id":25,"left_children":[1,3,5,7,9,11,13,15,17,19,21,23,25,27,29,-1,-1,-1,-1,-1,-1,-1,-1,-1,-1,-1,-1,-1,-1,-1,-1],"loss_changes":[7.179314E2,1.1543501E3,2.9465527E2,3.1002277E2,5.261125E2,2.775476E1,4.3734518E2,4.8254272E2,8.489661E1,2.2795056E2,5.0363895E2,3.25625E1,7.7513916E1,3.3856342E2,4.4652283E1,0E0,0E0,0E0,0E0,0E0,0E0,0E0,0E0,0E0,0E0,0E0,0E0,0E0,0E0,0E0,0E0],"parents":[2147483647,0,0,1,1,2,2,3,3,4,4,5,5,6,6,7,7,8,8,9,9,10,10,11,11,12,12,13,13,14,14],"right_children":[2,4,6,8,10,12,14,16,18,20,22,24,26,28,30,-1,-1,-1,-1,-1,-1,-1,-1,-1,-1,-1,-1,-1,-1,-1,-1],"split_conditions":[2E1,1E1,3E0,7E0,1.7E1,2E0,7E0,4E0,4E0,1.6E1,6E0,2.2E1,2.2E1,6E0,2.3E1,-7.904043E-2,1.2096896E-2,-5.232794E-2,-1.3181286E-1,5.4722846E-2,1.2253525E-1,3.8921043E-2,-7.245394E-2,-1.4633651E-1,-8.520426E-2,-4.2239893E-2,-1.2807903E-1,-2.7142232E-2,7.832127E-2,-9.692115E-2,-1.8720274E-1],"split_indices":[1,1,0,0,1,0,0,1,1,1,0,1,1,0,1,0,0,0,0,0,0,0,0,0,0,0,0,0,0,0,0],"split_type":[0,0,0,0,0,0,0,0,0,0,0,0,0,0,0,0,0,0,0,0,0,0,0,0,0,0,0,0,0,0,0],"sum_hessian":[1.1085E4,8.326E3,2.759E3,3.172E3,5.154E3,7.95E2,1.964E3,2.608E3,5.64E2,3.377E3,1.777E3,3.61E2,4.34E2,1.518E3,4.46E2,8.72E2,1.736E3,2.26E2,3.38E2,2.773E3,6.04E2,1.151E3,6.26E2,1.82E2,1.79E2,2.53E2,1.81E2,1.098E3,4.2E2,3.81E2,6.5E1],"tree_param":{"num_deleted":"0","num_feature":"2","num_nodes":"31","size_leaf_vector":"1"}},{"base_weights":[-1.3665544E-3,1.0873113E-1,-4.7981837E-1,-4.4442806E-1,2.7589384E-1,-3.0160052E-1,-1.0343827E0,-5.2396942E-2,-7.705026E-1,4.260892E-1,-1.1086398E-1,-7.4556684E-1,4.07132E-2,-1.2188739E0,-6.301087E-1,-6.1884414E-2,1.4162885E-1,-4.5051582E-2,-2.5974244E-1,1.7859438E-2,6.630194E-2,-8.8875934E-2,1.8051162E-2,-8.541098E-2,-6.908544E-2,3.0937036E-2,-5.852998E-2,-8.719799E-2,-1.592019E-1,1.1124442E-2,-1.6876608E-1],"categories":[],"categories_nodes":[],"categories_segments":[],"categories_sizes":[],"default_left":[0,0,0,0,0,0,0,0,0,0,0,0,0,0,0,0,0,0,0,0,0,0,0,0,0,0,0,0,0,0,0],"id":26,"left_children":[1,3,5,7,9,11,13,15,17,19,21,23,25,27,29,-1,-1,-1,-1,-1,-1,-1,-1,-1,-1,-1,-1,-1,-1,-1,-1],"loss_changes":[5.840232E2,8.335329E2,2.0466821E2,2.6738284E2,4.0214093E2,2.387843E2,3.6822815E1,7.920446E2,6.664327E2,2.9225568E2,4.3920032E2,3.4719543E0,1.4952748E2,4.3269287E1,1.2563088E2,0E0,0E0,0E0,0E0,0E0,0E0,0E0,0E0,0E0,0E0,0E0,0E0,0E0,0E0,0E0,0E0],"parents":[2147483647,0,0,1,1,2,2,3,3,4,4,5,5,6,6,7,7,8,8,9,9,10,10,11,11,12,12,13,13,14,14],"right_children":[2,4,6,8,10,12,14,16,18,20,22,24,26,28,30,-1,-1,-1,-1,-1,-1,-1,-1,-1,-1,-1,-1,-1,-1,-1,-1],"split_conditions":[2.1E1,7E0,2.3E1,4E0,1.8E1,4E0,6E0,5E0,6E0,1.3E1,3E0,2E0,7E0,4E0,7E0,-6.1884414E-2,1.4162885E-1,-4.5051582E-2,-2.5974244E-1,1.7859438E-2,6.630194E-2,-8.8875934E-2,1.8051162E-2,-8.541098E-2,-6.908544E-2,3.0937036E-2,-5.852998E-2,-8.719799E-2,-1.592019E-1,1.1124442E-2,-1.6876608E-1],"split_indices":[1,1,1,0,1,0,0,1,1,1,0,0,0,0,0,0,0,0,0,0,0,0,0,0,0,0,0,0,0,0,0],"split_type":[0,0,0,0,0,0,0,0,0,0,0,0,0,0,0,0,0,0,0,0,0,0,0,0,0,0,0,0,0,0,0],"sum_hessian":[1.1085E4,9.012E3,2.073E3,2.091E3,6.921E3,1.57E3,5.03E2,9.5E2,1.141E3,4.985E3,1.936E3,6.83E2,8.87E2,3.44E2,1.59E2,6.86E2,2.64E2,9.72E2,1.69E2,2.439E3,2.546E3,5.27E2,1.409E3,2.24E2,4.59E2,6.21E2,2.66E2,1.8E2,1.64E2,9.4E1,6.5E1],"tree_param":{"num_deleted":"0","num_feature":"2","num_nodes":"31","size_leaf_vector":"1"}},{"base_weights":[-1.3015269E-3,1.3602509E-1,-3.1243998E-1,-2.7348977E-1,4.234708E-1,-1.8794024E-1,-9.761653E-1,-1.4711154E-1,-8.5658234E-1,5.5520284E-1,3.3781946E-2,-4.6543747E-1,3.3912942E-1,-1.3761106E0,-7.262709E-1,-6.5702565E-2,1.0925124E-2,-4.2632867E-2,-1.1421605E-1,4.49962E-2,1.0368276E-1,4.814845E-2,-7.265473E-2,1.0640628E-2,-6.0335636E-2,5.666476E-2,-6.245011E-2,-1.14433244E-1,-1.5440753E-1,-9.8472815E-3,-1.0905228E-1],"categories":[],"categories_nodes":[],"categories_segments":[],"categories_sizes":[],"default_left":[0,0,0,0,0,0,0,0,0,0,0,0,0,0,0,0,0,0,0,0,0,0,0,0,0,0,0,0,0,0,0],"id":27,"left_children":[1,3,5,7,9,11,13,15,17,19,21,23,25,27,29,-1,-1,-1,-1,-1,-1,-1,-1,-1,-1,-1,-1,-1,-1,-1,-1],"loss_changes":[4.7372055E2,9.055664E2,2.8035764E2,2.3369302E2,2.3201324E2,4.1846246E2,5.2570557E1,3.411281E2,6.893521E1,1.707528E2,3.8942853E2,1.4786295E2,2.167472E2,6.2138367E0,7.581326E1,0E0,0E0,0E0,0E0,0E0,0E0,0E0,0E0,0E0,0E0,0E0,0E0,0E0,0E0,0E0,0E0],"parents":[2147483647,0,0,1,1,2,2,3,3,4,4,5,5,6,6,7,7,8,8,9,9,10,10,11,11,12,12,13,13,14,14],"right_children":[2,4,6,8,10,12,14,16,18,20,22,24,26,28,30,-1,-1,-1,-1,-1,-1,-1,-1,-1,-1,-1,-1,-1,-1,-1,-1],"split_conditions":[1.9E1,1E1,7E0,7E0,1.7E1,5E0,2.1E1,4E0,4E0,1.6E1,6E0,2E1,2.3E1,2E1,2.2E1,-6.5702565E-2,1.0925124E-2,-4.2632867E-2,-1.1421605E-1,4.49962E-2,1.0368276E-1,4.814845E-2,-7.265473E-2,1.0640628E-2,-6.0335636E-2,5.666476E-2,-6.245011E-2,-1.14433244E-1,-1.5440753E-1,-9.8472815E-3,-1.0905228E-1],"split_indices":[1,1,0,0,1,0,1,1,1,1,0,1,1,1,1,0,0,0,0,0,0,0,0,0,0,0,0,0,0,0,0],"split_type":[0,0,0,0,0,0,0,0,0,0,0,0,0,0,0,0,0,0,0,0,0,0,0,0,0,0,0,0,0,0,0],"sum_hessian":[1.1085E4,7.691E3,3.394E3,3.172E3,4.519E3,2.859E3,5.35E2,2.608E3,5.64E2,3.377E3,1.142E3,1.873E3,9.86E2,2.04E2,3.31E2,8.72E2,1.736E3,2.26E2,3.38E2,2.773E3,6.04E2,7.19E2,4.23E2,3.64E2,1.509E3,7.98E2,1.88E2,8.9E1,1.15E2,1.22E2,2.09E2],"tree_param":{"num_deleted":"0","num_feature":"2","num_nodes":"31","size_leaf_vector":"1"}},{"base_weights":[-1.219333E-3,3.9891295E-2,-8.6445856E-1,-4.5849895E-1,1.2520388E-1,-1.0369638E0,-4.8709118E-1,-5.834981E-1,-2.3899157E-1,3.03954E-1,-1.5674424E-1,-7.252614E-1,-1.3726074E-1,1.6202992E-2,-1.4140521E-1,-6.734549E-2,-4.6485465E-2,7.528193E-2,-3.699565E-2,5.5604458E-2,5.157111E-3,-5.9112526E-2,1.5227245E-2,-9.8041646E-2,9.148086E-3],"categories":[],"categories_nodes":[],"categories_segments":[],"categories_sizes":[],"default_left":[0,0,0,0,0,0,0,0,0,0,0,0,0,0,0,0,0,0,0,0,0,0,0,0,0],"id":28,"left_children":[1,3,5,7,9,11,13,15,17,19,21,23,-1,-1,-1,-1,-1,-1,-1,-1,-1,-1,-1,-1,-1],"loss_changes":[3.9345786E2,4.5003558E2,3.230423E1,4.2307526E1,4.554967E2,3.5098694E1,9.650268E1,1.01996155E1,7.340795E1,3.518721E2,4.7083798E2,3.780934E1,0E0,0E0,0E0,0E0,0E0,0E0,0E0,0E0,0E0,0E0,0E0,0E0,0E0],"parents":[2147483647,0,0,1,1,2,2,3,3,4,4,5,5,6,6,7,7,8,8,9,9,10,10,11,11],"right_children":[2,4,6,8,10,12,14,16,18,20,22,24,-1,-1,-1,-1,-1,-1,-1,-1,-1,-1,-1,-1,-1],"split_conditions":[2.3E1,5E0,6E0,3E0,1.8E1,4E0,7E0,5E0,2E0,5E0,4E0,3E0,-1.3726074E-1,1.6202992E-2,-1.4140521E-1,-6.734549E-2,-4.6485465E-2,7.528193E-2,-3.699565E-2,5.5604458E-2,5.157111E-3,-5.9112526E-2,1.5227245E-2,-9.8041646E-2,9.148086E-3],"split_indices":[1,1,0,1,1,0,0,0,0,0,0,0,0,0,0,0,0,0,0,0,0,0,0,0,0],"split_type":[0,0,0,0,0,0,0,0,0,0,0,0,0,0,0,0,0,0,0,0,0,0,0,0,0],"sum_hessian":[1.1085E4,1.0582E4,5.03E2,1.546E3,9.036E3,3.44E2,1.59E2,9.84E2,5.62E2,5.53E3,3.506E3,1.8E2,1.64E2,9.4E1,6.5E1,5.57E2,4.27E2,6.5E1,4.97E2,2.766E3,2.764E3,1.457E3,2.049E3,1.37E2,4.3E1],"tree_param":{"num_deleted":"0","num_feature":"2","num_nodes":"25","size_leaf_vector":"1"}},{"base_weights":[-1.1345826E-3,8.094643E-2,-3.578342E-1,-2.40702E-1,2.556613E-1,-2.2258332E-1,-7.7870977E-1,-1.3047458E-1,-7.4927306E-1,4.7097453E-1,-3.9624345E-2,-5.5196244E-1,3.137827E-2,-9.3392295E-1,-4.3916458E-1,-5.721872E-2,5.8212145E-3,-3.3852246E-2,-1.0221082E-1,3.766758E-2,9.025676E-2,-9.25126E-2,1.0352679E-2,-6.501613E-2,-5.027305E-2,2.5034657E-2,-4.788452E-2,-6.532265E-2,-1.2361783E-1,1.45997545E-2,-1.2747894E-1],"categories":[],"categories_nodes":[],"categories_segments":[],"categories_sizes":[],"default_left":[0,0,0,0,0,0,0,0,0,0,0,0,0,0,0,0,0,0,0,0,0,0,0,0,0,0,0,0,0,0,0],"id":29,"left_children":[1,3,5,7,9,11,13,15,17,19,21,23,25,27,29,-1,-1,-1,-1,-1,-1,-1,-1,-1,-1,-1,-1,-1,-1,-1,-1],"loss_changes":[3.2460782E2,5.0656293E2,1.178866E2,1.7777582E2,3.7138312E2,1.3143091E2,2.6151611E1,2.1748123E2,6.2971924E1,1.371402E2,3.1243378E2,2.9799652E0,9.932969E1,2.8462982E1,7.8422264E1,0E0,0E0,0E0,0E0,0E0,0E0,0E0,0E0,0E0,0E0,0E0,0E0,0E0,0E0,0E0,0E0],"parents":[2147483647,0,0,1,1,2,2,3,3,4,4,5,5,6,6,7,7,8,8,9,9,10,10,11,11,12,12,13,13,14,14],"right_children":[2,4,6,8,10,12,14,16,18,20,22,24,26,28,30,-1,-1,-1,-1,-1,-1,-1,-1,-1,-1,-1,-1,-1,-1,-1,-1],"split_conditions":[2.1E1,1E1,2.3E1,7E0,1.7E1,4E0,6E0,3E0,4E0,1.6E1,2E0,2E0,7E0,4E0,7E0,-5.721872E-2,5.8212145E-3,-3.3852246E-2,-1.0221082E-1,3.766758E-2,9.025676E-2,-9.25126E-2,1.0352679E-2,-6.501613E-2,-5.027305E-2,2.5034657E-2,-4.788452E-2,-6.532265E-2,-1.2361783E-1,1.45997545E-2,-1.2747894E-1],"split_indices":[1,1,1,0,1,0,0,1,1,1,0,0,0,0,0,0,0,0,0,0,0,0,0,0,0,0,0,0,0,0,0],"split_type":[0,0,0,0,0,0,0,0,0,0,0,0,0,0,0,0,0,0,0,0,0,0,0,0,0,0,0,0,0,0,0],"sum_hessian":[1.1085E4,9.012E3,2.073E3,3.172E3,5.84E3,1.57E3,5.03E2,2.608E3,5.64E2,3.377E3,2.463E3,6.83E2,8.87E2,3.44E2,1.59E2,7.8E2,1.828E3,2.26E2,3.38E2,2.773E3,6.04E2,3.42E2,2.121E3,2.24E2,4.59E2,6.21E2,2.66E2,1.8E2,1.64E2,9.4E1,6.5E1],"tree_param":{"num_deleted":"0","num_feature":"2","num_nodes":"31","size_leaf_vector":"1"}},{"base_weights":[-1.0739069E-3,7.283569E-2,-3.2226297E-1,-2.1669088E-1,2.3010242E-1,-2.00413E-1,-7.014377E-1,-1.17446825E-1,-6.7458653E-1,4.2391425E-1,-3.5695676E-2,-4.969349E-1,2.8214678E-2,-8.4107834E-1,-3.9595354E-1,-4.8523378E-2,6.746708E-3,-3.0481948E-2,-9.201988E-2,1.9948538E-2,5.7469394E-2,2.2543197E-2,-5.2824944E-2,-5.8543425E-2,-4.5256685E-2,2.2535203E-2,-4.3113977E-2,-5.8826465E-2,-1.11330986E-1,1.31551465E-2,-1.14924185E-1],"categories":[],"categories_nodes":[],"categories_segments":[],"categories_sizes":[],"default_left":[0,0,0,0,0,0,0,0,0,0,0,0,0,0,0,0,0,0,0,0,0,0,0,0,0,0,0,0,0,0,0],"id":30,"left_children":[1,3,5,7,9,11,13,15,17,19,21,23,25,27,29,-1,-1,-1,-1,-1,-1,-1,-1,-1,-1,-1,-1,-1,-1,-1,-1],"loss_changes":[2.6319354E2,4.1043787E2,9.568327E1,1.4411276E2,3.009132E2,1.06517E2,2.116661E1,1.7746802E2,5.103241E1,1.1419458E2,3.170373E2,2.420807E0,8.051081E1,2.3089294E1,6.3729313E1,0E0,0E0,0E0,0E0,0E0,0E0,0E0,0E0,0E0,0E0,0E0,0E0,0E0,0E0,0E0,0E0],"parents":[2147483647,0,0,1,1,2,2,3,3,4,4,5,5,6,6,7,7,8,8,9,9,10,10,11,11,12,12,13,13,14,14],"right_children":[2,4,6,8,10,12,14,16,18,20,22,24,26,28,30,-1,-1,-1,-1,-1,-1,-1,-1,-1,-1,-1,-1,-1,-1,-1,-1],"split_conditions":[2.1E1,1E1,2.3E1,7E0,1.7E1,4E0,6E0,4E0,4E0,1.3E1,6E0,2E0,7E0,4E0,7E0,-4.8523378E-2,6.746708E-3,-3.0481948E-2,-9.201988E-2,1.9948538E-2,5.7469394E-2,2.2543197E-2,-5.2824944E-2,-5.8543425E-2,-4.5256685E-2,2.2535203E-2,-4.3113977E-2,-5.8826465E-2,-1.11330986E-1,1.31551465E-2,-1.14924185E-1],"split_indices":[1,1,1,0,1,0,0,1,1,1,0,0,0,0,0,0,0,0,0,0,0,0,0,0,0,0,0,0,0,0,0],"split_type":[0,0,0,0,0,0,0,0,0,0,0,0,0,0,0,0,0,0,0,0,0,0,0,0,0,0,0,0,0,0,0],"sum_hessian":[1.1085E4,9.012E3,2.073E3,3.172E3,5.84E3,1.57E3,5.03E2,2.608E3,5.64E2,3.377E3,2.463E3,6.83E2,8.87E2,3.44E2,1.59E2,8.72E2,1.736E3,2.26E2,3.38E2,1.358E3,2.019E3,1.61E3,8.53E2,2.24E2,4.59E2,6.21E2,2.66E2,1.8E2,1.64E2,9.4E1,6.5E1],"tree_param":{"num_deleted":"0","num_feature":"2","num_nodes":"31","size_leaf_vector":"1"}},{"base_weights":[-1.0129756E-3,-3.6349162E-1,5.9228666E-2,-1.2044568E-1,-7.240497E-1,1.5108284E-1,-2.9003266E-1,-5.050916E-1,1.2365137E0,-8.402988E-1,-4.2488375E-1,-6.14044E-1,2.0385872E-1,-1.0632209E-1,-7.8475606E-1,-2.7672807E-2,-2.1436973E-1,1.5779032E-1,1.0606811E-1,-5.350962E-2,-9.147205E-2,-2.5208343E-2,-6.92826E-2,-7.0378564E-2,-6.149303E-3,3.036426E-2,-1.8124122E-2,-6.371174E-2,5.5857778E-2,-1.2126992E-1,-5.1815033E-2],"categories":[],"categories_nodes":[],"categories_segments":[],"categories_sizes":[],"default_left":[0,0,0,0,0,0,0,0,0,0,0,0,0,0,0,0,0,0,0,0,0,0,0,0,0,0,0,0,0,0,0],"id":31,"left_children":[1,3,5,7,9,11,13,15,17,19,21,23,25,27,29,-1,-1,-1,-1,-1,-1,-1,-1,-1,-1,-1,-1,-1,-1,-1,-1],"loss_changes":[2.4209885E2,1.3837161E2,3.0503894E2,4.9386624E2,2.1761658E1,3.0410773E2,1.798707E2,2.7519055E2,1.087207E1,9.890686E0,8.159443E0,2.4055893E1,2.706947E2,5.1033356E2,6.0524994E1,0E0,0E0,0E0,0E0,0E0,0E0,0E0,0E0,0E0,0E0,0E0,0E0,0E0,0E0,0E0,0E0],"parents":[2147483647,0,0,1,1,2,2,3,3,4,4,5,5,6,6,7,7,8,8,9,9,10,10,11,11,12,12,13,13,14,14],"right_children":[2,4,6,8,10,12,14,16,18,20,22,24,26,28,30,-1,-1,-1,-1,-1,-1,-1,-1,-1,-1,-1,-1,-1,-1,-1,-1],"split_conditions":[2E0,1.7E1,7E0,1.4E1,2.2E1,2E0,1.9E1,1.2E1,1.5E1,1.8E1,2.3E1,6E0,2.1E1,1.2E1,2.1E1,-2.7672807E-2,-2.1436973E-1,1.5779032E-1,1.0606811E-1,-5.350962E-2,-9.147205E-2,-2.5208343E-2,-6.92826E-2,-7.0378564E-2,-6.149303E-3,3.036426E-2,-1.8124122E-2,-6.371174E-2,5.5857778E-2,-1.2126992E-1,-5.1815033E-2],"split_indices":[0,1,0,1,1,1,1,1,1,1,1,0,1,1,1,0,0,0,0,0,0,0,0,0,0,0,0,0,0,0,0],"split_type":[0,0,0,0,0,0,0,0,0,0,0,0,0,0,0,0,0,0,0,0,0,0,0,0,0,0,0,0,0,0,0],"sum_hessian":[1.1085E4,1.579E3,9.506E3,9.44E2,6.35E2,7.527E3,1.979E3,7.36E2,2.08E2,4.56E2,1.79E2,4.85E2,7.042E3,1.444E3,5.35E2,6.47E2,8.9E1,6.8E1,1.4E2,9.1E1,3.65E2,1.1E2,6.9E1,4.17E2,6.8E1,5.593E3,1.449E3,8.03E2,6.41E2,2.04E2,3.31E2],"tree_param":{"num_deleted":"0","num_feature":"2","num_nodes":"31","size_leaf_vector":"1"}},{"base_weights":[-9.536686E-4,-3.2728016E-1,5.327972E-2,-1.08377725E-1,-6.520216E-1,-3.580291E-1,1.1679739E-1,-4.549105E-1,1.1141248E0,-7.565866E-1,-3.8292027E-1,-5.608739E-1,-2.605493E-1,2.0712505E-1,-2.4034685E-1,-2.490974E-2,-1.9317102E-1,1.422399E-1,9.5536575E-2,-4.8216905E-2,-8.2349874E-2,-2.2710202E-2,-6.245332E-2,-7.320048E-2,-5.121347E-2,4.468771E-3,-3.732038E-2,2.4829698E-1,1.6514353E-2,-2.4357243E-1,-1.8196216E-2],"categories":[],"categories_nodes":[],"categories_segments":[],"categories_sizes":[],"default_left":[0,0,0,0,0,0,0,0,0,0,0,0,0,0,0,0,0,0,0,0,0,0,0,0,0,0,0,0,0,0,0],"id":32,"left_children":[1,3,5,7,9,11,13,15,17,19,21,23,25,27,29,-1,-1,-1,-1,-1,-1,-1,-1,-1,-1,-1,-1,-1,-1,-1,-1],"loss_changes":[1.9621515E2,1.1224632E2,2.4841577E2,4.00844E2,1.7606445E1,2.5005478E1,2.6574316E2,2.2352608E2,8.869812E0,7.994293E0,6.634754E0,3.0615082E0,2.9623299E1,6.276923E2,2.1271419E2,0E0,0E0,0E0,0E0,0E0,0E0,0E0,0E0,0E0,0E0,0E0,0E0,0E0,0E0,0E0,0E0],"parents":[2147483647,0,0,1,1,2,2,3,3,4,4,5,5,6,6,7,7,8,8,9,9,10,10,11,11,12,12,13,13,14,14],"right_children":[2,4,6,8,10,12,14,16,18,20,22,24,26,28,30,-1,-1,-1,-1,-1,-1,-1,-1,-1,-1,-1,-1,-1,-1,-1,-1],"split_conditions":[2E0,1.7E1,5E0,1.4E1,2.2E1,4E0,7E0,1.2E1,1.5E1,1.8E1,2.3E1,1E0,5E0,6E0,6E0,-2.490974E-2,-1.9317102E-1,1.422399E-1,9.5536575E-2,-4.8216905E-2,-8.2349874E-2,-2.2710202E-2,-6.245332E-2,-7.320048E-2,-5.121347E-2,4.468771E-3,-3.732038E-2,2.4829698E-1,1.6514353E-2,-2.4357243E-1,-1.8196216E-2],"split_indices":[0,1,1,1,1,0,0,1,1,1,1,1,0,1,1,0,0,0,0,0,0,0,0,0,0,0,0,0,0,0,0],"split_type":[0,0,0,0,0,0,0,0,0,0,0,0,0,0,0,0,0,0,0,0,0,0,0,0,0,0,0,0,0,0,0],"sum_hessian":[1.1085E4,1.579E3,9.506E3,9.44E2,6.35E2,1.271E3,8.235E3,7.36E2,2.08E2,4.56E2,1.79E2,4.11E2,8.6E2,6.573E3,1.662E3,6.47E2,8.9E1,6.8E1,1.4E2,9.1E1,3.65E2,1.1E2,6.9E1,8.8E1,3.23E2,2.32E2,6.28E2,1.18E2,6.455E3,4.2E1,1.62E3],"tree_param":{"num_deleted":"0","num_feature":"2","num_nodes":"31","size_leaf_vector":"1"}},{"base_weights":[-8.8978757E-4,2.7813038E-2,-6.035904E-1,-1.7722249E-1,1.155947E-1,-7.298334E-1,-3.2760653E-1,-7.14513E-2,-4.1141132E-1,3.4946567E-1,-8.027335E-2,-4.7855628E-1,-1.0010536E0,1.2012773E-2,-9.6710876E-2,5.229717E-3,-1.0009722E-1,-5.6676466E-2,1.1244499E-1,8.613678E-2,2.7250914E-2,-5.8910895E-2,2.9417753E-4,-6.931748E-2,2.0544162E-2,-1.1074644E-1,-9.10988E-2],"categories":[],"categories_nodes":[],"categories_segments":[],"categories_sizes":[],"default_left":[0,0,0,0,0,0,0,0,0,0,0,0,0,0,0,0,0,0,0,0,0,0,0,0,0,0,0],"id":33,"left_children":[1,3,5,7,9,11,13,15,17,19,21,23,25,-1,-1,-1,-1,-1,-1,-1,-1,-1,-1,-1,-1,-1,-1],"loss_changes":[1.9179585E2,1.9049713E2,1.732077E1,7.856717E1,3.3951E2,2.3033188E1,4.5928505E1,2.5161592E2,2.3613667E2,1.3283893E2,1.7081265E2,2.6712952E1,5.72464E-1,0E0,0E0,0E0,0E0,0E0,0E0,0E0,0E0,0E0,0E0,0E0,0E0,0E0,0E0],"parents":[2147483647,0,0,1,1,2,2,3,3,4,4,5,5,6,6,7,7,8,8,9,9,10,10,11,11,12,12],"right_children":[2,4,6,8,10,12,14,16,18,20,22,24,26,-1,-1,-1,-1,-1,-1,-1,-1,-1,-1,-1,-1,-1,-1],"split_conditions":[2.3E1,1E1,6E0,6E0,1.7E1,4E0,7E0,9E0,9E0,1.1E1,2E0,3E0,5E0,1.2012773E-2,-9.6710876E-2,5.229717E-3,-1.0009722E-1,-5.6676466E-2,1.1244499E-1,8.613678E-2,2.7250914E-2,-5.8910895E-2,2.9417753E-4,-6.931748E-2,2.0544162E-2,-1.1074644E-1,-9.10988E-2],"split_indices":[1,1,0,0,1,0,0,1,1,1,0,0,0,0,0,0,0,0,0,0,0,0,0,0,0,0,0],"split_type":[0,0,0,0,0,0,0,0,0,0,0,0,0,0,0,0,0,0,0,0,0,0,0,0,0,0,0],"sum_hessian":[1.1085E4,1.0582E4,5.03E2,3.172E3,7.41E3,3.44E2,1.59E2,2.186E3,9.86E2,3.377E3,4.033E3,1.8E2,1.64E2,9.4E1,6.5E1,1.93E3,2.56E2,8.96E2,9E1,4.4E2,2.937E3,5.66E2,3.467E3,1.37E2,4.3E1,7E1,9.4E1],"tree_param":{"num_deleted":"0","num_feature":"2","num_nodes":"27","size_leaf_vector":"1"}},{"base_weights":[-8.293265E-4,2.5033543E-2,-5.438966E-1,-2.2778125E-1,8.7311395E-2,-6.5757644E-1,-2.953751E-1,7.50926E-2,-4.7979987E-1,2.1694335E-1,-9.7014874E-2,-4.3097E-1,-9.0217155E-1,1.0824169E-2,-8.718634E-2,-3.3536725E-2,1.138907E-1,-1.699404E-2,-2.2504674E-1,4.2495053E-2,1.1584488E-3,-4.3293502E-2,1.4194541E-2,-6.243595E-2,1.8536443E-2,-9.982779E-2,-8.208481E-2],"categories":[],"categories_nodes":[],"categories_segments":[],"categories_sizes":[],"default_left":[0,0,0,0,0,0,0,0,0,0,0,0,0,0,0,0,0,0,0,0,0,0,0,0,0,0,0],"id":34,"left_children":[1,3,5,7,9,11,13,15,17,19,21,23,25,-1,-1,-1,-1,-1,-1,-1,-1,-1,-1,-1,-1,-1,-1],"loss_changes":[1.5571957E2,1.6664671E2,1.4044708E1,1.5971805E2,2.0293376E2,1.8733444E1,3.7323227E1,4.1563907E2,6.2618506E2,2.1297766E2,2.8157382E2,2.168959E1,4.701538E-1,0E0,0E0,0E0,0E0,0E0,0E0,0E0,0E0,0E0,0E0,0E0,0E0,0E0,0E0],"parents":[2147483647,0,0,1,1,2,2,3,3,4,4,5,5,6,6,7,7,8,8,9,9,10,10,11,11,12,12],"right_children":[2,4,6,8,10,12,14,16,18,20,22,24,26,-1,-1,-1,-1,-1,-1,-1,-1,-1,-1,-1,-1,-1,-1],"split_conditions":[2.3E1,7E0,6E0,4E0,1.8E1,4E0,7E0,5E0,6E0,5E0,4E0,3E0,5E0,1.0824169E-2,-8.718634E-2,-3.3536725E-2,1.138907E-1,-1.699404E-2,-2.2504674E-1,4.2495053E-2,1.1584488E-3,-4.3293502E-2,1.4194541E-2,-6.243595E-2,1.8536443E-2,-9.982779E-2,-8.208481E-2],"split_indices":[1,1,0,0,1,0,0,1,1,0,0,0,0,0,0,0,0,0,0,0,0,0,0,0,0,0,0],"split_type":[0,0,0,0,0,0,0,0,0,0,0,0,0,0,0,0,0,0,0,0,0,0,0,0,0,0,0],"sum_hessian":[1.1085E4,1.0582E4,5.03E2,2.091E3,8.491E3,3.44E2,1.59E2,9.5E2,1.141E3,4.985E3,3.506E3,1.8E2,1.64E2,9.4E1,6.5E1,6.86E2,2.64E2,9.72E2,1.69E2,2.476E3,2.509E3,1.457E3,2.049E3,1.37E2,4.3E1,7E1,9.4E1],"tree_param":{"num_deleted":"0","num_feature":"2","num_nodes":"27","size_leaf_vector":"1"}},{"base_weights":[-7.8691187E-4,-2.8202373E-1,4.5952853E-2,7.676115E-2,-3.73562E-1,1.1743293E-1,-2.2583906E-1,-3.5712573E-1,1.2345641E0,-2.9210493E-1,-2.6359272E-1,-4.8487273E-1,1.5897816E-1,-5.7647515E-2,-6.788445E-1,-5.0587277E-3,-8.686095E-2,1.7379947E-1,7.5842254E-2,-7.188797E-4,-4.9418367E-2,-5.726571E-2,5.394953E-3,2.3833737E-2,-1.4729378E-2,-5.0213702E-2,4.9909268E-2,-1.0883309E-1,-4.239544E-2],"categories":[],"categories_nodes":[],"categories_segments":[],"categories_sizes":[],"default_left":[0,0,0,0,0,0,0,0,0,0,0,0,0,0,0,0,0,0,0,0,0,0,0,0,0,0,0,0,0],"id":35,"left_children":[1,3,5,7,9,11,13,15,17,-1,19,21,23,25,27,-1,-1,-1,-1,-1,-1,-1,-1,-1,-1,-1,-1,-1,-1],"loss_changes":[1.457378E2,5.19199E1,1.8472574E2,1.6219937E2,3.5193304E2,1.8844969E2,1.5082043E2,3.680158E1,1.9775833E1,0E0,7.1418755E1,2.3018768E1,1.7121869E2,3.5783777E2,5.5483078E1,0E0,0E0,0E0,0E0,0E0,0E0,0E0,0E0,0E0,0E0,0E0,0E0,0E0,0E0],"parents":[2147483647,0,0,1,1,2,2,3,3,4,4,5,5,6,6,7,7,8,8,10,10,11,11,12,12,13,13,14,14],"right_children":[2,4,6,8,10,12,14,16,18,-1,20,22,24,26,28,-1,-1,-1,-1,-1,-1,-1,-1,-1,-1,-1,-1,-1,-1],"split_conditions":[2E0,6E0,7E0,4E0,7E0,2E0,1.9E1,2E0,5E0,-2.9210493E-1,1.7E1,6E0,2.1E1,1.2E1,2.1E1,-5.0587277E-3,-8.686095E-2,1.7379947E-1,7.5842254E-2,-7.188797E-4,-4.9418367E-2,-5.726571E-2,5.394953E-3,2.3833737E-2,-1.4729378E-2,-5.0213702E-2,4.9909268E-2,-1.0883309E-1,-4.239544E-2],"split_indices":[0,1,0,1,1,1,1,1,1,0,1,0,1,1,1,0,0,0,0,0,0,0,0,0,0,0,0,0,0],"split_type":[0,0,0,0,0,0,0,0,0,0,0,0,0,0,0,0,0,0,0,0,0,0,0,0,0,0,0,0,0],"sum_hessian":[1.1085E4,1.579E3,9.506E3,3.21E2,1.258E3,7.527E3,1.979E3,2.34E2,8.7E1,5.1E1,1.207E3,4.85E2,7.042E3,1.444E3,5.35E2,1.47E2,8.7E1,4.1E1,4.6E1,5.72E2,6.35E2,4.17E2,6.8E1,5.593E3,1.449E3,8.03E2,6.41E2,2.04E2,3.31E2],"tree_param":{"num_deleted":"0","num_feature":"2","num_nodes":"29","size_leaf_vector":"1"}},{"base_weights":[-7.425073E-4,-2.5393808E-1,4.1336987E-2,-4.7853595E-1,-1.2460849E-1,1.0568381E-1,-2.0333181E-1,6.957488E-2,-1.1660873E0,1.7384927E-1,-2.682512E-1,-2.7828288E-1,1.6144629E-1,-5.1883224E-2,-6.1124206E-1,-3.2180432E-2,1.11394465E-1,-2.634562E-1,-7.879079E-2,-1.808946E-1,-1.0364129E-2,-4.364921E-2,-1.140957E-2,2.1839623E-1,1.2414132E-2,-4.5198597E-2,4.4926085E-2,-9.800284E-2,-3.816865E-2],"categories":[],"categories_nodes":[],"categories_segments":[],"categories_sizes":[],"default_left":[0,0,0,0,0,0,0,0,0,0,0,0,0,0,0,0,0,0,0,0,0,0,0,0,0,0,0,0,0],"id":36,"left_children":[1,3,5,7,9,11,13,15,17,-1,19,21,23,25,27,-1,-1,-1,-1,-1,-1,-1,-1,-1,-1,-1,-1,-1,-1],"loss_changes":[1.1812452E2,4.5834877E1,1.4969647E2,2.1752606E2,2.6915775E2,1.6122641E2,1.222876E2,1.3197421E2,1.4009302E2,0E0,2.3643405E2,2.475721E1,4.957364E2,2.899387E2,4.500209E1,0E0,0E0,0E0,0E0,0E0,0E0,0E0,0E0,0E0,0E0,0E0,0E0,0E0,0E0],"parents":[2147483647,0,0,1,1,2,2,3,3,4,4,5,5,6,6,7,7,8,8,10,10,11,11,12,12,13,13,14,14],"right_children":[2,4,6,8,10,12,14,16,18,-1,20,22,24,26,28,-1,-1,-1,-1,-1,-1,-1,-1,-1,-1,-1,-1,-1,-1],"split_conditions":[2E0,1.1E1,7E0,6E0,1.2E1,5E0,1.9E1,4E0,7E0,1.7384927E-1,1.4E1,2E0,6E0,1.2E1,2.1E1,-3.2180432E-2,1.11394465E-1,-2.634562E-1,-7.879079E-2,-1.808946E-1,-1.0364129E-2,-4.364921E-2,-1.140957E-2,2.1839623E-1,1.2414132E-2,-4.5198597E-2,4.4926085E-2,-9.800284E-2,-3.816865E-2],"split_indices":[0,1,0,1,1,1,1,1,1,0,1,1,1,1,1,0,0,0,0,0,0,0,0,0,0,0,0,0,0],"split_type":[0,0,0,0,0,0,0,0,0,0,0,0,0,0,0,0,0,0,0,0,0,0,0,0,0,0,0,0,0],"sum_hessian":[1.1085E4,1.579E3,9.506E3,5.76E2,1.003E3,7.527E3,1.979E3,3.21E2,2.55E2,7.1E1,9.32E2,9.54E2,6.573E3,1.444E3,5.35E2,2.34E2,8.7E1,5.1E1,2.04E2,8.9E1,8.43E2,4.85E2,4.69E2,1.18E2,6.455E3,8.03E2,6.41E2,2.04E2,3.31E2],"tree_param":{"num_deleted":"0","num_feature":"2","num_nodes":"29","size_leaf_vector":"1"}},{"base_weights":[-6.902277E-4,2.1652253E-2,-4.6983662E-1,-1.333299E-1,8.800453E-2,-5.786713E-1,-2.3222534E-1,-3.7488028E-1,-8.692901E-2,7.7509815E-1,4.452493E-2,-3.639058E-1,-8.107555E-1,9.9822655E-3,-7.066547E-2,6.286339E-3,-1.1147676E-1,3.150646E-3,-2.8807325E-2,-8.537751E-2,1.0640565E-1,1.9144945E-2,-6.2492616E-3,-5.3134408E-2,1.6951205E-2,-8.9757316E-2,-7.373364E-2],"categories":[],"categories_nodes":[],"categories_segments":[],"categories_sizes":[],"default_left":[0,0,0,0,0,0,0,0,0,0,0,0,0,0,0,0,0,0,0,0,0,0,0,0,0,0,0],"id":37,"left_children":[1,3,5,7,9,11,13,15,17,19,21,23,25,-1,-1,-1,-1,-1,-1,-1,-1,-1,-1,-1,-1,-1,-1],"loss_changes":[1.16212456E2,1.0884115E2,1.2899239E1,3.553089E1,2.2136581E2,1.6901031E1,2.5275871E1,1.6557326E2,6.3448685E1,2.084769E2,1.096205E2,1.625601E1,3.8990784E-1,0E0,0E0,0E0,0E0,0E0,0E0,0E0,0E0,0E0,0E0,0E0,0E0,0E0,0E0],"parents":[2147483647,0,0,1,1,2,2,3,3,4,4,5,5,6,6,7,7,8,8,9,9,10,10,11,11,12,12],"right_children":[2,4,6,8,10,12,14,16,18,20,22,24,26,-1,-1,-1,-1,-1,-1,-1,-1,-1,-1,-1,-1,-1,-1],"split_conditions":[2.3E1,1E1,6E0,2E0,1.1E1,4E0,7E0,6E0,6E0,2E0,1.7E1,3E0,5E0,9.9822655E-3,-7.066547E-2,6.286339E-3,-1.1147676E-1,3.150646E-3,-2.8807325E-2,-8.537751E-2,1.0640565E-1,1.9144945E-2,-6.2492616E-3,-5.3134408E-2,1.6951205E-2,-8.9757316E-2,-7.373364E-2],"split_indices":[1,1,0,0,1,0,0,1,0,0,1,0,0,0,0,0,0,0,0,0,0,0,0,0,0,0,0],"split_type":[0,0,0,0,0,0,0,0,0,0,0,0,0,0,0,0,0,0,0,0,0,0,0,0,0,0,0],"sum_hessian":[1.1085E4,1.0582E4,5.03E2,3.172E3,7.41E3,3.44E2,1.59E2,5.1E2,2.662E3,4.4E2,6.97E3,1.8E2,1.64E2,9.4E1,6.5E1,3.21E2,1.89E2,1.676E3,9.86E2,6.6E1,3.74E2,2.937E3,4.033E3,1.37E2,4.3E1,7E1,9.4E1],"tree_param":{"num_deleted":"0","num_feature":"2","num_nodes":"27","size_leaf_vector":"1"}},{"base_weights":[-6.5324834E-4,1.9478058E-2,-4.2336947E-1,-2.0781603E-1,5.7329033E-2,-5.2138287E-1,-2.0938206E-1,-7.1323074E-2,-4.3493778E-1,1.5708517E-1,-9.024938E-2,-3.2771507E-1,-7.3067063E-1,8.994559E-3,-6.3706E-2,-3.5416704E-2,9.2641525E-2,-5.3042777E-2,-3.787587E-3,-4.7512673E-2,2.0993836E-2,1.6006742E-2,-3.705172E-2,-4.7859464E-2,1.5294625E-2,-8.090799E-2,-6.643788E-2],"categories":[],"categories_nodes":[],"categories_segments":[],"categories_sizes":[],"default_left":[0,0,0,0,0,0,0,0,0,0,0,0,0,0,0,0,0,0,0,0,0,0,0,0,0,0,0],"id":38,"left_children":[1,3,5,7,9,11,13,15,17,19,21,23,25,-1,-1,-1,-1,-1,-1,-1,-1,-1,-1,-1,-1,-1,-1],"loss_changes":[9.434823E1,9.106067E1,1.046154E1,4.681076E1,1.3358553E2,1.3744194E1,2.0539831E1,2.670111E2,2.1477959E1,1.8100545E2,2.5682928E2,1.31996765E1,3.2011414E-1,0E0,0E0,0E0,0E0,0E0,0E0,0E0,0E0,0E0,0E0,0E0,0E0,0E0,0E0],"parents":[2147483647,0,0,1,1,2,2,3,3,4,4,5,5,6,6,7,7,8,8,9,9,10,10,11,11,12,12],"right_children":[2,4,6,8,10,12,14,16,18,20,22,24,26,-1,-1,-1,-1,-1,-1,-1,-1,-1,-1,-1,-1,-1,-1],"split_conditions":[2.3E1,2E0,6E0,1.7E1,6E0,4E0,7E0,1.4E1,2.2E1,2E0,1.5E1,3E0,5E0,8.994559E-3,-6.3706E-2,-3.5416704E-2,9.2641525E-2,-5.3042777E-2,-3.787587E-3,-4.7512673E-2,2.0993836E-2,1.6006742E-2,-3.705172E-2,-4.7859464E-2,1.5294625E-2,-8.090799E-2,-6.643788E-2],"split_indices":[1,0,0,1,0,0,0,1,1,1,1,0,0,0,0,0,0,0,0,0,0,0,0,0,0,0,0],"split_type":[0,0,0,0,0,0,0,0,0,0,0,0,0,0,0,0,0,0,0,0,0,0,0,0,0,0,0],"sum_hessian":[1.1085E4,1.0582E4,5.03E2,1.51E3,9.072E3,3.44E2,1.59E2,9.44E2,5.66E2,5.413E3,3.659E3,1.8E2,1.64E2,9.4E1,6.5E1,7.36E2,2.08E2,4.56E2,1.1E2,4.17E2,4.996E3,1.933E3,1.726E3,1.37E2,4.3E1,7E1,9.4E1],"tree_param":{"num_deleted":"0","num_feature":"2","num_nodes":"27","size_leaf_vector":"1"}},{"base_weights":[-6.1336166E-4,1.7525775E-2,-3.8149804E-1,-1.2140569E-1,7.700655E-2,-4.697661E-1,-1.887856E-1,-8.43158E-2,-4.2322624E-1,6.8773353E-1,3.8359642E-2,-2.951235E-1,-6.5849674E-1,8.104611E-3,-5.7431936E-2,6.6803694E-3,-4.0954147E-2,-2.2650094E-1,5.6038167E-2,-7.347837E-2,9.400561E-2,-2.4582397E-2,8.149963E-3,-4.3108203E-2,1.3799928E-2,-7.293117E-2,-5.9864033E-2],"categories":[],"categories_nodes":[],"categories_segments":[],"categories_sizes":[],"default_left":[0,0,0,0,0,0,0,0,0,0,0,0,0,0,0,0,0,0,0,0,0,0,0,0,0,0,0],"id":39,"left_children":[1,3,5,7,9,11,13,15,17,19,21,23,25,-1,-1,-1,-1,-1,-1,-1,-1,-1,-1,-1,-1,-1,-1],"loss_changes":[7.659896E1,8.746463E1,8.484528E0,3.548444E1,1.7489333E2,1.1177017E1,1.6691223E1,1.3896857E2,6.2989185E2,1.5898018E2,8.5482254E1,1.0717988E1,2.6278687E-1,0E0,0E0,0E0,0E0,0E0,0E0,0E0,0E0,0E0,0E0,0E0,0E0,0E0,0E0],"parents":[2147483647,0,0,1,1,2,2,3,3,4,4,5,5,6,6,7,7,8,8,9,9,10,10,11,11,12,12],"right_children":[2,4,6,8,10,12,14,16,18,20,22,24,26,-1,-1,-1,-1,-1,-1,-1,-1,-1,-1,-1,-1,-1,-1],"split_conditions":[2.3E1,1E1,6E0,9E0,1.1E1,4E0,7E0,6E0,3E0,2E0,1.3E1,3E0,5E0,8.104611E-3,-5.7431936E-2,6.6803694E-3,-4.0954147E-2,-2.2650094E-1,5.6038167E-2,-7.347837E-2,9.400561E-2,-2.4582397E-2,8.149963E-3,-4.3108203E-2,1.3799928E-2,-7.293117E-2,-5.9864033E-2],"split_indices":[1,1,0,1,1,0,0,0,0,0,1,0,0,0,0,0,0,0,0,0,0,0,0,0,0,0,0],"split_type":[0,0,0,0,0,0,0,0,0,0,0,0,0,0,0,0,0,0,0,0,0,0,0,0,0,0,0],"sum_hessian":[1.1085E4,1.0582E4,5.03E2,3.172E3,7.41E3,3.44E2,1.59E2,2.826E3,3.46E2,4.4E2,6.97E3,1.8E2,1.64E2,9.4E1,6.5E1,1.93E3,8.96E2,1.2E2,2.26E2,6.6E1,3.74E2,9.18E2,6.052E3,1.37E2,4.3E1,7E1,9.4E1],"tree_param":{"num_deleted":"0","num_feature":"2","num_nodes":"27","size_leaf_vector":"1"}},{"base_weights":[-5.892158E-4,5.9776045E-2,-1.0712397E-1,-6.1193135E-2,2.749514E-1,-3.7200963E-1,7.576259E-2,6.959115E-3,-3.5762742E-1,7.575667E-1,-1.7423537E-1,-1.0098811E0,-2.590962E-1,2.1877E-1,-3.028511E-1,-2.2442687E-2,1.313853E-2,-2.1674538E-2,-9.386263E-2,2.4160167E-2,1.2937003E-1,6.9038615E-2,-8.082894E-2,-1.0582452E-1,-8.5259765E-2,7.8004226E-3,-3.2687414E-2,3.1940114E-2,-3.5128172E-2,5.935778E-2,-4.962894E-2],"categories":[],"categories_nodes":[],"categories_segments":[],"categories_sizes":[],"default_left":[0,0,0,0,0,0,0,0,0,0,0,0,0,0,0,0,0,0,0,0,0,0,0,0,0,0,0,0,0,0,0],"id":40,"left_children":[1,3,5,7,9,11,13,15,17,19,21,23,25,27,29,-1,-1,-1,-1,-1,-1,-1,-1,-1,-1,-1,-1,-1,-1,-1,-1],"loss_changes":[7.130046E1,1.842282E2,1.9428873E2,9.154076E1,5.5228186E2,1.17714096E2,1.285513E2,1.0612238E2,6.912545E1,3.3938446E2,7.242041E2,9.690399E-1,3.1852715E1,9.895201E1,1.1318036E2,0E0,0E0,0E0,0E0,0E0,0E0,0E0,0E0,0E0,0E0,0E0,0E0,0E0,0E0,0E0,0E0],"parents":[2147483647,0,0,1,1,2,2,3,3,4,4,5,5,6,6,7,7,8,8,9,9,10,10,11,11,12,12,13,13,14,14],"right_children":[2,4,6,8,10,12,14,16,18,20,22,24,26,28,30,-1,-1,-1,-1,-1,-1,-1,-1,-1,-1,-1,-1,-1,-1,-1,-1],"split_conditions":[1.8E1,1.3E1,4E0,7E0,5E0,1.9E1,7E0,3E0,1.1E1,1.6E1,1.5E1,3E0,2E1,2.3E1,1.9E1,-2.2442687E-2,1.313853E-2,-2.1674538E-2,-9.386263E-2,2.4160167E-2,1.2937003E-1,6.9038615E-2,-8.082894E-2,-1.0582452E-1,-8.5259765E-2,7.8004226E-3,-3.2687414E-2,3.1940114E-2,-3.5128172E-2,5.935778E-2,-4.962894E-2],"split_indices":[1,1,0,0,0,1,0,0,1,1,1,0,1,1,1,0,0,0,0,0,0,0,0,0,0,0,0,0,0,0,0],"split_type":[0,0,0,0,0,0,0,0,0,0,0,0,0,0,0,0,0,0,0,0,0,0,0,0,0,0,0,0,0,0,0],"sum_hessian":[1.1085E4,7.076E3,4.009E3,4.53E3,2.546E3,1.637E3,2.372E3,3.684E3,8.46E2,1.227E3,1.319E3,2.45E2,1.392E3,1.722E3,6.5E2,1.288E3,2.396E3,6.82E2,1.64E2,6.26E2,6.01E2,5.58E2,7.61E2,1.83E2,6.2E1,2.33E2,1.159E3,1.464E3,2.58E2,1.15E2,5.35E2],"tree_param":{"num_deleted":"0","num_feature":"2","num_nodes":"31","size_leaf_vector":"1"}},{"base_weights":[-5.475977E-4,-1.794194E-1,2.9179761E-2,-4.9312968E-2,-3.724558E-1,-2.0576037E-1,6.5461285E-2,-2.7726156E-1,7.547417E-1,-4.8533884E-1,-8.37892E-2,-4.1326702E-1,-1.0622669E-1,9.1568047E-1,4.8503544E-2,-9.27413E-3,-1.6027269E-1,1.0823996E-1,5.890457E-2,-6.3178234E-2,-4.0734224E-2,-9.805996E-4,-1.9990845E-2,-3.3093117E-2,-5.448894E-2,6.9949487E-3,-1.7131863E-2,2.6431E-1,-1.610804E-1,9.1275135E-3,-2.1287506E-2],"categories":[],"categories_nodes":[],"categories_segments":[],"categories_sizes":[],"default_left":[0,0,0,0,0,0,0,0,0,0,0,0,0,0,0,0,0,0,0,0,0,0,0,0,0,0,0,0,0,0,0],"id":41,"left_children":[1,3,5,7,9,11,13,15,17,19,21,23,25,27,29,-1,-1,-1,-1,-1,-1,-1,-1,-1,-1,-1,-1,-1,-1,-1,-1],"loss_changes":[5.8953777E1,3.9663776E1,8.105101E1,1.7341182E2,2.0683746E1,2.6227863E1,1.1870057E2,1.8010327E2,1.0709366E1,4.9625473E0,1.5443969E0,4.284622E0,9.885628E0,7.0690955E2,9.03057E1,0E0,0E0,0E0,0E0,0E0,0E0,0E0,0E0,0E0,0E0,0E0,0E0,0E0,0E0,0E0,0E0],"parents":[2147483647,0,0,1,1,2,2,3,3,4,4,5,5,6,6,7,7,8,8,9,9,10,10,11,11,12,12,13,13,14,14],"right_children":[2,4,6,8,10,12,14,16,18,20,22,24,26,28,30,-1,-1,-1,-1,-1,-1,-1,-1,-1,-1,-1,-1,-1,-1,-1,-1],"split_conditions":[2E0,1.7E1,5E0,1.4E1,2.2E1,4E0,6E0,1.2E1,1.5E1,1.9E1,2.3E1,4E0,5E0,6E0,2.2E1,-9.27413E-3,-1.6027269E-1,1.0823996E-1,5.890457E-2,-6.3178234E-2,-4.0734224E-2,-9.805996E-4,-1.9990845E-2,-3.3093117E-2,-5.448894E-2,6.9949487E-3,-1.7131863E-2,2.6431E-1,-1.610804E-1,9.1275135E-3,-2.1287506E-2],"split_indices":[0,1,1,1,1,0,1,1,1,1,1,1,0,0,1,0,0,0,0,0,0,0,0,0,0,0,0,0,0,0,0],"split_type":[0,0,0,0,0,0,0,0,0,0,0,0,0,0,0,0,0,0,0,0,0,0,0,0,0,0,0,0,0,0,0],"sum_hessian":[1.1085E4,1.579E3,9.506E3,9.44E2,6.35E2,1.271E3,8.235E3,7.36E2,2.08E2,4.56E2,1.79E2,4.11E2,8.6E2,1.6E2,8.075E3,6.47E2,8.9E1,6.8E1,1.4E2,1.56E2,3E2,1.1E2,6.9E1,2.55E2,1.56E2,2.32E2,6.28E2,9.5E1,6.5E1,6.94E3,1.135E3],"tree_param":{"num_deleted":"0","num_feature":"2","num_nodes":"31","size_leaf_vector":"1"}},{"base_weights":[-5.046035E-4,5.0942168E-2,-9.129969E-2,-5.4360278E-2,2.3825055E-1,-3.238794E-1,6.928053E-2,5.0684335E-3,-3.1284958E-1,6.725285E-1,-1.6594003E-1,-8.9965385E-1,-2.2196668E-1,1.9814833E-1,-2.7189997E-1,-1.9194262E-2,1.110101E-2,-1.8156214E-2,-8.544039E-2,2.0477358E-2,1.1585913E-1,6.1236084E-2,-7.3668055E-2,-9.3652986E-2,-7.7767245E-2,8.629296E-3,-2.8395874E-2,2.8521245E-2,-2.9508365E-2,5.2568294E-2,-4.4400394E-2],"categories":[],"categories_nodes":[],"categories_segments":[],"categories_sizes":[],"default_left":[0,0,0,0,0,0,0,0,0,0,0,0,0,0,0,0,0,0,0,0,0,0,0,0,0,0,0,0,0,0,0],"id":42,"left_children":[1,3,5,7,9,11,13,15,17,19,21,23,25,27,29,-1,-1,-1,-1,-1,-1,-1,-1,-1,-1,-1,-1,-1,-1,-1,-1],"loss_changes":[5.178862E1,1.3959991E2,1.4978671E2,6.960539E1,4.471892E2,9.591608E1,1.04388E2,7.693344E1,6.0065964E1,2.7895868E2,5.868055E2,3.7825012E-1,2.6644249E1,7.4074615E1,8.959433E1,0E0,0E0,0E0,0E0,0E0,0E0,0E0,0E0,0E0,0E0,0E0,0E0,0E0,0E0,0E0,0E0],"parents":[2147483647,0,0,1,1,2,2,3,3,4,4,5,5,6,6,7,7,8,8,9,9,10,10,11,11,12,12,13,13,14,14],"right_children":[2,4,6,8,10,12,14,16,18,20,22,24,26,28,30,-1,-1,-1,-1,-1,-1,-1,-1,-1,-1,-1,-1,-1,-1,-1,-1],"split_conditions":[1.8E1,1.3E1,4E0,7E0,5E0,1.9E1,7E0,3E0,1.1E1,1.6E1,1.5E1,3E0,2E1,2.3E1,1.9E1,-1.9194262E-2,1.110101E-2,-1.8156214E-2,-8.544039E-2,2.0477358E-2,1.1585913E-1,6.1236084E-2,-7.3668055E-2,-9.3652986E-2,-7.7767245E-2,8.629296E-3,-2.8395874E-2,2.8521245E-2,-2.9508365E-2,5.2568294E-2,-4.4400394E-2],"split_indices":[1,1,0,0,0,1,0,0,1,1,1,0,1,1,1,0,0,0,0,0,0,0,0,0,0,0,0,0,0,0,0],"split_type":[0,0,0,0,0,0,0,0,0,0,0,0,0,0,0,0,0,0,0,0,0,0,0,0,0,0,0,0,0,0,0],"sum_hessian":[1.1085E4,7.076E3,4.009E3,4.53E3,2.546E3,1.637E3,2.372E3,3.684E3,8.46E2,1.227E3,1.319E3,2.45E2,1.392E3,1.722E3,6.5E2,1.288E3,2.396E3,6.82E2,1.64E2,6.26E2,6.01E2,5.58E2,7.61E2,1.83E2,6.2E1,2.33E2,1.159E3,1.464E3,2.58E2,1.15E2,5.35E2],"tree_param":{"num_deleted":"0","num_feature":"2","num_nodes":"31","size_leaf_vector":"1"}},{"base_weights":[-4.697438E-4,-1.3662195E-1,3.1195724E-2,1.4211214E-1,-3.6861798E-1,1.3879353E-1,-7.455914E-2,-2.0121533E-1,1.0316361E0,-8.277443E-2,-2.0024836E0,8.302056E-2,4.939439E-1,-3.278957E-1,-3.3247855E-2,4.8490367E-3,-3.6800552E-2,-8.510824E-2,2.1237479E-1,1.2978548E-2,-2.6896322E-2,-8.746239E-1,-7.241235E-2,-2.545075E-2,1.8221235E-2,1.0684049E-1,-5.760164E-2,-4.377018E-2,-4.7288635E-3,7.117671E-3,-2.0178767E-2],"categories":[],"categories_nodes":[],"categories_segments":[],"categories_sizes":[],"default_left":[0,0,0,0,0,0,0,0,0,0,0,0,0,0,0,0,0,0,0,0,0,0,0,0,0,0,0,0,0,0,0],"id":43,"left_children":[1,3,5,7,9,11,13,15,17,19,21,23,25,27,29,-1,-1,-1,-1,-1,-1,-1,-1,-1,-1,-1,-1,-1,-1,-1,-1],"loss_changes":[4.7799595E1,1.35332E2,1.02364365E2,2.9064105E2,5.3318256E2,8.828191E1,4.7471794E1,2.8630339E1,5.466844E2,3.8542618E1,1.4592278E3,1.2911182E2,3.724789E2,1.9575958E1,6.8688385E1,0E0,0E0,0E0,0E0,0E0,0E0,0E0,0E0,0E0,0E0,0E0,0E0,0E0,0E0,0E0,0E0],"parents":[2147483647,0,0,1,1,2,2,3,3,4,4,5,5,6,6,7,7,8,8,9,9,10,10,11,11,12,12,13,13,14,14],"right_children":[2,4,6,8,10,12,14,16,18,20,22,24,26,28,30,-1,-1,-1,-1,-1,-1,-1,-1,-1,-1,-1,-1,-1,-1,-1,-1],"split_conditions":[7E0,4E0,1.7E1,5E0,6E0,1.6E1,2E0,2E0,2E0,6E0,5E0,3E0,6E0,2.2E1,6E0,4.8490367E-3,-3.6800552E-2,-8.510824E-2,2.1237479E-1,1.2978548E-2,-2.6896322E-2,-8.746239E-1,-7.241235E-2,-2.545075E-2,1.8221235E-2,1.0684049E-1,-5.760164E-2,-4.377018E-2,-4.7288635E-3,7.117671E-3,-2.0178767E-2],"split_indices":[1,0,1,1,1,1,0,0,0,0,0,0,0,1,0,0,0,0,0,0,0,0,0,0,0,0,0,0,0,0,0],"split_type":[0,0,0,0,0,0,0,0,0,0,0,0,0,0,0,0,0,0,0,0,0,0,0,0,0,0,0,0,0,0,0],"sum_hessian":[1.1085E4,2.091E3,8.994E3,9.5E2,1.141E3,4.458E3,4.536E3,6.86E2,2.64E2,9.72E2,1.69E2,3.854E3,6.04E2,6.35E2,3.901E3,2.75E2,4.11E2,9.7E1,1.67E2,4.54E2,5.18E2,2.6E1,1.43E2,8.75E2,2.979E3,3.93E2,2.11E2,4.56E2,1.79E2,2.409E3,1.492E3],"tree_param":{"num_deleted":"0","num_feature":"2","num_nodes":"31","size_leaf_vector":"1"}},{"base_weights":[-5.024486E-4,-9.428537E-2,3.7098475E-2,-5.865359E-2,-3.8430482E-1,6.1600137E-1,2.935607E-3,2.1070658E-1,-1.739863E-1,-1.975143E0,4.653679E-1,-5.8718067E-2,8.293272E-1,1.111129E-1,-6.711681E-2,-1.3114599E-2,6.612642E-2,-2.1880805E-3,-4.089592E-2,-8.4417E-2,-2.787078E-1,1.0332803E-1,-1.37434825E-2,1.15586735E-1,1.1714128E-2,-2.0146651E-2,2.5326608E-2,-2.9518256E-2,-2.9926412E-3],"categories":[],"categories_nodes":[],"categories_segments":[],"categories_sizes":[],"default_left":[0,0,0,0,0,0,0,0,0,0,0,0,0,0,0,0,0,0,0,0,0,0,0,0,0,0,0,0,0],"id":44,"left_children":[1,3,5,7,9,11,13,15,17,19,21,-1,23,25,27,-1,-1,-1,-1,-1,-1,-1,-1,-1,-1,-1,-1,-1,-1],"loss_changes":[3.909633E1,3.2766953E1,1.5651324E2,8.786035E1,4.699562E2,1.13678345E2,5.6646034E1,1.306993E2,7.075758E1,1.0875867E2,7.785298E1,0E0,8.707358E1,1.3059854E2,3.847335E1,0E0,0E0,0E0,0E0,0E0,0E0,0E0,0E0,0E0,0E0,0E0,0E0,0E0,0E0],"parents":[2147483647,0,0,1,1,2,2,3,3,4,4,5,5,6,6,7,7,8,8,9,9,10,10,12,12,13,13,14,14],"right_children":[2,4,6,8,10,12,14,16,18,20,22,-1,24,26,28,-1,-1,-1,-1,-1,-1,-1,-1,-1,-1,-1,-1,-1,-1],"split_conditions":[1E1,9E0,1.1E1,3E0,3E0,2E0,1.7E1,5E0,6E0,2E0,5E0,-5.8718067E-2,7E0,1.3E1,2E0,-1.3114599E-2,6.612642E-2,-2.1880805E-3,-4.089592E-2,-8.4417E-2,-2.787078E-1,1.0332803E-1,-1.37434825E-2,1.15586735E-1,1.1714128E-2,-2.0146651E-2,2.5326608E-2,-2.9518256E-2,-2.9926412E-3],"split_indices":[1,1,1,0,0,0,1,1,1,0,0,0,0,1,0,0,0,0,0,0,0,0,0,0,0,0,0,0,0],"split_type":[0,0,0,0,0,0,0,0,0,0,0,0,0,0,0,0,0,0,0,0,0,0,0,0,0,0,0,0,0],"sum_hessian":[1.1085E4,3.172E3,7.913E3,2.826E3,3.46E2,4.4E2,7.473E3,8.47E2,1.979E3,1.2E2,2.26E2,6.6E1,3.74E2,2.937E3,4.536E3,4.82E2,3.65E2,1.202E3,7.77E2,5.1E1,6.9E1,1.16E2,1.1E2,2.56E2,1.18E2,9.18E2,2.019E3,6.35E2,3.901E3],"tree_param":{"num_deleted":"0","num_feature":"2","num_nodes":"29","size_leaf_vector":"1"}},{"base_weights":[-4.7211302E-4,-1.22086175E-1,2.7812166E-2,-2.139947E-2,-6.408559E-1,1.1757369E-1,-6.0412314E-2,-1.23781405E-1,7.438481E-1,9.8643655E-1,-1.8706039E0,7.018313E-2,4.193473E-1,-2.6571077E-1,-2.6934547E-2,5.672623E-3,-1.6285084E-2,1.7424062E-1,-1.4158349E-1,-2.1701066E-1,2.6859555E-1,-5.388754E-1,-6.1160225E-2,-2.1910103E-2,1.55197475E-2,9.365744E-2,-5.438925E-2,-3.645741E-2,-1.3231712E-3,6.7053447E-3,-1.7863188E-2],"categories":[],"categories_nodes":[],"categories_segments":[],"categories_sizes":[],"default_left":[0,0,0,0,0,0,0,0,0,0,0,0,0,0,0,0,0,0,0,0,0,0,0,0,0,0,0,0,0,0,0],"id":45,"left_children":[1,3,5,7,9,11,13,15,17,19,21,23,25,27,29,-1,-1,-1,-1,-1,-1,-1,-1,-1,-1,-1,-1,-1,-1,-1,-1],"loss_changes":[3.813664E1,1.0925817E2,7.123998E1,1.3743529E2,6.8223956E2,6.3739708E1,3.1175344E1,1.0919193E1,4.488767E2,7.944257E2,8.559995E2,9.484118E1,3.0192868E2,1.5870319E1,5.5645626E1,0E0,0E0,0E0,0E0,0E0,0E0,0E0,0E0,0E0,0E0,0E0,0E0,0E0,0E0,0E0,0E0],"parents":[2147483647,0,0,1,1,2,2,3,3,4,4,5,5,6,6,7,7,8,8,9,9,10,10,11,11,12,12,13,13,14,14],"right_children":[2,4,6,8,10,12,14,16,18,20,22,24,26,28,30,-1,-1,-1,-1,-1,-1,-1,-1,-1,-1,-1,-1,-1,-1,-1,-1],"split_conditions":[7E0,6E0,1.7E1,5E0,3E0,1.6E1,2E0,2E0,6E0,2E0,5E0,3E0,6E0,2.2E1,6E0,5.672623E-3,-1.6285084E-2,1.7424062E-1,-1.4158349E-1,-2.1701066E-1,2.6859555E-1,-5.388754E-1,-6.1160225E-2,-2.1910103E-2,1.55197475E-2,9.365744E-2,-5.438925E-2,-3.645741E-2,-1.3231712E-3,6.7053447E-3,-1.7863188E-2],"split_indices":[1,1,1,1,0,1,0,0,0,0,0,0,0,1,0,0,0,0,0,0,0,0,0,0,0,0,0,0,0,0,0],"split_type":[0,0,0,0,0,0,0,0,0,0,0,0,0,0,0,0,0,0,0,0,0,0,0,0,0,0,0,0,0,0,0],"sum_hessian":[1.1085E4,2.091E3,8.994E3,1.752E3,3.39E2,4.458E3,4.536E3,1.546E3,2.06E2,1.46E2,1.93E2,3.854E3,6.04E2,6.35E2,3.901E3,2.75E2,1.271E3,1.41E2,6.5E1,5.1E1,9.5E1,5E1,1.43E2,8.75E2,2.979E3,3.93E2,2.11E2,4.56E2,1.79E2,2.409E3,1.492E3],"tree_param":{"num_deleted":"0","num_feature":"2","num_nodes":"31","size_leaf_vector":"1"}},{"base_weights":[-4.739607E-4,1.9322108E-2,-1.4758173E-1,8.539364E-2,-5.4134537E-2,-3.8973463E-1,1.5155706E-1,-5.7552196E-2,2.4612819E-1,7.884591E-2,-2.2937259E-1,-1.1915877E-2,-5.1312447E-1,4.4232345E-1,-3.753134E-2,-2.1467447E-2,1.12958085E-2,7.380384E-2,-7.7940114E-3,-5.0397543E-3,4.543787E-2,-6.728842E-2,4.4240006E-3,5.4555717E-3,-1.1715061E-2,-3.987196E-2,-6.953632E-2,1.0072704E-1,-1.3393124E-2],"categories":[],"categories_nodes":[],"categories_segments":[],"categories_sizes":[],"default_left":[0,0,0,0,0,0,0,0,0,0,0,0,0,0,0,0,0,0,0,0,0,0,0,0,0,0,0,0,0],"id":46,"left_children":[1,3,5,7,9,11,13,15,17,19,21,23,25,27,-1,-1,-1,-1,-1,-1,-1,-1,-1,-1,-1,-1,-1,-1,-1],"loss_changes":[3.2287006E1,4.743198E1,9.531415E1,1.182274E2,1.0786546E2,3.3885895E1,9.039858E1,7.300283E1,3.861546E2,1.2776742E2,2.4236642E2,1.2655128E0,1.1147995E1,1.2384517E2,0E0,0E0,0E0,0E0,0E0,0E0,0E0,0E0,0E0,0E0,0E0,0E0,0E0,0E0,0E0],"parents":[2147483647,0,0,1,1,2,2,3,3,4,4,5,5,6,6,7,7,8,8,9,9,10,10,11,11,12,12,13,13],"right_children":[2,4,6,8,10,12,14,16,18,20,22,24,26,28,-1,-1,-1,-1,-1,-1,-1,-1,-1,-1,-1,-1,-1,-1,-1],"split_conditions":[2.2E1,5E0,5E0,1.4E1,1.5E1,2E0,7E0,3E0,1.8E1,1.2E1,1.8E1,2.3E1,4E0,2.3E1,-3.753134E-2,-2.1467447E-2,1.12958085E-2,7.380384E-2,-7.7940114E-3,-5.0397543E-3,4.543787E-2,-6.728842E-2,4.4240006E-3,5.4555717E-3,-1.1715061E-2,-3.987196E-2,-6.953632E-2,1.0072704E-1,-1.3393124E-2],"split_indices":[1,0,0,1,1,0,0,0,1,1,1,1,0,1,0,0,0,0,0,0,0,0,0,0,0,0,0,0,0],"split_type":[0,0,0,0,0,0,0,0,0,0,0,0,0,0,0,0,0,0,0,0,0,0,0,0,0,0,0,0,0],"sum_hessian":[1.1085E4,9.771E3,1.314E3,5.144E3,4.627E3,7.26E2,5.88E2,2.723E3,2.421E3,2.631E3,1.996E3,1.79E2,5.47E2,3.79E2,2.09E2,1.417E3,1.306E3,9.61E2,1.46E3,1.958E3,6.73E2,7.61E2,1.235E3,1.1E2,6.9E1,3.38E2,2.09E2,1.91E2,1.88E2],"tree_param":{"num_deleted":"0","num_feature":"2","num_nodes":"29","size_leaf_vector":"1"}},{"base_weights":[-4.2940734E-4,-1.0362446E-1,2.3571093E-2,-1.3361229E-2,-5.6870633E-1,9.856822E-2,-5.014189E-2,-1.0585933E-1,6.779814E-1,9.094654E-1,-1.6858329E0,5.5464044E-2,3.7306085E-1,-2.4495861E-1,-1.837521E-2,7.2463765E-3,-1.4446886E-2,1.5792729E-1,-1.2714332E-1,-1.9362152E-1,2.441402E-1,-4.8715186E-1,-5.4586183E-2,-6.124314E-3,2.4801284E-2,8.003368E-2,-4.2278714E-2,-5.2789178E-2,-1.5190557E-2,6.6640573E-3,-1.5559534E-2],"categories":[],"categories_nodes":[],"categories_segments":[],"categories_sizes":[],"default_left":[0,0,0,0,0,0,0,0,0,0,0,0,0,0,0,0,0,0,0,0,0,0,0,0,0,0,0,0,0,0,0],"id":47,"left_children":[1,3,5,7,9,11,13,15,17,19,21,23,25,27,29,-1,-1,-1,-1,-1,-1,-1,-1,-1,-1,-1,-1,-1,-1,-1,-1],"loss_changes":[2.7459503E1,8.781413E1,4.9731663E1,1.121724E2,5.629768E2,5.2737217E1,2.807354E1,1.0661518E1,3.6570502E2,6.4555927E2,7.0186926E2,8.664408E1,2.060666E2,1.6664284E1,4.5530617E1,0E0,0E0,0E0,0E0,0E0,0E0,0E0,0E0,0E0,0E0,0E0,0E0,0E0,0E0,0E0,0E0],"parents":[2147483647,0,0,1,1,2,2,3,3,4,4,5,5,6,6,7,7,8,8,9,9,10,10,11,11,12,12,13,13,14,14],"right_children":[2,4,6,8,10,12,14,16,18,20,22,24,26,28,30,-1,-1,-1,-1,-1,-1,-1,-1,-1,-1,-1,-1,-1,-1,-1,-1],"split_conditions":[7E0,6E0,1.7E1,5E0,3E0,1.6E1,2E0,2E0,6E0,2E0,5E0,6E0,6E0,1.9E1,6E0,7.2463765E-3,-1.4446886E-2,1.5792729E-1,-1.2714332E-1,-1.9362152E-1,2.441402E-1,-4.8715186E-1,-5.4586183E-2,-6.124314E-3,2.4801284E-2,8.003368E-2,-4.2278714E-2,-5.2789178E-2,-1.5190557E-2,6.6640573E-3,-1.5559534E-2],"split_indices":[1,1,1,1,0,1,0,0,0,0,0,0,0,1,0,0,0,0,0,0,0,0,0,0,0,0,0,0,0,0,0],"split_type":[0,0,0,0,0,0,0,0,0,0,0,0,0,0,0,0,0,0,0,0,0,0,0,0,0,0,0,0,0,0,0],"sum_hessian":[1.1085E4,2.091E3,8.994E3,1.752E3,3.39E2,4.458E3,4.536E3,1.546E3,2.06E2,1.46E2,1.93E2,3.854E3,6.04E2,6.35E2,3.901E3,2.75E2,1.271E3,1.41E2,6.5E1,5.1E1,9.5E1,5E1,1.43E2,2.4E3,1.454E3,3.93E2,2.11E2,1.56E2,4.79E2,2.409E3,1.492E3],"tree_param":{"num_deleted":"0","num_feature":"2","num_nodes":"31","size_leaf_vector":"1"}},{"base_weights":[-4.3054752E-4,1.6969115E-2,-1.2973021E-1,7.580518E-2,-4.8443273E-2,-2.9621655E-1,2.4508156E-1,-4.711306E-2,2.1401884E-1,6.68305E-2,-2.0034719E-1,4.3472433E-3,-3.69721E-1,8.519276E-1,-3.2247514E-2,-2.0637056E-2,1.2570581E-2,6.446504E-2,-6.9678323E-3,-4.5378185E-3,3.9286908E-2,-6.0503494E-2,4.9306857E-3,6.420312E-3,-9.062919E-3,-4.6866372E-2,-7.463816E-3,1.425338E-1,2.2729833E-2],"categories":[],"categories_nodes":[],"categories_segments":[],"categories_sizes":[],"default_left":[0,0,0,0,0,0,0,0,0,0,0,0,0,0,0,0,0,0,0,0,0,0,0,0,0,0,0,0,0],"id":48,"left_children":[1,3,5,7,9,11,13,15,17,19,21,23,25,27,-1,-1,-1,-1,-1,-1,-1,-1,-1,-1,-1,-1,-1,-1,-1],"loss_changes":[2.494316E1,3.7612263E1,8.212997E1,8.741838E1,8.1052155E1,2.012812E1,1.3976463E2,7.499778E1,2.959381E2,9.630786E1,2.017906E2,1.0291001E0,2.1336716E1,6.987712E1,0E0,0E0,0E0,0E0,0E0,0E0,0E0,0E0,0E0,0E0,0E0,0E0,0E0,0E0,0E0],"parents":[2147483647,0,0,1,1,2,2,3,3,4,4,5,5,6,6,7,7,8,8,9,9,10,10,11,11,12,12,13,13],"right_children":[2,4,6,8,10,12,14,16,18,20,22,24,26,28,-1,-1,-1,-1,-1,-1,-1,-1,-1,-1,-1,-1,-1,-1,-1],"split_conditions":[2.2E1,5E0,6E0,1.4E1,1.5E1,2E0,7E0,3E0,1.8E1,1.2E1,1.8E1,2.3E1,5E0,2.3E1,-3.2247514E-2,-2.0637056E-2,1.2570581E-2,6.446504E-2,-6.9678323E-3,-4.5378185E-3,3.9286908E-2,-6.0503494E-2,4.9306857E-3,6.420312E-3,-9.062919E-3,-4.6866372E-2,-7.463816E-3,1.425338E-1,2.2729833E-2],"split_indices":[1,0,0,1,1,0,0,0,1,1,1,1,0,1,0,0,0,0,0,0,0,0,0,0,0,0,0,0,0],"split_type":[0,0,0,0,0,0,0,0,0,0,0,0,0,0,0,0,0,0,0,0,0,0,0,0,0,0,0,0,0],"sum_hessian":[1.1085E4,9.771E3,1.314E3,5.144E3,4.627E3,9.1E2,4.04E2,2.723E3,2.421E3,2.631E3,1.996E3,1.79E2,7.31E2,1.95E2,2.09E2,1.417E3,1.306E3,9.61E2,1.46E3,1.958E3,6.73E2,7.61E2,1.235E3,1.1E2,6.9E1,5.47E2,1.84E2,1.01E2,9.4E1],"tree_param":{"num_deleted":"0","num_feature":"2","num_nodes":"29","size_leaf_vector":"1"}},{"base_weights":[-3.781469E-4,-1.139877E-1,1.8503042E-2,1.2925568E-1,-1.7610873E-1,-1.2874332E-1,4.12421E-2,-1.7941992E-1,9.5209104E-1,-1.7260773E-1,-1.0924244E-1,-2.8362718E-1,-5.4479808E-2,6.8314075E-1,2.844035E-2,9.6463915E-3,-6.413675E-2,1.5677653E-1,3.8165674E-2,2.1192232E-2,-2.041323E-2,-2.038911E-2,-4.1183617E-2,4.8022876E-3,-9.236319E-3,1.9306354E-1,-1.14174746E-1,5.530119E-3,-1.3570537E-2],"categories":[],"categories_nodes":[],"categories_segments":[],"categories_sizes":[],"default_left":[0,0,0,0,0,0,0,0,0,0,0,0,0,0,0,0,0,0,0,0,0,0,0,0,0,0,0,0,0],"id":49,"left_children":[1,3,5,7,9,11,13,15,17,-1,19,21,23,25,27,-1,-1,-1,-1,-1,-1,-1,-1,-1,-1,-1,-1,-1,-1],"loss_changes":[2.3782503E1,2.38974E1,3.1837063E1,8.195535E1,1.3029501E2,1.461537E1,6.765929E1,3.0011179E1,3.0307404E1,0E0,3.685739E1,4.127857E0,3.347825E0,3.68727E2,3.561533E1,0E0,0E0,0E0,0E0,0E0,0E0,0E0,0E0,0E0,0E0,0E0,0E0,0E0,0E0],"parents":[2147483647,0,0,1,1,2,2,3,3,4,4,5,5,6,6,7,7,8,8,10,10,11,11,12,12,13,13,14,14],"right_children":[2,4,6,8,10,12,14,16,18,-1,20,22,24,26,28,-1,-1,-1,-1,-1,-1,-1,-1,-1,-1,-1,-1,-1,-1],"split_conditions":[2E0,6E0,5E0,4E0,7E0,4E0,6E0,2E0,5E0,-1.7260773E-1,1.2E1,4E0,5E0,6E0,2.2E1,9.6463915E-3,-6.413675E-2,1.5677653E-1,3.8165674E-2,2.1192232E-2,-2.041323E-2,-2.038911E-2,-4.1183617E-2,4.8022876E-3,-9.236319E-3,1.9306354E-1,-1.14174746E-1,5.530119E-3,-1.3570537E-2],"split_indices":[0,1,1,1,1,0,1,1,1,0,1,1,0,0,1,0,0,0,0,0,0,0,0,0,0,0,0,0,0],"split_type":[0,0,0,0,0,0,0,0,0,0,0,0,0,0,0,0,0,0,0,0,0,0,0,0,0,0,0,0,0],"sum_hessian":[1.1085E4,1.579E3,9.506E3,3.21E2,1.258E3,1.271E3,8.235E3,2.34E2,8.7E1,5.1E1,1.207E3,4.11E2,8.6E2,1.6E2,8.075E3,1.47E2,8.7E1,4.1E1,4.6E1,2.75E2,9.32E2,2.55E2,1.56E2,2.32E2,6.28E2,9.5E1,6.5E1,6.94E3,1.135E3],"tree_param":{"num_deleted":"0","num_feature":"2","num_nodes":"29","size_leaf_vector":"1"}}]},"name":"gbtree"},"learner_model_param":{"base_score":"[1.3666396E1]","boost_from_average":"1","num_class":"0","num_feature":"2","num_target":"1"},"objective":{"name":"reg:squarederror","reg_loss_param":{"scale_pos_weight":"1"}}},"version":[3,2,1]}