{"learner":{"attributes":{},"feature_names":["day_of_week","hour_of_day"],"feature_types":[],"gradient_booster":{"model":{"cats":{"enc":[],"feature_segments":[],"sorted_idx":[]},"gbtree_model_param":{"num_parallel_tree":"1","num_trees":"50"},"iteration_indptr":[0,1,2,3,4,5,6,7,8,9,10,11,12,13,14,15,16,17,18,19,20,21,22,23,24,25,26,27,28,29,30,31,32,33,34,35,36,37,38,39,40,41,42,43,44,45,46,47,48,49,50],"tree_info":[0,0,0,0,0,0,0,0,0,0,0,0,0,0,0,0,0,0,0,0,0,0,0,0,0,0,0,0,0,0,0,0,0,0,0,0,0,0,0,0,0,0,0,0,0,0,0,0,0,0],"trees":[{"base_weights":[-2.7024677E-7,-1.0211961E1,1.4479405E0,-1.1147512E1,-8.8958436E-1,3.9990969E0,-3.937589E0,-1.1675198E0,-4.8602605E-1,4.677645E0,-8.9416035E-2,-1.7456081E0,-7.8712955E0,5.149132E-1,3.1538936E-1,-7.8873044E-1,2.3786473E-1,-3.6561933E-1,1.3036856E-2,-1.050269E0,-5.7149476E-1],"categories":[],"categories_nodes":[],"categories_segments":[],"categories_sizes":[],"default_left":[0,0,0,0,0,0,0,0,0,0,0,0,0,0,0,0,0,0,0,0,0],"id":0,"left_children":[1,3,5,7,-1,9,11,-1,-1,13,15,17,19,-1,-1,-1,-1,-1,-1,-1,-1],"loss_changes":[5.4177047E4,4.6107812E2,4.410525E4,8.124922E2,0E0,6.042742E3,8.884793E3,0E0,0E0,1.3257852E3,6.004168E3,2.3803938E3,2.0337578E3,0E0,0E0,0E0,0E0,0E0,0E0,0E0,0E0],"parents":[2147483647,0,0,1,1,2,2,3,3,5,5,6,6,9,9,10,10,11,11,12,12],"right_children":[2,4,6,8,-1,10,12,-1,-1,14,16,18,20,-1,-1,-1,-1,-1,-1,-1,-1],"split_conditions":[4E0,5E0,1.9E1,3E0,-8.8958436E-1,7E0,2.2E1,-1.1675198E0,-4.8602605E-1,5E0,7E0,4E0,4E0,5.149132E-1,3.1538936E-1,-7.8873044E-1,2.3786473E-1,-3.6561933E-1,1.3036856E-2,-1.050269E0,-5.7149476E-1],"split_indices":[1,0,1,1,0,0,1,0,0,0,1,0,0,0,0,0,0,0,0,0,0],"split_type":[0,0,0,0,0,0,0,0,0,0,0,0,0,0,0,0,0,0,0,0,0],"sum_hessian":[3.662E3,4.54E2,3.208E3,2.61E2,1.93E2,2.177E3,1.031E3,2.4E2,2.1E1,1.867E3,3.1E2,6.63E2,3.68E2,1.424E3,4.43E2,7.4E1,2.36E2,3.28E2,3.35E2,1.64E2,2.04E2],"tree_param":{"num_deleted":"0","num_feature":"2","num_nodes":"21","size_leaf_vector":"1"}},{"base_weights":[-1.1573508E-3,-9.196354E0,1.3026181E0,-9.958477E0,-7.884497E-1,3.5993152E0,-3.545743E0,-1.0385888E0,-4.3963265E-1,-1.9001527E-2,4.2270722E0,-1.571578E0,-7.0885606E0,2.9274186E-1,-6.914037E-1,4.9539214E-1,2.8961918E-1,-3.291685E-1,1.1737063E-2,-9.458786E-1,-5.1462406E-1],"categories":[],"categories_nodes":[],"categories_segments":[],"categories_sizes":[],"default_left":[0,0,0,0,0,0,0,0,0,0,0,0,0,0,0,0,0,0,0,0,0],"id":1,"left_children":[1,3,5,7,-1,9,11,-1,-1,13,15,17,19,-1,-1,-1,-1,-1,-1,-1,-1],"loss_changes":[4.3925746E4,3.7639453E2,3.574567E4,6.295E2,0E0,4.947244E3,7.2067764E3,0E0,0E0,6.582202E3,1.7810508E3,1.9294207E3,1.6501016E3,0E0,0E0,0E0,0E0,0E0,0E0,0E0,0E0],"parents":[2147483647,0,0,1,1,2,2,3,3,5,5,6,6,9,9,10,10,11,11,12,12],"right_children":[2,4,6,8,-1,10,12,-1,-1,14,16,18,20,-1,-1,-1,-1,-1,-1,-1,-1],"split_conditions":[4E0,6E0,1.9E1,3E0,-7.884497E-1,7E0,2.2E1,-1.0385888E0,-4.3963265E-1,5E0,5E0,4E0,4E0,2.9274186E-1,-6.914037E-1,4.9539214E-1,2.8961918E-1,-3.291685E-1,1.1737063E-2,-9.458786E-1,-5.1462406E-1],"split_indices":[1,0,1,1,0,1,1,0,0,0,0,0,0,0,0,0,0,0,0,0,0],"split_type":[0,0,0,0,0,0,0,0,0,0,0,0,0,0,0,0,0,0,0,0,0],"sum_hessian":[3.662E3,4.54E2,3.208E3,2.83E2,1.71E2,2.177E3,1.031E3,2.62E2,2.1E1,3.22E2,1.855E3,6.63E2,3.68E2,2.26E2,9.6E1,1.198E3,6.57E2,3.28E2,3.35E2,1.64E2,2.04E2],"tree_param":{"num_deleted":"0","num_feature":"2","num_nodes":"21","size_leaf_vector":"1"}},{"base_weights":[-2.0403187E-3,-8.2817E0,1.1719227E0,-9.052457E0,-7.198093E-1,2.9492176E0,-3.9507687E0,-9.478244E-1,-3.9766777E-1,3.4577937E0,-1.8111138E-1,-1.9863056E0,-6.3836627E0,3.988419E-1,8.51149E-2,-6.4269054E-1,1.6212565E-1,-3.58072E-1,-2.680311E-2,-8.51864E-1,-4.6341273E-1],"categories":[],"categories_nodes":[],"categories_segments":[],"categories_sizes":[],"default_left":[0,0,0,0,0,0,0,0,0,0,0,0,0,0,0,0,0,0,0,0,0],"id":2,"left_children":[1,3,5,7,-1,9,11,-1,-1,13,15,17,19,-1,-1,-1,-1,-1,-1,-1,-1],"loss_changes":[3.5614117E4,3.1485547E2,2.9228102E4,5.2854297E2,0E0,3.7943848E3,3.9398271E3,0E0,0E0,2.8320645E3,3.7703306E3,1.2565359E3,1.3388193E3,0E0,0E0,0E0,0E0,0E0,0E0,0E0,0E0],"parents":[2147483647,0,0,1,1,2,2,3,3,5,5,6,6,9,9,10,10,11,11,12,12],"right_children":[2,4,6,8,-1,10,12,-1,-1,14,16,18,20,-1,-1,-1,-1,-1,-1,-1,-1],"split_conditions":[4E0,5E0,2E1,3E0,-7.198093E-1,7E0,2.2E1,-9.478244E-1,-3.9766777E-1,1.8E1,7E0,4E0,4E0,3.988419E-1,8.51149E-2,-6.4269054E-1,1.6212565E-1,-3.58072E-1,-2.680311E-2,-8.51864E-1,-4.6341273E-1],"split_indices":[1,0,1,1,0,0,1,0,0,1,1,0,0,0,0,0,0,0,0,0,0],"split_type":[0,0,0,0,0,0,0,0,0,0,0,0,0,0,0,0,0,0,0,0,0],"sum_hessian":[3.662E3,4.54E2,3.208E3,2.61E2,1.93E2,2.382E3,8.26E2,2.4E2,2.1E1,2.049E3,3.33E2,4.58E2,3.68E2,1.702E3,3.47E2,7.4E1,2.59E2,2.37E2,2.21E2,1.64E2,2.04E2],"tree_param":{"num_deleted":"0","num_feature":"2","num_nodes":"21","size_leaf_vector":"1"}},{"base_weights":[-2.8632632E-3,-7.4580693E0,1.0542017E0,-8.152347E0,-6.4819937E0,2.9257064E0,-2.8965652E0,-8.534352E-1,-3.5970855E-1,-5.6089664E-1,-6.722969E-1,-1.7732531E-1,3.4641511E0,-1.3071169E0,-5.7488613E0,2.2388819E-1,-5.82992E-1,4.0981123E-1,2.3036908E-1,-2.7291167E-1,8.914834E-3,-7.6719385E-1,-4.172975E-1],"categories":[],"categories_nodes":[],"categories_segments":[],"categories_sizes":[],"default_left":[0,0,0,0,0,0,0,0,0,0,0,0,0,0,0,0,0,0,0,0,0,0,0],"id":3,"left_children":[1,3,5,7,9,11,13,-1,-1,-1,-1,15,17,19,21,-1,-1,-1,-1,-1,-1,-1,-1],"loss_changes":[2.8874637E4,2.5549414E2,2.3735432E4,4.252168E2,3.1044922E0,3.6396406E3,4.6711387E3,0E0,0E0,0E0,0E0,4.4245347E3,1.3559922E3,1.318608E3,1.0862568E3,0E0,0E0,0E0,0E0,0E0,0E0,0E0,0E0],"parents":[2147483647,0,0,1,1,2,2,3,3,4,4,5,5,6,6,11,11,12,12,13,13,14,14],"right_children":[2,4,6,8,10,12,14,-1,-1,-1,-1,16,18,20,22,-1,-1,-1,-1,-1,-1,-1,-1],"split_conditions":[4E0,5E0,1.9E1,3E0,1E0,7E0,2.2E1,-8.534352E-1,-3.5970855E-1,-5.6089664E-1,-6.722969E-1,5E0,5E0,4E0,4E0,2.2388819E-1,-5.82992E-1,4.0981123E-1,2.3036908E-1,-2.7291167E-1,8.914834E-3,-7.6719385E-1,-4.172975E-1],"split_indices":[1,0,1,1,1,1,1,0,0,0,0,0,0,0,0,0,0,0,0,0,0,0,0],"split_type":[0,0,0,0,0,0,0,0,0,0,0,0,0,0,0,0,0,0,0,0,0,0,0],"sum_hessian":[3.662E3,4.54E2,3.208E3,2.61E2,1.93E2,2.177E3,1.031E3,2.4E2,2.1E1,4.7E1,1.46E2,3.22E2,1.855E3,6.63E2,3.68E2,2.26E2,9.6E1,1.198E3,6.57E2,3.28E2,3.35E2,1.64E2,2.04E2],"tree_param":{"num_deleted":"0","num_feature":"2","num_nodes":"23","size_leaf_vector":"1"}},{"base_weights":[-3.5633796E-3,-6.7176385E0,9.484179E-1,-7.2818007E0,-5.7470596E-1,2.397009E0,-3.2268429E0,-7.591062E-1,-3.2537273E-1,2.818744E0,-1.986625E-1,-1.6518904E0,-5.177185E0,3.2598865E-1,6.518342E-2,-4.5886406E-1,1.5913652E-1,-2.952387E-1,-2.5022352E-2,-6.909394E-1,-3.7577134E-1],"categories":[],"categories_nodes":[],"categories_segments":[],"categories_sizes":[],"default_left":[0,0,0,0,0,0,0,0,0,0,0,0,0,0,0,0,0,0,0,0,0],"id":4,"left_children":[1,3,5,7,-1,9,11,-1,-1,13,15,17,19,-1,-1,-1,-1,-1,-1,-1,-1],"loss_changes":[2.3419072E4,2.0729492E2,1.941655E4,3.290869E2,0E0,2.6091963E3,2.5317402E3,0E0,0E0,1.9575029E3,2.631935E3,8.359552E2,8.813418E2,0E0,0E0,0E0,0E0,0E0,0E0,0E0,0E0],"parents":[2147483647,0,0,1,1,2,2,3,3,5,5,6,6,9,9,10,10,11,11,12,12],"right_children":[2,4,6,8,-1,10,12,-1,-1,14,16,18,20,-1,-1,-1,-1,-1,-1,-1,-1],"split_conditions":[4E0,6E0,2E1,3E0,-5.7470596E-1,7E0,2.2E1,-7.591062E-1,-3.2537273E-1,1.8E1,9E0,4E0,4E0,3.2598865E-1,6.518342E-2,-4.5886406E-1,1.5913652E-1,-2.952387E-1,-2.5022352E-2,-6.909394E-1,-3.7577134E-1],"split_indices":[1,0,1,1,0,0,1,0,0,1,1,0,0,0,0,0,0,0,0,0,0],"split_type":[0,0,0,0,0,0,0,0,0,0,0,0,0,0,0,0,0,0,0,0,0],"sum_hessian":[3.662E3,4.54E2,3.208E3,2.83E2,1.71E2,2.382E3,8.26E2,2.62E2,2.1E1,2.049E3,3.33E2,4.58E2,3.68E2,1.702E3,3.47E2,9.6E1,2.37E2,2.37E2,2.21E2,1.64E2,2.04E2],"tree_param":{"num_deleted":"0","num_feature":"2","num_nodes":"21","size_leaf_vector":"1"}},{"base_weights":[-4.0137456E-3,-6.049521E0,8.5317224E-1,-6.620297E0,-5.247496E0,1.914469E0,-3.79343E0,-6.9285005E-1,-2.943144E-1,-4.4970217E-1,-5.4568523E-1,2.4996262E0,2.9440032E-2,-5.27437E0,-2.468706E0,-3.0587286E-2,3.0401027E-1,-1.435297E-1,6.849181E-2,-3.891983E-1,-6.222643E-1,-1.04426555E-1,-4.3087822E-1],"categories":[],"categories_nodes":[],"categories_segments":[],"categories_sizes":[],"default_left":[0,0,0,0,0,0,0,0,0,0,0,0,0,0,0,0,0,0,0,0,0,0,0],"id":5,"left_children":[1,3,5,7,9,11,13,-1,-1,-1,-1,15,17,19,21,-1,-1,-1,-1,-1,-1,-1,-1],"loss_changes":[1.8987283E4,1.7354688E2,1.5832203E4,2.765371E2,5.940918E0,2.882166E3,1.1581963E3,0E0,0E0,0E0,0E0,3.0244443E3,5.962469E2,3.4413916E2,8.2638257E2,0E0,0E0,0E0,0E0,0E0,0E0,0E0,0E0],"parents":[2147483647,0,0,1,1,2,2,3,3,4,4,5,5,6,6,11,11,12,12,13,13,14,14],"right_children":[2,4,6,8,10,12,14,-1,-1,-1,-1,16,18,20,22,-1,-1,-1,-1,-1,-1,-1,-1],"split_conditions":[4E0,5E0,2.1E1,3E0,1E0,1.8E1,4E0,-6.9285005E-1,-2.943144E-1,-4.4970217E-1,-5.4568523E-1,7E0,3E0,2.2E1,6E0,-3.0587286E-2,3.0401027E-1,-1.435297E-1,6.849181E-2,-3.891983E-1,-6.222643E-1,-1.04426555E-1,-4.3087822E-1],"split_indices":[1,0,1,1,1,1,0,0,0,0,0,1,0,1,0,0,0,0,0,0,0,0,0],"split_type":[0,0,0,0,0,0,0,0,0,0,0,0,0,0,0,0,0,0,0,0,0,0,0],"sum_hessian":[3.662E3,4.54E2,3.208E3,2.61E2,1.93E2,2.612E3,5.96E2,2.4E2,2.1E1,4.7E1,1.46E2,1.993E3,6.19E2,2.8E2,3.16E2,3.22E2,1.671E3,1.91E2,4.28E2,1.16E2,1.64E2,1.79E2,1.37E2],"tree_param":{"num_deleted":"0","num_feature":"2","num_nodes":"23","size_leaf_vector":"1"}},{"base_weights":[-4.521757E-3,-5.4489264E0,7.6743484E-1,-5.962035E0,-4.7278776E0,2.148533E0,-2.1480687E0,-6.2385255E-1,-2.6622078E-1,-4.0566882E-1,-4.9148795E-1,2.9058821E0,7.1435434E-1,-9.7613335E-1,-4.251096E0,8.741026E-2,3.1933427E-1,-4.946541E-1,1.5477777E-1,-2.0784275E-1,1.0610156E-2,-5.60415E-1,-3.1413147E-1],"categories":[],"categories_nodes":[],"categories_segments":[],"categories_sizes":[],"default_left":[0,0,0,0,0,0,0,0,0,0,0,0,0,0,0,0,0,0,0,0,0,0,0],"id":6,"left_children":[1,3,5,7,9,11,13,-1,-1,-1,-1,15,17,19,21,-1,-1,-1,-1,-1,-1,-1,-1],"loss_changes":[1.5399198E4,1.4015137E2,1.2925963E4,2.224336E2,4.411621E0,2.3636113E3,2.5393296E3,0E0,0E0,0E0,0E0,8.2948926E2,3.5649695E3,7.923337E2,5.364839E2,0E0,0E0,0E0,0E0,0E0,0E0,0E0,0E0],"parents":[2147483647,0,0,1,1,2,2,3,3,4,4,5,5,6,6,11,11,12,12,13,13,14,14],"right_children":[2,4,6,8,10,12,14,-1,-1,-1,-1,16,18,20,22,-1,-1,-1,-1,-1,-1,-1,-1],"split_conditions":[4E0,5E0,1.9E1,3E0,1E0,5E0,2.2E1,-6.2385255E-1,-2.6622078E-1,-4.0566882E-1,-4.9148795E-1,6E0,7E0,4E0,4E0,8.741026E-2,3.1933427E-1,-4.946541E-1,1.5477777E-1,-2.0784275E-1,1.0610156E-2,-5.60415E-1,-3.1413147E-1],"split_indices":[1,0,1,1,1,0,1,0,0,0,0,1,1,0,0,0,0,0,0,0,0,0,0],"split_type":[0,0,0,0,0,0,0,0,0,0,0,0,0,0,0,0,0,0,0,0,0,0,0],"sum_hessian":[3.662E3,4.54E2,3.208E3,2.61E2,1.93E2,2.177E3,1.031E3,2.4E2,2.1E1,4.7E1,1.46E2,1.424E3,7.53E2,6.63E2,3.68E2,1.77E2,1.247E3,9.6E1,6.57E2,3.28E2,3.35E2,1.64E2,2.04E2],"tree_param":{"num_deleted":"0","num_feature":"2","num_nodes":"23","size_leaf_vector":"1"}},{"base_weights":[-4.831732E-3,-4.907962E0,6.903783E-1,-5.369229E0,-4.2597146E0,1.5599955E0,-3.1169925E0,-5.6172615E-1,-2.4080876E-1,-3.6594704E-1,-4.426735E-1,2.0413213E0,9.473848E-3,-4.337658E0,-2.0251186E0,-2.2470593E-2,2.4778557E-1,-8.260723E-2,8.316424E-2,-3.3000448E-1,-5.047132E-1,-1.2016352E-1,-4.8105595E-1],"categories":[],"categories_nodes":[],"categories_segments":[],"categories_sizes":[],"default_left":[0,0,0,0,0,0,0,0,0,0,0,0,0,0,0,0,0,0,0,0,0,0,0],"id":7,"left_children":[1,3,5,7,9,11,13,-1,-1,-1,-1,15,17,19,21,-1,-1,-1,-1,-1,-1,-1,-1],"loss_changes":[1.2489475E4,1.1317969E2,1.0629719E4,1.7890186E2,3.2495117E0,1.9500786E3,7.869048E2,0E0,0E0,0E0,0E0,1.9730186E3,4.2660208E2,1.9020508E2,7.2134265E2,0E0,0E0,0E0,0E0,0E0,0E0,0E0,0E0],"parents":[2147483647,0,0,1,1,2,2,3,3,4,4,5,5,6,6,11,11,12,12,13,13,14,14],"right_children":[2,4,6,8,10,12,14,-1,-1,-1,-1,16,18,20,22,-1,-1,-1,-1,-1,-1,-1,-1],"split_conditions":[4E0,5E0,2.1E1,3E0,1E0,1.8E1,4E0,-5.6172615E-1,-2.4080876E-1,-3.6594704E-1,-4.426735E-1,7E0,4E0,2.2E1,7E0,-2.2470593E-2,2.4778557E-1,-8.260723E-2,8.316424E-2,-3.3000448E-1,-5.047132E-1,-1.2016352E-1,-4.8105595E-1],"split_indices":[1,0,1,1,1,1,0,0,0,0,0,1,0,1,0,0,0,0,0,0,0,0,0],"split_type":[0,0,0,0,0,0,0,0,0,0,0,0,0,0,0,0,0,0,0,0,0,0,0],"sum_hessian":[3.662E3,4.54E2,3.208E3,2.61E2,1.93E2,2.612E3,5.96E2,2.4E2,2.1E1,4.7E1,1.46E2,1.993E3,6.19E2,2.8E2,3.16E2,3.22E2,1.671E3,3.07E2,3.12E2,1.16E2,1.64E2,2.45E2,7.1E1],"tree_param":{"num_deleted":"0","num_feature":"2","num_nodes":"23","size_leaf_vector":"1"}},{"base_weights":[-5.118754E-3,-4.4207067E0,6.209634E-1,-4.796144E0,-3.7750968E-1,1.5876224E0,-2.165215E0,-4.9968967E0,-2.1782248E-1,2.0944364E0,1.14350945E-1,-1.0925838E0,-3.4935956E0,-5.2363104E-1,-4.4523793E-1,2.3572376E-1,8.116803E-2,-3.2567546E-1,1.358463E-1,-2.0313478E-1,-8.123949E-3,-4.9786812E-1,-2.8016135E-1],"categories":[],"categories_nodes":[],"categories_segments":[],"categories_sizes":[],"default_left":[0,0,0,0,0,0,0,0,0,0,0,0,0,0,0,0,0,0,0,0,0,0,0],"id":8,"left_children":[1,3,5,7,-1,9,11,13,-1,15,17,19,21,-1,-1,-1,-1,-1,-1,-1,-1,-1,-1],"loss_changes":[1.0129185E4,9.217969E1,8.646187E3,1.3837354E2,0E0,1.7790864E3,1.1745444E3,1.0972168E1,0E0,5.957827E2,2.5669783E3,4.3561584E2,3.6525586E2,0E0,0E0,0E0,0E0,0E0,0E0,0E0,0E0,0E0,0E0],"parents":[2147483647,0,0,1,1,2,2,3,3,5,5,6,6,7,7,9,9,10,10,11,11,12,12],"right_children":[2,4,6,8,-1,10,12,14,-1,16,18,20,22,-1,-1,-1,-1,-1,-1,-1,-1,-1,-1],"split_conditions":[4E0,6E0,2E1,3E0,-3.7750968E-1,6E0,2.2E1,2E0,-2.1782248E-1,1.8E1,1E1,4E0,3E0,-5.2363104E-1,-4.4523793E-1,2.3572376E-1,8.116803E-2,-3.2567546E-1,1.358463E-1,-2.0313478E-1,-8.123949E-3,-4.9786812E-1,-2.8016135E-1],"split_indices":[1,0,1,1,0,0,1,1,0,1,1,0,0,0,0,0,0,0,0,0,0,0,0],"split_type":[0,0,0,0,0,0,0,0,0,0,0,0,0,0,0,0,0,0,0,0,0,0,0],"sum_hessian":[3.662E3,4.54E2,3.208E3,2.83E2,1.71E2,2.382E3,8.26E2,2.62E2,2.1E1,1.772E3,6.1E2,4.58E2,3.68E2,1.76E2,8.6E1,1.47E3,3.02E2,1.64E2,4.46E2,2.37E2,2.21E2,1.15E2,2.53E2],"tree_param":{"num_deleted":"0","num_feature":"2","num_nodes":"23","size_leaf_vector":"1"}},{"base_weights":[-5.2692E-3,-3.9820735E0,5.585984E-1,-4.320708E0,-3.3997815E0,1.5823048E0,-1.6024395E0,-4.500891E0,-1.9703038E-1,-2.9315023E0,-3.5524025E0,2.2185764E0,3.777035E-1,-7.420428E-1,-3.146345E0,-4.7156373E-1,-4.012259E-1,-3.343907E-1,-2.3797682E-1,-2.847513E-1,-3.6753157E-1,5.751287E-2,2.451201E-1,-4.1124305E-1,1.03904895E-1,-2.53538E-1,-3.4982815E-2,-4.485105E-1,-2.5225553E-1],"categories":[],"categories_nodes":[],"categories_segments":[],"categories_sizes":[],"default_left":[0,0,0,0,0,0,0,0,0,0,0,0,0,0,0,0,0,0,0,0,0,0,0,0,0,0,0,0,0],"id":9,"left_children":[1,3,5,7,9,11,13,15,-1,17,19,21,23,25,27,-1,-1,-1,-1,-1,-1,-1,-1,-1,-1,-1,-1,-1,-1],"loss_changes":[8.216104E3,7.5029785E1,7.101705E3,1.1140674E2,1.8789062E0,1.668498E3,1.3685442E3,8.676758E0,0E0,2.9641418E0,3.6437988E-1,5.43376E2,2.243298E3,4.6615283E2,2.9683984E2,0E0,0E0,0E0,0E0,0E0,0E0,0E0,0E0,0E0,0E0,0E0,0E0,0E0,0E0],"parents":[2147483647,0,0,1,1,2,2,3,3,4,4,5,5,6,6,7,7,9,9,10,10,11,11,12,12,13,13,14,14],"right_children":[2,4,6,8,10,12,14,16,-1,18,20,22,24,26,28,-1,-1,-1,-1,-1,-1,-1,-1,-1,-1,-1,-1,-1,-1],"split_conditions":[4E0,6E0,1.9E1,3E0,1E0,5E0,2.2E1,2E0,-1.9703038E-1,7E0,7E0,6E0,7E0,2E0,3E0,-4.7156373E-1,-4.012259E-1,-3.343907E-1,-2.3797682E-1,-2.847513E-1,-3.6753157E-1,5.751287E-2,2.451201E-1,-4.1124305E-1,1.03904895E-1,-2.53538E-1,-3.4982815E-2,-4.485105E-1,-2.5225553E-1],"split_indices":[1,0,1,1,1,0,1,1,0,0,0,1,1,0,0,0,0,0,0,0,0,0,0,0,0,0,0,0,0],"split_type":[0,0,0,0,0,0,0,0,0,0,0,0,0,0,0,0,0,0,0,0,0,0,0,0,0,0,0,0,0],"sum_hessian":[3.662E3,4.54E2,3.208E3,2.83E2,1.71E2,2.177E3,1.031E3,2.62E2,2.1E1,4.7E1,1.24E2,1.424E3,7.53E2,6.63E2,3.68E2,1.76E2,8.6E1,2.4E1,2.3E1,2.2E1,1.02E2,1.77E2,1.247E3,9.6E1,6.57E2,1.18E2,5.45E2,1.15E2,2.53E2],"tree_param":{"num_deleted":"0","num_feature":"2","num_nodes":"29","size_leaf_vector":"1"}},{"base_weights":[-5.6402944E-3,-3.588909E0,5.0242853E-1,-3.9268198E0,-3.1140552E0,1.1490436E0,-2.3285725E0,-4.1062975E0,-1.7822297E-1,-2.6502762E0,-3.244309E-1,1.4250263E0,-5.989731E-1,-3.292638E0,-1.466645E0,-3.798534E-1,-4.3316594E-1,-3.022892E-1,-2.1517067E-1,1.8320233E-1,1.7360123E-2,-4.6828768E-1,6.594298E-3,-2.650851E-1,-3.7277684E-1,-2.5947336E-2,-3.030589E-1],"categories":[],"categories_nodes":[],"categories_segments":[],"categories_sizes":[],"default_left":[0,0,0,0,0,0,0,0,0,0,0,0,0,0,0,0,0,0,0,0,0,0,0,0,0,0,0],"id":10,"left_children":[1,3,5,7,9,11,13,15,-1,17,-1,19,21,23,25,-1,-1,-1,-1,-1,-1,-1,-1,-1,-1,-1,-1],"loss_changes":[6.670467E3,6.0780273E1,5.8769683E3,9.3526855E1,3.1210938E0,1.2614233E3,4.9125073E2,2.6123047E-1,0E0,2.4127808E0,0E0,1.149231E3,9.697256E2,6.8590576E1,5.976935E2,0E0,0E0,0E0,0E0,0E0,0E0,0E0,0E0,0E0,0E0,0E0,0E0],"parents":[2147483647,0,0,1,1,2,2,3,3,4,4,5,5,6,6,7,7,9,9,11,11,12,12,13,13,14,14],"right_children":[2,4,6,8,10,12,14,16,-1,18,-1,20,22,24,26,-1,-1,-1,-1,-1,-1,-1,-1,-1,-1,-1,-1],"split_conditions":[4E0,5E0,2.1E1,3E0,1E0,7E0,4E0,2E0,-1.7822297E-1,7E0,-3.244309E-1,1.8E1,6E0,2.2E1,6E0,-3.798534E-1,-4.3316594E-1,-3.022892E-1,-2.1517067E-1,1.8320233E-1,1.7360123E-2,-4.6828768E-1,6.594298E-3,-2.650851E-1,-3.7277684E-1,-2.5947336E-2,-3.030589E-1],"split_indices":[1,0,1,1,1,0,0,0,0,0,0,1,1,1,0,0,0,0,0,0,0,0,0,0,0,0,0],"split_type":[0,0,0,0,0,0,0,0,0,0,0,0,0,0,0,0,0,0,0,0,0,0,0,0,0,0,0],"sum_hessian":[3.662E3,4.54E2,3.208E3,2.61E2,1.93E2,2.612E3,5.96E2,2.4E2,2.1E1,4.7E1,1.46E2,2.256E3,3.56E2,2.8E2,3.16E2,1.09E2,1.31E2,2.4E1,2.3E1,1.702E3,5.54E2,4.9E1,3.07E2,1.16E2,1.64E2,1.79E2,1.37E2],"tree_param":{"num_deleted":"0","num_feature":"2","num_nodes":"27","size_leaf_vector":"1"}},{"base_weights":[-5.912125E-3,-3.2340467E0,4.518028E-1,-3.5084994E0,-2.7620785E0,1.034039E0,-2.0973346E0,-3.6537926E0,-1.6121082E-1,-2.396029E0,-2.8805447E0,1.407431E0,-3.3690915E-2,-2.9656441E0,-1.3210183E0,-3.829573E-1,-3.2541725E-1,-2.7326944E-1,-1.9455014E-1,-2.2648168E-1,-2.9900712E-1,1.6709925E-1,8.115999E-3,-2.6535118E-1,8.073678E-2,-2.3880313E-1,-3.3572504E-1,-6.2257808E-2,-3.6890087E-1],"categories":[],"categories_nodes":[],"categories_segments":[],"categories_sizes":[],"default_left":[0,0,0,0,0,0,0,0,0,0,0,0,0,0,0,0,0,0,0,0,0,0,0,0,0,0,0,0,0],"id":11,"left_children":[1,3,5,7,9,11,13,15,-1,17,19,21,23,25,27,-1,-1,-1,-1,-1,-1,-1,-1,-1,-1,-1,-1,-1,-1],"loss_changes":[5.4137837E3,4.9246582E1,4.7649673E3,7.236084E1,5.567627E-1,1.041803E3,3.9850977E2,6.012207E0,0E0,1.9640808E0,1.6578369E0,6.766008E2,1.4960632E3,5.5543945E1,5.2198944E2,0E0,0E0,0E0,0E0,0E0,0E0,0E0,0E0,0E0,0E0,0E0,0E0,0E0,0E0],"parents":[2147483647,0,0,1,1,2,2,3,3,4,4,5,5,6,6,7,7,9,9,10,10,11,11,12,12,13,13,14,14],"right_children":[2,4,6,8,10,12,14,16,-1,18,20,22,24,26,28,-1,-1,-1,-1,-1,-1,-1,-1,-1,-1,-1,-1,-1,-1],"split_conditions":[4E0,6E0,2.1E1,3E0,1E0,6E0,4E0,2E0,-1.6121082E-1,7E0,7E0,1.9E1,1E1,2.2E1,7E0,-3.829573E-1,-3.2541725E-1,-2.7326944E-1,-1.9455014E-1,-2.2648168E-1,-2.9900712E-1,1.6709925E-1,8.115999E-3,-2.6535118E-1,8.073678E-2,-2.3880313E-1,-3.3572504E-1,-6.2257808E-2,-3.6890087E-1],"split_indices":[1,0,1,1,1,0,0,1,0,0,0,1,1,1,0,0,0,0,0,0,0,0,0,0,0,0,0,0,0],"split_type":[0,0,0,0,0,0,0,0,0,0,0,0,0,0,0,0,0,0,0,0,0,0,0,0,0,0,0,0,0],"sum_hessian":[3.662E3,4.54E2,3.208E3,2.83E2,1.71E2,2.612E3,5.96E2,2.62E2,2.1E1,4.7E1,1.24E2,1.935E3,6.77E2,2.8E2,3.16E2,1.76E2,8.6E1,2.4E1,2.3E1,2.2E1,1.02E2,1.614E3,3.21E2,1.64E2,5.13E2,1.16E2,1.64E2,2.45E2,7.1E1],"tree_param":{"num_deleted":"0","num_feature":"2","num_nodes":"29","size_leaf_vector":"1"}},{"base_weights":[-6.1064935E-3,-2.9147365E0,4.0630633E-1,-3.1882546E0,-2.5303214E0,1.1706995E0,-1.2073126E0,-3.3329535E0,-1.4582248E-1,-2.1661723E0,-2.6320142E-1,1.6636333E0,2.3754108E-1,-5.609044E-1,-2.3672252E0,-3.0761358E-1,-3.5217187E-1,-2.4703555E-1,-1.7590576E-1,1.696047E-2,1.875391E-1,-3.2495043E-1,7.512278E-2,-1.3032411E-1,1.676362E-2,-2.0388734E-1,-4.6285015E-1],"categories":[],"categories_nodes":[],"categories_segments":[],"categories_sizes":[],"default_left":[0,0,0,0,0,0,0,0,0,0,0,0,0,0,0,0,0,0,0,0,0,0,0,0,0,0,0],"id":12,"left_children":[1,3,5,7,9,11,13,15,-1,17,-1,19,21,23,25,-1,-1,-1,-1,-1,-1,-1,-1,-1,-1,-1,-1],"loss_changes":[4.3951587E3,3.977368E1,3.95952E3,6.072705E1,1.482666E0,1.0014529E3,7.7244226E2,8.5009766E-1,0E0,1.5986938E0,0E0,4.5051172E2,1.3530426E3,3.5932452E2,2.6454346E2,0E0,0E0,0E0,0E0,0E0,0E0,0E0,0E0,0E0,0E0,0E0,0E0],"parents":[2147483647,0,0,1,1,2,2,3,3,4,4,5,5,6,6,7,7,9,9,11,11,12,12,13,13,14,14],"right_children":[2,4,6,8,10,12,14,16,-1,18,-1,20,22,24,26,-1,-1,-1,-1,-1,-1,-1,-1,-1,-1,-1,-1],"split_conditions":[4E0,5E0,1.9E1,3E0,1E0,5E0,2.2E1,2E0,-1.4582248E-1,7E0,-2.6320142E-1,6E0,7E0,4E0,7E0,-3.0761358E-1,-3.5217187E-1,-2.4703555E-1,-1.7590576E-1,1.696047E-2,1.875391E-1,-3.2495043E-1,7.512278E-2,-1.3032411E-1,1.676362E-2,-2.0388734E-1,-4.6285015E-1],"split_indices":[1,0,1,1,1,0,1,0,0,0,0,1,1,0,0,0,0,0,0,0,0,0,0,0,0,0,0],"split_type":[0,0,0,0,0,0,0,0,0,0,0,0,0,0,0,0,0,0,0,0,0,0,0,0,0,0,0],"sum_hessian":[3.662E3,4.54E2,3.208E3,2.61E2,1.93E2,2.177E3,1.031E3,2.4E2,2.1E1,4.7E1,1.46E2,1.424E3,7.53E2,6.63E2,3.68E2,1.09E2,1.31E2,2.4E1,2.3E1,1.77E2,1.247E3,9.6E1,6.57E2,3.28E2,3.35E2,3.23E2,4.5E1],"tree_param":{"num_deleted":"0","num_feature":"2","num_nodes":"27","size_leaf_vector":"1"}},{"base_weights":[-6.128181E-3,-2.6265414E0,3.6541876E-1,-2.8490314E0,-2.2439037E-1,1.0536093E0,-1.0873374E0,-2.9661834E0,-1.3190307E-1,1.4974145E0,2.1345556E-1,-5.049849E-1,-2.1323097E0,-3.1099257E-1,-2.639649E-1,1.1955756E-1,2.4038143E-1,-2.9279038E-1,6.762191E-2,-1.9753769E-1,-1.8358998E-2,-1.8356155E-1,-4.175713E-1],"categories":[],"categories_nodes":[],"categories_segments":[],"categories_sizes":[],"default_left":[0,0,0,0,0,0,0,0,0,0,0,0,0,0,0,0,0,0,0,0,0,0,0],"id":13,"left_children":[1,3,5,7,-1,9,11,13,-1,15,17,19,21,-1,-1,-1,-1,-1,-1,-1,-1,-1,-1],"loss_changes":[3.5672805E3,3.234253E1,3.2094172E3,4.6992676E1,0E0,8.1177954E2,6.2693884E2,4.135254E0,0E0,3.8698682E2,1.0980747E3,3.1342816E2,2.16047E2,0E0,0E0,0E0,0E0,0E0,0E0,0E0,0E0,0E0,0E0],"parents":[2147483647,0,0,1,1,2,2,3,3,5,5,6,6,7,7,9,9,10,10,11,11,12,12],"right_children":[2,4,6,8,-1,10,12,14,-1,16,18,20,22,-1,-1,-1,-1,-1,-1,-1,-1,-1,-1],"split_conditions":[4E0,6E0,1.9E1,3E0,-2.2439037E-1,5E0,2.2E1,2E0,-1.3190307E-1,4E0,7E0,2E0,7E0,-3.1099257E-1,-2.639649E-1,1.1955756E-1,2.4038143E-1,-2.9279038E-1,6.762191E-2,-1.9753769E-1,-1.8358998E-2,-1.8356155E-1,-4.175713E-1],"split_indices":[1,0,1,1,0,0,1,1,0,0,1,0,0,0,0,0,0,0,0,0,0,0,0],"split_type":[0,0,0,0,0,0,0,0,0,0,0,0,0,0,0,0,0,0,0,0,0,0,0],"sum_hessian":[3.662E3,4.54E2,3.208E3,2.83E2,1.71E2,2.177E3,1.031E3,2.62E2,2.1E1,1.424E3,7.53E2,6.63E2,3.68E2,1.76E2,8.6E1,1.07E3,3.54E2,9.6E1,6.57E2,1.18E2,5.45E2,3.23E2,4.5E1],"tree_param":{"num_deleted":"0","num_feature":"2","num_nodes":"23","size_leaf_vector":"1"}},{"base_weights":[-5.955976E-3,-2.365934E0,3.2866412E-1,-2.5885408E0,-2.0531044E0,7.62401E-1,-1.5703026E0,-2.7051823E0,-1.19312346E-1,-1.7386507E0,-2.1418166E-1,9.5771533E-1,-4.745369E-1,-2.3542879E0,-8.703967E-1,-2.4905153E-1,-2.863578E-1,-2.0177865E-1,-1.3754404E-1,1.2431715E-1,8.007671E-3,-3.3585247E-1,-4.8163338E-4,-2.8411162E-1,-1.9948141E-1,8.063283E-3,-2.1045628E-1],"categories":[],"categories_nodes":[],"categories_segments":[],"categories_sizes":[],"default_left":[0,0,0,0,0,0,0,0,0,0,0,0,0,0,0,0,0,0,0,0,0,0,0,0,0,0,0],"id":14,"left_children":[1,3,5,7,9,11,13,15,-1,17,-1,19,21,23,25,-1,-1,-1,-1,-1,-1,-1,-1,-1,-1,-1,-1],"loss_changes":[2.8934343E3,2.6370605E1,2.6442964E3,3.9416626E1,1.6879883E0,6.317335E2,3.2553406E2,1.0627441E0,0E0,2.0911255E0,0E0,5.653406E2,4.8360043E2,4.350818E1,3.722416E2,0E0,0E0,0E0,0E0,0E0,0E0,0E0,0E0,0E0,0E0,0E0,0E0],"parents":[2147483647,0,0,1,1,2,2,3,3,4,4,5,5,6,6,7,7,9,9,11,11,12,12,13,13,14,14],"right_children":[2,4,6,8,10,12,14,16,-1,18,-1,20,22,24,26,-1,-1,-1,-1,-1,-1,-1,-1,-1,-1,-1,-1],"split_conditions":[4E0,5E0,2.1E1,3E0,1E0,7E0,4E0,2E0,-1.19312346E-1,7E0,-2.1418166E-1,1.8E1,6E0,2E0,6E0,-2.4905153E-1,-2.863578E-1,-2.0177865E-1,-1.3754404E-1,1.2431715E-1,8.007671E-3,-3.3585247E-1,-4.8163338E-4,-2.8411162E-1,-1.9948141E-1,8.063283E-3,-2.1045628E-1],"split_indices":[1,0,1,1,1,0,0,0,0,0,0,1,1,0,0,0,0,0,0,0,0,0,0,0,0,0,0],"split_type":[0,0,0,0,0,0,0,0,0,0,0,0,0,0,0,0,0,0,0,0,0,0,0,0,0,0,0],"sum_hessian":[3.662E3,4.54E2,3.208E3,2.61E2,1.93E2,2.612E3,5.96E2,2.4E2,2.1E1,4.7E1,1.46E2,2.256E3,3.56E2,2.8E2,3.16E2,1.09E2,1.31E2,2.4E1,2.3E1,1.702E3,5.54E2,4.9E1,3.07E2,1.16E2,1.64E2,1.79E2,1.37E2],"tree_param":{"num_deleted":"0","num_feature":"2","num_nodes":"27","size_leaf_vector":"1"}},{"base_weights":[-5.933219E-3,-2.131996E0,2.9552034E-1,-2.313529E0,-1.8198599E0,9.385358E-1,-7.5914115E-1,-2.4079812E0,-1.0792345E-1,-1.571855E0,-1.9005349E0,-7.605424E-1,1.1561558E0,-3.1884405E-1,-1.768932E0,-2.5254342E-1,-2.141347E-1,-1.8240793E-1,-1.2436273E-1,-1.3769206E-1,-1.9990067E-1,2.6055387E-1,-1.5613414E-1,1.5487114E-1,5.027162E-2,-1.0118711E-1,3.7330262E-2,-1.5089948E-1,-3.5613385E-1],"categories":[],"categories_nodes":[],"categories_segments":[],"categories_sizes":[],"default_left":[0,0,0,0,0,0,0,0,0,0,0,0,0,0,0,0,0,0,0,0,0,0,0,0,0,0,0,0,0],"id":15,"left_children":[1,3,5,7,9,11,13,15,-1,17,19,21,23,25,27,-1,-1,-1,-1,-1,-1,-1,-1,-1,-1,-1,-1,-1,-1],"loss_changes":[2.3482803E3,2.157129E1,2.1769395E3,3.0510376E1,4.539795E-1,7.3816785E2,5.4007935E2,2.8286133E0,0E0,1.705307E0,3.692688E0,6.159589E2,4.527334E2,4.071433E2,1.6654773E2,0E0,0E0,0E0,0E0,0E0,0E0,0E0,0E0,0E0,0E0,0E0,0E0,0E0,0E0],"parents":[2147483647,0,0,1,1,2,2,3,3,4,4,5,5,6,6,7,7,9,9,10,10,11,11,12,12,13,13,14,14],"right_children":[2,4,6,8,10,12,14,16,-1,18,20,22,24,26,28,-1,-1,-1,-1,-1,-1,-1,-1,-1,-1,-1,-1,-1,-1],"split_conditions":[4E0,6E0,1.8E1,3E0,1E0,6E0,2.2E1,2E0,-1.0792345E-1,7E0,7E0,2E0,5E0,4E0,7E0,-2.5254342E-1,-2.141347E-1,-1.8240793E-1,-1.2436273E-1,-1.3769206E-1,-1.9990067E-1,2.6055387E-1,-1.5613414E-1,1.5487114E-1,5.027162E-2,-1.0118711E-1,3.7330262E-2,-1.5089948E-1,-3.5613385E-1],"split_indices":[1,0,1,1,1,1,1,1,0,0,0,0,0,0,0,0,0,0,0,0,0,0,0,0,0,0,0,0,0],"split_type":[0,0,0,0,0,0,0,0,0,0,0,0,0,0,0,0,0,0,0,0,0,0,0,0,0,0,0,0,0],"sum_hessian":[3.662E3,4.54E2,3.208E3,2.83E2,1.71E2,1.993E3,1.215E3,2.62E2,2.1E1,4.7E1,1.24E2,2.26E2,1.767E3,8.47E2,3.68E2,1.76E2,8.6E1,2.4E1,2.3E1,2.2E1,1.02E2,4.3E1,1.83E2,1.103E3,6.64E2,4.23E2,4.24E2,3.23E2,4.5E1],"tree_param":{"num_deleted":"0","num_feature":"2","num_nodes":"29","size_leaf_vector":"1"}},{"base_weights":[-5.7441336E-3,-1.9214753E0,2.6588672E-1,-2.0841992E0,-1.6416202E0,7.060353E-1,-1.0027226E0,-2.1689575E0,-9.762166E-2,-1.4210604E0,-1.7131822E0,-6.840284E-1,8.5199654E-1,-1.5683913E0,-4.6656874E-1,-2.2743177E-1,-1.9296736E-1,-1.6489677E-1,-1.1244462E-1,-1.24521516E-1,-1.8010469E-1,2.3509069E-1,-1.4060561E-1,1.1706155E-1,2.800184E-2,-5.8274966E-2,-1.9907397E-1,6.1143986E-3,-2.3058747E-1],"categories":[],"categories_nodes":[],"categories_segments":[],"categories_sizes":[],"default_left":[0,0,0,0,0,0,0,0,0,0,0,0,0,0,0,0,0,0,0,0,0,0,0,0,0,0,0,0,0],"id":16,"left_children":[1,3,5,7,9,11,13,15,-1,17,19,21,23,25,27,-1,-1,-1,-1,-1,-1,-1,-1,-1,-1,-1,-1,-1,-1],"loss_changes":[1.9066324E3,1.7298828E1,1.7925383E3,2.4553223E1,2.8027344E-1,4.8408264E2,2.5008533E2,2.2418213E0,0E0,1.3906479E0,2.8970337E0,5.0073233E2,3.927705E2,1.6618628E2,4.1362732E2,0E0,0E0,0E0,0E0,0E0,0E0,0E0,0E0,0E0,0E0,0E0,0E0,0E0,0E0],"parents":[2147483647,0,0,1,1,2,2,3,3,4,4,5,5,6,6,7,7,9,9,10,10,11,11,12,12,13,13,14,14],"right_children":[2,4,6,8,10,12,14,16,-1,18,20,22,24,26,28,-1,-1,-1,-1,-1,-1,-1,-1,-1,-1,-1,-1,-1,-1],"split_conditions":[4E0,6E0,2E1,3E0,1E0,6E0,4E0,2E0,-9.762166E-2,7E0,7E0,2E0,5E0,2.1E1,7E0,-2.2743177E-1,-1.9296736E-1,-1.6489677E-1,-1.1244462E-1,-1.24521516E-1,-1.8010469E-1,2.3509069E-1,-1.4060561E-1,1.1706155E-1,2.800184E-2,-5.8274966E-2,-1.9907397E-1,6.1143986E-3,-2.3058747E-1],"split_indices":[1,0,1,1,1,1,0,1,0,0,0,0,0,1,0,0,0,0,0,0,0,0,0,0,0,0,0,0,0],"split_type":[0,0,0,0,0,0,0,0,0,0,0,0,0,0,0,0,0,0,0,0,0,0,0,0,0,0,0,0,0],"sum_hessian":[3.662E3,4.54E2,3.208E3,2.83E2,1.71E2,2.382E3,8.26E2,2.62E2,2.1E1,4.7E1,1.24E2,2.26E2,2.156E3,4.01E2,4.25E2,1.76E2,8.6E1,2.4E1,2.3E1,2.2E1,1.02E2,4.3E1,1.83E2,1.384E3,7.72E2,1.21E2,2.8E2,3.31E2,9.4E1],"tree_param":{"num_deleted":"0","num_feature":"2","num_nodes":"29","size_leaf_vector":"1"}},{"base_weights":[-5.5361204E-3,-1.7317452E0,2.3922259E-1,-1.8938396E0,-1.5039079E0,7.785936E-1,-6.454361E-1,-1.9782542E0,-8.83032E-2,-1.2847323E0,-1.5652448E-1,7.070742E-2,1.2163684E0,-1.2196805E0,-1.07596435E-1,-1.4114694E-1,-2.014968E-1,-1.4906667E-1,-1.0166869E-1,6.387389E-2,-1.9918475E-1,-1.1834047E-2,1.461371E-1,-6.932304E-2,-1.7923744E-1,1.11471675E-1,-1.5220974E-1],"categories":[],"categories_nodes":[],"categories_segments":[],"categories_sizes":[],"default_left":[0,0,0,0,0,0,0,0,0,0,0,0,0,0,0,0,0,0,0,0,0,0,0,0,0,0,0],"id":17,"left_children":[1,3,5,7,9,11,13,15,-1,17,-1,19,21,23,25,-1,-1,-1,-1,-1,-1,-1,-1,-1,-1,-1,-1],"loss_changes":[1.5480491E3,1.3955444E1,1.5317065E3,2.0608826E1,5.9713745E-1,6.17844E2,3.7543216E2,2.1708374E0,0E0,1.1340561E0,0E0,8.952001E2,4.0304602E2,1.7603625E2,1.0892145E3,0E0,0E0,0E0,0E0,0E0,0E0,0E0,0E0,0E0,0E0,0E0,0E0],"parents":[2147483647,0,0,1,1,2,2,3,3,4,4,5,5,6,6,7,7,9,9,11,11,12,12,13,13,14,14],"right_children":[2,4,6,8,10,12,14,16,-1,18,-1,20,22,24,26,-1,-1,-1,-1,-1,-1,-1,-1,-1,-1,-1,-1],"split_conditions":[4E0,5E0,1.8E1,3E0,1E0,1E1,4E0,1E0,-8.83032E-2,7E0,-1.5652448E-1,6E0,2E0,2.1E1,6E0,-1.4114694E-1,-2.014968E-1,-1.4906667E-1,-1.0166869E-1,6.387389E-2,-1.9918475E-1,-1.1834047E-2,1.461371E-1,-6.932304E-2,-1.7923744E-1,1.11471675E-1,-1.5220974E-1],"split_indices":[1,0,1,1,1,1,0,1,0,0,0,0,0,1,0,0,0,0,0,0,0,0,0,0,0,0,0],"split_type":[0,0,0,0,0,0,0,0,0,0,0,0,0,0,0,0,0,0,0,0,0,0,0,0,0,0,0],"sum_hessian":[3.662E3,4.54E2,3.208E3,2.61E2,1.93E2,1.993E3,1.215E3,2.4E2,2.1E1,4.7E1,1.46E2,7.62E2,1.231E3,5.87E2,6.28E2,1.7E1,2.23E2,2.4E1,2.3E1,5.98E2,1.64E2,1.91E2,1.04E3,3.07E2,2.8E2,3.37E2,2.91E2],"tree_param":{"num_deleted":"0","num_feature":"2","num_nodes":"27","size_leaf_vector":"1"}},{"base_weights":[-5.2906475E-3,-1.2499058E0,2.788489E-1,-1.5604129E0,-6.220175E-1,8.7017035E-1,-5.8113074E-1,-1.6922822E0,-1.333603E0,2.058738E-1,-1.2596872E0,5.665686E-1,1.5450381E0,-2.2444934E-1,-1.3992465E0,-1.7605925E-1,-7.987423E-2,-1.16148286E-1,-1.3890284E-1,-7.749131E-2,-2.5433832E-1,7.584559E-2,2.5513073E-2,2.1076897E-1,5.476858E-2,-7.919514E-2,3.422456E-2,-1.1905935E-1,-2.838471E-1],"categories":[],"categories_nodes":[],"categories_segments":[],"categories_sizes":[],"default_left":[0,0,0,0,0,0,0,0,0,0,0,0,0,0,0,0,0,0,0,0,0,0,0,0,0,0,0,0,0],"id":18,"left_children":[1,3,5,7,9,11,13,15,17,-1,19,21,23,25,27,-1,-1,-1,-1,-1,-1,-1,-1,-1,-1,-1,-1,-1,-1],"loss_changes":[1.2957478E3,1.317998E2,1.517434E3,1.1351807E1,3.9063544E2,3.6137195E2,3.5452283E2,1.5928589E1,2.7526855E-2,0E0,1.12532745E2,7.277466E1,3.0636243E2,2.729883E2,1.07430725E2,0E0,0E0,0E0,0E0,0E0,0E0,0E0,0E0,0E0,0E0,0E0,0E0,0E0,0E0],"parents":[2147483647,0,0,1,1,2,2,3,3,4,4,5,5,6,6,7,7,8,8,10,10,11,11,12,12,13,13,14,14],"right_children":[2,4,6,8,10,12,14,16,18,-1,20,22,24,26,28,-1,-1,-1,-1,-1,-1,-1,-1,-1,-1,-1,-1,-1,-1],"split_conditions":[6E0,4E0,1.8E1,6E0,2E0,1.5E1,2.2E1,3E0,1E0,2.058738E-1,5E0,5E0,5E0,4E0,7E0,-1.7605925E-1,-7.987423E-2,-1.16148286E-1,-1.3890284E-1,-7.749131E-2,-2.5433832E-1,7.584559E-2,2.5513073E-2,2.1076897E-1,5.476858E-2,-7.919514E-2,3.422456E-2,-1.1905935E-1,-2.838471E-1],"split_indices":[1,1,1,0,0,1,1,1,1,0,0,0,0,0,0,0,0,0,0,0,0,0,0,0,0,0,0,0,0],"split_type":[0,0,0,0,0,0,0,0,0,0,0,0,0,0,0,0,0,0,0,0,0,0,0,0,0,0,0,0,0],"sum_hessian":[3.662E3,6.8E2,2.982E3,4.54E2,2.26E2,1.767E3,1.215E3,2.83E2,1.71E2,4.3E1,1.83E2,1.22E3,5.47E2,8.47E2,3.68E2,2.62E2,2.1E1,4.7E1,1.24E2,1.34E2,4.9E1,7.54E2,4.66E2,3.49E2,1.98E2,4.23E2,4.24E2,3.23E2,4.5E1],"tree_param":{"num_deleted":"0","num_feature":"2","num_nodes":"29","size_leaf_vector":"1"}},{"base_weights":[-4.9576475E-3,-1.1258504E0,2.5093672E-1,-1.4054947E0,-5.603703E-1,7.8336066E-1,-5.23386E-1,-1.5384226E0,-1.2187285E0,1.8575434E-1,-1.1355215E0,5.0999486E-1,1.391018E0,-2.0205748E-1,-1.2604135E0,-1.6065219E-1,-7.224988E-2,-1.0477541E-1,-1.2662664E-1,-6.9799535E-2,-2.2941318E-1,6.827107E-2,2.2967268E-2,-1.3817213E-2,1.741053E-1,1.0930516E-2,-1.17920615E-1,-2.062445E-1,-8.891693E-2],"categories":[],"categories_nodes":[],"categories_segments":[],"categories_sizes":[],"default_left":[0,0,0,0,0,0,0,0,0,0,0,0,0,0,0,0,0,0,0,0,0,0,0,0,0,0,0,0,0],"id":19,"left_children":[1,3,5,7,9,11,13,15,17,-1,19,21,23,25,27,-1,-1,-1,-1,-1,-1,-1,-1,-1,-1,-1,-1,-1,-1],"loss_changes":[1.0509414E3,1.0690112E2,1.2302052E3,9.421143E0,3.1779047E2,2.9297803E2,2.8772806E2,1.3396912E1,2.5009155E-1,0E0,9.167241E1,5.895923E1,2.9356836E2,2.5813086E2,1.0803577E2,0E0,0E0,0E0,0E0,0E0,0E0,0E0,0E0,0E0,0E0,0E0,0E0,0E0,0E0],"parents":[2147483647,0,0,1,1,2,2,3,3,4,4,5,5,6,6,7,7,8,8,10,10,11,11,12,12,13,13,14,14],"right_children":[2,4,6,8,10,12,14,16,18,-1,20,22,24,26,28,-1,-1,-1,-1,-1,-1,-1,-1,-1,-1,-1,-1,-1,-1],"split_conditions":[6E0,4E0,1.8E1,5E0,2E0,1.5E1,2.2E1,3E0,1E0,1.8575434E-1,5E0,5E0,2E0,6E0,3E0,-1.6065219E-1,-7.224988E-2,-1.0477541E-1,-1.2662664E-1,-6.9799535E-2,-2.2941318E-1,6.827107E-2,2.2967268E-2,-1.3817213E-2,1.741053E-1,1.0930516E-2,-1.17920615E-1,-2.062445E-1,-8.891693E-2],"split_indices":[1,1,1,0,0,1,1,1,1,0,0,0,0,0,0,0,0,0,0,0,0,0,0,0,0,0,0,0,0],"split_type":[0,0,0,0,0,0,0,0,0,0,0,0,0,0,0,0,0,0,0,0,0,0,0,0,0,0,0,0,0],"sum_hessian":[3.662E3,6.8E2,2.982E3,4.54E2,2.26E2,1.767E3,1.215E3,2.61E2,1.93E2,4.3E1,1.83E2,1.22E3,5.47E2,8.47E2,3.68E2,2.4E2,2.1E1,4.7E1,1.46E2,1.34E2,4.9E1,7.54E2,4.66E2,1.02E2,4.45E2,6.43E2,2.04E2,1.15E2,2.53E2],"tree_param":{"num_deleted":"0","num_feature":"2","num_nodes":"29","size_leaf_vector":"1"}},{"base_weights":[-4.660671E-3,-1.0141139E0,2.2579266E-1,-1.2659657E0,-5.048333E-1,7.051669E-1,-4.7137794E-1,-1.3854693E0,-1.0980487E0,1.6760103E-1,-1.0235957E0,4.5906997E-1,1.2522092E0,-9.6807283E-1,-6.309617E-3,-1.4465363E-1,-6.535336E-2,-9.451615E-2,-1.1405013E-1,-6.28713E-2,-2.0693068E-1,6.145295E-2,2.0675523E-2,1.7786807E-1,3.1996172E-2,-5.560897E-2,-1.4161964E-1,1.0461756E-1,-1.22457564E-1],"categories":[],"categories_nodes":[],"categories_segments":[],"categories_sizes":[],"default_left":[0,0,0,0,0,0,0,0,0,0,0,0,0,0,0,0,0,0,0,0,0,0,0,0,0,0,0,0,0],"id":20,"left_children":[1,3,5,7,9,11,13,15,17,-1,19,21,23,25,27,-1,-1,-1,-1,-1,-1,-1,-1,-1,-1,-1,-1,-1,-1],"loss_changes":[8.523595E2,8.670813E1,9.972677E2,7.609131E0,2.5852966E2,2.3744281E2,2.8088626E2,1.0765228E1,1.8119812E-1,0E0,7.467871E1,4.7766357E1,2.683902E2,1.0776868E2,8.077893E2,0E0,0E0,0E0,0E0,0E0,0E0,0E0,0E0,0E0,0E0,0E0,0E0,0E0,0E0],"parents":[2147483647,0,0,1,1,2,2,3,3,4,4,5,5,6,6,7,7,8,8,10,10,11,11,12,12,13,13,14,14],"right_children":[2,4,6,8,10,12,14,16,18,-1,20,22,24,26,28,-1,-1,-1,-1,-1,-1,-1,-1,-1,-1,-1,-1,-1,-1],"split_conditions":[6E0,4E0,1.8E1,5E0,2E0,1.5E1,4E0,3E0,1E0,1.6760103E-1,5E0,5E0,5E0,2.1E1,6E0,-1.4465363E-1,-6.535336E-2,-9.451615E-2,-1.1405013E-1,-6.28713E-2,-2.0693068E-1,6.145295E-2,2.0675523E-2,1.7786807E-1,3.1996172E-2,-5.560897E-2,-1.4161964E-1,1.0461756E-1,-1.22457564E-1],"split_indices":[1,1,1,0,0,1,0,1,1,0,0,0,0,1,0,0,0,0,0,0,0,0,0,0,0,0,0,0,0],"split_type":[0,0,0,0,0,0,0,0,0,0,0,0,0,0,0,0,0,0,0,0,0,0,0,0,0,0,0,0,0],"sum_hessian":[3.662E3,6.8E2,2.982E3,4.54E2,2.26E2,1.767E3,1.215E3,2.61E2,1.93E2,4.3E1,1.83E2,1.22E3,5.47E2,5.87E2,6.28E2,2.4E2,2.1E1,4.7E1,1.46E2,1.34E2,4.9E1,7.54E2,4.66E2,3.49E2,1.98E2,3.07E2,2.8E2,3.37E2,2.91E2],"tree_param":{"num_deleted":"0","num_feature":"2","num_nodes":"29","size_leaf_vector":"1"}},{"base_weights":[-4.315754E-3,-9.1346735E-1,2.0323925E-1,-1.1402892E0,-4.5480037E-1,4.659396E-1,-8.4746265E-1,-1.2691696E0,-1.0109378E0,1.5122187E-1,-9.227027E-1,-2.7384412E-1,6.1410844E-1,-1.6924157E0,-6.4017165E-1,-8.576805E-2,-1.4284049E-1,-9.391002E-2,-1.0917919E-1,-5.6630787E-2,-1.866515E-1,3.2123964E-2,-1.4142324E-1,9.9822275E-2,1.06612565E-2,-1.592692E-1,-1.9801913E-1,-4.678284E-2,-1.5817375E-1],"categories":[],"categories_nodes":[],"categories_segments":[],"categories_sizes":[],"default_left":[0,0,0,0,0,0,0,0,0,0,0,0,0,0,0,0,0,0,0,0,0,0,0,0,0,0,0,0,0],"id":21,"left_children":[1,3,5,7,9,11,13,15,17,-1,19,21,23,25,27,-1,-1,-1,-1,-1,-1,-1,-1,-1,-1,-1,-1,-1,-1],"loss_changes":[6.913899E2,7.032971E1,8.2376184E2,6.302185E0,2.1031999E2,2.6181415E2,1.0348181E2,1.3452118E1,3.2225037E-1,0E0,6.0835037E1,2.712263E2,3.87622E2,2.038269E-1,7.731311E1,0E0,0E0,0E0,0E0,0E0,0E0,0E0,0E0,0E0,0E0,0E0,0E0,0E0,0E0],"parents":[2147483647,0,0,1,1,2,2,3,3,4,4,5,5,6,6,7,7,8,8,10,10,11,11,12,12,13,13,14,14],"right_children":[2,4,6,8,10,12,14,16,18,-1,20,22,24,26,28,-1,-1,-1,-1,-1,-1,-1,-1,-1,-1,-1,-1,-1,-1],"split_conditions":[6E0,4E0,2.1E1,2E0,2E0,2E0,2E0,1E0,7E0,1.5122187E-1,5E0,1.7E1,5E0,2.3E1,2.3E1,-8.576805E-2,-1.4284049E-1,-9.391002E-2,-1.0917919E-1,-5.6630787E-2,-1.866515E-1,3.2123964E-2,-1.4142324E-1,9.9822275E-2,1.06612565E-2,-1.592692E-1,-1.9801913E-1,-4.678284E-2,-1.5817375E-1],"split_indices":[1,1,1,1,0,0,0,1,0,0,0,1,0,1,1,0,0,0,0,0,0,0,0,0,0,0,0,0,0],"split_type":[0,0,0,0,0,0,0,0,0,0,0,0,0,0,0,0,0,0,0,0,0,0,0,0,0,0,0,0,0],"sum_hessian":[3.662E3,6.8E2,2.982E3,4.54E2,2.26E2,2.386E3,5.96E2,2.23E2,2.31E2,4.3E1,1.83E2,3.98E2,1.988E3,1.16E2,4.8E2,6.4E1,1.59E2,1.29E2,1.02E2,1.34E2,4.9E1,2.62E2,1.36E2,1.131E3,8.57E2,9.1E1,2.5E1,4.07E2,7.3E1],"tree_param":{"num_deleted":"0","num_feature":"2","num_nodes":"29","size_leaf_vector":"1"}},{"base_weights":[-4.180579E-3,-8.228896E-1,1.8272692E-1,-1.027209E0,-4.097256E-1,5.837523E-1,-4.0049314E-1,-1.1166453E0,-8.735631E-2,1.3644333E-1,-8.317542E-1,3.5849604E-1,1.084581E0,-8.373953E-1,8.567182E-3,-1.1638558E-1,-5.0150912E-2,-5.1009603E-2,-1.6835964E-1,1.2629317E-2,5.4000616E-2,-2.684148E-2,1.3946125E-1,-5.233998E-2,-1.1785813E-1,9.474056E-2,-1.07819974E-1],"categories":[],"categories_nodes":[],"categories_segments":[],"categories_sizes":[],"default_left":[0,0,0,0,0,0,0,0,0,0,0,0,0,0,0,0,0,0,0,0,0,0,0,0,0,0,0],"id":22,"left_children":[1,3,5,7,9,11,13,15,-1,-1,17,19,21,23,25,-1,-1,-1,-1,-1,-1,-1,-1,-1,-1,-1,-1],"loss_changes":[5.6067303E2,5.7067444E1,6.979159E2,5.276947E0,1.7110019E2,1.9906775E2,2.173299E2,7.6639404E0,0E0,0E0,4.9557587E1,5.1393494E1,2.3024457E2,6.237607E1,6.427893E2,0E0,0E0,0E0,0E0,0E0,0E0,0E0,0E0,0E0,0E0,0E0,0E0],"parents":[2147483647,0,0,1,1,2,2,3,3,4,4,5,5,6,6,7,7,10,10,11,11,12,12,13,13,14,14],"right_children":[2,4,6,8,10,12,14,16,-1,-1,18,20,22,24,26,-1,-1,-1,-1,-1,-1,-1,-1,-1,-1,-1,-1],"split_conditions":[6E0,4E0,1.8E1,6E0,2E0,1.5E1,4E0,3E0,-8.735631E-2,1.3644333E-1,5E0,1E1,2E0,2.1E1,6E0,-1.1638558E-1,-5.0150912E-2,-5.1009603E-2,-1.6835964E-1,1.2629317E-2,5.4000616E-2,-2.684148E-2,1.3946125E-1,-5.233998E-2,-1.1785813E-1,9.474056E-2,-1.07819974E-1],"split_indices":[1,1,1,0,0,1,0,1,0,0,0,1,0,1,0,0,0,0,0,0,0,0,0,0,0,0,0],"split_type":[0,0,0,0,0,0,0,0,0,0,0,0,0,0,0,0,0,0,0,0,0,0,0,0,0,0,0],"sum_hessian":[3.662E3,6.8E2,2.982E3,4.54E2,2.26E2,1.767E3,1.215E3,2.83E2,1.71E2,4.3E1,1.83E2,1.22E3,5.47E2,5.87E2,6.28E2,2.62E2,2.1E1,1.34E2,4.9E1,5.36E2,6.84E2,1.02E2,4.45E2,3.07E2,2.8E2,3.37E2,2.91E2],"tree_param":{"num_deleted":"0","num_feature":"2","num_nodes":"27","size_leaf_vector":"1"}},{"base_weights":[-3.8556769E-3,-7.410955E-1,1.6445279E-1,-9.250463E-1,-3.6911878E-1,5.744977E-1,-3.0715823E-1,-1.0334984E0,-8.163467E-1,1.2310902E-1,-7.497714E-1,4.1693935E-1,1.9570998E0,-1.3172493E0,-8.192917E-2,-6.7962736E-2,-1.1707991E-1,-7.460343E-2,-8.9716494E-2,-4.594648E-2,-1.5186039E-1,6.030057E-2,9.938579E-3,2.5509843E-1,1.13163926E-1,-2.4284735E-1,-1.1095518E-1,1.6914094E-2,-1.625732E-1],"categories":[],"categories_nodes":[],"categories_segments":[],"categories_sizes":[],"default_left":[0,0,0,0,0,0,0,0,0,0,0,0,0,0,0,0,0,0,0,0,0,0,0,0,0,0,0,0,0],"id":23,"left_children":[1,3,5,7,9,11,13,15,17,-1,19,21,23,25,27,-1,-1,-1,-1,-1,-1,-1,-1,-1,-1,-1,-1,-1,-1],"loss_changes":[4.5464053E2,4.6256226E1,5.7703406E2,4.520172E0,1.3919412E2,3.4685742E2,3.1566467E2,1.0087723E1,6.490326E-1,0E0,4.037052E1,8.4669464E1,7.7020386E1,5.569754E1,4.4059167E2,0E0,0E0,0E0,0E0,0E0,0E0,0E0,0E0,0E0,0E0,0E0,0E0,0E0,0E0],"parents":[2147483647,0,0,1,1,2,2,3,3,4,4,5,5,6,6,7,7,8,8,10,10,11,11,12,12,13,13,14,14],"right_children":[2,4,6,8,10,12,14,16,18,-1,20,22,24,26,28,-1,-1,-1,-1,-1,-1,-1,-1,-1,-1,-1,-1,-1,-1],"split_conditions":[6E0,4E0,1.7E1,2E0,2E0,1.6E1,2E0,1E0,7E0,1.2310902E-1,5E0,5E0,5E0,1.8E1,7E0,-6.7962736E-2,-1.1707991E-1,-7.460343E-2,-8.9716494E-2,-4.594648E-2,-1.5186039E-1,6.030057E-2,9.938579E-3,2.5509843E-1,1.13163926E-1,-2.4284735E-1,-1.1095518E-1,1.6914094E-2,-1.625732E-1],"split_indices":[1,1,1,1,0,1,0,1,0,0,0,0,0,1,0,0,0,0,0,0,0,0,0,0,0,0,0,0,0],"split_type":[0,0,0,0,0,0,0,0,0,0,0,0,0,0,0,0,0,0,0,0,0,0,0,0,0,0,0,0,0],"sum_hessian":[3.662E3,6.8E2,2.982E3,4.54E2,2.26E2,1.595E3,1.387E3,2.23E2,2.31E2,4.3E1,1.83E2,1.433E3,1.62E2,2.52E2,1.135E3,6.4E1,1.59E2,1.29E2,1.02E2,1.34E2,4.9E1,9.03E2,5.3E2,9.3E1,6.9E1,3.8E1,2.14E2,9.77E2,1.58E2],"tree_param":{"num_deleted":"0","num_feature":"2","num_nodes":"29","size_leaf_vector":"1"}},{"base_weights":[-3.6027096E-3,-6.676088E-1,1.4798687E-1,-8.3330953E-1,-3.3253634E-1,3.556935E-1,-6.8273956E-1,-9.0784323E-1,-7.053974E-1,1.11077845E-1,-6.758696E-1,-2.4295574E-1,4.756057E-1,-5.1579636E-1,-1.5173043E0,-9.483426E-2,-3.8242582E-2,-6.129675E-2,-7.3427685E-2,-4.13859E-2,-1.3697807E-1,1.3137084E-1,-5.4983266E-2,7.941752E-2,5.4747597E-3,-9.6589856E-2,-4.144409E-3,-1.2752013E-1,-2.3067014E-1],"categories":[],"categories_nodes":[],"categories_segments":[],"categories_sizes":[],"default_left":[0,0,0,0,0,0,0,0,0,0,0,0,0,0,0,0,0,0,0,0,0,0,0,0,0,0,0,0,0],"id":24,"left_children":[1,3,5,7,9,11,13,15,17,-1,19,21,23,25,27,-1,-1,-1,-1,-1,-1,-1,-1,-1,-1,-1,-1,-1,-1],"loss_changes":[3.6880322E2,3.7533203E1,5.1495166E2,3.6974792E0,1.1323785E2,1.7146716E2,8.239435E1,5.680588E0,9.0408325E-3,0E0,3.2886513E1,1.913263E2,2.6662677E2,1.06499954E2,1.5978928E1,0E0,0E0,0E0,0E0,0E0,0E0,0E0,0E0,0E0,0E0,0E0,0E0,0E0,0E0],"parents":[2147483647,0,0,1,1,2,2,3,3,4,4,5,5,6,6,7,7,8,8,10,10,11,11,12,12,13,13,14,14],"right_children":[2,4,6,8,10,12,14,16,18,-1,20,22,24,26,28,-1,-1,-1,-1,-1,-1,-1,-1,-1,-1,-1,-1,-1,-1],"split_conditions":[6E0,4E0,2.1E1,6E0,2E0,2E0,2.3E1,3E0,7E0,1.11077845E-1,5E0,8E0,5E0,4E0,6E0,-9.483426E-2,-3.8242582E-2,-6.129675E-2,-7.3427685E-2,-4.13859E-2,-1.3697807E-1,1.3137084E-1,-5.4983266E-2,7.941752E-2,5.4747597E-3,-9.6589856E-2,-4.144409E-3,-1.2752013E-1,-2.3067014E-1],"split_indices":[1,1,1,0,0,0,1,1,0,0,0,1,0,0,0,0,0,0,0,0,0,0,0,0,0,0,0,0,0],"split_type":[0,0,0,0,0,0,0,0,0,0,0,0,0,0,0,0,0,0,0,0,0,0,0,0,0,0,0,0,0],"sum_hessian":[3.662E3,6.8E2,2.982E3,4.54E2,2.26E2,2.386E3,5.96E2,2.83E2,1.71E2,4.3E1,1.83E2,3.98E2,1.988E3,4.98E2,9.8E1,2.62E2,2.1E1,4.6E1,1.25E2,1.34E2,4.9E1,6.5E1,3.33E2,1.131E3,8.57E2,2.55E2,2.43E2,7.7E1,2.1E1],"tree_param":{"num_deleted":"0","num_feature":"2","num_nodes":"29","size_leaf_vector":"1"}},{"base_weights":[-3.4152458E-3,-6.0134E-1,1.3308834E-1,-7.505671E-1,-2.9957932E-1,4.4438854E-1,-3.196352E-1,-8.423549E-1,-6.5870917E-1,1.0022248E-1,-6.0925215E-1,2.4241261E-1,8.936006E-1,-6.9604766E-1,3.2749772E-2,-5.3929266E-2,-9.602093E-2,-5.9271723E-2,-7.356047E-2,-3.7277993E-2,-1.2355421E-1,1.4369746E-3,4.2083103E-2,1.3393123E-1,1.0519503E-2,-5.3967237E-2,-1.0936665E-1,8.286644E-2,-8.886608E-2],"categories":[],"categories_nodes":[],"categories_segments":[],"categories_sizes":[],"default_left":[0,0,0,0,0,0,0,0,0,0,0,0,0,0,0,0,0,0,0,0,0,0,0,0,0,0,0,0,0],"id":25,"left_children":[1,3,5,7,9,11,13,15,17,-1,19,21,23,25,27,-1,-1,-1,-1,-1,-1,-1,-1,-1,-1,-1,-1,-1,-1],"loss_changes":[2.9904993E2,3.0441147E1,4.2054498E2,3.2814636E0,9.212189E1,1.6019406E2,1.6131558E2,7.4828186E0,7.4126434E-1,0E0,2.678984E1,4.967283E1,1.9242722E2,3.5970306E1,4.620224E2,0E0,0E0,0E0,0E0,0E0,0E0,0E0,0E0,0E0,0E0,0E0,0E0,0E0,0E0],"parents":[2147483647,0,0,1,1,2,2,3,3,4,4,5,5,6,6,7,7,8,8,10,10,11,11,12,12,13,13,14,14],"right_children":[2,4,6,8,10,12,14,16,18,-1,20,22,24,26,28,-1,-1,-1,-1,-1,-1,-1,-1,-1,-1,-1,-1,-1,-1],"split_conditions":[6E0,4E0,1.8E1,2E0,2E0,1.5E1,4E0,1E0,7E0,1.0022248E-1,5E0,1E1,5E0,2.2E1,6E0,-5.3929266E-2,-9.602093E-2,-5.9271723E-2,-7.356047E-2,-3.7277993E-2,-1.2355421E-1,1.4369746E-3,4.2083103E-2,1.3393123E-1,1.0519503E-2,-5.3967237E-2,-1.0936665E-1,8.286644E-2,-8.886608E-2],"split_indices":[1,1,1,1,0,1,0,1,0,0,0,1,0,1,0,0,0,0,0,0,0,0,0,0,0,0,0,0,0],"split_type":[0,0,0,0,0,0,0,0,0,0,0,0,0,0,0,0,0,0,0,0,0,0,0,0,0,0,0,0,0],"sum_hessian":[3.662E3,6.8E2,2.982E3,4.54E2,2.26E2,1.767E3,1.215E3,2.23E2,2.31E2,4.3E1,1.83E2,1.22E3,5.47E2,5.87E2,6.28E2,6.4E1,1.59E2,1.29E2,1.02E2,1.34E2,4.9E1,5.36E2,6.84E2,3.49E2,1.98E2,4.23E2,1.64E2,3.37E2,2.91E2],"tree_param":{"num_deleted":"0","num_feature":"2","num_nodes":"29","size_leaf_vector":"1"}},{"base_weights":[-3.1624686E-3,8.450165E-2,-7.8595406E-1,-5.417102E-1,2.4754782E-1,-6.1787266E-1,-1.9527458E-1,-6.761319E-1,-2.698882E-1,-3.431923E-1,3.6852056E-1,-2.8730994E-1,-1.3662494E0,-7.587888E-2,-5.9341084E-2,9.0428084E-2,-5.4920096E-2,1.1829138E-1,-6.073497E-2,6.0574777E-2,5.2501014E-3,-7.6729916E-2,1.8972099E-1,-1.1695067E-1,-2.0016897E-1],"categories":[],"categories_nodes":[],"categories_segments":[],"categories_sizes":[],"default_left":[0,0,0,0,0,0,0,0,0,0,0,0,0,0,0,0,0,0,0,0,0,0,0,0,0],"id":26,"left_children":[1,3,5,7,9,11,-1,13,15,17,19,21,23,-1,-1,-1,-1,-1,-1,-1,-1,-1,-1,-1,-1],"loss_changes":[2.5143147E2,3.3655832E2,7.116025E1,2.470044E1,1.870034E2,7.976036E1,0E0,2.6607819E0,7.494364E1,1.8011227E2,1.6272467E2,2.3842714E2,1.0035812E1,0E0,0E0,0E0,0E0,0E0,0E0,0E0,0E0,0E0,0E0,0E0,0E0],"parents":[2147483647,0,0,1,1,2,2,3,3,4,4,5,5,7,7,8,8,9,9,10,10,11,11,12,12],"right_children":[2,4,6,8,10,12,-1,14,16,18,20,22,24,-1,-1,-1,-1,-1,-1,-1,-1,-1,-1,-1,-1],"split_conditions":[2.2E1,6E0,7E0,4E0,2E0,2.3E1,-1.9527458E-1,2E0,2E0,8E0,5E0,5E0,6E0,-7.587888E-2,-5.9341084E-2,9.0428084E-2,-5.4920096E-2,1.1829138E-1,-6.073497E-2,6.0574777E-2,5.2501014E-3,-7.6729916E-2,1.8972099E-1,-1.1695067E-1,-2.0016897E-1],"split_indices":[1,1,0,1,0,1,0,1,0,1,0,0,0,0,0,0,0,0,0,0,0,0,0,0,0],"split_type":[0,0,0,0,0,0,0,0,0,0,0,0,0,0,0,0,0,0,0,0,0,0,0,0,0],"sum_hessian":[3.662E3,3.294E3,3.68E2,6.8E2,2.614E3,3.23E2,4.5E1,4.54E2,2.26E2,4.44E2,2.17E3,2.25E2,9.8E1,2.23E2,2.31E2,4.3E1,1.83E2,6.5E1,3.79E2,1.239E3,9.31E2,1.85E2,4E1,7.7E1,2.1E1],"tree_param":{"num_deleted":"0","num_feature":"2","num_nodes":"25","size_leaf_vector":"1"}},{"base_weights":[-2.949019E-3,1.0123544E-1,-5.381765E-1,-4.876855E-1,2.6920944E-1,-3.992814E-1,-1.2328275E0,-1.9030546E-1,-5.88584E-1,-2.1781299E-1,3.667724E-1,-7.498374E-1,-2.9848594E-2,-1.0540552E0,-1.8106192E-1,-5.268178E-2,8.159086E-2,-8.488697E-2,-4.468335E-2,1.0664143E-1,-4.709303E-2,6.1550308E-2,3.8182815E-3,-9.6491106E-2,-6.2537305E-2,4.039172E-2,-1.0716768E-1,-1.2295472E-1,-9.48077E-2],"categories":[],"categories_nodes":[],"categories_segments":[],"categories_sizes":[],"default_left":[0,0,0,0,0,0,0,0,0,0,0,0,0,0,0,0,0,0,0,0,0,0,0,0,0,0,0,0,0],"id":27,"left_children":[1,3,5,7,9,11,13,15,17,19,21,23,25,27,-1,-1,-1,-1,-1,-1,-1,-1,-1,-1,-1,-1,-1,-1,-1],"loss_changes":[2.0431207E2,3.035294E2,5.710846E1,2.0321533E1,1.13499054E2,6.4601555E1,8.317535E0,5.9346832E1,1.8363693E1,1.3020122E2,1.6253806E2,6.24942E0,1.1069878E2,2.849579E-1,0E0,0E0,0E0,0E0,0E0,0E0,0E0,0E0,0E0,0E0,0E0,0E0,0E0,0E0,0E0],"parents":[2147483647,0,0,1,1,2,2,3,3,4,4,5,5,6,6,7,7,8,8,9,9,10,10,11,11,12,12,13,13],"right_children":[2,4,6,8,10,12,14,16,18,20,22,24,26,28,-1,-1,-1,-1,-1,-1,-1,-1,-1,-1,-1,-1,-1,-1,-1],"split_conditions":[2.1E1,6E0,2.3E1,2E0,2E0,4E0,6E0,4E0,4E0,8E0,5E0,2E0,7E0,2E0,-1.8106192E-1,-5.268178E-2,8.159086E-2,-8.488697E-2,-4.468335E-2,1.0664143E-1,-4.709303E-2,6.1550308E-2,3.8182815E-3,-9.6491106E-2,-6.2537305E-2,4.039172E-2,-1.0716768E-1,-1.2295472E-1,-9.48077E-2],"split_indices":[1,1,1,0,0,0,0,1,0,1,0,0,0,0,0,0,0,0,0,0,0,0,0,0,0,0,0,0,0],"split_type":[0,0,0,0,0,0,0,0,0,0,0,0,0,0,0,0,0,0,0,0,0,0,0,0,0,0,0,0,0],"sum_hessian":[3.662E3,3.066E3,5.96E2,6.8E2,2.386E3,4.98E2,9.8E1,1.73E2,5.07E2,3.98E2,1.988E3,2.55E2,2.43E2,7.7E1,2.1E1,1.3E2,4.3E1,1.77E2,3.3E2,6.5E1,3.33E2,1.131E3,8.57E2,9.1E1,1.64E2,1.72E2,7.1E1,2.5E1,5.2E1],"tree_param":{"num_deleted":"0","num_feature":"2","num_nodes":"29","size_leaf_vector":"1"}},{"base_weights":[-2.818077E-3,6.910972E-2,-6.4509255E-1,-2.7673182E-1,2.7152437E-1,-4.994529E-1,-1.6568784E-1,-2.7308261E-2,-9.306451E-1,6.154053E-1,-8.610834E-2,-2.282255E-1,-1.1135734E0,-6.417932E-2,2.3339633E-2,-4.6176147E-2,-1.4137805E-1,4.336339E-2,1.6130458E-1,-9.397176E-2,1.0040312E-2,-6.460218E-2,1.6727094E-1,-9.514416E-2,-1.6377877E-1],"categories":[],"categories_nodes":[],"categories_segments":[],"categories_sizes":[],"default_left":[0,0,0,0,0,0,0,0,0,0,0,0,0,0,0,0,0,0,0,0,0,0,0,0,0],"id":28,"left_children":[1,3,5,7,9,11,-1,13,15,17,19,21,23,-1,-1,-1,-1,-1,-1,-1,-1,-1,-1,-1,-1],"loss_changes":[1.6926562E2,2.3073633E2,5.3546875E1,1.9846896E2,2.5573482E2,5.3713333E1,0E0,1.4144534E2,7.546268E1,1.9152371E2,1.624864E2,1.8057059E2,6.8559265E0,0E0,0E0,0E0,0E0,0E0,0E0,0E0,0E0,0E0,0E0,0E0,0E0],"parents":[2147483647,0,0,1,1,2,2,3,3,4,4,5,5,7,7,8,8,9,9,10,10,11,11,12,12],"right_children":[2,4,6,8,10,12,-1,14,16,18,20,22,24,-1,-1,-1,-1,-1,-1,-1,-1,-1,-1,-1,-1],"split_conditions":[2.2E1,1E1,7E0,6E0,1.7E1,2.3E1,-1.6568784E-1,3E0,4E0,1.6E1,2E0,5E0,6E0,-6.417932E-2,2.3339633E-2,-4.6176147E-2,-1.4137805E-1,4.336339E-2,1.6130458E-1,-9.397176E-2,1.0040312E-2,-6.460218E-2,1.6727094E-1,-9.514416E-2,-1.6377877E-1],"split_indices":[1,1,0,0,1,1,0,1,1,1,0,0,0,0,0,0,0,0,0,0,0,0,0,0,0],"split_type":[0,0,0,0,0,0,0,0,0,0,0,0,0,0,0,0,0,0,0,0,0,0,0,0,0],"sum_hessian":[3.662E3,3.294E3,3.68E2,1.216E3,2.078E3,3.23E2,4.5E1,8.81E2,3.35E2,1.059E3,1.019E3,2.25E2,9.8E1,2.62E2,6.19E2,1.71E2,1.64E2,8.97E2,1.62E2,1.82E2,8.37E2,1.85E2,4E1,7.7E1,2.1E1],"tree_param":{"num_deleted":"0","num_feature":"2","num_nodes":"25","size_leaf_vector":"1"}},{"base_weights":[-2.6536195E-3,8.284622E-2,-4.4189206E-1,-2.4924648E-1,3.0114657E-1,-3.2932115E-1,-1.0048314E0,-2.4623975E-2,-8.3813876E-1,2.2146034E0,2.5006726E-1,-6.262577E-1,-1.6431453E-2,-8.575171E-1,-1.4814533E-1,-5.5098522E-2,2.249774E-2,-5.223608E-2,-1.4325249E-1,4.6836457E-1,-4.4959053E-2,-3.706588E-2,3.6872108E-2,-7.90884E-2,-5.3067066E-2,3.3726964E-2,-8.660684E-2,-1.0198367E-1,-7.6170914E-2],"categories":[],"categories_nodes":[],"categories_segments":[],"categories_sizes":[],"default_left":[0,0,0,0,0,0,0,0,0,0,0,0,0,0,0,0,0,0,0,0,0,0,0,0,0,0,0,0,0],"id":29,"left_children":[1,3,5,7,9,11,13,15,17,19,21,23,25,27,-1,-1,-1,-1,-1,-1,-1,-1,-1,-1,-1,-1,-1,-1,-1],"loss_changes":[1.375999E2,2.2242017E2,3.7501343E1,1.6096225E2,1.8035933E2,4.6350998E1,5.6807327E0,1.1600156E2,6.2316895E1,3.1785004E2,1.3300397E2,3.6087494E0,7.361837E1,4.36203E-1,0E0,0E0,0E0,0E0,0E0,0E0,0E0,0E0,0E0,0E0,0E0,0E0,0E0,0E0,0E0],"parents":[2147483647,0,0,1,1,2,2,3,3,4,4,5,5,6,6,7,7,8,8,9,9,10,10,11,11,12,12,13,13],"right_children":[2,4,6,8,10,12,14,16,18,20,22,24,26,28,-1,-1,-1,-1,-1,-1,-1,-1,-1,-1,-1,-1,-1,-1,-1],"split_conditions":[2.1E1,1E1,2.3E1,6E0,1.1E1,4E0,6E0,4E0,6E0,7E0,2E0,2E0,7E0,2E0,-1.4814533E-1,-5.5098522E-2,2.249774E-2,-5.223608E-2,-1.4325249E-1,4.6836457E-1,-4.4959053E-2,-3.706588E-2,3.6872108E-2,-7.90884E-2,-5.3067066E-2,3.3726964E-2,-8.660684E-2,-1.0198367E-1,-7.6170914E-2],"split_indices":[1,1,1,0,1,0,0,1,1,0,0,0,0,0,0,0,0,0,0,0,0,0,0,0,0,0,0,0,0],"split_type":[0,0,0,0,0,0,0,0,0,0,0,0,0,0,0,0,0,0,0,0,0,0,0,0,0,0,0,0,0],"sum_hessian":[3.662E3,3.066E3,5.96E2,1.216E3,1.85E3,4.98E2,9.8E1,8.81E2,3.35E2,4.7E1,1.803E3,2.55E2,2.43E2,7.7E1,2.1E1,2.83E2,5.98E2,2.2E2,1.15E2,2.4E1,2.3E1,2.89E2,1.514E3,9.1E1,1.64E2,1.72E2,7.1E1,2.5E1,5.2E1],"tree_param":{"num_deleted":"0","num_feature":"2","num_nodes":"29","size_leaf_vector":"1"}},{"base_weights":[-2.4747555E-3,5.6548253E-2,-5.2951634E-1,-3.6546692E-1,1.664281E-1,-4.028654E-1,-1.4100681E-1,-1.0388326E-1,-4.5434505E-1,3.300421E-1,-8.974285E-2,-8.90084E-1,-1.3051984E-1,-3.7020046E-2,6.913767E-2,-7.302647E-2,-3.0459268E-2,1.23409545E-2,1.0001706E-1,4.409955E-3,-1.1538245E-1,-7.245963E-2,-1.12616114E-1,2.8391156E-2,-8.9041375E-2],"categories":[],"categories_nodes":[],"categories_segments":[],"categories_sizes":[],"default_left":[0,0,0,0,0,0,0,0,0,0,0,0,0,0,0,0,0,0,0,0,0,0,0,0,0],"id":30,"left_children":[1,3,5,7,9,11,-1,13,15,17,19,21,23,-1,-1,-1,-1,-1,-1,-1,-1,-1,-1,-1,-1],"loss_changes":[1.1397701E2,1.5285315E2,4.058381E1,1.5785416E1,1.09632515E2,4.2875973E1,0E0,3.710765E1,2.0767937E1,2.2087529E2,1.4531848E2,3.7158585E0,6.60719E1,0E0,0E0,0E0,0E0,0E0,0E0,0E0,0E0,0E0,0E0,0E0,0E0],"parents":[2147483647,0,0,1,1,2,2,3,3,4,4,5,5,7,7,8,8,9,9,10,10,11,11,12,12],"right_children":[2,4,6,8,10,12,-1,14,16,18,20,22,24,-1,-1,-1,-1,-1,-1,-1,-1,-1,-1,-1,-1],"split_conditions":[2.2E1,6E0,7E0,2E0,1.7E1,3E0,-1.4100681E-1,4E0,4E0,1.5E1,7E0,2E0,2.3E1,-3.7020046E-2,6.913767E-2,-7.302647E-2,-3.0459268E-2,1.23409545E-2,1.0001706E-1,4.409955E-3,-1.1538245E-1,-7.245963E-2,-1.12616114E-1,2.8391156E-2,-8.9041375E-2],"split_indices":[1,1,0,0,1,0,0,1,0,1,0,0,1,0,0,0,0,0,0,0,0,0,0,0,0],"split_type":[0,0,0,0,0,0,0,0,0,0,0,0,0,0,0,0,0,0,0,0,0,0,0,0,0],"sum_hessian":[3.662E3,3.294E3,3.68E2,6.8E2,2.614E3,3.23E2,4.5E1,1.73E2,5.07E2,1.595E3,1.019E3,1.15E2,2.08E2,1.3E2,4.3E1,1.77E2,3.3E2,1.22E3,3.75E2,9.06E2,1.13E2,7E1,4.5E1,1.35E2,7.3E1],"tree_param":{"num_deleted":"0","num_feature":"2","num_nodes":"25","size_leaf_vector":"1"}},{"base_weights":[-2.3518263E-3,6.783943E-2,-3.6294517E-1,-2.0955229E-1,2.5018296E-1,-2.7080762E-1,-8.236894E-1,-7.5491825E-3,-7.3918676E-1,1.9898801E0,2.0375521E-1,-5.390478E-1,1.1734546E-2,-6.9146407E-1,-1.255048E-1,-4.7598697E-2,1.9117128E-2,-3.336393E-2,-1.1574594E-1,4.2221686E-1,-4.1833203E-2,-3.6164925E-2,3.1184996E-2,-4.366006E-2,-7.851125E-2,2.8743241E-2,-6.5086916E-2,-8.521027E-2,-5.9961367E-2],"categories":[],"categories_nodes":[],"categories_segments":[],"categories_sizes":[],"default_left":[0,0,0,0,0,0,0,0,0,0,0,0,0,0,0,0,0,0,0,0,0,0,0,0,0,0,0,0,0],"id":31,"left_children":[1,3,5,7,9,11,13,15,17,19,21,23,25,27,-1,-1,-1,-1,-1,-1,-1,-1,-1,-1,-1,-1,-1,-1,-1],"loss_changes":[9.273697E1,1.5518309E2,2.512069E1,1.301986E2,1.4910019E2,3.7825115E1,4.778801E0,8.219476E1,5.6609314E1,2.5980585E2,1.1036829E2,6.110634E0,4.4760612E1,6.3993835E-1,0E0,0E0,0E0,0E0,0E0,0E0,0E0,0E0,0E0,0E0,0E0,0E0,0E0,0E0,0E0],"parents":[2147483647,0,0,1,1,2,2,3,3,4,4,5,5,6,6,7,7,8,8,9,9,10,10,11,11,12,12,13,13],"right_children":[2,4,6,8,10,12,14,16,18,20,22,24,26,28,-1,-1,-1,-1,-1,-1,-1,-1,-1,-1,-1,-1,-1,-1,-1],"split_conditions":[2.1E1,1E1,2.3E1,6E0,1.1E1,4E0,6E0,3E0,4E0,7E0,2E0,3E0,7E0,2E0,-1.255048E-1,-4.7598697E-2,1.9117128E-2,-3.336393E-2,-1.1574594E-1,4.2221686E-1,-4.1833203E-2,-3.6164925E-2,3.1184996E-2,-4.366006E-2,-7.851125E-2,2.8743241E-2,-6.5086916E-2,-8.521027E-2,-5.9961367E-2],"split_indices":[1,1,1,0,1,0,0,1,1,0,0,0,0,0,0,0,0,0,0,0,0,0,0,0,0,0,0,0,0],"split_type":[0,0,0,0,0,0,0,0,0,0,0,0,0,0,0,0,0,0,0,0,0,0,0,0,0,0,0,0,0],"sum_hessian":[3.662E3,3.066E3,5.96E2,1.216E3,1.85E3,4.98E2,9.8E1,8.81E2,3.35E2,4.7E1,1.803E3,2.55E2,2.43E2,7.7E1,2.1E1,2.62E2,6.19E2,1.71E2,1.64E2,2.4E1,2.3E1,2.89E2,1.514E3,1.82E2,7.3E1,1.72E2,7.1E1,2.5E1,5.2E1],"tree_param":{"num_deleted":"0","num_feature":"2","num_nodes":"29","size_leaf_vector":"1"}},{"base_weights":[-2.1798697E-3,7.618179E-2,-2.7099466E-1,-1.8874314E-1,2.750328E-1,-4.9042794E-1,-6.3287705E-2,-6.826729E-3,-6.65712E-1,-4.1686478E-1,4.1055617E-1,-4.6983454E-1,-7.701697E-2,1.2799376E-1,-7.310999E-1,-4.0733777E-2,1.8307637E-2,-3.8856093E-2,-1.1879938E-1,6.0760104E-3,-1.0640981E-1,6.815941E-2,8.77086E-3,-4.045349E-2,-5.9824236E-2,3.7116185E-2,-7.248242E-2,-2.7731154E-2,-1.2084546E-1],"categories":[],"categories_nodes":[],"categories_segments":[],"categories_sizes":[],"default_left":[0,0,0,0,0,0,0,0,0,0,0,0,0,0,0,0,0,0,0,0,0,0,0,0,0,0,0,0,0],"id":32,"left_children":[1,3,5,7,9,11,13,15,17,19,21,23,-1,25,27,-1,-1,-1,-1,-1,-1,-1,-1,-1,-1,-1,-1,-1,-1],"loss_changes":[7.7180916E1,1.4950674E2,3.766182E1,1.0559268E2,1.5216957E2,1.9540024E0,5.4510857E1,6.715798E1,4.8174713E1,8.229451E1,1.18595535E2,2.9191284E0,0E0,6.911856E1,2.0243595E1,0E0,0E0,0E0,0E0,0E0,0E0,0E0,0E0,0E0,0E0,0E0,0E0,0E0,0E0],"parents":[2147483647,0,0,1,1,2,2,3,3,4,4,5,5,6,6,7,7,8,8,9,9,10,10,11,11,13,13,14,14],"right_children":[2,4,6,8,10,12,14,16,18,20,22,24,-1,26,28,-1,-1,-1,-1,-1,-1,-1,-1,-1,-1,-1,-1,-1,-1],"split_conditions":[2E1,1E1,4E0,6E0,2E0,2.3E1,7E0,4E0,6E0,1.7E1,5E0,3E0,-7.701697E-2,2.3E1,2.2E1,-4.0733777E-2,1.8307637E-2,-3.8856093E-2,-1.1879938E-1,6.0760104E-3,-1.0640981E-1,6.815941E-2,8.77086E-3,-4.045349E-2,-5.9824236E-2,3.7116185E-2,-7.248242E-2,-2.7731154E-2,-1.2084546E-1],"split_indices":[1,1,0,0,0,1,0,1,1,1,0,0,0,1,1,0,0,0,0,0,0,0,0,0,0,0,0,0,0],"split_type":[0,0,0,0,0,0,0,0,0,0,0,0,0,0,0,0,0,0,0,0,0,0,0,0,0,0,0,0,0],"sum_hessian":[3.662E3,2.836E3,8.26E2,1.216E3,1.62E3,4.01E2,4.25E2,8.81E2,3.35E2,2.65E2,1.355E3,3.76E2,2.5E1,3.31E2,9.4E1,2.83E2,5.98E2,2.2E2,1.15E2,1.53E2,1.12E2,7.36E2,6.19E2,2.52E2,1.24E2,2.58E2,7.3E1,4.9E1,4.5E1],"tree_param":{"num_deleted":"0","num_feature":"2","num_nodes":"29","size_leaf_vector":"1"}},{"base_weights":[-2.1157847E-3,9.294469E-2,-1.9348578E-1,-1.700165E-1,3.526288E-1,-4.6471825E-1,6.0374603E-2,-6.1690114E-3,-5.9961015E-1,-3.423328E-1,4.804674E-1,-8.6595887E-1,-3.8564357E-1,6.6340464E-1,-6.3786006E-1,1.4348417E-2,-5.238774E-2,-2.6183933E-2,-9.480766E-2,5.4722778E-3,-1.9014154E-1,1.2373914E-1,3.1972248E-2,1.6268978E-3,-1.1938759E-1,-1.3595874E-2,-4.418261E-2,2.3075329E-1,3.766579E-2,-1.2617455E-1,-3.6693435E-2],"categories":[],"categories_nodes":[],"categories_segments":[],"categories_sizes":[],"default_left":[0,0,0,0,0,0,0,0,0,0,0,0,0,0,0,0,0,0,0,0,0,0,0,0,0,0,0,0,0,0,0],"id":33,"left_children":[1,3,5,7,9,11,13,15,17,19,21,23,25,27,29,-1,-1,-1,-1,-1,-1,-1,-1,-1,-1,-1,-1,-1,-1,-1,-1],"loss_changes":[6.665426E1,1.6722612E2,8.375595E1,8.5658295E1,1.0961897E2,1.8322105E1,2.652677E2,6.8409615E1,3.929957E1,1.1896021E2,1.262646E2,2.7791992E1,6.85569E0,1.5848041E2,4.889277E1,0E0,0E0,0E0,0E0,0E0,0E0,0E0,0E0,0E0,0E0,0E0,0E0,0E0,0E0,0E0,0E0],"parents":[2147483647,0,0,1,1,2,2,3,3,4,4,5,5,6,6,7,7,8,8,9,9,10,10,11,11,12,12,13,13,14,14],"right_children":[2,4,6,8,10,12,14,16,18,20,22,24,26,28,30,-1,-1,-1,-1,-1,-1,-1,-1,-1,-1,-1,-1,-1,-1,-1,-1],"split_conditions":[1.8E1,1E1,4E0,6E0,2E0,1.9E1,6E0,9E0,4E0,1.7E1,3E0,2E0,2E1,1.9E1,2E1,1.4348417E-2,-5.238774E-2,-2.6183933E-2,-9.480766E-2,5.4722778E-3,-1.9014154E-1,1.2373914E-1,3.1972248E-2,1.6268978E-3,-1.1938759E-1,-1.3595874E-2,-4.418261E-2,2.3075329E-1,3.766579E-2,-1.2617455E-1,-3.6693435E-2],"split_indices":[1,1,0,0,0,1,0,1,1,1,0,0,1,1,1,0,0,0,0,0,0,0,0,0,0,0,0,0,0,0,0],"split_type":[0,0,0,0,0,0,0,0,0,0,0,0,0,0,0,0,0,0,0,0,0,0,0,0,0,0,0,0,0,0,0],"sum_hessian":[3.662E3,2.447E3,1.215E3,1.216E3,1.231E3,5.87E2,6.28E2,8.81E2,3.35E2,1.91E2,1.04E3,9.5E1,4.92E2,3.37E2,2.91E2,6.84E2,1.97E2,1.71E2,1.64E2,1.53E2,3.8E1,1.81E2,8.59E2,2.6E1,6.9E1,9.1E1,4.01E2,4.9E1,2.88E2,8.7E1,2.04E2],"tree_param":{"num_deleted":"0","num_feature":"2","num_nodes":"31","size_leaf_vector":"1"}},{"base_weights":[-1.9748034E-3,-2.711385E-1,5.9474226E-2,-5.888151E-2,-3.4330696E-1,2.4718434E-1,-1.564082E-1,-2.7073893E-1,5.73214E-2,-6.4837176E-1,-1.782168E-1,1.3373485E-1,1.243745E0,-4.5746118E-2,-1.0114896E0,-3.0046094E-2,-1.0982258E-2,-2.4603738E-3,-7.1408264E-2,1.8858353E-2,-3.118259E-2,3.542764E-2,2.5500834E-3,1.5772836E-1,4.11782E-2,-2.9635075E-2,2.7928367E-2,-2.79051E-1,-7.0543885E-2],"categories":[],"categories_nodes":[],"categories_segments":[],"categories_sizes":[],"default_left":[0,0,0,0,0,0,0,0,0,0,0,0,0,0,0,0,0,0,0,0,0,0,0,0,0,0,0,0,0],"id":34,"left_children":[1,3,5,7,9,11,13,15,-1,17,19,21,23,25,27,-1,-1,-1,-1,-1,-1,-1,-1,-1,-1,-1,-1,-1,-1],"loss_changes":[6.060159E1,1.0411518E1,1.2091971E2,2.345625E1,2.5468956E1,1.802763E2,1.3129337E2,5.93544E-1,0E0,7.2783585E0,1.6280407E1,3.4220688E1,4.458165E1,1.0027115E2,8.4602295E1,0E0,0E0,0E0,0E0,0E0,0E0,0E0,0E0,0E0,0E0,0E0,0E0,0E0,0E0],"parents":[2147483647,0,0,1,1,2,2,3,3,4,4,5,5,6,6,7,7,9,9,10,10,11,11,12,12,13,13,14,14],"right_children":[2,4,6,8,10,12,14,16,-1,18,20,22,24,26,28,-1,-1,-1,-1,-1,-1,-1,-1,-1,-1,-1,-1,-1,-1],"split_conditions":[6E0,2E0,1.7E1,4E0,4E0,1.6E1,7E0,3E0,5.73214E-2,1E0,5E0,3E0,6E0,4E0,1.8E1,-3.0046094E-2,-1.0982258E-2,-2.4603738E-3,-7.1408264E-2,1.8858353E-2,-3.118259E-2,3.542764E-2,2.5500834E-3,1.5772836E-1,4.11782E-2,-2.9635075E-2,2.7928367E-2,-2.79051E-1,-7.0543885E-2],"split_indices":[1,0,1,1,0,1,0,1,0,1,0,0,0,0,1,0,0,0,0,0,0,0,0,0,0,0,0,0,0],"split_type":[0,0,0,0,0,0,0,0,0,0,0,0,0,0,0,0,0,0,0,0,0,0,0,0,0,0,0,0,0],"sum_hessian":[3.662E3,6.8E2,2.982E3,1.73E2,5.07E2,1.595E3,1.387E3,1.3E2,4.3E1,1.77E2,3.3E2,1.433E3,1.62E2,1.229E3,1.58E2,1.09E2,2.1E1,1.7E1,1.6E2,8.8E1,2.42E2,4.71E2,9.62E2,1.15E2,4.7E1,6.94E2,5.35E2,2.2E1,1.36E2],"tree_param":{"num_deleted":"0","num_feature":"2","num_nodes":"29","size_leaf_vector":"1"}},{"base_weights":[-1.8275701E-3,3.8776018E-2,-3.6439395E-1,-2.4412721E-1,1.12435035E-1,-2.7511165E-1,-9.853303E-2,-5.2899826E-2,-3.0914578E-1,-2.0174555E-1,1.7678231E-1,-9.429221E-2,-6.851125E-1,-2.4397831E-2,5.1719517E-2,-5.839495E-2,-1.6043218E-2,8.1821285E-2,-3.7836533E-2,4.9917795E-2,1.0007816E-2,-4.140808E-2,1.3587557E-1,-4.791734E-2,-8.8547535E-2],"categories":[],"categories_nodes":[],"categories_segments":[],"categories_sizes":[],"default_left":[0,0,0,0,0,0,0,0,0,0,0,0,0,0,0,0,0,0,0,0,0,0,0,0,0],"id":35,"left_children":[1,3,5,7,9,11,-1,13,15,17,19,21,23,-1,-1,-1,-1,-1,-1,-1,-1,-1,-1,-1,-1],"loss_changes":[5.3938972E1,6.868989E1,2.0185768E1,8.450748E0,5.2902237E1,2.3955498E1,0E0,1.9080507E1,2.0666775E1,8.047403E1,5.363688E1,1.0557764E2,3.660698E0,0E0,0E0,0E0,0E0,0E0,0E0,0E0,0E0,0E0,0E0,0E0,0E0],"parents":[2147483647,0,0,1,1,2,2,3,3,4,4,5,5,7,7,8,8,9,9,10,10,11,11,12,12],"right_children":[2,4,6,8,10,12,-1,14,16,18,20,22,24,-1,-1,-1,-1,-1,-1,-1,-1,-1,-1,-1,-1],"split_conditions":[2.2E1,6E0,7E0,2E0,2E0,2.3E1,-9.853303E-2,4E0,4E0,8E0,3E0,5E0,5E0,-2.4397831E-2,5.1719517E-2,-5.839495E-2,-1.6043218E-2,8.1821285E-2,-3.7836533E-2,4.9917795E-2,1.0007816E-2,-4.140808E-2,1.3587557E-1,-4.791734E-2,-8.8547535E-2],"split_indices":[1,1,0,0,0,1,0,1,0,1,0,0,0,0,0,0,0,0,0,0,0,0,0,0,0],"split_type":[0,0,0,0,0,0,0,0,0,0,0,0,0,0,0,0,0,0,0,0,0,0,0,0,0],"sum_hessian":[3.662E3,3.294E3,3.68E2,6.8E2,2.614E3,3.23E2,4.5E1,1.73E2,5.07E2,4.44E2,2.17E3,2.25E2,9.8E1,1.3E2,4.3E1,1.77E2,3.3E2,6.5E1,3.79E2,4.16E2,1.754E3,1.85E2,4E1,5E1,4.8E1],"tree_param":{"num_deleted":"0","num_feature":"2","num_nodes":"25","size_leaf_vector":"1"}},{"base_weights":[-1.6676842E-3,7.609963E-2,-1.582242E-1,-4.8209373E-2,5.07186E-1,-3.3807326E-2,-5.518111E-1,-1.3788886E-1,1.6624412E-1,8.872817E-1,-1.6387278E-1,-3.8205147E-1,5.721139E-1,-1.1275111E0,-3.0198956E-1,1.4600927E-2,-4.3367628E-2,-5.1338553E-2,1.1759313E-1,-1.13162985E-2,1.2992112E-1,6.355448E-3,-6.2313613E-2,-7.581875E-2,-3.0803302E-2,1.2449064E-1,-2.53646E-3,-1.3984092E-1,-8.114921E-2,-2.2009846E-2,-9.731703E-2],"categories":[],"categories_nodes":[],"categories_segments":[],"categories_sizes":[],"default_left":[0,0,0,0,0,0,0,0,0,0,0,0,0,0,0,0,0,0,0,0,0,0,0,0,0,0,0,0,0,0,0],"id":36,"left_children":[1,3,5,7,9,11,13,15,17,19,21,23,25,27,29,-1,-1,-1,-1,-1,-1,-1,-1,-1,-1,-1,-1,-1,-1,-1,-1],"loss_changes":[4.460899E1,1.3120767E2,5.952746E1,3.6583103E1,1.3992188E2,1.9540146E2,4.1655617E1,1.1267178E2,3.8556943E2,1.4438644E2,2.0824951E1,1.6136963E1,1.359005E2,6.398781E0,1.1053373E1,0E0,0E0,0E0,0E0,0E0,0E0,0E0,0E0,0E0,0E0,0E0,0E0,0E0,0E0,0E0,0E0],"parents":[2147483647,0,0,1,1,2,2,3,3,4,4,5,5,6,6,7,7,8,8,9,9,10,10,11,11,12,12,13,13,14,14],"right_children":[2,4,6,8,10,12,14,16,18,20,22,24,26,28,30,-1,-1,-1,-1,-1,-1,-1,-1,-1,-1,-1,-1,-1,-1,-1,-1],"split_conditions":[1.8E1,1.5E1,6E0,6E0,5E0,4E0,2E1,9E0,1E1,2E0,1.7E1,1.9E1,2.1E1,7E0,2.3E1,1.4600927E-2,-4.3367628E-2,-5.1338553E-2,1.1759313E-1,-1.13162985E-2,1.2992112E-1,6.355448E-3,-6.2313613E-2,-7.581875E-2,-3.0803302E-2,1.2449064E-1,-2.53646E-3,-1.3984092E-1,-8.114921E-2,-2.2009846E-2,-9.731703E-2],"split_indices":[1,1,0,0,0,0,1,1,1,0,1,1,1,0,1,0,0,0,0,0,0,0,0,0,0,0,0,0,0,0,0],"split_type":[0,0,0,0,0,0,0,0,0,0,0,0,0,0,0,0,0,0,0,0,0,0,0,0,0,0,0,0,0,0,0],"sum_hessian":[3.662E3,2.447E3,1.215E3,1.9E3,5.47E2,9.24E2,2.91E2,1.34E3,5.6E2,3.49E2,1.98E2,5.87E2,3.37E2,8.7E1,2.04E2,6.84E2,6.56E2,3.35E2,2.25E2,1.02E2,2.47E2,1.33E2,6.5E1,9.5E1,4.92E2,1.58E2,1.79E2,4.5E1,4.2E1,1.83E2,2.1E1],"tree_param":{"num_deleted":"0","num_feature":"2","num_nodes":"31","size_leaf_vector":"1"}},{"base_weights":[-1.5623095E-3,3.234845E-2,-3.0436555E-1,-2.1306099E-1,9.6245766E-2,-2.2348805E-1,-8.6740784E-2,-3.047697E-1,-1.1516728E-1,1.9812368E-1,-6.325755E-2,-5.562747E-1,-3.771416E-2,-6.1969804E-3,-5.4040123E-2,-2.3196755E-2,1.8623518E-2,9.996E-3,1.0605077E-1,3.3648398E-3,-8.337001E-2,-3.9645914E-2,-7.908537E-2,2.651951E-2,-5.9390258E-2],"categories":[],"categories_nodes":[],"categories_segments":[],"categories_sizes":[],"default_left":[0,0,0,0,0,0,0,0,0,0,0,0,0,0,0,0,0,0,0,0,0,0,0,0,0],"id":37,"left_children":[1,3,5,7,9,11,-1,13,15,17,19,21,23,-1,-1,-1,-1,-1,-1,-1,-1,-1,-1,-1,-1],"loss_changes":[3.7622585E1,5.1689415E1,1.6609467E1,6.07872E0,4.2505924E1,2.0009697E1,0E0,2.004768E1,1.1695686E1,1.3500305E2,7.618172E1,4.035225E0,3.5368694E1,0E0,0E0,0E0,0E0,0E0,0E0,0E0,0E0,0E0,0E0,0E0,0E0],"parents":[2147483647,0,0,1,1,2,2,3,3,4,4,5,5,7,7,8,8,9,9,10,10,11,11,12,12],"right_children":[2,4,6,8,10,12,-1,14,16,18,20,22,24,-1,-1,-1,-1,-1,-1,-1,-1,-1,-1,-1,-1],"split_conditions":[2.2E1,6E0,7E0,4E0,1.7E1,3E0,-8.6740784E-2,2E0,4E0,1.6E1,7E0,2E0,2.3E1,-6.1969804E-3,-5.4040123E-2,-2.3196755E-2,1.8623518E-2,9.996E-3,1.0605077E-1,3.3648398E-3,-8.337001E-2,-3.9645914E-2,-7.908537E-2,2.651951E-2,-5.9390258E-2],"split_indices":[1,1,0,0,1,0,0,0,1,1,0,0,1,0,0,0,0,0,0,0,0,0,0,0,0],"split_type":[0,0,0,0,0,0,0,0,0,0,0,0,0,0,0,0,0,0,0,0,0,0,0,0,0],"sum_hessian":[3.662E3,3.294E3,3.68E2,6.8E2,2.614E3,3.23E2,4.5E1,3.5E2,3.3E2,1.595E3,1.019E3,1.15E2,2.08E2,1.73E2,1.77E2,2.38E2,9.2E1,1.433E3,1.62E2,9.06E2,1.13E2,7E1,4.5E1,1.35E2,7.3E1],"tree_param":{"num_deleted":"0","num_feature":"2","num_nodes":"25","size_leaf_vector":"1"}},{"base_weights":[-1.4790854E-3,2.9104786E-2,-2.7457497E-1,-1.2031977E-1,1.1656057E-1,-2.0160724E-1,-7.825525E-2,7.897327E-3,-4.5653155E-1,1.6216948E0,8.094886E-2,-3.426661E-1,1.747017E-1,1.4478934E-2,-4.6573363E-2,-1.9666186E-2,-9.476925E-2,3.6431855E-1,-5.5159517E-2,-2.699095E-2,1.5036987E-2,-5.016708E-2,-1.8739989E-2,1.2127701E-1,-6.9745146E-2],"categories":[],"categories_nodes":[],"categories_segments":[],"categories_sizes":[],"default_left":[0,0,0,0,0,0,0,0,0,0,0,0,0,0,0,0,0,0,0,0,0,0,0,0,0],"id":38,"left_children":[1,3,5,7,9,11,-1,13,15,17,19,21,23,-1,-1,-1,-1,-1,-1,-1,-1,-1,-1,-1,-1],"loss_changes":[3.0602575E1,4.3073223E1,1.3519573E1,5.2466164E1,1.1130399E2,1.7258339E1,0E0,5.7253044E1,4.269993E1,2.1288727E2,4.9533894E1,5.7323666E0,8.1422424E1,0E0,0E0,0E0,0E0,0E0,0E0,0E0,0E0,0E0,0E0,0E0,0E0],"parents":[2147483647,0,0,1,1,2,2,3,3,4,4,5,5,7,7,8,8,9,9,10,10,11,11,12,12],"right_children":[2,4,6,8,10,12,-1,14,16,18,20,22,24,-1,-1,-1,-1,-1,-1,-1,-1,-1,-1,-1,-1],"split_conditions":[2.2E1,1E1,7E0,6E0,1.1E1,5E0,-7.825525E-2,9E0,6E0,7E0,2E0,3E0,2.3E1,1.4478934E-2,-4.6573363E-2,-1.9666186E-2,-9.476925E-2,3.6431855E-1,-5.5159517E-2,-2.699095E-2,1.5036987E-2,-5.016708E-2,-1.8739989E-2,1.2127701E-1,-6.9745146E-2],"split_indices":[1,1,0,0,1,0,0,1,1,0,0,0,1,0,0,0,0,0,0,0,0,0,0,0,0],"split_type":[0,0,0,0,0,0,0,0,0,0,0,0,0,0,0,0,0,0,0,0,0,0,0,0,0],"sum_hessian":[3.662E3,3.294E3,3.68E2,1.216E3,2.078E3,3.23E2,4.5E1,8.81E2,3.35E2,4.7E1,2.031E3,2.35E2,8.8E1,6.84E2,1.97E2,2.2E2,1.15E2,2.4E1,2.3E1,3.35E2,1.696E3,1.15E2,1.2E2,4E1,4.8E1],"tree_param":{"num_deleted":"0","num_feature":"2","num_nodes":"25","size_leaf_vector":"1"}},{"base_weights":[-1.316208E-3,-1.9527693E-1,4.2964235E-2,-2.8890193E-1,-9.540486E-2,1.7873935E-1,-1.13188535E-1,-7.020408E-2,-5.010622E-1,-1.9885607E-1,1.7147948E-1,9.139111E-2,9.4609296E-1,-3.033305E-2,-7.534342E-1,-2.4247484E-2,4.442885E-2,5.6444383E-3,-5.602799E-2,-4.5811508E-2,-9.520218E-3,8.797392E-2,-4.5521867E-2,3.0541673E-2,-1.3605241E-3,8.855536E-3,1.2624215E-1,-2.2869268E-2,2.2692494E-2,-2.408198E-1,-4.7012758E-2],"categories":[],"categories_nodes":[],"categories_segments":[],"categories_sizes":[],"default_left":[0,0,0,0,0,0,0,0,0,0,0,0,0,0,0,0,0,0,0,0,0,0,0,0,0,0,0,0,0,0,0],"id":39,"left_children":[1,3,5,7,9,11,13,15,17,19,21,23,25,27,29,-1,-1,-1,-1,-1,-1,-1,-1,-1,-1,-1,-1,-1,-1,-1,-1],"loss_changes":[3.1468676E1,6.340143E0,6.3264782E1,1.625087E1,9.172848E0,1.0688861E2,7.3607574E1,1.5529703E1,5.908169E0,6.3790817E0,4.1679928E1,3.2228874E1,4.410417E1,6.2818306E1,7.34079E1,0E0,0E0,0E0,0E0,0E0,0E0,0E0,0E0,0E0,0E0,0E0,0E0,0E0,0E0,0E0,0E0],"parents":[2147483647,0,0,1,1,2,2,3,3,4,4,5,5,6,6,7,7,8,8,9,9,10,10,11,11,12,12,13,13,14,14],"right_children":[2,4,6,8,10,12,14,16,18,20,22,24,26,28,30,-1,-1,-1,-1,-1,-1,-1,-1,-1,-1,-1,-1,-1,-1,-1,-1],"split_conditions":[6E0,4E0,1.7E1,2E0,4E0,1.6E1,7E0,4E0,1E0,6E0,5E0,3E0,4E0,4E0,1.8E1,-2.4247484E-2,4.442885E-2,5.6444383E-3,-5.602799E-2,-4.5811508E-2,-9.520218E-3,8.797392E-2,-4.5521867E-2,3.0541673E-2,-1.3605241E-3,8.855536E-3,1.2624215E-1,-2.2869268E-2,2.2692494E-2,-2.408198E-1,-4.7012758E-2],"split_indices":[1,0,1,0,1,1,0,1,1,0,0,0,0,0,1,0,0,0,0,0,0,0,0,0,0,0,0,0,0,0,0],"split_type":[0,0,0,0,0,0,0,0,0,0,0,0,0,0,0,0,0,0,0,0,0,0,0,0,0,0,0,0,0,0,0],"sum_hessian":[3.662E3,6.8E2,2.982E3,3.5E2,3.3E2,1.595E3,1.387E3,1.73E2,1.77E2,2.38E2,9.2E1,1.433E3,1.62E2,1.229E3,1.58E2,1.3E2,4.3E1,1.7E1,1.6E2,6.7E1,1.71E2,4.3E1,4.9E1,4.71E2,9.62E2,4.4E1,1.18E2,6.94E2,5.35E2,2.2E1,1.36E2],"tree_param":{"num_deleted":"0","num_feature":"2","num_nodes":"31","size_leaf_vector":"1"}},{"base_weights":[-1.2303954E-3,5.7572506E-2,-1.1960892E-1,-4.0145237E-2,3.9644817E-1,-1.5282661E-2,-4.4968486E-1,-1.2630017E-1,1.6586888E-1,1.0211557E0,5.120969E-2,-1.5568188E-1,1.0263633E0,-9.832337E-1,-2.1845567E-1,1.3927815E-2,-4.0300466E-2,-3.9926957E-2,1.00534074E-1,-1.098273E-2,2.2627698E-1,-5.6538176E-2,3.9024603E-2,-3.0420695E-2,2.263636E-2,2.2325917E-1,3.3234213E-2,-1.3018087E-1,-6.1956674E-2,-1.5028598E-2,-7.786724E-2],"categories":[],"categories_nodes":[],"categories_segments":[],"categories_sizes":[],"default_left":[0,0,0,0,0,0,0,0,0,0,0,0,0,0,0,0,0,0,0,0,0,0,0,0,0,0,0,0,0,0,0],"id":40,"left_children":[1,3,5,7,9,11,13,15,17,19,21,23,25,27,29,-1,-1,-1,-1,-1,-1,-1,-1,-1,-1,-1,-1,-1,-1,-1,-1],"loss_changes":[2.550503E1,8.107939E1,4.1866802E1,3.376205E1,1.1813658E2,1.3543758E2,3.5809845E1,9.8601814E1,2.6654977E2,2.7407617E2,7.4223236E1,4.6371414E1,9.134431E1,9.388695E0,7.7118855E0,0E0,0E0,0E0,0E0,0E0,0E0,0E0,0E0,0E0,0E0,0E0,0E0,0E0,0E0,0E0,0E0],"parents":[2147483647,0,0,1,1,2,2,3,3,4,4,5,5,6,6,7,7,8,8,9,9,10,10,11,11,12,12,13,13,14,14],"right_children":[2,4,6,8,10,12,14,16,18,20,22,24,26,28,30,-1,-1,-1,-1,-1,-1,-1,-1,-1,-1,-1,-1,-1,-1,-1,-1],"split_conditions":[1.8E1,1.5E1,6E0,6E0,3E0,5E0,2E1,9E0,1E1,2E0,1.6E1,4E0,2.1E1,7E0,2.3E1,1.3927815E-2,-4.0300466E-2,-3.9926957E-2,1.00534074E-1,-1.098273E-2,2.2627698E-1,-5.6538176E-2,3.9024603E-2,-3.0420695E-2,2.263636E-2,2.2325917E-1,3.3234213E-2,-1.3018087E-1,-6.1956674E-2,-1.5028598E-2,-7.786724E-2],"split_indices":[1,1,0,0,0,0,1,1,1,0,1,0,1,0,1,0,0,0,0,0,0,0,0,0,0,0,0,0,0,0,0],"split_type":[0,0,0,0,0,0,0,0,0,0,0,0,0,0,0,0,0,0,0,0,0,0,0,0,0,0,0,0,0,0,0],"sum_hessian":[3.662E3,2.447E3,1.215E3,1.9E3,5.47E2,9.24E2,2.91E2,1.34E3,5.6E2,1.94E2,3.53E2,8.15E2,1.09E2,8.7E1,2.04E2,6.84E2,6.56E2,3.35E2,2.25E2,1.02E2,9.2E1,1.25E2,2.28E2,5.87E2,2.28E2,3.9E1,7E1,4.5E1,4.2E1,1.83E2,2.1E1],"tree_param":{"num_deleted":"0","num_feature":"2","num_nodes":"31","size_leaf_vector":"1"}},{"base_weights":[-1.0539568E-3,-1.7232178E-1,3.8045757E-2,-2.7398583E-1,-6.399429E-2,1.5908773E-1,-1.0116249E-1,-7.691556E-2,-4.6508828E-1,-1.545395E-1,1.6938527E-1,8.37858E-2,8.2058394E-1,-2.8833797E-2,-6.6005015E-1,-2.322339E-2,3.872576E-2,3.7959737E-3,-5.184409E-2,-4.2670023E-2,-4.604259E-3,7.80154E-2,-3.714789E-2,2.7319504E-2,-9.137288E-4,1.2330782E-1,2.5494054E-2,-1.9556131E-2,1.8740585E-2,-2.2151764E-1,-3.9415266E-2],"categories":[],"categories_nodes":[],"categories_segments":[],"categories_sizes":[],"default_left":[0,0,0,0,0,0,0,0,0,0,0,0,0,0,0,0,0,0,0,0,0,0,0,0,0,0,0,0,0,0,0],"id":41,"left_children":[1,3,5,7,9,11,13,15,17,19,21,23,25,27,29,-1,-1,-1,-1,-1,-1,-1,-1,-1,-1,-1,-1,-1,-1,-1,-1],"loss_changes":[2.453592E1,7.4823246E0,5.027977E1,1.3183104E1,7.0206704E0,7.943111E1,5.6088943E1,1.2634395E1,4.7970123E0,7.037688E0,3.1011703E1,2.5241602E1,3.7717545E1,4.4381958E1,6.487404E1,0E0,0E0,0E0,0E0,0E0,0E0,0E0,0E0,0E0,0E0,0E0,0E0,0E0,0E0,0E0,0E0],"parents":[2147483647,0,0,1,1,2,2,3,3,4,4,5,5,6,6,7,7,8,8,9,9,10,10,11,11,12,12,13,13,14,14],"right_children":[2,4,6,8,10,12,14,16,18,20,22,24,26,28,30,-1,-1,-1,-1,-1,-1,-1,-1,-1,-1,-1,-1,-1,-1,-1,-1],"split_conditions":[6E0,4E0,1.7E1,2E0,4E0,1.6E1,7E0,4E0,1E0,6E0,5E0,3E0,5E0,4E0,1.8E1,-2.322339E-2,3.872576E-2,3.7959737E-3,-5.184409E-2,-4.2670023E-2,-4.604259E-3,7.80154E-2,-3.714789E-2,2.7319504E-2,-9.137288E-4,1.2330782E-1,2.5494054E-2,-1.9556131E-2,1.8740585E-2,-2.2151764E-1,-3.9415266E-2],"split_indices":[1,0,1,0,1,1,0,1,1,0,0,0,0,0,1,0,0,0,0,0,0,0,0,0,0,0,0,0,0,0,0],"split_type":[0,0,0,0,0,0,0,0,0,0,0,0,0,0,0,0,0,0,0,0,0,0,0,0,0,0,0,0,0,0,0],"sum_hessian":[3.662E3,6.8E2,2.982E3,3.5E2,3.3E2,1.595E3,1.387E3,1.73E2,1.77E2,2.38E2,9.2E1,1.433E3,1.62E2,1.229E3,1.58E2,1.3E2,4.3E1,1.7E1,1.6E2,6.7E1,1.71E2,4.3E1,4.9E1,4.71E2,9.62E2,9.3E1,6.9E1,6.94E2,5.35E2,2.2E1,1.36E2],"tree_param":{"num_deleted":"0","num_feature":"2","num_nodes":"31","size_leaf_vector":"1"}},{"base_weights":[-9.827632E-4,1.2698154E-2,-4.9362403E-1,-1.5514675E-1,5.2313294E-2,-3.292254E-1,-6.546589E-2,-2.4667995E-1,-5.761414E-2,1.4328884E-1,-6.028305E-2,-3.9304033E-2,-2.5274796E-2,-6.9134757E-3,-4.188495E-2,-1.39283305E-2,1.5288631E-2,7.5425752E-3,7.3943846E-2,1.4972579E-3,-5.956861E-2],"categories":[],"categories_nodes":[],"categories_segments":[],"categories_sizes":[],"default_left":[0,0,0,0,0,0,0,0,0,0,0,0,0,0,0,0,0,0,0,0,0],"id":42,"left_children":[1,3,5,7,9,11,-1,13,15,17,19,-1,-1,-1,-1,-1,-1,-1,-1,-1,-1],"loss_changes":[2.4694098E1,2.3712515E1,2.405386E0,6.0653954E0,2.9561176E1,1.4956045E-1,0E0,1.0700367E1,5.711646E0,6.451288E1,5.1985718E1,0E0,0E0,0E0,0E0,0E0,0E0,0E0,0E0,0E0,0E0],"parents":[2147483647,0,0,1,1,2,2,3,3,4,4,5,5,7,7,8,8,9,9,10,10],"right_children":[2,4,6,8,10,12,-1,14,16,18,20,-1,-1,-1,-1,-1,-1,-1,-1,-1,-1],"split_conditions":[2.3E1,6E0,5E0,4E0,1.7E1,2E0,-6.546589E-2,2E0,4E0,1.6E1,7E0,-3.9304033E-2,-2.5274796E-2,-6.9134757E-3,-4.188495E-2,-1.39283305E-2,1.5288631E-2,7.5425752E-3,7.3943846E-2,1.4972579E-3,-5.956861E-2],"split_indices":[1,1,0,0,1,0,0,0,1,1,0,0,0,0,0,0,0,0,0,0,0],"split_type":[0,0,0,0,0,0,0,0,0,0,0,0,0,0,0,0,0,0,0,0,0],"sum_hessian":[3.662E3,3.564E3,9.8E1,6.8E2,2.884E3,5E1,4.8E1,3.5E2,3.3E2,1.595E3,1.289E3,2.5E1,2.5E1,1.73E2,1.77E2,2.38E2,9.2E1,1.433E3,1.62E2,1.131E3,1.58E2],"tree_param":{"num_deleted":"0","num_feature":"2","num_nodes":"21","size_leaf_vector":"1"}},{"base_weights":[-9.2622236E-4,1.1421931E-2,-4.4557512E-1,-1.3970163E-1,4.7090467E-2,-2.975689E-1,-5.9052903E-2,-2.2215082E-1,-5.1848575E-2,1.2901174E-1,-5.4299798E-2,-3.5524804E-2,-2.2844477E-2,-6.2260902E-3,-3.7719965E-2,-1.2541316E-2,1.3776205E-2,2.4407443E-3,4.6835437E-2,1.3476633E-3,-5.3649236E-2],"categories":[],"categories_nodes":[],"categories_segments":[],"categories_sizes":[],"default_left":[0,0,0,0,0,0,0,0,0,0,0,0,0,0,0,0,0,0,0,0,0],"id":43,"left_children":[1,3,5,7,9,11,-1,13,15,17,19,-1,-1,-1,-1,-1,-1,-1,-1,-1,-1],"loss_changes":[2.011713E1,1.9223198E1,1.9482288E0,4.9212465E0,2.3969873E1,1.221838E-1,0E0,8.678066E0,4.6342726E0,5.6641296E1,4.2166096E1,0E0,0E0,0E0,0E0,0E0,0E0,0E0,0E0,0E0,0E0],"parents":[2147483647,0,0,1,1,2,2,3,3,4,4,5,5,7,7,8,8,9,9,10,10],"right_children":[2,4,6,8,10,12,-1,14,16,18,20,-1,-1,-1,-1,-1,-1,-1,-1,-1,-1],"split_conditions":[2.3E1,6E0,5E0,4E0,1.7E1,2E0,-5.9052903E-2,2E0,4E0,1.5E1,7E0,-3.5524804E-2,-2.2844477E-2,-6.2260902E-3,-3.7719965E-2,-1.2541316E-2,1.3776205E-2,2.4407443E-3,4.6835437E-2,1.3476633E-3,-5.3649236E-2],"split_indices":[1,1,0,0,1,0,0,0,1,1,0,0,0,0,0,0,0,0,0,0,0],"split_type":[0,0,0,0,0,0,0,0,0,0,0,0,0,0,0,0,0,0,0,0,0],"sum_hessian":[3.662E3,3.564E3,9.8E1,6.8E2,2.884E3,5E1,4.8E1,3.5E2,3.3E2,1.595E3,1.289E3,2.5E1,2.5E1,1.73E2,1.77E2,2.38E2,9.2E1,1.22E3,3.75E2,1.131E3,1.58E2],"tree_param":{"num_deleted":"0","num_feature":"2","num_nodes":"21","size_leaf_vector":"1"}},{"base_weights":[-8.7834056E-4,1.0266708E-2,-4.022038E-1,-6.182835E-2,8.004842E-2,-2.6895654E-1,-5.3268146E-2,2.7240245E-2,-2.5029716E-1,3.5796398E-1,-4.2306837E-2,-3.2108955E-2,-2.0647908E-2,-1.7222347E-2,4.0951975E-2,-6.2071513E-2,-1.7377917E-2,6.046128E-2,-2.8085843E-2,-1.2745182E-2,2.1543952E-2],"categories":[],"categories_nodes":[],"categories_segments":[],"categories_sizes":[],"default_left":[0,0,0,0,0,0,0,0,0,0,0,0,0,0,0,0,0,0,0,0,0],"id":44,"left_children":[1,3,5,7,9,11,-1,13,15,17,19,-1,-1,-1,-1,-1,-1,-1,-1,-1,-1],"loss_changes":[1.6387966E1,1.7940166E1,1.5779247E0,2.9450607E1,6.163117E1,9.9815845E-2,0E0,9.0961586E1,1.5849606E1,8.746069E1,2.7657234E1,0E0,0E0,0E0,0E0,0E0,0E0,0E0,0E0,0E0,0E0],"parents":[2147483647,0,0,1,1,2,2,3,3,4,4,5,5,7,7,8,8,9,9,10,10],"right_children":[2,4,6,8,10,12,-1,14,16,18,20,-1,-1,-1,-1,-1,-1,-1,-1,-1,-1],"split_conditions":[2.3E1,4E0,5E0,1.8E1,5E0,2E0,-5.3268146E-2,1.2E1,1.9E1,1.9E1,1.9E1,-3.2108955E-2,-2.0647908E-2,-1.7222347E-2,4.0951975E-2,-6.2071513E-2,-1.7377917E-2,6.046128E-2,-2.8085843E-2,-1.2745182E-2,2.1543952E-2],"split_indices":[1,0,0,1,0,0,0,1,1,1,1,0,0,0,0,0,0,0,0,0,0],"split_type":[0,0,0,0,0,0,0,0,0,0,0,0,0,0,0,0,0,0,0,0,0],"sum_hessian":[3.662E3,3.564E3,9.8E1,1.753E3,1.811E3,5E1,4.8E1,1.191E3,5.62E2,5.53E2,1.258E3,2.5E1,2.5E1,7.83E2,4.08E2,9.5E1,4.67E2,3.99E2,1.54E2,9.46E2,3.12E2],"tree_param":{"num_deleted":"0","num_feature":"2","num_nodes":"21","size_leaf_vector":"1"}},{"base_weights":[-8.2363596E-4,-1.3206428E-1,2.951722E-2,1.4715935E-1,-2.800696E-1,-9.847264E-2,8.8107325E-2,-1.7905772E-1,5.378683E-1,-5.590527E-1,-1.6125631E-1,3.295125E-2,-3.328651E-1,6.2538064E-1,6.936986E-3,-2.0586295E-2,-3.689259E-3,7.062134E-2,2.5250316E-2,-4.9400467E-2,-8.677515E-2,6.150041E-2,-3.6005344E-2,-1.9832604E-2,2.4565065E-2,-8.135549E-3,-8.091647E-2,-9.1176555E-2,1.4340694E-1,4.5724314E-2,-9.165916E-3],"categories":[],"categories_nodes":[],"categories_segments":[],"categories_sizes":[],"default_left":[0,0,0,0,0,0,0,0,0,0,0,0,0,0,0,0,0,0,0,0,0,0,0,0,0,0,0,0,0,0,0],"id":45,"left_children":[1,3,5,7,9,11,13,15,17,19,21,23,25,27,29,-1,-1,-1,-1,-1,-1,-1,-1,-1,-1,-1,-1,-1,-1,-1,-1],"loss_changes":[1.4589792E1,2.84739E1,2.2325521E1,3.0558277E1,1.4825951E1,2.8813429E1,8.904863E1,4.9161577E-1,5.0580196E0,2.2620811E0,4.9140347E1,2.9564243E1,4.018493E1,3.3445105E2,7.884915E1,0E0,0E0,0E0,0E0,0E0,0E0,0E0,0E0,0E0,0E0,0E0,0E0,0E0,0E0,0E0,0E0],"parents":[2147483647,0,0,1,1,2,2,3,3,4,4,5,5,6,6,7,7,8,8,9,9,10,10,11,11,12,12,13,13,14,14],"right_children":[2,4,6,8,10,12,14,16,18,20,22,24,26,28,30,-1,-1,-1,-1,-1,-1,-1,-1,-1,-1,-1,-1,-1,-1,-1,-1],"split_conditions":[2E0,8E0,1E1,4E0,1.4E1,6E0,1.2E1,3E0,7E0,1.3E1,1.7E1,6E0,6E0,4E0,3E0,-2.0586295E-2,-3.689259E-3,7.062134E-2,2.5250316E-2,-4.9400467E-2,-8.677515E-2,6.150041E-2,-3.6005344E-2,-1.9832604E-2,2.4565065E-2,-8.135549E-3,-8.091647E-2,-9.1176555E-2,1.4340694E-1,4.5724314E-2,-9.165916E-3],"split_indices":[0,1,1,1,1,0,1,1,1,1,1,1,1,0,0,0,0,0,0,0,0,0,0,0,0,0,0,0,0,0,0],"split_type":[0,0,0,0,0,0,0,0,0,0,0,0,0,0,0,0,0,0,0,0,0,0,0,0,0,0,0,0,0,0,0],"sum_hessian":[3.662E3,6.87E2,2.975E3,2.38E2,4.49E2,9.34E2,2.041E3,1.3E2,1.08E2,1.33E2,3.16E2,5.99E2,3.35E2,2.67E2,1.774E3,1.09E2,2.1E1,6.7E1,4.1E1,1.12E2,2.1E1,6.4E1,2.52E2,2.87E2,3.12E2,2.2E2,1.15E2,9.2E1,1.75E2,3.18E2,1.456E3],"tree_param":{"num_deleted":"0","num_feature":"2","num_nodes":"31","size_leaf_vector":"1"}},{"base_weights":[-7.506427E-4,8.870559E-3,-3.472035E-1,-5.3443786E-2,6.91854E-2,-2.2095262E-1,-4.7152168E-1,2.7718594E-2,-2.2518821E-1,3.151971E-1,-3.9122522E-2,-2.5559505E-2,-1.77812E-2,-3.9790817E-2,-5.4377884E-2,-1.4420976E-2,3.572152E-2,-5.566736E-2,-1.5671005E-2,5.3103883E-2,-2.4384731E-2,1.17423665E-2,-1.688014E-2],"categories":[],"categories_nodes":[],"categories_segments":[],"categories_sizes":[],"default_left":[0,0,0,0,0,0,0,0,0,0,0,0,0,0,0,0,0,0,0,0,0,0,0],"id":46,"left_children":[1,3,5,7,9,11,13,15,17,19,21,-1,-1,-1,-1,-1,-1,-1,-1,-1,-1,-1,-1],"loss_changes":[1.2212932E1,1.3402678E1,1.4496489E0,2.4455576E1,4.82931E1,3.0771255E-2,4.4261932E-2,6.757809E1,1.2692589E1,6.697797E1,2.5578445E1,0E0,0E0,0E0,0E0,0E0,0E0,0E0,0E0,0E0,0E0,0E0,0E0],"parents":[2147483647,0,0,1,1,2,2,3,3,4,4,5,5,6,6,7,7,8,8,9,9,10,10],"right_children":[2,4,6,8,10,12,14,16,18,20,22,-1,-1,-1,-1,-1,-1,-1,-1,-1,-1,-1,-1],"split_conditions":[2.3E1,4E0,5E0,1.8E1,5E0,2E0,6E0,1.2E1,1.9E1,1.9E1,1.3E1,-2.5559505E-2,-1.77812E-2,-3.9790817E-2,-5.4377884E-2,-1.4420976E-2,3.572152E-2,-5.566736E-2,-1.5671005E-2,5.3103883E-2,-2.4384731E-2,1.17423665E-2,-1.688014E-2],"split_indices":[1,0,0,1,0,0,0,1,1,1,1,0,0,0,0,0,0,0,0,0,0,0,0],"split_type":[0,0,0,0,0,0,0,0,0,0,0,0,0,0,0,0,0,0,0,0,0,0,0],"sum_hessian":[3.662E3,3.564E3,9.8E1,1.753E3,1.811E3,5E1,4.8E1,1.191E3,5.62E2,5.53E2,1.258E3,2.5E1,2.5E1,2.7E1,2.1E1,7.83E2,4.08E2,9.5E1,4.67E2,3.99E2,1.54E2,5.7E2,6.88E2],"tree_param":{"num_deleted":"0","num_feature":"2","num_nodes":"23","size_leaf_vector":"1"}},{"base_weights":[-7.202893E-4,-1.139141E-1,2.5121383E-2,9.472034E-2,-1.357088E-1,2.8593937E-1,-1.8956875E-3,-1.9658998E-2,2.9093752E-2,-2.827837E-1,-8.403262E-2,1.0649184E0,-2.397188E-1,-2.5039902E-1,4.769562E-2,1.5817335E-2,-1.4691192E-2,-1.833498E-2,-5.25221E-2,-1.732418E-2,-1.5637775E-4,1.8964334E-1,3.9865803E-2,-1.06515005E-1,8.970614E-3,-4.093424E-2,-7.476635E-3,-2.764651E-2,8.164405E-3],"categories":[],"categories_nodes":[],"categories_segments":[],"categories_sizes":[],"default_left":[0,0,0,0,0,0,0,0,0,0,0,0,0,0,0,0,0,0,0,0,0,0,0,0,0,0,0,0,0],"id":47,"left_children":[1,3,5,7,9,11,13,15,-1,17,19,21,23,25,27,-1,-1,-1,-1,-1,-1,-1,-1,-1,-1,-1,-1,-1,-1],"loss_changes":[1.0717567E1,3.1094456E0,2.1020367E1,1.4645267E0,4.6656027E0,1.1490877E2,3.3334972E1,9.7368443E-1,0E0,3.7607393E0,3.3692245E0,6.1846573E1,4.5777706E1,1.2531435E1,2.4838276E1,0E0,0E0,0E0,0E0,0E0,0E0,0E0,0E0,0E0,0E0,0E0,0E0,0E0,0E0],"parents":[2147483647,0,0,1,1,2,2,3,3,4,4,5,5,6,6,7,7,9,9,10,10,11,11,12,12,13,13,14,14],"right_children":[2,4,6,8,10,12,14,16,-1,18,20,22,24,26,28,-1,-1,-1,-1,-1,-1,-1,-1,-1,-1,-1,-1,-1,-1],"split_conditions":[6E0,1E0,8E0,7E0,2E0,3E0,2E0,3E0,2.9093752E-2,4E0,4E0,7E0,7E0,1.8E1,1E1,1.5817335E-2,-1.4691192E-2,-1.833498E-2,-5.25221E-2,-1.732418E-2,-1.5637775E-4,1.8964334E-1,3.9865803E-2,-1.06515005E-1,8.970614E-3,-4.093424E-2,-7.476635E-3,-2.764651E-2,8.164405E-3],"split_indices":[1,1,1,0,1,0,0,0,0,0,0,1,1,1,1,0,0,0,0,0,0,0,0,0,0,0,0,0,0],"split_type":[0,0,0,0,0,0,0,0,0,0,0,0,0,0,0,0,0,0,0,0,0,0,0,0,0,0,0,0,0],"sum_hessian":[3.662E3,6.8E2,2.982E3,6.4E1,6.16E2,2.79E2,2.703E3,4.1E1,2.3E1,1.59E2,4.57E2,1.12E2,1.67E2,4.49E2,2.254E3,1.7E1,2.4E1,1.14E2,4.5E1,2.19E2,2.38E2,4.9E1,6.3E1,4.7E1,1.2E2,2.35E2,2.14E2,2.13E2,2.041E3],"tree_param":{"num_deleted":"0","num_feature":"2","num_nodes":"29","size_leaf_vector":"1"}},{"base_weights":[-6.4634276E-4,8.166863E-3,-3.1800422E-1,-4.7606543E-2,6.215052E-2,-2.0004436E-1,-4.342889E-1,2.710115E-2,-2.0569529E-1,2.8393212E-1,-3.5489794E-2,-2.238297E-2,-1.6856503E-2,-3.6741093E-2,-4.9966585E-2,-1.3126599E-2,3.3060417E-2,-5.0542887E-2,-1.4377196E-2,4.814921E-2,-2.2773186E-2,-1.1718228E-2,2.1178905E-2],"categories":[],"categories_nodes":[],"categories_segments":[],"categories_sizes":[],"default_left":[0,0,0,0,0,0,0,0,0,0,0,0,0,0,0,0,0,0,0,0,0,0,0],"id":48,"left_children":[1,3,5,7,9,11,13,15,17,19,21,-1,-1,-1,-1,-1,-1,-1,-1,-1,-1,-1,-1],"loss_changes":[1.0247787E1,1.0736648E1,1.2710981E0,2.0721094E1,3.924862E1,4.5609474E-4,3.0658722E-2,5.733676E1,1.0376892E1,5.6110367E1,2.5457653E1,0E0,0E0,0E0,0E0,0E0,0E0,0E0,0E0,0E0,0E0,0E0,0E0],"parents":[2147483647,0,0,1,1,2,2,3,3,4,4,5,5,6,6,7,7,8,8,9,9,10,10],"right_children":[2,4,6,8,10,12,14,16,18,20,22,-1,-1,-1,-1,-1,-1,-1,-1,-1,-1,-1,-1],"split_conditions":[2.3E1,4E0,5E0,1.8E1,5E0,2E0,6E0,1.2E1,1.9E1,1.9E1,1.9E1,-2.238297E-2,-1.6856503E-2,-3.6741093E-2,-4.9966585E-2,-1.3126599E-2,3.3060417E-2,-5.0542887E-2,-1.4377196E-2,4.814921E-2,-2.2773186E-2,-1.1718228E-2,2.1178905E-2],"split_indices":[1,0,0,1,0,0,0,1,1,1,1,0,0,0,0,0,0,0,0,0,0,0,0],"split_type":[0,0,0,0,0,0,0,0,0,0,0,0,0,0,0,0,0,0,0,0,0,0,0],"sum_hessian":[3.662E3,3.564E3,9.8E1,1.753E3,1.811E3,5E1,4.8E1,1.191E3,5.62E2,5.53E2,1.258E3,2.5E1,2.5E1,2.7E1,2.1E1,7.83E2,4.08E2,9.5E1,4.67E2,3.99E2,1.54E2,9.46E2,3.12E2],"tree_param":{"num_deleted":"0","num_feature":"2","num_nodes":"23","size_leaf_vector":"1"}},{"base_weights":[-6.1879994E-4,7.3473924E-3,-2.8747594E-1,-9.791934E-2,3.21929E-2,-1.8080941E-1,-3.9262936E-1,9.7619586E-2,-1.18360355E-1,2.604625E-1,7.65427E-3,-2.0230755E-2,-1.5235707E-2,-3.319819E-2,-4.519703E-2,-5.656901E-4,2.7428595E-2,-2.591374E-2,-6.892218E-3,9.734678E-2,-2.2066887E-2,-2.2471277E-2,5.2910154E-3],"categories":[],"categories_nodes":[],"categories_segments":[],"categories_sizes":[],"default_left":[0,0,0,0,0,0,0,0,0,0,0,0,0,0,0,0,0,0,0,0,0,0,0],"id":49,"left_children":[1,3,5,7,9,11,13,15,17,19,21,-1,-1,-1,-1,-1,-1,-1,-1,-1,-1,-1,-1],"loss_changes":[8.37265E0,9.327074E0,1.0394278E0,2.7335215E0,1.6158112E1,3.722906E-4,2.6298523E-2,1.1875079E0,4.276313E0,9.626859E1,2.7416521E1,0E0,0E0,0E0,0E0,0E0,0E0,0E0,0E0,0E0,0E0,0E0,0E0],"parents":[2147483647,0,0,1,1,2,2,3,3,4,4,5,5,6,6,7,7,8,8,9,9,10,10],"right_children":[2,4,6,8,10,12,14,16,18,20,22,-1,-1,-1,-1,-1,-1,-1,-1,-1,-1,-1,-1],"split_conditions":[2.3E1,6E0,5E0,1E0,8E0,2E0,6E0,7E0,2E0,3E0,2E0,-2.0230755E-2,-1.5235707E-2,-3.319819E-2,-4.519703E-2,-5.656901E-4,2.7428595E-2,-2.591374E-2,-6.892218E-3,9.734678E-2,-2.2066887E-2,-2.2471277E-2,5.2910154E-3],"split_indices":[1,1,0,1,1,0,0,0,1,0,0,0,0,0,0,0,0,0,0,0,0,0,0],"split_type":[0,0,0,0,0,0,0,0,0,0,0,0,0,0,0,0,0,0,0,0,0,0,0],"sum_hessian":[3.662E3,3.564E3,9.8E1,6.8E2,2.884E3,5E1,4.8E1,6.4E1,6.16E2,2.79E2,2.605E3,2.5E1,2.5E1,2.7E1,2.1E1,4.1E1,2.3E1,1.59E2,4.57E2,1.12E2,1.67E2,4.24E2,2.181E3],"tree_param":{"num_deleted":"0","num_feature":"2","num_nodes":"23","size_leaf_vector":"1"}}]},"name":"gbtree"},"learner_model_param":{"base_score":"[1.3615511E1]","boost_from_average":"1","num_class":"0","num_feature":"2","num_target":"1"},"objective":{"name":"reg:squarederror","reg_loss_param":{"scale_pos_weight":"1"}}},"version":[3,2,0]}