{"learner":{"attributes":{},"feature_names":["day_of_week","hour_of_day"],"feature_types":[],"gradient_booster":{"model":{"cats":{"enc":[],"feature_segments":[],"sorted_idx":[]},"gbtree_model_param":{"num_parallel_tree":"1","num_trees":"50"},"iteration_indptr":[0,1,2,3,4,5,6,7,8,9,10,11,12,13,14,15,16,17,18,19,20,21,22,23,24,25,26,27,28,29,30,31,32,33,34,35,36,37,38,39,40,41,42,43,44,45,46,47,48,49,50],"tree_info":[0,0,0,0,0,0,0,0,0,0,0,0,0,0,0,0,0,0,0,0,0,0,0,0,0,0,0,0,0,0,0,0,0,0,0,0,0,0,0,0,0,0,0,0,0,0,0,0,0,0],"trees":[{"base_weights":[2.9159574E-7,-1.0148017E1,1.5225214E0,-1.0844386E1,-5.714404E0,4.0183077E0,-3.7660298E0,-1.1997246E0,-8.9536506E-1,-1.2833945E-1,-8.001446E0,4.8852786E-2,4.711805E0,-1.8337723E0,-7.454665E0,-6.437452E-1,-8.932583E-1,2.910863E-1,-6.954457E-1,5.4094213E-1,3.499486E-1,-3.68999E-1,-9.496619E-3,-9.970258E-1,-5.505542E-1],"categories":[],"categories_nodes":[],"categories_segments":[],"categories_sizes":[],"default_left":[0,0,0,0,0,0,0,0,0,0,0,0,0,0,0,0,0,0,0,0,0,0,0,0,0],"id":0,"left_children":[1,3,5,7,9,11,13,-1,-1,-1,15,17,19,21,23,-1,-1,-1,-1,-1,-1,-1,-1,-1,-1],"loss_changes":[5.661089E4,1.4138281E3,4.2067445E4,7.906367E2,6.687024E2,5.9595938E3,7.2705264E3,0E0,0E0,0E0,6.5737305E0,6.494308E3,1.5397539E3,2.1685986E3,1.6661328E3,0E0,0E0,0E0,0E0,0E0,0E0,0E0,0E0,0E0,0E0],"parents":[2147483647,0,0,1,1,2,2,3,3,4,4,5,5,6,6,10,10,11,11,12,12,13,13,14,14],"right_children":[2,4,6,8,10,12,14,-1,-1,-1,16,18,20,22,24,-1,-1,-1,-1,-1,-1,-1,-1,-1,-1],"split_conditions":[4E0,3E0,1.9E1,5E0,2E0,7E0,2.2E1,-1.1997246E0,-8.9536506E-1,-1.2833945E-1,7E0,5E0,5E0,4E0,4E0,-6.437452E-1,-8.932583E-1,2.910863E-1,-6.954457E-1,5.4094213E-1,3.499486E-1,-3.68999E-1,-9.496619E-3,-9.970258E-1,-5.505542E-1],"split_indices":[1,1,1,0,0,1,1,0,0,0,0,0,0,0,0,0,0,0,0,0,0,0,0,0,0],"split_type":[0,0,0,0,0,0,0,0,0,0,0,0,0,0,0,0,0,0,0,0,0,0,0,0,0],"sum_hessian":[3.662E3,4.77E2,3.185E3,4.11E2,6.6E1,2.164E3,1.021E3,2.52E2,1.59E2,2.3E1,4.3E1,3.22E2,1.842E3,6.71E2,3.5E2,1.9E1,2.4E1,2.29E2,9.3E1,1.167E3,6.75E2,3.24E2,3.47E2,1.51E2,1.99E2],"tree_param":{"num_deleted":"0","num_feature":"2","num_nodes":"25","size_leaf_vector":"1"}},{"base_weights":[-1.419441E-3,-9.141083E0,1.3698174E0,-9.765033E0,-5.1678195E0,3.6167014E0,-3.3913114E0,-1.0802263E0,-8.063882E-1,-1.1604022E-1,-7.236233E0,4.271578E-2,4.2411075E0,-1.6509581E0,-6.713608E0,-5.825894E-1,-8.0750555E-1,2.6210424E-1,-6.26641E-1,4.868942E-1,3.150055E-1,-3.322126E-1,-8.549679E-3,-8.979792E-1,-4.9577403E-1],"categories":[],"categories_nodes":[],"categories_segments":[],"categories_sizes":[],"default_left":[0,0,0,0,0,0,0,0,0,0,0,0,0,0,0,0,0,0,0,0,0,0,0,0,0],"id":1,"left_children":[1,3,5,7,9,11,13,-1,-1,-1,15,17,19,21,23,-1,-1,-1,-1,-1,-1,-1,-1,-1,-1],"loss_changes":[4.5919594E4,1.1345508E3,3.409515E4,6.398594E2,5.4696594E2,4.8312734E3,5.898089E3,0E0,0E0,0E0,5.008545E0,5.27066E3,1.2471211E3,1.7577676E3,1.3521504E3,0E0,0E0,0E0,0E0,0E0,0E0,0E0,0E0,0E0,0E0],"parents":[2147483647,0,0,1,1,2,2,3,3,4,4,5,5,6,6,10,10,11,11,12,12,13,13,14,14],"right_children":[2,4,6,8,10,12,14,-1,-1,-1,16,18,20,22,24,-1,-1,-1,-1,-1,-1,-1,-1,-1,-1],"split_conditions":[4E0,3E0,1.9E1,5E0,2E0,7E0,2.2E1,-1.0802263E0,-8.063882E-1,-1.1604022E-1,7E0,5E0,5E0,4E0,4E0,-5.825894E-1,-8.0750555E-1,2.6210424E-1,-6.26641E-1,4.868942E-1,3.150055E-1,-3.322126E-1,-8.549679E-3,-8.979792E-1,-4.9577403E-1],"split_indices":[1,1,1,0,0,1,1,0,0,0,0,0,0,0,0,0,0,0,0,0,0,0,0,0,0],"split_type":[0,0,0,0,0,0,0,0,0,0,0,0,0,0,0,0,0,0,0,0,0,0,0,0,0],"sum_hessian":[3.662E3,4.77E2,3.185E3,4.11E2,6.6E1,2.164E3,1.021E3,2.52E2,1.59E2,2.3E1,4.3E1,3.22E2,1.842E3,6.71E2,3.5E2,1.9E1,2.4E1,2.29E2,9.3E1,1.167E3,6.75E2,3.24E2,3.47E2,1.51E2,1.99E2],"tree_param":{"num_deleted":"0","num_feature":"2","num_nodes":"25","size_leaf_vector":"1"}},{"base_weights":[-2.5578935E-3,-8.234073E0,1.2324284E0,-8.793109E0,-4.673517E0,2.9654982E0,-3.7799547E0,-9.726307E-1,-7.262534E-1,-1.04919694E-1,-6.544203E0,3.7315775E-2,3.4263182E0,-2.0758219E0,-6.046218E0,-5.2724344E-1,-7.29985E-1,2.3600776E-1,-5.646435E-1,4.0448698E-1,7.299839E-2,-3.7477747E-1,-4.5114845E-2,-8.087721E-1,-4.4644448E-1],"categories":[],"categories_nodes":[],"categories_segments":[],"categories_sizes":[],"default_left":[0,0,0,0,0,0,0,0,0,0,0,0,0,0,0,0,0,0,0,0,0,0,0,0,0],"id":2,"left_children":[1,3,5,7,9,11,13,-1,-1,-1,15,17,19,21,23,-1,-1,-1,-1,-1,-1,-1,-1,-1,-1],"loss_changes":[3.7247504E4,9.103535E2,2.7687387E4,5.17834E2,4.4739136E2,3.195168E3,3.1504385E3,0E0,0E0,0E0,3.7965088E0,4.277572E3,3.4094102E3,1.2722899E3,1.0973398E3,0E0,0E0,0E0,0E0,0E0,0E0,0E0,0E0,0E0,0E0],"parents":[2147483647,0,0,1,1,2,2,3,3,4,4,5,5,6,6,10,10,11,11,12,12,13,13,14,14],"right_children":[2,4,6,8,10,12,14,-1,-1,-1,16,18,20,22,24,-1,-1,-1,-1,-1,-1,-1,-1,-1,-1],"split_conditions":[4E0,3E0,2E1,5E0,2E0,7E0,2.2E1,-9.726307E-1,-7.262534E-1,-1.04919694E-1,7E0,5E0,1.8E1,4E0,4E0,-5.2724344E-1,-7.29985E-1,2.3600776E-1,-5.646435E-1,4.0448698E-1,7.299839E-2,-3.7477747E-1,-4.5114845E-2,-8.087721E-1,-4.4644448E-1],"split_indices":[1,1,1,0,0,1,1,0,0,0,0,0,1,0,0,0,0,0,0,0,0,0,0,0,0],"split_type":[0,0,0,0,0,0,0,0,0,0,0,0,0,0,0,0,0,0,0,0,0,0,0,0,0],"sum_hessian":[3.662E3,4.77E2,3.185E3,4.11E2,6.6E1,2.367E3,8.18E2,2.52E2,1.59E2,2.3E1,4.3E1,3.22E2,2.045E3,4.68E2,3.5E2,1.9E1,2.4E1,2.29E2,9.3E1,1.663E3,3.82E2,2.3E2,2.38E2,1.51E2,1.99E2],"tree_param":{"num_deleted":"0","num_feature":"2","num_nodes":"25","size_leaf_vector":"1"}},{"base_weights":[-3.5542832E-3,-7.417069E0,1.1087067E0,-7.917922E0,-4.226496E0,2.937791E0,-2.767102E0,-8.757521E-1,-6.5408194E-1,-9.486492E-2,-5.918356E0,3.2566916E-2,3.4453602E0,-1.3641707E0,-5.4451723E0,-4.7715527E-1,-6.599064E-1,2.1250962E-1,-5.0877976E-1,4.0160704E-1,2.4541841E-1,-3.2314724E-1,-3.9800808E-2,-7.2842693E-1,-4.020233E-1],"categories":[],"categories_nodes":[],"categories_segments":[],"categories_sizes":[],"default_left":[0,0,0,0,0,0,0,0,0,0,0,0,0,0,0,0,0,0,0,0,0,0,0,0,0],"id":3,"left_children":[1,3,5,7,9,11,13,-1,-1,-1,15,17,19,21,23,-1,-1,-1,-1,-1,-1,-1,-1,-1,-1],"loss_changes":[3.0212455E4,7.303828E2,2.2594262E4,4.1907812E2,3.6594458E2,3.1924004E3,3.832378E3,0E0,0E0,0E0,2.8602295E0,3.4715994E3,1.0326816E3,1.2110806E3,8.9054785E2,0E0,0E0,0E0,0E0,0E0,0E0,0E0,0E0,0E0,0E0],"parents":[2147483647,0,0,1,1,2,2,3,3,4,4,5,5,6,6,10,10,11,11,12,12,13,13,14,14],"right_children":[2,4,6,8,10,12,14,-1,-1,-1,16,18,20,22,24,-1,-1,-1,-1,-1,-1,-1,-1,-1,-1],"split_conditions":[4E0,3E0,1.9E1,5E0,2E0,7E0,2.2E1,-8.757521E-1,-6.5408194E-1,-9.486492E-2,7E0,5E0,5E0,3E0,4E0,-4.7715527E-1,-6.599064E-1,2.1250962E-1,-5.0877976E-1,4.0160704E-1,2.4541841E-1,-3.2314724E-1,-3.9800808E-2,-7.2842693E-1,-4.020233E-1],"split_indices":[1,1,1,0,0,1,1,0,0,0,0,0,0,0,0,0,0,0,0,0,0,0,0,0,0],"split_type":[0,0,0,0,0,0,0,0,0,0,0,0,0,0,0,0,0,0,0,0,0,0,0,0,0],"sum_hessian":[3.662E3,4.77E2,3.185E3,4.11E2,6.6E1,2.164E3,1.021E3,2.52E2,1.59E2,2.3E1,4.3E1,3.22E2,1.842E3,6.71E2,3.5E2,1.9E1,2.4E1,2.29E2,9.3E1,1.167E3,6.75E2,2.28E2,4.43E2,1.51E2,1.99E2],"tree_param":{"num_deleted":"0","num_feature":"2","num_nodes":"25","size_leaf_vector":"1"}},{"base_weights":[-4.2648674E-3,-6.6811395E0,9.9747723E-1,-7.1298423E0,-3.8222332E0,2.412353E0,-3.0946145E0,-7.8852296E-1,-5.890825E-1,-8.577371E-2,-5.352362E0,2.8393235E-2,2.7875273E0,-1.7339635E0,-4.903876E0,-4.318255E-1,-5.965554E-1,1.913511E-1,-4.5844308E-1,3.2983002E-1,5.6112107E-2,-3.141187E-1,-3.665886E-2,-6.560635E-1,-3.6202195E-1],"categories":[],"categories_nodes":[],"categories_segments":[],"categories_sizes":[],"default_left":[0,0,0,0,0,0,0,0,0,0,0,0,0,0,0,0,0,0,0,0,0,0,0,0,0],"id":4,"left_children":[1,3,5,7,9,11,13,-1,-1,-1,15,17,19,21,23,-1,-1,-1,-1,-1,-1,-1,-1,-1,-1],"loss_changes":[2.4506664E4,5.859258E2,1.8453773E4,3.3915625E2,2.9932526E2,2.1178613E3,2.0076885E3,0E0,0E0,0E0,2.1398926E0,2.8174883E3,2.324834E3,9.0129956E2,7.227246E2,0E0,0E0,0E0,0E0,0E0,0E0,0E0,0E0,0E0,0E0],"parents":[2147483647,0,0,1,1,2,2,3,3,4,4,5,5,6,6,10,10,11,11,12,12,13,13,14,14],"right_children":[2,4,6,8,10,12,14,-1,-1,-1,16,18,20,22,24,-1,-1,-1,-1,-1,-1,-1,-1,-1,-1],"split_conditions":[4E0,3E0,2E1,5E0,2E0,7E0,2.2E1,-7.8852296E-1,-5.890825E-1,-8.577371E-2,7E0,5E0,1.8E1,4E0,4E0,-4.318255E-1,-5.965554E-1,1.913511E-1,-4.5844308E-1,3.2983002E-1,5.6112107E-2,-3.141187E-1,-3.665886E-2,-6.560635E-1,-3.6202195E-1],"split_indices":[1,1,1,0,0,1,1,0,0,0,0,0,1,0,0,0,0,0,0,0,0,0,0,0,0],"split_type":[0,0,0,0,0,0,0,0,0,0,0,0,0,0,0,0,0,0,0,0,0,0,0,0,0],"sum_hessian":[3.662E3,4.77E2,3.185E3,4.11E2,6.6E1,2.367E3,8.18E2,2.52E2,1.59E2,2.3E1,4.3E1,3.22E2,2.045E3,4.68E2,3.5E2,1.9E1,2.4E1,2.29E2,9.3E1,1.663E3,3.82E2,2.3E2,2.38E2,1.51E2,1.99E2],"tree_param":{"num_deleted":"0","num_feature":"2","num_nodes":"25","size_leaf_vector":"1"}},{"base_weights":[-4.859963E-3,-6.0182385E0,8.973371E-1,-6.420202E0,-3.456639E0,2.3856354E0,-2.256345E0,-7.0998234E-1,-5.305424E0,-7.755375E-2,-4.840498E0,2.472702E-2,2.7981083E0,-4.0059575E-1,-3.6419208E0,-4.5273468E-1,-5.552689E-1,-3.9080206E-1,-5.392861E-1,1.7229919E-1,-4.130865E-1,3.3164272E-1,1.8984121E-1,-2.5090873E-1,4.747463E-5,-5.2143687E-1,-2.3052604E-1],"categories":[],"categories_nodes":[],"categories_segments":[],"categories_sizes":[],"default_left":[0,0,0,0,0,0,0,0,0,0,0,0,0,0,0,0,0,0,0,0,0,0,0,0,0,0,0],"id":5,"left_children":[1,3,5,7,9,11,13,-1,15,-1,17,19,21,23,25,-1,-1,-1,-1,-1,-1,-1,-1,-1,-1,-1,-1],"loss_changes":[1.9878102E4,4.6999023E2,1.4959255E4,2.7447266E2,2.4483392E2,2.1082314E3,2.6263906E3,0E0,5.6435547E0,0E0,1.5875244E0,2.286624E3,8.531494E2,3.7039755E2,1.2175488E3,0E0,0E0,0E0,0E0,0E0,0E0,0E0,0E0,0E0,0E0,0E0,0E0],"parents":[2147483647,0,0,1,1,2,2,3,3,4,4,5,5,6,6,8,8,10,10,11,11,12,12,13,13,14,14],"right_children":[2,4,6,8,10,12,14,-1,16,-1,18,20,22,24,26,-1,-1,-1,-1,-1,-1,-1,-1,-1,-1,-1,-1],"split_conditions":[4E0,3E0,1.9E1,5E0,2E0,7E0,2.1E1,-7.0998234E-1,1E0,-7.755375E-2,7E0,5E0,5E0,2E0,4E0,-4.5273468E-1,-5.552689E-1,-3.9080206E-1,-5.392861E-1,1.7229919E-1,-4.130865E-1,3.3164272E-1,1.8984121E-1,-2.5090873E-1,4.747463E-5,-5.2143687E-1,-2.3052604E-1],"split_indices":[1,1,1,0,0,1,1,0,1,0,0,0,0,0,0,0,0,0,0,0,0,0,0,0,0,0,0],"split_type":[0,0,0,0,0,0,0,0,0,0,0,0,0,0,0,0,0,0,0,0,0,0,0,0,0,0,0],"sum_hessian":[3.662E3,4.77E2,3.185E3,4.11E2,6.6E1,2.164E3,1.021E3,2.52E2,1.59E2,2.3E1,4.3E1,3.22E2,1.842E3,4.37E2,5.84E2,4.3E1,1.16E2,1.9E1,2.4E1,2.29E2,9.3E1,1.167E3,6.75E2,6.9E1,3.68E2,2.67E2,3.17E2],"tree_param":{"num_deleted":"0","num_feature":"2","num_nodes":"27","size_leaf_vector":"1"}},{"base_weights":[-5.315069E-3,-5.4221168E0,8.0737686E-1,-5.7823515E0,-3.1260147E0,1.958151E0,-2.5208778E0,-6.3926476E-1,-4.7811813E0,-7.012152E-2,-4.377587E0,-4.8409957E-1,2.2198431E0,-1.3625973E0,-4.06137E0,-4.0849015E-1,-5.0021654E-1,-3.536758E-1,-4.8751464E-1,7.552906E-2,-5.5961543E-1,2.6157233E-1,3.9795958E-2,-2.5427043E-1,-2.1629058E-2,-3.5872453E-1,-7.3740005E-1],"categories":[],"categories_nodes":[],"categories_segments":[],"categories_sizes":[],"default_left":[0,0,0,0,0,0,0,0,0,0,0,0,0,0,0,0,0,0,0,0,0,0,0,0,0,0,0],"id":6,"left_children":[1,3,5,7,9,11,13,-1,15,-1,17,19,21,23,25,-1,-1,-1,-1,-1,-1,-1,-1,-1,-1,-1,-1],"loss_changes":[1.6129603E4,3.7729492E2,1.2207538E4,2.2117285E2,2.0026263E2,1.5145068E3,1.4558247E3,0E0,4.1853027E0,0E0,1.1657715E0,1.4614678E3,1.541707E3,6.338966E2,5.248286E2,0E0,0E0,0E0,0E0,0E0,0E0,0E0,0E0,0E0,0E0,0E0,0E0],"parents":[2147483647,0,0,1,1,2,2,3,3,4,4,5,5,6,6,8,8,10,10,11,11,12,12,13,13,14,14],"right_children":[2,4,6,8,10,12,14,-1,16,-1,18,20,22,24,26,-1,-1,-1,-1,-1,-1,-1,-1,-1,-1,-1,-1],"split_conditions":[4E0,3E0,2E1,5E0,2E0,6E0,2.2E1,-6.3926476E-1,1E0,-7.012152E-2,7E0,5E0,1.8E1,4E0,7E0,-4.0849015E-1,-5.0021654E-1,-3.536758E-1,-4.8751464E-1,7.552906E-2,-5.5961543E-1,2.6157233E-1,3.9795958E-2,-2.5427043E-1,-2.1629058E-2,-3.5872453E-1,-7.3740005E-1],"split_indices":[1,1,1,0,0,1,1,0,1,0,0,0,1,0,0,0,0,0,0,0,0,0,0,0,0,0,0],"split_type":[0,0,0,0,0,0,0,0,0,0,0,0,0,0,0,0,0,0,0,0,0,0,0,0,0,0,0],"sum_hessian":[3.662E3,4.77E2,3.185E3,4.11E2,6.6E1,2.367E3,8.18E2,2.52E2,1.59E2,2.3E1,4.3E1,2.29E2,2.138E3,4.68E2,3.5E2,4.3E1,1.16E2,1.9E1,2.4E1,1.85E2,4.4E1,1.756E3,3.82E2,2.3E2,2.38E2,3.08E2,4.2E1],"tree_param":{"num_deleted":"0","num_feature":"2","num_nodes":"27","size_leaf_vector":"1"}},{"base_weights":[-5.879199E-3,-4.8850503E0,7.261514E-1,-5.207874E0,-2.827015E0,1.9366735E0,-1.8389233E0,-5.7559097E-1,-4.3087425E0,-6.340151E-2,-3.958946E0,-2.0831838E-2,2.2786906E0,-3.074475E-1,-2.9824233E0,-3.685695E-1,-4.506224E-1,-3.200766E-1,-4.4071323E-1,1.4406501E-1,-3.5965765E-1,2.748975E-1,1.462758E-1,-2.2085695E-1,5.4032155E-3,-4.3827033E-1,-1.7929348E-1],"categories":[],"categories_nodes":[],"categories_segments":[],"categories_sizes":[],"default_left":[0,0,0,0,0,0,0,0,0,0,0,0,0,0,0,0,0,0,0,0,0,0,0,0,0,0,0],"id":7,"left_children":[1,3,5,7,9,11,13,-1,15,-1,17,19,21,23,25,-1,-1,-1,-1,-1,-1,-1,-1,-1,-1,-1,-1],"loss_changes":[1.3086693E4,3.0285254E2,9.896345E3,1.7821387E2,1.6380573E2,1.4495166E3,1.788853E3,0E0,3.078125E0,0E0,8.4521484E-1,1.6931426E3,7.031738E2,3.011203E2,9.6652783E2,0E0,0E0,0E0,0E0,0E0,0E0,0E0,0E0,0E0,0E0,0E0,0E0],"parents":[2147483647,0,0,1,1,2,2,3,3,4,4,5,5,6,6,8,8,10,10,11,11,12,12,13,13,14,14],"right_children":[2,4,6,8,10,12,14,-1,16,-1,18,20,22,24,26,-1,-1,-1,-1,-1,-1,-1,-1,-1,-1,-1,-1],"split_conditions":[4E0,3E0,1.9E1,5E0,2E0,7E0,2.1E1,-5.7559097E-1,1E0,-6.340151E-2,7E0,5E0,5E0,2E0,4E0,-3.685695E-1,-4.506224E-1,-3.200766E-1,-4.4071323E-1,1.4406501E-1,-3.5965765E-1,2.748975E-1,1.462758E-1,-2.2085695E-1,5.4032155E-3,-4.3827033E-1,-1.7929348E-1],"split_indices":[1,1,1,0,0,1,1,0,1,0,0,0,0,0,0,0,0,0,0,0,0,0,0,0,0,0,0],"split_type":[0,0,0,0,0,0,0,0,0,0,0,0,0,0,0,0,0,0,0,0,0,0,0,0,0,0,0],"sum_hessian":[3.662E3,4.77E2,3.185E3,4.11E2,6.6E1,2.164E3,1.021E3,2.52E2,1.59E2,2.3E1,4.3E1,3.22E2,1.842E3,4.37E2,5.84E2,4.3E1,1.16E2,1.9E1,2.4E1,2.29E2,9.3E1,1.167E3,6.75E2,6.9E1,3.68E2,2.67E2,3.17E2],"tree_param":{"num_deleted":"0","num_feature":"2","num_nodes":"27","size_leaf_vector":"1"}},{"base_weights":[-6.0680397E-3,-4.4011874E0,6.533397E-1,-4.6904716E0,-2.5566149E0,1.589309E0,-2.053655E0,-5.182594E-1,-3.8829882E0,-5.732556E-2,-3.5803423E0,-4.8486882E-1,1.8115958E0,-1.0654985E0,-3.368161E0,-3.325502E-1,-4.059453E-1,-2.896693E-1,-3.984048E-1,5.368771E-2,-4.6973106E-1,2.1465793E-1,2.7014036E-2,-3.4451437E-1,-6.463969E-2,-2.924413E-1,-6.4786255E-1],"categories":[],"categories_nodes":[],"categories_segments":[],"categories_sizes":[],"default_left":[0,0,0,0,0,0,0,0,0,0,0,0,0,0,0,0,0,0,0,0,0,0,0,0,0,0,0],"id":8,"left_children":[1,3,5,7,9,11,13,-1,15,-1,17,19,21,23,25,-1,-1,-1,-1,-1,-1,-1,-1,-1,-1,-1,-1],"loss_changes":[1.0618893E4,2.4307227E2,8.0755156E3,1.4359668E2,1.3398557E2,1.0926733E3,1.0602412E3,0E0,2.2407227E0,0E0,6.0321045E-1,9.9245215E2,1.1039185E3,4.65513E2,4.6552588E2,0E0,0E0,0E0,0E0,0E0,0E0,0E0,0E0,0E0,0E0,0E0,0E0],"parents":[2147483647,0,0,1,1,2,2,3,3,4,4,5,5,6,6,8,8,10,10,11,11,12,12,13,13,14,14],"right_children":[2,4,6,8,10,12,14,-1,16,-1,18,20,22,24,26,-1,-1,-1,-1,-1,-1,-1,-1,-1,-1,-1,-1],"split_conditions":[4E0,3E0,2E1,5E0,2E0,6E0,2.2E1,-5.182594E-1,1E0,-5.732556E-2,7E0,5E0,1.8E1,2E0,7E0,-3.325502E-1,-4.059453E-1,-2.896693E-1,-3.984048E-1,5.368771E-2,-4.6973106E-1,2.1465793E-1,2.7014036E-2,-3.4451437E-1,-6.463969E-2,-2.924413E-1,-6.4786255E-1],"split_indices":[1,1,1,0,0,1,1,0,1,0,0,0,1,0,0,0,0,0,0,0,0,0,0,0,0,0,0],"split_type":[0,0,0,0,0,0,0,0,0,0,0,0,0,0,0,0,0,0,0,0,0,0,0,0,0,0,0],"sum_hessian":[3.662E3,4.77E2,3.185E3,4.11E2,6.6E1,2.367E3,8.18E2,2.52E2,1.59E2,2.3E1,4.3E1,2.29E2,2.138E3,4.68E2,3.5E2,4.3E1,1.16E2,1.9E1,2.4E1,1.85E2,4.4E1,1.756E3,3.82E2,6.9E1,3.99E2,3.08E2,4.2E1],"tree_param":{"num_deleted":"0","num_feature":"2","num_nodes":"27","size_leaf_vector":"1"}},{"base_weights":[-6.423932E-3,-3.9652572E0,5.8752733E-1,-4.224475E0,-2.312079E0,1.267165E0,-2.4364126E0,-4.6663824E-1,-3.499305E0,-5.1831882E-2,-3.2379463E0,1.6585175E0,5.4255845E-3,-3.7042358E0,-1.3602709E0,-3.00051E-1,-3.6569774E-1,-2.6215073E-1,-3.6015794E-1,-4.3819103E-2,1.9320431E-1,-1.542329E-1,6.414767E-2,-4.6164536E-1,-3.0498445E-1,-5.8899343E-2,-4.2962247E-1],"categories":[],"categories_nodes":[],"categories_segments":[],"categories_sizes":[],"default_left":[0,0,0,0,0,0,0,0,0,0,0,0,0,0,0,0,0,0,0,0,0,0,0,0,0,0,0],"id":9,"left_children":[1,3,5,7,9,11,13,-1,15,-1,17,19,21,23,25,-1,-1,-1,-1,-1,-1,-1,-1,-1,-1,-1,-1],"loss_changes":[8.615339E3,1.9507178E2,6.550902E3,1.1569922E2,1.0959421E2,1.2848193E3,7.9311035E2,0E0,1.6105957E0,0E0,4.2138672E-1,1.1398242E3,6.083957E2,1.4590234E2,7.175598E2,0E0,0E0,0E0,0E0,0E0,0E0,0E0,0E0,0E0,0E0,0E0,0E0],"parents":[2147483647,0,0,1,1,2,2,3,3,4,4,5,5,6,6,8,8,10,10,11,11,12,12,13,13,14,14],"right_children":[2,4,6,8,10,12,14,-1,16,-1,18,20,22,24,26,-1,-1,-1,-1,-1,-1,-1,-1,-1,-1,-1,-1],"split_conditions":[4E0,3E0,2.1E1,5E0,2E0,1.8E1,4E0,-4.6663824E-1,1E0,-5.1831882E-2,7E0,6E0,3E0,2E0,7E0,-3.00051E-1,-3.6569774E-1,-2.6215073E-1,-3.6015794E-1,-4.3819103E-2,1.9320431E-1,-1.542329E-1,6.414767E-2,-4.6164536E-1,-3.0498445E-1,-5.8899343E-2,-4.2962247E-1],"split_indices":[1,1,1,0,0,1,0,0,1,0,0,1,0,0,0,0,0,0,0,0,0,0,0,0,0,0,0],"split_type":[0,0,0,0,0,0,0,0,0,0,0,0,0,0,0,0,0,0,0,0,0,0,0,0,0,0,0],"sum_hessian":[3.662E3,4.77E2,3.185E3,4.11E2,6.6E1,2.601E3,5.84E2,2.52E2,1.59E2,2.3E1,4.3E1,1.985E3,6.16E2,2.67E2,3.17E2,4.3E1,1.16E2,1.9E1,2.4E1,2.29E2,1.756E3,1.79E2,4.37E2,1.09E2,1.58E2,2.52E2,6.5E1],"tree_param":{"num_deleted":"0","num_feature":"2","num_nodes":"27","size_leaf_vector":"1"}},{"base_weights":[-6.6013457E-3,-3.5725107E0,5.2839905E-1,-3.8047757E0,-2.0909326E0,1.2914352E0,-1.6784363E0,-4.2015886E-1,-3.1535354E0,-4.686463E-2,-2.928295E0,1.7782661E0,3.9386126E-1,-8.374282E-1,-2.7973945E0,-2.707278E-1,-3.2944053E-1,-2.3724642E-1,-3.255828E-1,2.0627752E-1,4.495981E-2,-2.4619019E-1,1.0859678E-1,-1.6877909E-1,-1.2025678E-3,-4.4041052E-1,-2.0842703E-1],"categories":[],"categories_nodes":[],"categories_segments":[],"categories_sizes":[],"default_left":[0,0,0,0,0,0,0,0,0,0,0,0,0,0,0,0,0,0,0,0,0,0,0,0,0,0,0],"id":10,"left_children":[1,3,5,7,9,11,13,-1,15,-1,17,19,21,23,25,-1,-1,-1,-1,-1,-1,-1,-1,-1,-1,-1,-1],"loss_changes":[6.990023E3,1.565332E2,5.3670576E3,9.321973E1,8.964325E1,1.0340361E3,7.6837964E2,0E0,1.1394043E0,0E0,2.8598022E-1,5.7933057E2,1.6510679E3,3.2916684E2,3.9299097E2,0E0,0E0,0E0,0E0,0E0,0E0,0E0,0E0,0E0,0E0,0E0,0E0],"parents":[2147483647,0,0,1,1,2,2,3,3,4,4,5,5,6,6,8,8,10,10,11,11,12,12,13,13,14,14],"right_children":[2,4,6,8,10,12,14,-1,16,-1,18,20,22,24,26,-1,-1,-1,-1,-1,-1,-1,-1,-1,-1,-1,-1],"split_conditions":[4E0,3E0,2E1,5E0,2E0,5E0,2.2E1,-4.2015886E-1,1E0,-4.686463E-2,7E0,1.8E1,9E0,4E0,3E0,-2.707278E-1,-3.2944053E-1,-2.3724642E-1,-3.255828E-1,2.0627752E-1,4.495981E-2,-2.4619019E-1,1.0859678E-1,-1.6877909E-1,-1.2025678E-3,-4.4041052E-1,-2.0842703E-1],"split_indices":[1,1,1,0,0,0,1,0,1,0,0,1,1,0,0,0,0,0,0,0,0,0,0,0,0,0,0],"split_type":[0,0,0,0,0,0,0,0,0,0,0,0,0,0,0,0,0,0,0,0,0,0,0,0,0,0,0],"sum_hessian":[3.662E3,4.77E2,3.185E3,4.11E2,6.6E1,2.367E3,8.18E2,2.52E2,1.59E2,2.3E1,4.3E1,1.534E3,8.33E2,4.68E2,3.5E2,4.3E1,1.16E2,1.9E1,2.4E1,1.263E3,2.71E2,1.62E2,6.71E2,2.3E2,2.38E2,1.06E2,2.44E2],"tree_param":{"num_deleted":"0","num_feature":"2","num_nodes":"27","size_leaf_vector":"1"}},{"base_weights":[-6.5788147E-3,-3.2186697E0,4.753377E-1,-3.4267747E0,-1.8909392E0,1.2837107E0,-1.237581E0,-3.783091E-1,-2.8419328E0,-4.2373445E-2,-2.6482568E0,1.7736791E0,3.919429E-1,-5.6616396E-1,-2.5195034E0,-2.4427032E-1,-2.9677805E-1,-2.14708E-1,-2.943268E-1,1.3165922E-1,2.6170695E-1,-2.2172223E-1,1.09194614E-1,-2.2608797E-1,-2.0852385E-2,-2.1351881E-1,-5.222618E-1],"categories":[],"categories_nodes":[],"categories_segments":[],"categories_sizes":[],"default_left":[0,0,0,0,0,0,0,0,0,0,0,0,0,0,0,0,0,0,0,0,0,0,0,0,0,0,0],"id":11,"left_children":[1,3,5,7,9,11,13,-1,15,-1,17,19,21,23,25,-1,-1,-1,-1,-1,-1,-1,-1,-1,-1,-1,-1],"loss_changes":[5.671706E3,1.255957E2,4.413171E3,7.510449E1,7.332422E1,9.452754E2,8.782136E2,0E0,7.8930664E-1,0E0,1.8609619E-1,5.3510156E2,1.4069413E3,4.0682666E2,3.5348438E2,0E0,0E0,0E0,0E0,0E0,0E0,0E0,0E0,0E0,0E0,0E0,0E0],"parents":[2147483647,0,0,1,1,2,2,3,3,4,4,5,5,6,6,8,8,10,10,11,11,12,12,13,13,14,14],"right_children":[2,4,6,8,10,12,14,-1,16,-1,18,20,22,24,26,-1,-1,-1,-1,-1,-1,-1,-1,-1,-1,-1,-1],"split_conditions":[4E0,3E0,1.9E1,5E0,2E0,5E0,2.2E1,-3.783091E-1,1E0,-4.2373445E-2,7E0,1.4E1,9E0,2E0,7E0,-2.4427032E-1,-2.9677805E-1,-2.14708E-1,-2.943268E-1,1.3165922E-1,2.6170695E-1,-2.2172223E-1,1.09194614E-1,-2.2608797E-1,-2.0852385E-2,-2.1351881E-1,-5.222618E-1],"split_indices":[1,1,1,0,0,0,1,0,1,0,0,1,1,0,0,0,0,0,0,0,0,0,0,0,0,0,0],"split_type":[0,0,0,0,0,0,0,0,0,0,0,0,0,0,0,0,0,0,0,0,0,0,0,0,0,0,0],"sum_hessian":[3.662E3,4.77E2,3.185E3,4.11E2,6.6E1,2.164E3,1.021E3,2.52E2,1.59E2,2.3E1,4.3E1,1.396E3,7.68E2,6.71E2,3.5E2,4.3E1,1.16E2,1.9E1,2.4E1,9.07E2,4.89E2,1.62E2,6.06E2,1.16E2,5.55E2,3.08E2,4.2E1],"tree_param":{"num_deleted":"0","num_feature":"2","num_nodes":"27","size_leaf_vector":"1"}},{"base_weights":[-6.5139043E-3,-2.8998795E0,4.275838E-1,-3.0863285E0,-1.7100751E0,9.3267643E-1,-1.8197302E0,-3.4062767E0,-2.561121E0,-3.8312636E-2,-2.395E0,1.2312745E0,-2.9962724E-2,-2.889108E0,-9.127709E-1,-3.1298253E-1,-3.5874447E-1,-2.2039846E-1,-2.6735386E-1,-1.9431071E-1,-2.6607144E-1,-5.7686765E-2,1.4672685E-1,-1.3261397E-1,5.0278116E-2,-2.6907477E-1,-4.98483E-1,-2.602056E-2,-3.4004417E-1],"categories":[],"categories_nodes":[],"categories_segments":[],"categories_sizes":[],"default_left":[0,0,0,0,0,0,0,0,0,0,0,0,0,0,0,0,0,0,0,0,0,0,0,0,0,0,0,0,0],"id":12,"left_children":[1,3,5,7,9,11,13,15,17,-1,19,21,23,25,27,-1,-1,-1,-1,-1,-1,-1,-1,-1,-1,-1,-1,-1,-1],"loss_changes":[4.6019805E3,1.0076074E2,3.6181313E3,6.0508057E1,5.997606E1,7.479614E2,5.64744E2,1.4431152E0,5.313721E-1,0E0,1.1323547E-1,8.4829395E2,4.2672397E2,9.799658E1,5.153461E2,0E0,0E0,0E0,0E0,0E0,0E0,0E0,0E0,0E0,0E0,0E0,0E0,0E0,0E0],"parents":[2147483647,0,0,1,1,2,2,3,3,4,4,5,5,6,6,7,7,8,8,10,10,11,11,12,12,13,13,14,14],"right_children":[2,4,6,8,10,12,14,16,18,-1,20,22,24,26,28,-1,-1,-1,-1,-1,-1,-1,-1,-1,-1,-1,-1,-1,-1],"split_conditions":[4E0,3E0,2.1E1,5E0,2E0,1.8E1,4E0,2E0,1E0,-3.8312636E-2,7E0,6E0,3E0,2.3E1,7E0,-3.1298253E-1,-3.5874447E-1,-2.2039846E-1,-2.6735386E-1,-1.9431071E-1,-2.6607144E-1,-5.7686765E-2,1.4672685E-1,-1.3261397E-1,5.0278116E-2,-2.6907477E-1,-4.98483E-1,-2.602056E-2,-3.4004417E-1],"split_indices":[1,1,1,0,0,1,0,0,1,0,0,1,0,1,0,0,0,0,0,0,0,0,0,0,0,0,0,0,0],"split_type":[0,0,0,0,0,0,0,0,0,0,0,0,0,0,0,0,0,0,0,0,0,0,0,0,0,0,0,0,0],"sum_hessian":[3.662E3,4.77E2,3.185E3,4.11E2,6.6E1,2.601E3,5.84E2,2.52E2,1.59E2,2.3E1,4.3E1,1.985E3,6.16E2,2.67E2,3.17E2,1.07E2,1.45E2,4.3E1,1.16E2,1.9E1,2.4E1,2.29E2,1.756E3,1.79E2,4.37E2,2.46E2,2.1E1,2.52E2,6.5E1],"tree_param":{"num_deleted":"0","num_feature":"2","num_nodes":"29","size_leaf_vector":"1"}},{"base_weights":[-6.6226237E-3,-2.6133604E0,3.8447195E-1,-2.78051E0,-1.5465107E0,8.394116E-1,-1.6396948E0,-3.068304E0,-2.3080573E0,-3.464099E-2,-2.1659632E0,1.2126908E0,1.7037024E-1,-2.6030614E0,-8.2264465E-1,-2.8197405E-1,-3.231157E-1,-1.9885953E-1,-2.4084699E-1,-1.7585115E-1,-2.4052858E-1,1.5717858E-1,9.448739E-3,-2.0875072E-1,6.474956E-2,-3.3112866E-1,-2.0967229E-1,1.6613005E-2,-2.1992572E-1],"categories":[],"categories_nodes":[],"categories_segments":[],"categories_sizes":[],"default_left":[0,0,0,0,0,0,0,0,0,0,0,0,0,0,0,0,0,0,0,0,0,0,0,0,0,0,0,0,0],"id":13,"left_children":[1,3,5,7,9,11,13,15,17,-1,19,21,23,25,27,-1,-1,-1,-1,-1,-1,-1,-1,-1,-1,-1,-1,-1,-1],"loss_changes":[3.7353638E3,8.093872E1,2.9352803E3,4.89375E1,4.905783E1,6.4961487E2,4.5832324E2,1.130127E0,3.430786E-1,0E0,6.0836792E-2,6.7042554E2,1.00646387E3,8.916223E1,4.3321405E2,0E0,0E0,0E0,0E0,0E0,0E0,0E0,0E0,0E0,0E0,0E0,0E0,0E0,0E0],"parents":[2147483647,0,0,1,1,2,2,3,3,4,4,5,5,6,6,7,7,8,8,10,10,11,11,12,12,13,13,14,14],"right_children":[2,4,6,8,10,12,14,16,18,-1,20,22,24,26,28,-1,-1,-1,-1,-1,-1,-1,-1,-1,-1,-1,-1,-1,-1],"split_conditions":[4E0,3E0,2.1E1,5E0,2E0,5E0,4E0,2E0,1E0,-3.464099E-2,7E0,1.8E1,9E0,2E0,6E0,-2.8197405E-1,-3.231157E-1,-1.9885953E-1,-2.4084699E-1,-1.7585115E-1,-2.4052858E-1,1.5717858E-1,9.448739E-3,-2.0875072E-1,6.474956E-2,-3.3112866E-1,-2.0967229E-1,1.6613005E-2,-2.1992572E-1],"split_indices":[1,1,1,0,0,0,0,0,1,0,0,1,1,0,0,0,0,0,0,0,0,0,0,0,0,0,0,0,0],"split_type":[0,0,0,0,0,0,0,0,0,0,0,0,0,0,0,0,0,0,0,0,0,0,0,0,0,0,0,0,0],"sum_hessian":[3.662E3,4.77E2,3.185E3,4.11E2,6.6E1,2.601E3,5.84E2,2.52E2,1.59E2,2.3E1,4.3E1,1.669E3,9.32E2,2.67E2,3.17E2,1.07E2,1.45E2,4.3E1,1.16E2,1.9E1,2.4E1,1.263E3,4.06E2,1.62E2,7.7E2,1.09E2,1.58E2,1.85E2,1.32E2],"tree_param":{"num_deleted":"0","num_feature":"2","num_nodes":"29","size_leaf_vector":"1"}},{"base_weights":[-6.5656835E-3,-2.3551538E0,3.4579828E-1,-2.5049949E0,-1.3985913E0,9.4734603E-1,-9.2885596E-1,-2.7638652E0,-2.0799997E0,-3.13212E-2,-1.9588301E0,1.348982E0,2.1648411E-1,-4.0507895E-1,-1.9289963E0,-2.1985507E-1,-2.81893E-1,-1.7942552E-1,-2.1696813E-1,-1.5914533E-1,-2.1743785E-1,9.231558E-2,2.1353112E-1,-1.8800372E-1,7.791143E-2,-1.7229813E-1,-1.27022E-2,-1.6115175E-1,-4.1655546E-1],"categories":[],"categories_nodes":[],"categories_segments":[],"categories_sizes":[],"default_left":[0,0,0,0,0,0,0,0,0,0,0,0,0,0,0,0,0,0,0,0,0,0,0,0,0,0,0,0,0],"id":14,"left_children":[1,3,5,7,9,11,13,15,17,-1,19,21,23,25,27,-1,-1,-1,-1,-1,-1,-1,-1,-1,-1,-1,-1,-1,-1],"loss_changes":[3.0321587E3,6.500952E1,2.4437942E3,3.9578857E1,4.0127274E1,6.35223E2,5.3459393E2,1.6781006E0,2.0715332E-1,0E0,2.3834229E-2,4.6579956E2,9.085511E2,2.4603682E2,2.4251831E2,0E0,0E0,0E0,0E0,0E0,0E0,0E0,0E0,0E0,0E0,0E0,0E0,0E0,0E0],"parents":[2147483647,0,0,1,1,2,2,3,3,4,4,5,5,6,6,7,7,8,8,10,10,11,11,12,12,13,13,14,14],"right_children":[2,4,6,8,10,12,14,16,18,-1,20,22,24,26,28,-1,-1,-1,-1,-1,-1,-1,-1,-1,-1,-1,-1,-1,-1],"split_conditions":[4E0,3E0,1.9E1,5E0,2E0,5E0,2.2E1,1E0,1E0,-3.13212E-2,7E0,1.4E1,9E0,2E0,7E0,-2.1985507E-1,-2.81893E-1,-1.7942552E-1,-2.1696813E-1,-1.5914533E-1,-2.1743785E-1,9.231558E-2,2.1353112E-1,-1.8800372E-1,7.791143E-2,-1.7229813E-1,-1.27022E-2,-1.6115175E-1,-4.1655546E-1],"split_indices":[1,1,1,0,0,0,1,1,1,0,0,1,1,0,0,0,0,0,0,0,0,0,0,0,0,0,0,0,0],"split_type":[0,0,0,0,0,0,0,0,0,0,0,0,0,0,0,0,0,0,0,0,0,0,0,0,0,0,0,0,0],"sum_hessian":[3.662E3,4.77E2,3.185E3,4.11E2,6.6E1,2.164E3,1.021E3,2.52E2,1.59E2,2.3E1,4.3E1,1.396E3,7.68E2,6.71E2,3.5E2,2.6E1,2.26E2,4.3E1,1.16E2,1.9E1,2.4E1,9.07E2,4.89E2,1.62E2,6.06E2,1.16E2,5.55E2,3.08E2,4.2E1],"tree_param":{"num_deleted":"0","num_feature":"2","num_nodes":"29","size_leaf_vector":"1"}},{"base_weights":[-6.4205322E-3,-2.1223707E0,3.1104043E-1,-2.2566752E0,-1.2648201E0,7.7716523E-1,-1.0370605E0,-2.4627833E0,-1.8249783E-1,-2.831955E-2,-1.7715059E-1,-6.442112E-1,9.296381E-1,-2.541843E0,-7.468448E-1,-2.5856704E-1,-2.1755306E-1,1.9434585E-1,-1.3738053E-1,1.2605803E-1,3.629272E-2,-1.7463498E-1,-3.3853775E-1,-4.8605092E-2,-2.4524264E-1],"categories":[],"categories_nodes":[],"categories_segments":[],"categories_sizes":[],"default_left":[0,0,0,0,0,0,0,0,0,0,0,0,0,0,0,0,0,0,0,0,0,0,0,0,0],"id":15,"left_children":[1,3,5,7,9,11,13,15,-1,-1,-1,17,19,21,23,-1,-1,-1,-1,-1,-1,-1,-1,-1,-1],"loss_changes":[2.4612126E3,5.219873E1,2.0028352E3,3.2163574E1,3.2822456E1,5.137948E2,3.5576825E2,4.1175537E0,0E0,0E0,0E0,4.3689807E2,4.0070862E2,8.266333E1,3.0483405E2,0E0,0E0,0E0,0E0,0E0,0E0,0E0,0E0,0E0,0E0],"parents":[2147483647,0,0,1,1,2,2,3,3,4,4,5,5,6,6,7,7,11,11,12,12,13,13,14,14],"right_children":[2,4,6,8,10,12,14,16,-1,-1,-1,18,20,22,24,-1,-1,-1,-1,-1,-1,-1,-1,-1,-1],"split_conditions":[4E0,3E0,2E1,6E0,2E0,6E0,2E0,2E0,-1.8249783E-1,-2.831955E-2,-1.7715059E-1,2E0,5E0,2.2E1,7E0,-2.5856704E-1,-2.1755306E-1,1.9434585E-1,-1.3738053E-1,1.2605803E-1,3.629272E-2,-1.7463498E-1,-3.3853775E-1,-4.8605092E-2,-2.4524264E-1],"split_indices":[1,1,1,0,0,1,0,1,0,0,0,0,0,1,0,0,0,0,0,0,0,0,0,0,0],"split_type":[0,0,0,0,0,0,0,0,0,0,0,0,0,0,0,0,0,0,0,0,0,0,0,0,0],"sum_hessian":[3.662E3,4.77E2,3.185E3,4.11E2,6.6E1,2.367E3,8.18E2,2.75E2,1.36E2,2.3E1,4.3E1,2.29E2,2.138E3,1.31E2,6.87E2,1.87E2,8.8E1,5E1,1.79E2,1.349E3,7.89E2,6.9E1,6.2E1,5.97E2,9E1],"tree_param":{"num_deleted":"0","num_feature":"2","num_nodes":"25","size_leaf_vector":"1"}},{"base_weights":[-6.175046E-3,-1.9119412E0,2.7975163E-1,-2.0326064E0,-1.1414047E0,8.4660906E-1,-6.578492E-1,-2.21823E0,-1.6438124E-1,-2.5605608E-2,-1.5983813E0,4.7132072E-1,1.6498829E0,-1.7053766E0,-1.7465268E-1,-2.3284784E-1,-1.960422E-1,-1.2719719E-1,-1.7955737E-1,6.7065984E-2,-7.038335E-2,2.9212862E-1,1.0414537E-1,-1.2737E-1,-2.790819E-1,4.3573957E-2,-1.2571512E-1],"categories":[],"categories_nodes":[],"categories_segments":[],"categories_sizes":[],"default_left":[0,0,0,0,0,0,0,0,0,0,0,0,0,0,0,0,0,0,0,0,0,0,0,0,0,0,0],"id":16,"left_children":[1,3,5,7,9,11,13,15,-1,-1,17,19,21,23,25,-1,-1,-1,-1,-1,-1,-1,-1,-1,-1,-1,-1],"loss_changes":[1.996538E3,4.2122925E1,1.6938713E3,2.6087524E1,2.6697823E1,5.979204E2,6.076022E2,3.2799072E0,0E0,0E0,5.4815674E-1,3.178865E2,4.8584692E2,1.7402954E2,5.44344E2,0E0,0E0,0E0,0E0,0E0,0E0,0E0,0E0,0E0,0E0,0E0,0E0],"parents":[2147483647,0,0,1,1,2,2,3,3,4,4,5,5,6,6,7,7,10,10,11,11,12,12,13,13,14,14],"right_children":[2,4,6,8,10,12,14,16,-1,-1,18,20,22,24,26,-1,-1,-1,-1,-1,-1,-1,-1,-1,-1,-1,-1],"split_conditions":[4E0,3E0,1.8E1,6E0,2E0,1.4E1,3E0,2E0,-1.6438124E-1,-2.5605608E-2,7E0,7E0,3E0,2.2E1,6E0,-2.3284784E-1,-1.960422E-1,-1.2719719E-1,-1.7955737E-1,6.7065984E-2,-7.038335E-2,2.9212862E-1,1.0414537E-1,-1.2737E-1,-2.790819E-1,4.3573957E-2,-1.2571512E-1],"split_indices":[1,1,1,0,0,1,0,1,0,0,0,0,0,1,0,0,0,0,0,0,0,0,0,0,0,0,0],"split_type":[0,0,0,0,0,0,0,0,0,0,0,0,0,0,0,0,0,0,0,0,0,0,0,0,0,0,0],"sum_hessian":[3.662E3,4.77E2,3.185E3,4.11E2,6.6E1,1.985E3,1.2E3,2.75E2,1.36E2,2.3E1,4.3E1,1.354E3,6.31E2,3.78E2,8.22E2,1.87E2,8.8E1,1.9E1,2.4E1,1.158E3,1.96E2,2.03E2,4.28E2,2.72E2,1.06E2,5.26E2,2.96E2],"tree_param":{"num_deleted":"0","num_feature":"2","num_nodes":"27","size_leaf_vector":"1"}},{"base_weights":[-5.8364714E-3,-1.3664043E0,3.1946868E-1,-1.8307856E0,-7.154195E-1,9.426447E-1,-5.924712E-1,-1.9979609E0,-1.4806311E0,2.2712922E-1,-1.9373789E0,1.268668E0,4.2317224E-1,-1.3033987E0,4.114122E-2,-1.513624E-1,-2.0422776E-1,-1.2799118E-1,-1.5588336E-1,1.0876942E-1,-4.455964E-2,-1.1522027E-1,-2.6034424E-1,8.506617E-2,2.111665E-1,-8.650978E-2,8.219936E-2,-7.290124E-2,-1.939362E-1,1.0656706E-1,-1.13185935E-1],"categories":[],"categories_nodes":[],"categories_segments":[],"categories_sizes":[],"default_left":[0,0,0,0,0,0,0,0,0,0,0,0,0,0,0,0,0,0,0,0,0,0,0,0,0,0,0,0,0,0,0],"id":17,"left_children":[1,3,5,7,9,11,13,15,17,19,21,23,25,27,29,-1,-1,-1,-1,-1,-1,-1,-1,-1,-1,-1,-1,-1,-1,-1,-1],"loss_changes":[1.6216793E3,2.1242004E2,1.6810188E3,2.1159058E1,3.4135986E2,2.9702893E2,5.410471E2,2.8328857E0,1.5527344E-1,9.7743904E1,6.4464355E1,3.7841956E2,3.4957428E2,2.0533942E2,7.655341E2,0E0,0E0,0E0,0E0,0E0,0E0,0E0,0E0,0E0,0E0,0E0,0E0,0E0,0E0,0E0,0E0],"parents":[2147483647,0,0,1,1,2,2,3,3,4,4,5,5,6,6,7,7,8,8,9,9,10,10,11,11,12,12,13,13,14,14],"right_children":[2,4,6,8,10,12,14,16,18,20,22,24,26,28,30,-1,-1,-1,-1,-1,-1,-1,-1,-1,-1,-1,-1,-1,-1,-1,-1],"split_conditions":[6E0,3E0,1.8E1,6E0,4E0,5E0,4E0,1E0,1E0,2E0,7E0,1.4E1,1E1,2.1E1,6E0,-1.513624E-1,-2.0422776E-1,-1.2799118E-1,-1.5588336E-1,1.0876942E-1,-4.455964E-2,-1.1522027E-1,-2.6034424E-1,8.506617E-2,2.111665E-1,-8.650978E-2,8.219936E-2,-7.290124E-2,-1.939362E-1,1.0656706E-1,-1.13185935E-1],"split_indices":[1,1,1,0,0,0,0,1,1,0,0,1,1,1,0,0,0,0,0,0,0,0,0,0,0,0,0,0,0,0,0],"split_type":[0,0,0,0,0,0,0,0,0,0,0,0,0,0,0,0,0,0,0,0,0,0,0,0,0,0,0,0,0,0,0],"sum_hessian":[3.662E3,7.06E2,2.956E3,4.11E2,2.95E2,1.756E3,1.2E3,2.75E2,1.36E2,1.67E2,1.28E2,1.078E3,6.78E2,5.65E2,6.35E2,2.6E1,2.49E2,4.3E1,9.3E1,7.3E1,9.4E1,6E1,6.8E1,7.22E2,3.56E2,1.6E2,5.18E2,2.98E2,2.67E2,3.39E2,2.96E2],"tree_param":{"num_deleted":"0","num_feature":"2","num_nodes":"31","size_leaf_vector":"1"}},{"base_weights":[-5.507332E-3,-1.5538036E0,2.2678743E-1,-1.6492592E0,-9.436319E-1,5.187986E-1,-1.072426E0,-1.8219949E0,-1.365813E0,-3.3575512E-2,-1.253755E-1,6.5437275E-1,-3.2192075E-1,-1.7461492E0,-5.0126165E-1,-1.6187291E-1,-1.9598764E-1,-1.1548295E-1,-1.4334837E-1,8.180136E-2,1.4239359E-2,-2.3622356E-1,3.618681E-2,-1.6038479E-1,-3.264434E-1,-8.152938E-3,-2.1026407E-1],"categories":[],"categories_nodes":[],"categories_segments":[],"categories_sizes":[],"default_left":[0,0,0,0,0,0,0,0,0,0,0,0,0,0,0,0,0,0,0,0,0,0,0,0,0,0,0],"id":18,"left_children":[1,3,5,7,9,11,13,15,17,-1,-1,19,21,23,25,-1,-1,-1,-1,-1,-1,-1,-1,-1,-1,-1,-1],"loss_changes":[1.317791E3,2.6284424E1,1.2092764E3,1.7683594E1,1.220966E1,2.9678613E2,2.2423663E2,3.918213E0,6.2893677E-1,0E0,0E0,1.8763617E2,5.0589716E2,5.2666748E1,2.1357242E2,0E0,0E0,0E0,0E0,0E0,0E0,0E0,0E0,0E0,0E0,0E0,0E0],"parents":[2147483647,0,0,1,1,2,2,3,3,4,4,5,5,6,6,7,7,8,8,11,11,12,12,13,13,14,14],"right_children":[2,4,6,8,10,12,14,16,18,-1,-1,20,22,24,26,-1,-1,-1,-1,-1,-1,-1,-1,-1,-1,-1,-1],"split_conditions":[4E0,3E0,2.1E1,5E0,2E0,7E0,4E0,2E0,1E0,-3.3575512E-2,-1.253755E-1,1.8E1,9E0,2.3E1,7E0,-1.6187291E-1,-1.9598764E-1,-1.1548295E-1,-1.4334837E-1,8.180136E-2,1.4239359E-2,-2.3622356E-1,3.618681E-2,-1.6038479E-1,-3.264434E-1,-8.152938E-3,-2.1026407E-1],"split_indices":[1,1,1,0,0,0,0,0,1,0,0,1,1,1,0,0,0,0,0,0,0,0,0,0,0,0,0],"split_type":[0,0,0,0,0,0,0,0,0,0,0,0,0,0,0,0,0,0,0,0,0,0,0,0,0,0,0],"sum_hessian":[3.662E3,4.77E2,3.185E3,4.11E2,6.6E1,2.601E3,5.84E2,2.52E2,1.59E2,2.3E1,4.3E1,2.24E3,3.61E2,2.67E2,3.17E2,1.07E2,1.45E2,4.3E1,1.16E2,1.697E3,5.43E2,9E1,2.71E2,2.46E2,2.1E1,2.52E2,6.5E1],"tree_param":{"num_deleted":"0","num_feature":"2","num_nodes":"27","size_leaf_vector":"1"}},{"base_weights":[-5.3889058E-3,-1.1338574E0,2.644226E-1,-1.4858302E0,-6.4011884E-1,7.802592E-1,-4.9043944E-1,-1.6412098E0,-1.2308496E0,9.355589E-1,-1.160119E0,5.12669E-1,1.2557755E0,-1.0992079E0,5.2097283E-2,-1.17913865E-1,-1.6889398E-1,-1.0419714E-1,-1.2913607E-1,-3.035791E-2,1.5003385E-1,-7.1080826E-2,-2.152627E-1,9.394349E-2,3.8216896E-2,2.3390578E-1,7.3772095E-2,-7.9569064E-2,-1.9206583E-1,9.574031E-2,-9.844553E-2],"categories":[],"categories_nodes":[],"categories_segments":[],"categories_sizes":[],"default_left":[0,0,0,0,0,0,0,0,0,0,0,0,0,0,0,0,0,0,0,0,0,0,0,0,0,0,0,0,0,0,0],"id":19,"left_children":[1,3,5,7,9,11,13,15,17,19,21,23,25,27,29,-1,-1,-1,-1,-1,-1,-1,-1,-1,-1,-1,-1,-1,-1,-1,-1],"loss_changes":[1.1155874E3,1.2191321E2,1.1517955E3,1.4302856E1,2.4361375E2,2.2292285E2,3.9672266E2,3.5883179E0,4.8310852E-1,5.2243614E1,9.791553E1,6.2351288E1,3.529524E2,1.3958936E2,5.97763E2,0E0,0E0,0E0,0E0,0E0,0E0,0E0,0E0,0E0,0E0,0E0,0E0,0E0,0E0,0E0,0E0],"parents":[2147483647,0,0,1,1,2,2,3,3,4,4,5,5,6,6,7,7,8,8,9,9,10,10,11,11,12,12,13,13,14,14],"right_children":[2,4,6,8,10,12,14,16,18,20,22,24,26,28,30,-1,-1,-1,-1,-1,-1,-1,-1,-1,-1,-1,-1,-1,-1,-1,-1],"split_conditions":[6E0,3E0,1.8E1,5E0,2E0,1.4E1,4E0,1E0,1E0,4E0,7E0,8E0,3E0,2.2E1,6E0,-1.17913865E-1,-1.6889398E-1,-1.0419714E-1,-1.2913607E-1,-3.035791E-2,1.5003385E-1,-7.1080826E-2,-2.152627E-1,9.394349E-2,3.8216896E-2,2.3390578E-1,7.3772095E-2,-7.9569064E-2,-1.9206583E-1,9.574031E-2,-9.844553E-2],"split_indices":[1,1,1,0,0,1,0,1,1,1,0,1,0,1,0,0,0,0,0,0,0,0,0,0,0,0,0,0,0,0,0],"split_type":[0,0,0,0,0,0,0,0,0,0,0,0,0,0,0,0,0,0,0,0,0,0,0,0,0,0,0,0,0,0,0],"sum_hessian":[3.662E3,7.06E2,2.956E3,4.11E2,2.95E2,1.756E3,1.2E3,2.52E2,1.59E2,7.3E1,2.22E2,1.125E3,6.31E2,5.65E2,6.35E2,2.6E1,2.26E2,4.3E1,1.16E2,2.3E1,5E1,1.54E2,6.8E1,2.62E2,8.63E2,2.03E2,4.28E2,4.14E2,1.51E2,3.39E2,2.96E2],"tree_param":{"num_deleted":"0","num_feature":"2","num_nodes":"31","size_leaf_vector":"1"}},{"base_weights":[-4.9924483E-3,-1.021443E0,2.3803616E-1,-1.3385096E0,-5.7666993E-1,5.207314E-1,-9.090987E-1,-1.4782224E0,-1.109223E0,8.436203E-1,-1.045391E0,7.0248336E-1,2.3215539E-3,-1.4306945E0,-4.6665603E-1,-1.2910248E-1,-1.6065726E-1,-9.401424E-2,-1.1633283E-1,-2.7448568E-2,1.3532463E-1,-6.401859E-2,-1.9404839E-1,9.703956E-2,2.7570903E-2,-9.679069E-2,4.0104028E-2,-1.3056569E-1,-2.7694938E-1,-1.1734577E-2,-1.7986082E-1],"categories":[],"categories_nodes":[],"categories_segments":[],"categories_sizes":[],"default_left":[0,0,0,0,0,0,0,0,0,0,0,0,0,0,0,0,0,0,0,0,0,0,0,0,0,0,0,0,0,0,0],"id":20,"left_children":[1,3,5,7,9,11,13,15,17,19,21,23,25,27,29,-1,-1,-1,-1,-1,-1,-1,-1,-1,-1,-1,-1,-1,-1,-1,-1],"loss_changes":[9.0510144E2,9.893115E1,9.5939764E2,1.1558411E1,1.9793503E2,2.2358716E2,1.3433646E2,4.0046997E0,3.7001038E-1,4.253782E1,7.963898E1,2.0062433E2,2.3907355E2,4.1247192E1,1.4774307E2,0E0,0E0,0E0,0E0,0E0,0E0,0E0,0E0,0E0,0E0,0E0,0E0,0E0,0E0,0E0,0E0],"parents":[2147483647,0,0,1,1,2,2,3,3,4,4,5,5,6,6,7,7,8,8,9,9,10,10,11,11,12,12,13,13,14,14],"right_children":[2,4,6,8,10,12,14,16,18,20,22,24,26,28,30,-1,-1,-1,-1,-1,-1,-1,-1,-1,-1,-1,-1,-1,-1,-1,-1],"split_conditions":[6E0,3E0,2.1E1,5E0,2E0,1.8E1,4E0,2E0,1E0,4E0,7E0,5E0,3E0,2.3E1,7E0,-1.2910248E-1,-1.6065726E-1,-9.401424E-2,-1.1633283E-1,-2.7448568E-2,1.3532463E-1,-6.401859E-2,-1.9404839E-1,9.703956E-2,2.7570903E-2,-9.679069E-2,4.0104028E-2,-1.3056569E-1,-2.7694938E-1,-1.1734577E-2,-1.7986082E-1],"split_indices":[1,1,1,0,0,1,0,0,1,1,0,0,0,1,0,0,0,0,0,0,0,0,0,0,0,0,0,0,0,0,0],"split_type":[0,0,0,0,0,0,0,0,0,0,0,0,0,0,0,0,0,0,0,0,0,0,0,0,0,0,0,0,0,0,0],"sum_hessian":[3.662E3,7.06E2,2.956E3,4.11E2,2.95E2,2.372E3,5.84E2,2.52E2,1.59E2,7.3E1,2.22E2,1.756E3,6.16E2,2.67E2,3.17E2,1.07E2,1.45E2,4.3E1,1.16E2,2.3E1,5E1,1.54E2,6.8E1,1.078E3,6.78E2,1.79E2,4.37E2,2.46E2,2.1E1,2.52E2,6.5E1],"tree_param":{"num_deleted":"0","num_feature":"2","num_nodes":"31","size_leaf_vector":"1"}},{"base_weights":[-4.815892E-3,-9.202186E-1,2.1405274E-1,-1.2058724E0,-5.1951045E-1,4.6868664E-1,-8.192128E-1,-1.3174732E0,-9.7223975E-2,1.3785672E-1,-1.3715893E0,6.323056E-1,1.9974965E-3,-1.2891456E0,-4.2059264E-1,-9.1088496E-2,-1.3561149E-1,7.607161E-2,-3.487691E-2,-9.219169E-2,-1.7492478E-1,3.894286E-2,1.0640259E-1,-8.716544E-2,3.6102794E-2,-1.1756199E-1,-2.505133E-1,-1.0565719E-2,-1.6214727E-1],"categories":[],"categories_nodes":[],"categories_segments":[],"categories_sizes":[],"default_left":[0,0,0,0,0,0,0,0,0,0,0,0,0,0,0,0,0,0,0,0,0,0,0,0,0,0,0,0,0],"id":21,"left_children":[1,3,5,7,9,11,13,15,-1,17,19,21,23,25,27,-1,-1,-1,-1,-1,-1,-1,-1,-1,-1,-1,-1,-1,-1],"loss_changes":[7.340898E2,8.029944E1,7.783837E2,9.461426E0,1.6598717E2,1.811991E2,1.09042725E2,3.1009827E0,0E0,5.118602E1,2.0294464E1,1.8381567E2,1.938476E2,3.405124E1,1.20096176E2,0E0,0E0,0E0,0E0,0E0,0E0,0E0,0E0,0E0,0E0,0E0,0E0,0E0,0E0],"parents":[2147483647,0,0,1,1,2,2,3,3,4,4,5,5,6,6,7,7,9,9,10,10,11,11,12,12,13,13,14,14],"right_children":[2,4,6,8,10,12,14,16,-1,18,20,22,24,26,28,-1,-1,-1,-1,-1,-1,-1,-1,-1,-1,-1,-1,-1,-1],"split_conditions":[6E0,3E0,2.1E1,6E0,4E0,1.8E1,4E0,1E0,-9.7223975E-2,2E0,7E0,1.4E1,3E0,2.3E1,7E0,-9.1088496E-2,-1.3561149E-1,7.607161E-2,-3.487691E-2,-9.219169E-2,-1.7492478E-1,3.894286E-2,1.0640259E-1,-8.716544E-2,3.6102794E-2,-1.1756199E-1,-2.505133E-1,-1.0565719E-2,-1.6214727E-1],"split_indices":[1,1,1,0,0,1,0,1,0,0,0,1,0,1,0,0,0,0,0,0,0,0,0,0,0,0,0,0,0],"split_type":[0,0,0,0,0,0,0,0,0,0,0,0,0,0,0,0,0,0,0,0,0,0,0,0,0,0,0,0,0],"sum_hessian":[3.662E3,7.06E2,2.956E3,4.11E2,2.95E2,2.372E3,5.84E2,2.75E2,1.36E2,1.67E2,1.28E2,1.756E3,6.16E2,2.67E2,3.17E2,2.6E1,2.49E2,7.3E1,9.4E1,6E1,6.8E1,1.125E3,6.31E2,1.79E2,4.37E2,2.46E2,2.1E1,2.52E2,6.5E1],"tree_param":{"num_deleted":"0","num_feature":"2","num_nodes":"29","size_leaf_vector":"1"}},{"base_weights":[-4.606308E-3,-8.289744E-1,1.9249645E-1,-1.0860715E0,-4.683225E-1,3.6475992E-1,-1.0875132E0,-1.2010455E0,-8.9748085E-1,1.2431652E-1,-1.236501E0,5.691578E-1,-5.767456E-2,-8.665301E-1,-2.6502177E-1,-1.0287619E-1,-1.3202618E-1,-7.532508E-2,-9.440505E-2,6.8567306E-2,-3.1425927E-2,-8.312365E-2,-1.576858E-1,8.122813E-2,1.8197156E-2,-5.8946438E-2,4.474752E-2,-1.4447688E-1,-3.0476544E-2],"categories":[],"categories_nodes":[],"categories_segments":[],"categories_sizes":[],"default_left":[0,0,0,0,0,0,0,0,0,0,0,0,0,0,0,0,0,0,0,0,0,0,0,0,0,0,0,0,0],"id":22,"left_children":[1,3,5,7,9,11,13,15,17,19,21,23,25,27,-1,-1,-1,-1,-1,-1,-1,-1,-1,-1,-1,-1,-1,-1,-1],"loss_changes":[5.9534296E2,6.5046265E1,6.5241205E2,7.8554993E0,1.3490848E2,2.2513345E2,1.18914825E2,3.8381042E0,3.635559E-1,4.157664E1,1.6482834E1,1.6524579E2,2.2887086E2,9.993341E1,0E0,0E0,0E0,0E0,0E0,0E0,0E0,0E0,0E0,0E0,0E0,0E0,0E0,0E0,0E0],"parents":[2147483647,0,0,1,1,2,2,3,3,4,4,5,5,6,6,7,7,8,8,9,9,10,10,11,11,12,12,13,13],"right_children":[2,4,6,8,10,12,14,16,18,20,22,24,26,28,-1,-1,-1,-1,-1,-1,-1,-1,-1,-1,-1,-1,-1,-1,-1],"split_conditions":[6E0,3E0,2.2E1,5E0,4E0,1.8E1,7E0,2E0,1E0,2E0,7E0,5E0,4E0,4E0,-2.6502177E-1,-1.0287619E-1,-1.3202618E-1,-7.532508E-2,-9.440505E-2,6.8567306E-2,-3.1425927E-2,-8.312365E-2,-1.576858E-1,8.122813E-2,1.8197156E-2,-5.8946438E-2,4.474752E-2,-1.4447688E-1,-3.0476544E-2],"split_indices":[1,1,1,0,0,1,0,0,1,0,0,0,0,0,0,0,0,0,0,0,0,0,0,0,0,0,0,0,0],"split_type":[0,0,0,0,0,0,0,0,0,0,0,0,0,0,0,0,0,0,0,0,0,0,0,0,0,0,0,0,0],"sum_hessian":[3.662E3,7.06E2,2.956E3,4.11E2,2.95E2,2.606E3,3.5E2,2.52E2,1.59E2,1.67E2,1.28E2,1.756E3,8.5E2,3.08E2,4.2E1,1.07E2,1.45E2,4.3E1,1.16E2,7.3E1,9.4E1,6E1,6.8E1,1.078E3,6.78E2,4.14E2,4.36E2,1.51E2,1.57E2],"tree_param":{"num_deleted":"0","num_feature":"2","num_nodes":"29","size_leaf_vector":"1"}},{"base_weights":[-4.408744E-3,-7.4693745E-1,1.7312665E-1,-9.784464E-1,-4.2217854E-1,3.2831645E-1,-9.8001546E-1,-1.0818694E0,-8.0879354E-1,1.121057E-1,-1.1147178E0,5.122982E-1,-5.1923655E-2,-7.804433E-1,-2.391359E-1,-6.9603376E-2,-1.1229958E-1,-6.796377E-2,-8.504522E-2,6.1803233E-2,-2.8316459E-2,-5.9250172E-2,-1.3689364E-1,2.9192349E-2,9.041173E-2,-5.306598E-2,4.028302E-2,-1.4967161E-1,-3.9905593E-2],"categories":[],"categories_nodes":[],"categories_segments":[],"categories_sizes":[],"default_left":[0,0,0,0,0,0,0,0,0,0,0,0,0,0,0,0,0,0,0,0,0,0,0,0,0,0,0,0,0],"id":23,"left_children":[1,3,5,7,9,11,13,15,17,19,21,23,25,27,-1,-1,-1,-1,-1,-1,-1,-1,-1,-1,-1,-1,-1,-1,-1],"loss_changes":[4.830048E2,5.274243E1,5.2949426E2,6.353943E0,1.0964876E2,1.8240515E2,9.699802E1,3.2329712E0,2.8286743E-1,3.3771267E1,1.631456E1,1.5144775E2,1.854825E2,8.3814575E1,0E0,0E0,0E0,0E0,0E0,0E0,0E0,0E0,0E0,0E0,0E0,0E0,0E0,0E0,0E0],"parents":[2147483647,0,0,1,1,2,2,3,3,4,4,5,5,6,6,7,7,8,8,9,9,10,10,11,11,12,12,13,13],"right_children":[2,4,6,8,10,12,14,16,18,20,22,24,26,28,-1,-1,-1,-1,-1,-1,-1,-1,-1,-1,-1,-1,-1,-1,-1],"split_conditions":[6E0,3E0,2.2E1,5E0,4E0,1.8E1,7E0,1E0,1E0,2E0,4E0,1.4E1,4E0,3E0,-2.391359E-1,-6.9603376E-2,-1.1229958E-1,-6.796377E-2,-8.504522E-2,6.1803233E-2,-2.8316459E-2,-5.9250172E-2,-1.3689364E-1,2.9192349E-2,9.041173E-2,-5.306598E-2,4.028302E-2,-1.4967161E-1,-3.9905593E-2],"split_indices":[1,1,1,0,0,1,0,1,1,0,1,1,0,0,0,0,0,0,0,0,0,0,0,0,0,0,0,0,0],"split_type":[0,0,0,0,0,0,0,0,0,0,0,0,0,0,0,0,0,0,0,0,0,0,0,0,0,0,0,0,0],"sum_hessian":[3.662E3,7.06E2,2.956E3,4.11E2,2.95E2,2.606E3,3.5E2,2.52E2,1.59E2,1.67E2,1.28E2,1.756E3,8.5E2,3.08E2,4.2E1,2.6E1,2.26E2,4.3E1,1.16E2,7.3E1,9.4E1,4.3E1,8.5E1,1.125E3,6.31E2,4.14E2,4.36E2,1.06E2,2.02E2],"tree_param":{"num_deleted":"0","num_feature":"2","num_nodes":"29","size_leaf_vector":"1"}},{"base_weights":[-4.191533E-3,-6.7294747E-1,1.557052E-1,-8.814146E-1,-3.8051024E-1,2.9552585E-1,-8.832354E-1,-1.001797E0,-7.6084775E-1,1.0109437E-1,-1.0047666E0,4.6113658E-1,-4.67463E-2,-7.030126E-1,-2.1577847E-1,-8.8494875E-2,-1.3813671E-1,-6.132188E-2,-7.951881E-2,5.5706408E-2,-2.5514616E-2,-6.390106E-2,-1.3135543E-1,6.817647E-2,1.0985691E-2,-4.777215E-2,3.6263917E-2,-1.1850522E-1,-2.3482883E-2],"categories":[],"categories_nodes":[],"categories_segments":[],"categories_sizes":[],"default_left":[0,0,0,0,0,0,0,0,0,0,0,0,0,0,0,0,0,0,0,0,0,0,0,0,0,0,0,0,0],"id":24,"left_children":[1,3,5,7,9,11,13,15,17,19,21,23,25,27,-1,-1,-1,-1,-1,-1,-1,-1,-1,-1,-1,-1,-1,-1,-1],"loss_changes":[3.9179626E2,4.276584E1,4.2981064E2,5.217621E0,8.9092415E1,1.477966E2,7.9108795E1,7.7810364E0,5.7699585E-1,2.743119E1,1.3729996E1,1.3609644E2,1.503194E2,6.9457794E1,0E0,0E0,0E0,0E0,0E0,0E0,0E0,0E0,0E0,0E0,0E0,0E0,0E0,0E0,0E0],"parents":[2147483647,0,0,1,1,2,2,3,3,4,4,5,5,6,6,7,7,8,8,9,9,10,10,11,11,12,12,13,13],"right_children":[2,4,6,8,10,12,14,16,18,20,22,24,26,28,-1,-1,-1,-1,-1,-1,-1,-1,-1,-1,-1,-1,-1,-1,-1],"split_conditions":[6E0,3E0,2.2E1,4E0,4E0,1.8E1,7E0,3E0,1E0,2E0,7E0,5E0,4E0,4E0,-2.1577847E-1,-8.8494875E-2,-1.3813671E-1,-6.132188E-2,-7.951881E-2,5.5706408E-2,-2.5514616E-2,-6.390106E-2,-1.3135543E-1,6.817647E-2,1.0985691E-2,-4.777215E-2,3.6263917E-2,-1.1850522E-1,-2.3482883E-2],"split_indices":[1,1,1,0,0,1,0,0,1,0,0,0,0,0,0,0,0,0,0,0,0,0,0,0,0,0,0,0,0],"split_type":[0,0,0,0,0,0,0,0,0,0,0,0,0,0,0,0,0,0,0,0,0,0,0,0,0,0,0,0,0],"sum_hessian":[3.662E3,7.06E2,2.956E3,4.11E2,2.95E2,2.606E3,3.5E2,2.02E2,2.09E2,1.67E2,1.28E2,1.756E3,8.5E2,3.08E2,4.2E1,1.57E2,4.5E1,4.3E1,1.66E2,7.3E1,9.4E1,6E1,6.8E1,1.078E3,6.78E2,4.14E2,4.36E2,1.51E2,1.57E2],"tree_param":{"num_deleted":"0","num_feature":"2","num_nodes":"29","size_leaf_vector":"1"}},{"base_weights":[-3.996927E-3,-6.06406E-1,1.4003661E-1,-7.9416513E-1,-3.4301683E-1,3.1157893E-1,-5.5604887E-1,-8.6994207E-1,-6.357082E-2,9.116481E-2,-9.058036E-1,4.9754995E-1,5.794961E-4,-1.216455E0,-4.0226582E-1,-7.279031E-2,-9.555649E-2,5.021108E-2,-2.2990009E-2,-4.3535594E-2,-1.1359652E-1,2.4701405E-2,1.3184804E-1,-1.19013965E-1,1.843603E-2,-1.040715E-1,-1.8721099E-1,-1.5401257E-3,-6.525367E-2],"categories":[],"categories_nodes":[],"categories_segments":[],"categories_sizes":[],"default_left":[0,0,0,0,0,0,0,0,0,0,0,0,0,0,0,0,0,0,0,0,0,0,0,0,0,0,0,0,0],"id":25,"left_children":[1,3,5,7,9,11,13,15,-1,17,19,21,23,25,27,-1,-1,-1,-1,-1,-1,-1,-1,-1,-1,-1,-1,-1,-1],"loss_changes":[3.179128E2,3.4691345E1,3.532631E2,4.3940125E0,7.241068E1,1.3724661E2,5.892282E1,2.661087E0,0E0,2.2281412E1,1.3473442E1,3.05098E2,1.9476047E2,1.072641E1,4.6076714E1,0E0,0E0,0E0,0E0,0E0,0E0,0E0,0E0,0E0,0E0,0E0,0E0,0E0,0E0],"parents":[2147483647,0,0,1,1,2,2,3,3,4,4,5,5,6,6,7,7,9,9,10,10,11,11,12,12,13,13,14,14],"right_children":[2,4,6,8,10,12,14,16,-1,18,20,22,24,26,28,-1,-1,-1,-1,-1,-1,-1,-1,-1,-1,-1,-1,-1,-1],"split_conditions":[6E0,3E0,2.1E1,6E0,4E0,5E0,2E0,2E0,-6.357082E-2,2E0,4E0,4E0,9E0,2.3E1,2.2E1,-7.279031E-2,-9.555649E-2,5.021108E-2,-2.2990009E-2,-4.3535594E-2,-1.1359652E-1,2.4701405E-2,1.3184804E-1,-1.19013965E-1,1.843603E-2,-1.040715E-1,-1.8721099E-1,-1.5401257E-3,-6.525367E-2],"split_indices":[1,1,1,0,0,0,0,0,0,0,1,0,1,1,1,0,0,0,0,0,0,0,0,0,0,0,0,0,0],"split_type":[0,0,0,0,0,0,0,0,0,0,0,0,0,0,0,0,0,0,0,0,0,0,0,0,0,0,0,0,0],"sum_hessian":[3.662E3,7.06E2,2.956E3,4.11E2,2.95E2,2.372E3,5.84E2,2.75E2,1.36E2,1.67E2,1.28E2,1.484E3,8.88E2,1.09E2,4.75E2,1.07E2,1.68E2,7.3E1,9.4E1,4.3E1,8.5E1,1.138E3,3.46E2,1.18E2,7.7E2,8.8E1,2.1E1,1.87E2,2.88E2],"tree_param":{"num_deleted":"0","num_feature":"2","num_nodes":"29","size_leaf_vector":"1"}},{"base_weights":[-3.7786695E-3,-5.4627705E-1,1.2593053E-1,-7.1531147E-1,-3.0915388E-1,3.581627E-1,-3.1411582E-1,-8.1964785E-1,-6.110467E-1,8.221048E-2,-8.164412E-1,5.5163544E-1,3.4235615E-2,-1.0215173E-1,-7.190325E-1,-7.174799E-2,-1.1527542E-1,-4.911645E-2,-6.389734E-2,4.5257844E-2,-2.0715201E-2,-4.8624482E-2,-1.09652154E-1,2.9214356E-2,1.4063706E-1,-1.07212596E-1,2.5107712E-2,9.409592E-3,-6.961586E-2,-5.5468943E-2,-1.8832882E-1],"categories":[],"categories_nodes":[],"categories_segments":[],"categories_sizes":[],"default_left":[0,0,0,0,0,0,0,0,0,0,0,0,0,0,0,0,0,0,0,0,0,0,0,0,0,0,0,0,0,0,0],"id":26,"left_children":[1,3,5,7,9,11,13,15,17,19,21,23,25,27,29,-1,-1,-1,-1,-1,-1,-1,-1,-1,-1,-1,-1,-1,-1,-1,-1],"loss_changes":[2.5782324E2,2.8116806E1,3.0229697E2,3.9811554E0,5.8833237E1,1.2131229E2,8.764255E1,6.081558E0,3.892212E-1,1.8098412E1,1.13969345E1,2.6840692E2,1.7420038E2,7.84022E1,6.611479E1,0E0,0E0,0E0,0E0,0E0,0E0,0E0,0E0,0E0,0E0,0E0,0E0,0E0,0E0,0E0,0E0],"parents":[2147483647,0,0,1,1,2,2,3,3,4,4,5,5,6,6,7,7,8,8,9,9,10,10,11,11,12,12,13,13,14,14],"right_children":[2,4,6,8,10,12,14,16,18,20,22,24,26,28,30,-1,-1,-1,-1,-1,-1,-1,-1,-1,-1,-1,-1,-1,-1,-1,-1],"split_conditions":[6E0,3E0,1.9E1,4E0,4E0,5E0,2.2E1,3E0,1E0,2E0,7E0,4E0,9E0,6E0,7E0,-7.174799E-2,-1.1527542E-1,-4.911645E-2,-6.389734E-2,4.5257844E-2,-2.0715201E-2,-4.8624482E-2,-1.09652154E-1,2.9214356E-2,1.4063706E-1,-1.07212596E-1,2.5107712E-2,9.409592E-3,-6.961586E-2,-5.5468943E-2,-1.8832882E-1],"split_indices":[1,1,1,0,0,0,1,0,1,0,0,0,1,0,0,0,0,0,0,0,0,0,0,0,0,0,0,0,0,0,0],"split_type":[0,0,0,0,0,0,0,0,0,0,0,0,0,0,0,0,0,0,0,0,0,0,0,0,0,0,0,0,0,0,0],"sum_hessian":[3.662E3,7.06E2,2.956E3,4.11E2,2.95E2,1.935E3,1.021E3,2.02E2,2.09E2,1.67E2,1.28E2,1.211E3,7.24E2,6.71E2,3.5E2,1.57E2,4.5E1,4.3E1,1.66E2,7.3E1,9.4E1,6E1,6.8E1,9.3E2,2.81E2,1.18E2,6.06E2,5.05E2,1.66E2,3.08E2,4.2E1],"tree_param":{"num_deleted":"0","num_feature":"2","num_nodes":"31","size_leaf_vector":"1"}},{"base_weights":[-3.5784491E-3,-4.9226296E-1,1.13264136E-1,-1.8210453E-1,-5.9785384E-1,3.536953E-1,-2.3856837E-1,-5.9030104E-2,8.6997084E-2,-7.2750324E-1,-5.238079E-1,7.397557E-1,1.6912724E-1,-9.8256403E-1,-9.16065E-2,-4.2616665E-2,-8.9722045E-2,-2.6480258E-2,-6.939104E-2,2.5047475E-2,1.6115586E-1,-1.4319485E-1,2.391401E-2,-8.952404E-2,-1.6404608E-1,1.813641E-2,-7.420159E-2],"categories":[],"categories_nodes":[],"categories_segments":[],"categories_sizes":[],"default_left":[0,0,0,0,0,0,0,0,0,0,0,0,0,0,0,0,0,0,0,0,0,0,0,0,0,0,0],"id":27,"left_children":[1,3,5,7,9,11,13,-1,-1,15,17,19,21,23,25,-1,-1,-1,-1,-1,-1,-1,-1,-1,-1,-1,-1],"loss_changes":[2.0920996E2,2.3045334E1,2.5022144E2,7.824463E1,4.678116E0,1.2506889E2,1.3122614E2,0E0,0E0,9.283478E0,1.4751724E1,2.4188052E2,1.3373653E2,9.906479E0,1.7838739E2,0E0,0E0,0E0,0E0,0E0,0E0,0E0,0E0,0E0,0E0,0E0,0E0],"parents":[2147483647,0,0,1,1,2,2,3,3,4,4,5,5,6,6,9,9,10,10,11,11,12,12,13,13,14,14],"right_children":[2,4,6,8,10,12,14,-1,-1,16,18,20,22,24,26,-1,-1,-1,-1,-1,-1,-1,-1,-1,-1,-1,-1],"split_conditions":[6E0,2E0,1.8E1,4E0,2E0,3E0,2E0,-5.9030104E-2,8.6997084E-2,1E0,5E0,1.4E1,7E0,2.3E1,6E0,-4.2616665E-2,-8.9722045E-2,-2.6480258E-2,-6.939104E-2,2.5047475E-2,1.6115586E-1,-1.4319485E-1,2.391401E-2,-8.952404E-2,-1.6404608E-1,1.813641E-2,-7.420159E-2],"split_indices":[1,0,1,1,1,0,0,0,0,1,0,1,1,1,0,0,0,0,0,0,0,0,0,0,0,0,0],"split_type":[0,0,0,0,0,0,0,0,0,0,0,0,0,0,0,0,0,0,0,0,0,0,0,0,0,0,0],"sum_hessian":[3.662E3,7.06E2,2.956E3,1.8E2,5.26E2,1.756E3,1.2E3,1.3E2,5E1,1.88E2,3.38E2,5.67E2,1.189E3,1.97E2,1.003E3,6.9E1,1.19E2,1.35E2,2.03E2,3.64E2,2.03E2,4.9E1,1.14E3,1.76E2,2.1E1,7.07E2,2.96E2],"tree_param":{"num_deleted":"0","num_feature":"2","num_nodes":"27","size_leaf_vector":"1"}},{"base_weights":[-3.3415437E-3,-4.433198E-1,1.01855606E-1,-1.6373977E-1,-5.385013E-1,1.990505E-1,-6.2033516E-1,-5.317215E-2,7.8467876E-2,-6.554531E-1,-4.7170964E-1,3.1836373E-1,-4.752103E-2,-4.7826058E-1,-1.6268632E-1,-3.8415868E-2,-8.0824606E-2,-1.6045338E-2,-5.904755E-2,6.661081E-2,1.5211399E-2,-4.3251168E-2,3.1819668E-2,-8.838854E-2,-8.501227E-3],"categories":[],"categories_nodes":[],"categories_segments":[],"categories_sizes":[],"default_left":[0,0,0,0,0,0,0,0,0,0,0,0,0,0,0,0,0,0,0,0,0,0,0,0,0],"id":28,"left_children":[1,3,5,7,9,11,13,-1,-1,15,17,19,21,23,-1,-1,-1,-1,-1,-1,-1,-1,-1,-1,-1],"loss_changes":[1.6958513E2,1.8725708E1,2.0768494E2,6.3586357E1,3.8074188E0,7.671109E1,4.9415665E1,0E0,0E0,7.523903E0,1.2436943E1,1.014751E2,1.19956635E2,4.9213837E1,0E0,0E0,0E0,0E0,0E0,0E0,0E0,0E0,0E0,0E0,0E0],"parents":[2147483647,0,0,1,1,2,2,3,3,4,4,5,5,6,6,9,9,10,10,11,11,12,12,13,13],"right_children":[2,4,6,8,10,12,14,-1,-1,16,18,20,22,24,-1,-1,-1,-1,-1,-1,-1,-1,-1,-1,-1],"split_conditions":[6E0,2E0,2.2E1,4E0,2E0,1.8E1,7E0,-5.317215E-2,7.8467876E-2,1E0,4E0,3E0,4E0,4E0,-1.6268632E-1,-3.8415868E-2,-8.0824606E-2,-1.6045338E-2,-5.904755E-2,6.661081E-2,1.5211399E-2,-4.3251168E-2,3.1819668E-2,-8.838854E-2,-8.501227E-3],"split_indices":[1,0,1,1,1,1,0,0,0,1,0,0,0,0,0,0,0,0,0,0,0,0,0,0,0],"split_type":[0,0,0,0,0,0,0,0,0,0,0,0,0,0,0,0,0,0,0,0,0,0,0,0,0],"sum_hessian":[3.662E3,7.06E2,2.956E3,1.8E2,5.26E2,2.606E3,3.5E2,1.3E2,5E1,1.88E2,3.38E2,1.756E3,8.5E2,3.08E2,4.2E1,6.9E1,1.19E2,9.4E1,2.44E2,5.67E2,1.189E3,4.14E2,4.36E2,1.51E2,1.57E2],"tree_param":{"num_deleted":"0","num_feature":"2","num_nodes":"25","size_leaf_vector":"1"}},{"base_weights":[-3.1050073E-3,-3.9922687E-1,9.1606274E-2,-1.472262E-1,-4.8501983E-1,2.1059352E-1,-3.9121142E-1,-4.7895532E-2,7.0774905E-2,-5.905387E-1,-4.2476E-1,3.4198266E-1,-9.117894E-3,-2.6793075E-1,-1.0752482E0,-3.462916E-2,-7.28095E-2,-2.5604477E-2,-6.0751647E-2,1.3238668E-2,1.02897935E-1,-9.358008E-2,1.339228E-2,-6.1338264E-2,7.3083355E-3,-1.3995007E-1,-9.545305E-2],"categories":[],"categories_nodes":[],"categories_segments":[],"categories_sizes":[],"default_left":[0,0,0,0,0,0,0,0,0,0,0,0,0,0,0,0,0,0,0,0,0,0,0,0,0,0,0],"id":29,"left_children":[1,3,5,7,9,11,13,-1,-1,15,17,19,21,23,25,-1,-1,-1,-1,-1,-1,-1,-1,-1,-1,-1,-1],"loss_changes":[1.3746211E2,1.5213852E1,1.6995952E2,5.1674225E1,3.100113E0,6.850616E1,4.904409E1,0E0,0E0,6.0978394E0,1.02971E1,2.136915E2,1.1796527E2,5.85934E1,2.1478577E0,0E0,0E0,0E0,0E0,0E0,0E0,0E0,0E0,0E0,0E0,0E0,0E0],"parents":[2147483647,0,0,1,1,2,2,3,3,4,4,5,5,6,6,9,9,10,10,11,11,12,12,13,13,14,14],"right_children":[2,4,6,8,10,12,14,-1,-1,16,18,20,22,24,26,-1,-1,-1,-1,-1,-1,-1,-1,-1,-1,-1,-1],"split_conditions":[6E0,2E0,2.1E1,4E0,2E0,5E0,2.3E1,-4.7895532E-2,7.0774905E-2,1E0,7E0,4E0,9E0,4E0,2E0,-3.462916E-2,-7.28095E-2,-2.5604477E-2,-6.0751647E-2,1.3238668E-2,1.02897935E-1,-9.358008E-2,1.339228E-2,-6.1338264E-2,7.3083355E-3,-1.3995007E-1,-9.545305E-2],"split_indices":[1,0,1,1,1,0,1,0,0,1,0,0,1,0,0,0,0,0,0,0,0,0,0,0,0,0,0],"split_type":[0,0,0,0,0,0,0,0,0,0,0,0,0,0,0,0,0,0,0,0,0,0,0,0,0,0,0],"sum_hessian":[3.662E3,7.06E2,2.956E3,1.8E2,5.26E2,2.372E3,5.84E2,1.3E2,5E1,1.88E2,3.38E2,1.484E3,8.88E2,4.96E2,8.8E1,6.9E1,1.19E2,1.77E2,1.61E2,1.138E3,3.46E2,1.18E2,7.7E2,2.46E2,2.5E2,2.1E1,6.7E1],"tree_param":{"num_deleted":"0","num_feature":"2","num_nodes":"27","size_leaf_vector":"1"}},{"base_weights":[-2.9102748E-3,-3.5954598E-1,8.236005E-2,-1.3237706E-1,-4.368857E-1,2.683232E-1,-1.8976289E-1,-4.3142546E-2,6.3836254E-2,-5.3205323E-1,-3.8253894E-1,9.472239E-2,5.771938E-1,-7.962709E-2,-1.0306592E0,-6.978124E-2,-3.571072E-2,-1.1924188E-2,-4.8307236E-2,5.408105E-2,-4.117564E-3,1.3717352E-1,1.9802457E-2,-4.7439456E-2,3.692043E-2,-1.9868508E-1,-8.2394145E-2],"categories":[],"categories_nodes":[],"categories_segments":[],"categories_sizes":[],"default_left":[0,0,0,0,0,0,0,0,0,0,0,0,0,0,0,0,0,0,0,0,0,0,0,0,0,0,0],"id":30,"left_children":[1,3,5,7,9,11,13,-1,-1,15,17,19,21,23,25,-1,-1,-1,-1,-1,-1,-1,-1,-1,-1,-1,-1],"loss_changes":[1.1142308E2,1.2363571E1,1.4968944E2,4.1993816E1,2.5221405E0,9.4156E1,1.1114589E2,0E0,0E0,5.2316017E0,8.915779E0,6.828319E1,1.9012822E2,1.8852179E2,2.5837936E1,0E0,0E0,0E0,0E0,0E0,0E0,0E0,0E0,0E0,0E0,0E0,0E0],"parents":[2147483647,0,0,1,1,2,2,3,3,4,4,5,5,6,6,9,9,10,10,11,11,12,12,13,13,14,14],"right_children":[2,4,6,8,10,12,14,-1,-1,16,18,20,22,24,26,-1,-1,-1,-1,-1,-1,-1,-1,-1,-1,-1,-1],"split_conditions":[6E0,2E0,1.8E1,4E0,2E0,1.4E1,7E0,-4.3142546E-2,6.3836254E-2,4E0,4E0,8E0,3E0,4E0,1.9E1,-6.978124E-2,-3.571072E-2,-1.1924188E-2,-4.8307236E-2,5.408105E-2,-4.117564E-3,1.3717352E-1,1.9802457E-2,-4.7439456E-2,3.692043E-2,-1.9868508E-1,-8.2394145E-2],"split_indices":[1,0,1,1,1,1,0,0,0,0,0,1,0,0,1,0,0,0,0,0,0,0,0,0,0,0,0],"split_type":[0,0,0,0,0,0,0,0,0,0,0,0,0,0,0,0,0,0,0,0,0,0,0,0,0,0,0],"sum_hessian":[3.662E3,7.06E2,2.956E3,1.8E2,5.26E2,1.756E3,1.2E3,1.3E2,5E1,1.88E2,3.38E2,1.125E3,6.31E2,1.062E3,1.38E2,9.5E1,9.3E1,9.4E1,2.44E2,2.62E2,8.63E2,2.03E2,4.28E2,5.65E2,4.97E2,2.3E1,1.15E2],"tree_param":{"num_deleted":"0","num_feature":"2","num_nodes":"27","size_leaf_vector":"1"}},{"base_weights":[-2.6817704E-3,4.987296E-2,-4.987249E-1,-3.2379657E-1,1.5119037E-1,-3.7243932E-1,-1.3946208E-1,-1.19025245E-1,-3.935116E-1,-2.047475E-1,2.2296438E-1,-1.2327391E-1,-9.8696876E-1,-3.8861226E-2,5.7577725E-2,-5.398165E-2,-3.5883166E-2,2.9323643E-2,-9.3378715E-2,6.8594724E-2,1.17305415E-2,-4.439869E-2,1.21465385E-1,-7.6575056E-2,-1.177113E-1],"categories":[],"categories_nodes":[],"categories_segments":[],"categories_sizes":[],"default_left":[0,0,0,0,0,0,0,0,0,0,0,0,0,0,0,0,0,0,0,0,0,0,0,0,0],"id":31,"left_children":[1,3,5,7,9,11,-1,13,15,17,19,21,23,-1,-1,-1,-1,-1,-1,-1,-1,-1,-1,-1,-1],"loss_changes":[9.551713E1,1.2547659E2,3.919229E1,1.0046036E1,6.664691E1,4.719225E1,0E0,3.412682E1,2.480217E0,1.5928975E2,1.0607221E2,9.536836E1,2.8422623E0,0E0,0E0,0E0,0E0,0E0,0E0,0E0,0E0,0E0,0E0,0E0,0E0],"parents":[2147483647,0,0,1,1,2,2,3,3,4,4,5,5,7,7,8,8,9,9,10,10,11,11,12,12],"right_children":[2,4,6,8,10,12,-1,14,16,18,20,22,24,-1,-1,-1,-1,-1,-1,-1,-1,-1,-1,-1,-1],"split_conditions":[2.2E1,6E0,7E0,2E0,2E0,2.3E1,-1.3946208E-1,4E0,3E0,1.7E1,3E0,5E0,5E0,-3.8861226E-2,5.7577725E-2,-5.398165E-2,-3.5883166E-2,2.9323643E-2,-9.3378715E-2,6.8594724E-2,1.17305415E-2,-4.439869E-2,1.21465385E-1,-7.6575056E-2,-1.177113E-1],"split_indices":[1,1,0,0,0,1,0,1,0,1,0,0,0,0,0,0,0,0,0,0,0,0,0,0,0],"split_type":[0,0,0,0,0,0,0,0,0,0,0,0,0,0,0,0,0,0,0,0,0,0,0,0,0],"sum_hessian":[3.662E3,3.312E3,3.5E2,7.06E2,2.606E3,3.08E2,4.2E1,1.8E2,5.26E2,4.37E2,2.169E3,2.2E2,8.8E1,1.3E2,5E1,9.8E1,4.28E2,2.6E2,1.77E2,4.02E2,1.767E3,1.78E2,4.2E1,4.3E1,4.5E1],"tree_param":{"num_deleted":"0","num_feature":"2","num_nodes":"25","size_leaf_vector":"1"}},{"base_weights":[-2.4984477E-3,4.4869334E-2,-4.4958383E-1,-2.915176E-1,1.3607788E-1,-3.3557487E-1,-1.2584022E-1,-1.0701913E-1,-3.5433108E-1,-1.8441898E-1,2.0070532E-1,-1.1059792E-1,-8.9045495E-1,-3.5004765E-2,5.19329E-2,-4.8638012E-2,-3.230323E-2,2.6402522E-2,-8.409331E-2,6.1752316E-2,1.0558187E-2,-3.998363E-2,1.096013E-1,-6.909158E-2,-1.0619608E-1],"categories":[],"categories_nodes":[],"categories_segments":[],"categories_sizes":[],"default_left":[0,0,0,0,0,0,0,0,0,0,0,0,0,0,0,0,0,0,0,0,0,0,0,0,0],"id":32,"left_children":[1,3,5,7,9,11,-1,13,15,17,19,21,23,-1,-1,-1,-1,-1,-1,-1,-1,-1,-1,-1,-1],"loss_changes":[7.759315E1,1.0168703E2,3.1944305E1,8.155502E0,5.4035522E1,3.8475597E1,0E0,2.7733692E1,2.020958E0,1.2917358E2,8.5973465E1,7.756683E1,2.3120422E0,0E0,0E0,0E0,0E0,0E0,0E0,0E0,0E0,0E0,0E0,0E0,0E0],"parents":[2147483647,0,0,1,1,2,2,3,3,4,4,5,5,7,7,8,8,9,9,10,10,11,11,12,12],"right_children":[2,4,6,8,10,12,-1,14,16,18,20,22,24,-1,-1,-1,-1,-1,-1,-1,-1,-1,-1,-1,-1],"split_conditions":[2.2E1,6E0,7E0,2E0,2E0,2.3E1,-1.2584022E-1,4E0,3E0,1.7E1,3E0,5E0,5E0,-3.5004765E-2,5.19329E-2,-4.8638012E-2,-3.230323E-2,2.6402522E-2,-8.409331E-2,6.1752316E-2,1.0558187E-2,-3.998363E-2,1.096013E-1,-6.909158E-2,-1.0619608E-1],"split_indices":[1,1,0,0,0,1,0,1,0,1,0,0,0,0,0,0,0,0,0,0,0,0,0,0,0],"split_type":[0,0,0,0,0,0,0,0,0,0,0,0,0,0,0,0,0,0,0,0,0,0,0,0,0],"sum_hessian":[3.662E3,3.312E3,3.5E2,7.06E2,2.606E3,3.08E2,4.2E1,1.8E2,5.26E2,4.37E2,2.169E3,2.2E2,8.8E1,1.3E2,5E1,9.8E1,4.28E2,2.6E2,1.77E2,4.02E2,1.767E3,1.78E2,4.2E1,4.3E1,4.5E1],"tree_param":{"num_deleted":"0","num_feature":"2","num_nodes":"25","size_leaf_vector":"1"}},{"base_weights":[-2.3256277E-3,4.03671E-2,-4.0528482E-1,-2.624564E-1,1.2247521E-1,-3.0235916E-1,-1.1354884E-1,-9.622378E-2,-3.1905153E-1,-1.6610943E-1,1.8066764E-1,-9.9222936E-2,-8.0337876E-1,-3.1531006E-2,4.68414E-2,-4.0247116E-2,-2.7160207E-2,2.3772294E-2,-7.573124E-2,3.407909E-2,-2.0380684E-3,-3.6007594E-2,9.88961E-2,-6.2339433E-2,-9.580731E-2],"categories":[],"categories_nodes":[],"categories_segments":[],"categories_sizes":[],"default_left":[0,0,0,0,0,0,0,0,0,0,0,0,0,0,0,0,0,0,0,0,0,0,0,0,0],"id":33,"left_children":[1,3,5,7,9,11,-1,13,15,17,19,21,23,-1,-1,-1,-1,-1,-1,-1,-1,-1,-1,-1,-1],"loss_changes":[6.303252E1,8.240744E1,2.6036674E1,6.6207275E0,4.3810513E1,3.1368837E1,0E0,2.253819E1,1.9766655E0,1.04751175E2,6.986469E1,6.308828E1,1.8807297E0,0E0,0E0,0E0,0E0,0E0,0E0,0E0,0E0,0E0,0E0,0E0,0E0],"parents":[2147483647,0,0,1,1,2,2,3,3,4,4,5,5,7,7,8,8,9,9,10,10,11,11,12,12],"right_children":[2,4,6,8,10,12,-1,14,16,18,20,22,24,-1,-1,-1,-1,-1,-1,-1,-1,-1,-1,-1,-1],"split_conditions":[2.2E1,6E0,7E0,2E0,2E0,2.3E1,-1.1354884E-1,4E0,2E0,1.7E1,5E0,5E0,5E0,-3.1531006E-2,4.68414E-2,-4.0247116E-2,-2.7160207E-2,2.3772294E-2,-7.573124E-2,3.407909E-2,-2.0380684E-3,-3.6007594E-2,9.88961E-2,-6.2339433E-2,-9.580731E-2],"split_indices":[1,1,0,0,0,1,0,1,1,1,0,0,0,0,0,0,0,0,0,0,0,0,0,0,0],"split_type":[0,0,0,0,0,0,0,0,0,0,0,0,0,0,0,0,0,0,0,0,0,0,0,0,0],"sum_hessian":[3.662E3,3.312E3,3.5E2,7.06E2,2.606E3,3.08E2,4.2E1,1.8E2,5.26E2,4.37E2,2.169E3,2.2E2,8.8E1,1.3E2,5E1,1.88E2,3.38E2,2.6E2,1.77E2,1.207E3,9.62E2,1.78E2,4.2E1,4.3E1,4.5E1],"tree_param":{"num_deleted":"0","num_feature":"2","num_nodes":"25","size_leaf_vector":"1"}},{"base_weights":[-2.1695641E-3,3.6308836E-2,-3.6535123E-1,-1.5785898E-1,1.5148517E-1,-2.724315E-1,-1.0245804E-1,1.3665578E-2,-5.064204E-1,-1.1151014E-1,3.8185483E-1,-8.901606E-2,-7.248178E-1,-3.5282474E-2,1.9655464E-2,-1.7488237E-2,-8.3225355E-2,1.191231E-2,-5.667932E-2,1.5674727E-1,1.6851664E-2,-3.242695E-2,8.923649E-2,-1.02207735E-1,-6.179865E-2],"categories":[],"categories_nodes":[],"categories_segments":[],"categories_sizes":[],"default_left":[0,0,0,0,0,0,0,0,0,0,0,0,0,0,0,0,0,0,0,0,0,0,0,0,0],"id":34,"left_children":[1,3,5,7,9,11,-1,13,15,17,19,21,23,-1,-1,-1,-1,-1,-1,-1,-1,-1,-1,-1,-1],"loss_changes":[5.120241E1,7.411432E1,2.1221512E1,7.3783875E1,1.2606175E2,2.5574638E1,0E0,5.5567757E1,4.382106E1,1.0213083E2,2.802436E2,5.131235E1,2.194706E0,0E0,0E0,0E0,0E0,0E0,0E0,0E0,0E0,0E0,0E0,0E0,0E0],"parents":[2147483647,0,0,1,1,2,2,3,3,4,4,5,5,7,7,8,8,9,9,10,10,11,11,12,12],"right_children":[2,4,6,8,10,12,-1,14,16,18,20,22,24,-1,-1,-1,-1,-1,-1,-1,-1,-1,-1,-1,-1],"split_conditions":[2.2E1,1E1,7E0,5E0,4E0,2.3E1,-1.0245804E-1,4E0,4E0,3E0,1.2E1,5E0,2E0,-3.5282474E-2,1.9655464E-2,-1.7488237E-2,-8.3225355E-2,1.191231E-2,-5.667932E-2,1.5674727E-1,1.6851664E-2,-3.242695E-2,8.923649E-2,-1.02207735E-1,-6.179865E-2],"split_indices":[1,1,0,0,0,1,0,1,1,0,1,0,0,0,0,0,0,0,0,0,0,0,0,0,0],"split_type":[0,0,0,0,0,0,0,0,0,0,0,0,0,0,0,0,0,0,0,0,0,0,0,0,0],"sum_hessian":[3.662E3,3.312E3,3.5E2,1.233E3,2.079E3,3.08E2,4.2E1,8.27E2,4.06E2,9.71E2,1.108E3,2.2E2,8.8E1,2.75E2,5.52E2,2.02E2,2.04E2,6.45E2,3.26E2,1.68E2,9.4E2,1.78E2,4.2E1,2.1E1,6.7E1],"tree_param":{"num_deleted":"0","num_feature":"2","num_nodes":"25","size_leaf_vector":"1"}},{"base_weights":[-2.0063145E-3,3.268185E-2,-3.2941338E-1,-1.4216733E-1,1.3639878E-1,-2.4553522E-1,-9.245051E-2,-5.6924657E-3,-5.0540847E-1,-1.00404926E-1,3.4382603E-1,-6.2056834E-1,-4.664814E-2,1.4182418E-2,-5.31332E-2,-1.4010555E-2,-9.183776E-2,-8.818168E-2,2.9950778E-3,1.4116523E-1,1.5168314E-2,-5.3559847E-2,-9.245156E-2,2.0891892E-2,-5.5709627E-2],"categories":[],"categories_nodes":[],"categories_segments":[],"categories_sizes":[],"default_left":[0,0,0,0,0,0,0,0,0,0,0,0,0,0,0,0,0,0,0,0,0,0,0,0,0],"id":35,"left_children":[1,3,5,7,9,11,-1,13,15,17,19,21,23,-1,-1,-1,-1,-1,-1,-1,-1,-1,-1,-1,-1],"loss_changes":[4.161201E1,6.0100056E1,1.7293236E1,6.1170563E1,1.02203156E2,2.3019125E1,0E0,6.9706795E1,5.0710754E1,9.903578E1,2.2732518E2,2.2682495E0,2.6598492E1,0E0,0E0,0E0,0E0,0E0,0E0,0E0,0E0,0E0,0E0,0E0,0E0],"parents":[2147483647,0,0,1,1,2,2,3,3,4,4,5,5,7,7,8,8,9,9,10,10,11,11,12,12],"right_children":[2,4,6,8,10,12,-1,14,16,18,20,22,24,-1,-1,-1,-1,-1,-1,-1,-1,-1,-1,-1,-1],"split_conditions":[2.2E1,1E1,7E0,6E0,4E0,3E0,-9.245051E-2,9E0,4E0,1.2E1,1.2E1,2.3E1,2.3E1,1.4182418E-2,-5.31332E-2,-1.4010555E-2,-9.183776E-2,-8.818168E-2,2.9950778E-3,1.4116523E-1,1.5168314E-2,-5.3559847E-2,-9.245156E-2,2.0891892E-2,-5.5709627E-2],"split_indices":[1,1,0,0,0,0,0,1,1,1,1,1,1,0,0,0,0,0,0,0,0,0,0,0,0],"split_type":[0,0,0,0,0,0,0,0,0,0,0,0,0,0,0,0,0,0,0,0,0,0,0,0,0],"sum_hessian":[3.662E3,3.312E3,3.5E2,1.233E3,2.079E3,3.08E2,4.2E1,8.97E2,3.36E2,9.71E2,1.108E3,1.06E2,2.02E2,7.01E2,1.96E2,1.79E2,1.57E2,1.38E2,8.33E2,1.68E2,9.4E2,8.5E1,2.1E1,1.35E2,6.7E1],"tree_param":{"num_deleted":"0","num_feature":"2","num_nodes":"25","size_leaf_vector":"1"}},{"base_weights":[-1.9004701E-3,-2.1795392E-1,4.9757186E-2,-3.3617344E-1,-1.6024603E-1,1.7238499E-1,-1.2968229E-1,-1.17441624E-1,-4.2861205E-1,-1.6358092E-2,-2.9643235E-1,6.8290466E-3,4.6707425E-1,2.2206895E-2,-5.920729E-1,-1.5583105E-2,-2.0445755E-3,-5.2370574E-2,-2.113747E-2,-1.2440051E-2,4.138608E-2,-1.4258595E-2,-5.792113E-2,4.3843206E-2,-1.2455801E-2,1.1714896E-1,1.3101873E-2,-3.578611E-2,6.548431E-2,-9.8525494E-2,-4.1636456E-2],"categories":[],"categories_nodes":[],"categories_segments":[],"categories_sizes":[],"default_left":[0,0,0,0,0,0,0,0,0,0,0,0,0,0,0,0,0,0,0,0,0,0,0,0,0,0,0,0,0,0,0],"id":36,"left_children":[1,3,5,7,9,11,13,15,17,19,21,23,25,27,29,-1,-1,-1,-1,-1,-1,-1,-1,-1,-1,-1,-1,-1,-1,-1,-1],"loss_changes":[4.089291E1,4.7694244E0,6.5088974E1,4.6203136E0,9.3422365E0,8.571654E1,8.436194E1,2.574671E-1,3.2358818E0,1.0881765E1,1.0576025E1,6.390674E1,1.4945523E2,2.1783684E2,2.0108131E1,0E0,0E0,0E0,0E0,0E0,0E0,0E0,0E0,0E0,0E0,0E0,0E0,0E0,0E0,0E0,0E0],"parents":[2147483647,0,0,1,1,2,2,3,3,4,4,5,5,6,6,7,7,8,8,9,9,10,10,11,11,12,12,13,13,14,14],"right_children":[2,4,6,8,10,12,14,16,18,20,22,24,26,28,30,-1,-1,-1,-1,-1,-1,-1,-1,-1,-1,-1,-1,-1,-1,-1,-1],"split_conditions":[6E0,2E0,1.8E1,1E0,4E0,1.4E1,6E0,7E0,4E0,3E0,4E0,8E0,3E0,4E0,2E1,-1.5583105E-2,-2.0445755E-3,-5.2370574E-2,-2.113747E-2,-1.2440051E-2,4.138608E-2,-1.4258595E-2,-5.792113E-2,4.3843206E-2,-1.2455801E-2,1.1714896E-1,1.3101873E-2,-3.578611E-2,6.548431E-2,-9.8525494E-2,-4.1636456E-2],"split_indices":[1,1,1,1,0,1,0,0,0,0,1,1,0,0,1,0,0,0,0,0,0,0,0,0,0,0,0,0,0,0,0],"split_type":[0,0,0,0,0,0,0,0,0,0,0,0,0,0,0,0,0,0,0,0,0,0,0,0,0,0,0,0,0,0,0],"sum_hessian":[3.662E3,7.06E2,2.956E3,2.3E2,4.76E2,1.756E3,1.2E3,6.9E1,1.61E2,2.32E2,2.44E2,1.125E3,6.31E2,9.04E2,2.96E2,4.9E1,2E1,1.11E2,5E1,1.86E2,4.6E1,1.59E2,8.5E1,2.62E2,8.63E2,2.03E2,4.28E2,5.65E2,3.39E2,9E1,2.06E2],"tree_param":{"num_deleted":"0","num_feature":"2","num_nodes":"31","size_leaf_vector":"1"}},{"base_weights":[-1.7333113E-3,3.9756235E-2,-2.201001E-1,-7.197983E-2,2.0374718E-1,-4.0008098E-1,-6.772598E-2,-2.771805E-2,-3.0437285E-1,3.850352E-1,-2.6434147E-1,-3.2028508E-1,-6.255752E-1,5.7915475E-2,-5.304948E-1,-1.2232351E-2,3.5264302E-2,-6.064058E-2,1.37364E-1,9.032813E-3,9.456378E-2,1.3436559E-1,-5.2523024E-2,-8.450637E-3,-5.2442443E-2,-1.4037007E-1,-2.0599717E-2,3.0397048E-2,-2.6024565E-2,-4.863026E-3,-7.5989455E-2],"categories":[],"categories_nodes":[],"categories_segments":[],"categories_sizes":[],"default_left":[0,0,0,0,0,0,0,0,0,0,0,0,0,0,0,0,0,0,0,0,0,0,0,0,0,0,0,0,0,0,0],"id":37,"left_children":[1,3,5,7,9,11,13,15,17,19,21,23,25,27,29,-1,-1,-1,-1,-1,-1,-1,-1,-1,-1,-1,-1,-1,-1,-1,-1],"loss_changes":[3.3195305E1,5.6433342E1,1.6016195E1,1.883575E1,1.0600563E2,4.6218987E0,1.8520184E1,5.5458855E1,1.4932982E2,1.4860678E2,1.471142E2,9.582026E0,2.2238262E1,1.9728676E1,7.479738E0,0E0,0E0,0E0,0E0,0E0,0E0,0E0,0E0,0E0,0E0,0E0,0E0,0E0,0E0,0E0,0E0],"parents":[2147483647,0,0,1,1,2,2,3,3,4,4,5,5,6,6,7,7,8,8,9,9,10,10,11,11,12,12,13,13,14,14],"right_children":[2,4,6,8,10,12,14,16,18,20,22,24,26,28,30,-1,-1,-1,-1,-1,-1,-1,-1,-1,-1,-1,-1,-1,-1,-1,-1],"split_conditions":[2.1E1,1.4E1,4E0,1.2E1,6E0,3E0,2.3E1,1E1,7E0,4E0,1.5E1,2.2E1,2.2E1,6E0,5E0,-1.2232351E-2,3.5264302E-2,-6.064058E-2,1.37364E-1,9.032813E-3,9.456378E-2,1.3436559E-1,-5.2523024E-2,-8.450637E-3,-5.2442443E-2,-1.4037007E-1,-2.0599717E-2,3.0397048E-2,-2.6024565E-2,-4.863026E-3,-7.5989455E-2],"split_indices":[1,1,0,1,0,0,1,1,0,0,1,1,1,0,0,0,0,0,0,0,0,0,0,0,0,0,0,0,0,0,0],"split_type":[0,0,0,0,0,0,0,0,0,0,0,0,0,0,0,0,0,0,0,0,0,0,0,0,0,0,0,0,0,0,0],"sum_hessian":[3.662E3,3.078E3,5.84E2,1.831E3,1.247E3,2.67E2,3.17E2,1.539E3,2.92E2,8.99E2,3.48E2,1.99E2,6.8E1,2.5E2,6.7E1,1.233E3,3.06E2,2.48E2,4.4E1,5.9E2,3.09E2,4.8E1,3E2,9.3E1,1.06E2,2.3E1,4.5E1,1.41E2,1.09E2,2.2E1,4.5E1],"tree_param":{"num_deleted":"0","num_feature":"2","num_nodes":"31","size_leaf_vector":"1"}},{"base_weights":[-1.5637989E-3,-1.8413359E-1,4.2088013E-2,-4.6907965E-2,-2.3091482E-1,1.3635142E-1,-1.3651869E-1,-2.2579455E-1,4.135048E-2,-3.755581E-1,-1.9699734E-1,2.549975E-1,-6.2180165E-2,-4.134539E-2,-4.2869905E-1,-2.5246708E-2,-2.1037083E-2,-1.9429065E-3,-5.0213244E-2,-1.2217953E-2,-2.5163159E-2,4.4487165E-3,9.4907604E-2,-7.514463E-2,7.3050233E-3,-1.5192451E-2,5.728128E-2,-8.547605E-2,-3.34006E-2],"categories":[],"categories_nodes":[],"categories_segments":[],"categories_sizes":[],"default_left":[0,0,0,0,0,0,0,0,0,0,0,0,0,0,0,0,0,0,0,0,0,0,0,0,0,0,0,0,0],"id":38,"left_children":[1,3,5,7,9,11,13,15,-1,17,19,21,23,25,27,-1,-1,-1,-1,-1,-1,-1,-1,-1,-1,-1,-1,-1,-1],"loss_changes":[2.9200039E1,4.527813E0,4.9802895E1,1.500083E1,2.511444E0,4.5618332E1,2.8401814E1,7.801056E-4,0E0,4.4528465E0,1.7228413E0,1.7704393E2,6.763195E1,5.2515915E1,9.841118E0,0E0,0E0,0E0,0E0,0E0,0E0,0E0,0E0,0E0,0E0,0E0,0E0,0E0,0E0],"parents":[2147483647,0,0,1,1,2,2,3,3,4,4,5,5,6,6,7,7,9,9,10,10,11,11,12,12,13,13,14,14],"right_children":[2,4,6,8,10,12,14,16,-1,18,20,22,24,26,28,-1,-1,-1,-1,-1,-1,-1,-1,-1,-1,-1,-1,-1,-1],"split_conditions":[6E0,2E0,1.9E1,4E0,3E0,5E0,6E0,2E0,4.135048E-2,1E0,5E0,4E0,9E0,5E0,2E1,-2.5246708E-2,-2.1037083E-2,-1.9429065E-3,-5.0213244E-2,-1.2217953E-2,-2.5163159E-2,4.4487165E-3,9.4907604E-2,-7.514463E-2,7.3050233E-3,-1.5192451E-2,5.728128E-2,-8.547605E-2,-3.34006E-2],"split_indices":[1,0,1,1,0,0,0,1,0,1,0,0,1,0,1,0,0,0,0,0,0,0,0,0,0,0,0,0,0],"split_type":[0,0,0,0,0,0,0,0,0,0,0,0,0,0,0,0,0,0,0,0,0,0,0,0,0,0,0,0,0],"sum_hessian":[3.662E3,7.06E2,2.956E3,1.8E2,5.26E2,1.935E3,1.021E3,1.3E2,5E1,9.8E1,4.28E2,1.211E3,7.24E2,7.71E2,2.5E2,4.2E1,8.8E1,2.6E1,7.2E1,1.82E2,2.46E2,9.3E2,2.81E2,1.18E2,6.06E2,6.54E2,1.17E2,4.4E1,2.06E2],"tree_param":{"num_deleted":"0","num_feature":"2","num_nodes":"29","size_leaf_vector":"1"}},{"base_weights":[-1.4454902E-3,1.2205894E-2,-5.4978544E-1,-1.6585398E-1,5.6080457E-2,-3.841659E-1,-6.962522E-1,-2.7103657E-1,-1.145688E-1,-1.9558406E-1,1.0647411E-1,-7.37546E-2,-2.9447307E-3,-9.673629E-2,-4.074274E-2,-7.771268E-3,-3.528985E-2,9.4097696E-4,-2.3200732E-2,1.8517803E-2,-6.4847596E-2,4.259099E-2,3.3006617E-3],"categories":[],"categories_nodes":[],"categories_segments":[],"categories_sizes":[],"default_left":[0,0,0,0,0,0,0,0,0,0,0,0,0,0,0,0,0,0,0,0,0,0,0],"id":39,"left_children":[1,3,5,7,9,11,13,15,17,19,21,-1,-1,-1,-1,-1,-1,-1,-1,-1,-1,-1,-1],"loss_changes":[2.7426462E1,2.793827E1,1.8914623E0,3.7827225E0,3.6406326E1,5.4937034E0,3.2078323E0,3.6283512E0,6.9472365E0,8.2720795E1,5.609829E1,0E0,0E0,0E0,0E0,0E0,0E0,0E0,0E0,0E0,0E0,0E0,0E0],"parents":[2147483647,0,0,1,1,2,2,3,3,4,4,5,5,6,6,7,7,8,8,9,9,10,10],"right_children":[2,4,6,8,10,12,14,16,18,20,22,-1,-1,-1,-1,-1,-1,-1,-1,-1,-1,-1,-1],"split_conditions":[2.3E1,6E0,5E0,2E0,2E0,2E0,6E0,1E0,4E0,1.7E1,3E0,-7.37546E-2,-2.9447307E-3,-9.673629E-2,-4.074274E-2,-7.771268E-3,-3.528985E-2,9.4097696E-4,-2.3200732E-2,1.8517803E-2,-6.4847596E-2,4.259099E-2,3.3006617E-3],"split_indices":[1,1,0,1,0,0,0,1,0,1,0,0,0,0,0,0,0,0,0,0,0,0,0],"split_type":[0,0,0,0,0,0,0,0,0,0,0,0,0,0,0,0,0,0,0,0,0,0,0],"sum_hessian":[3.662E3,3.574E3,8.8E1,7.06E2,2.868E3,4.3E1,4.5E1,2.3E2,4.76E2,4.78E2,2.39E3,2.1E1,2.2E1,2.2E1,2.3E1,6.9E1,1.61E2,2.32E2,2.44E2,2.6E2,2.18E2,4.46E2,1.944E3],"tree_param":{"num_deleted":"0","num_feature":"2","num_nodes":"23","size_leaf_vector":"1"}},{"base_weights":[-1.3771157E-3,2.4151364E-2,-2.4233004E-1,-6.5272674E-2,1.3467814E-1,-1.7246927E-1,-7.3871724E-2,-1.9566176E-2,-3.05282E-1,6.545044E-1,7.661261E-3,-2.6152667E-1,3.8452598E-1,5.9030796E-3,-3.585498E-2,-5.8132857E-2,1.2289598E-1,2.113575E-1,-3.0661724E-3,1.7519604E-2,-4.75868E-2,-1.7038021E-2,-5.365276E-2,1.2687895E-1,-3.6838215E-2],"categories":[],"categories_nodes":[],"categories_segments":[],"categories_sizes":[],"default_left":[0,0,0,0,0,0,0,0,0,0,0,0,0,0,0,0,0,0,0,0,0,0,0,0,0],"id":40,"left_children":[1,3,5,7,9,11,-1,13,15,17,19,21,23,-1,-1,-1,-1,-1,-1,-1,-1,-1,-1,-1,-1],"loss_changes":[2.253756E1,3.275366E1,1.2044571E1,2.0091042E1,9.784657E1,1.542837E1,0E0,4.105152E1,1.2480644E2,2.909792E2,9.664487E1,6.601038E0,2.909547E1,0E0,0E0,0E0,0E0,0E0,0E0,0E0,0E0,0E0,0E0,0E0,0E0],"parents":[2147483647,0,0,1,1,2,2,3,3,4,4,5,5,7,7,8,8,9,9,10,10,11,11,12,12],"right_children":[2,4,6,8,10,12,-1,14,16,18,20,22,24,-1,-1,-1,-1,-1,-1,-1,-1,-1,-1,-1,-1],"split_conditions":[2.2E1,1.4E1,7E0,1.2E1,1.6E1,6E0,-7.3871724E-2,7E0,7E0,3E0,6E0,2.3E1,2.3E1,5.9030796E-3,-3.585498E-2,-5.8132857E-2,1.2289598E-1,2.113575E-1,-3.0661724E-3,1.7519604E-2,-4.75868E-2,-1.7038021E-2,-5.365276E-2,1.2687895E-1,-3.6838215E-2],"split_indices":[1,1,0,1,1,0,0,0,0,0,0,1,1,0,0,0,0,0,0,0,0,0,0,0,0],"split_type":[0,0,0,0,0,0,0,0,0,0,0,0,0,0,0,0,0,0,0,0,0,0,0,0,0],"sum_hessian":[3.662E3,3.312E3,3.5E2,1.831E3,1.481E3,3.08E2,4.2E1,1.539E3,2.92E2,2.9E2,1.191E3,2.66E2,4.2E1,1.25E3,2.89E2,2.48E2,4.4E1,9.2E1,1.98E2,8.85E2,3.06E2,2.01E2,6.5E1,1.9E1,2.3E1],"tree_param":{"num_deleted":"0","num_feature":"2","num_nodes":"25","size_leaf_vector":"1"}},{"base_weights":[-1.1961975E-3,-1.7045861E-1,3.737607E-2,6.331161E-2,-5.9930116E-1,-1.5396075E-1,1.2654172E-1,-8.345194E-2,6.366167E-1,-1.4668075E0,-2.9547605E-1,-5.176882E-2,-4.8838308E-1,2.6548463E-1,-7.000501E-2,1.0629637E-2,-8.9217685E-2,1.4851157E-1,3.7297245E-2,-1.636158E-1,-1.0293639E-1,-2.489858E-2,-6.1592996E-2,-1.7998321E-2,2.8298736E-2,-8.359362E-3,-7.586288E-2,1.3622752E-4,4.148749E-2,4.75613E-3,-3.4795076E-2],"categories":[],"categories_nodes":[],"categories_segments":[],"categories_sizes":[],"default_left":[0,0,0,0,0,0,0,0,0,0,0,0,0,0,0,0,0,0,0,0,0,0,0,0,0,0,0,0,0,0,0],"id":41,"left_children":[1,3,5,7,9,11,13,15,17,19,21,23,25,27,29,-1,-1,-1,-1,-1,-1,-1,-1,-1,-1,-1,-1,-1,-1,-1,-1],"loss_changes":[2.3921494E1,6.820836E1,5.0928524E1,3.7158997E1,6.282345E1,3.2407043E1,5.5619247E1,5.4110703E1,1.9579266E1,2.9088287E0,2.513382E0,3.1297098E1,2.422174E1,4.7072006E1,2.7595982E1,0E0,0E0,0E0,0E0,0E0,0E0,0E0,0E0,0E0,0E0,0E0,0E0,0E0,0E0,0E0,0E0],"parents":[2147483647,0,0,1,1,2,2,3,3,4,4,5,5,6,6,7,7,8,8,9,9,10,10,11,11,12,12,13,13,14,14],"right_children":[2,4,6,8,10,12,14,16,18,20,22,24,26,28,30,-1,-1,-1,-1,-1,-1,-1,-1,-1,-1,-1,-1,-1,-1,-1,-1],"split_conditions":[2E0,1.7E1,1E1,1.3E1,1.9E1,8E0,1.9E1,1E1,1.4E1,1.8E1,2.3E1,6E0,4E0,4E0,6E0,1.0629637E-2,-8.9217685E-2,1.4851157E-1,3.7297245E-2,-1.636158E-1,-1.0293639E-1,-2.489858E-2,-6.1592996E-2,-1.7998321E-2,2.8298736E-2,-8.359362E-3,-7.586288E-2,1.3622752E-4,4.148749E-2,4.75613E-3,-3.4795076E-2],"split_indices":[0,1,1,1,1,1,1,1,1,1,1,1,0,0,0,0,0,0,0,0,0,0,0,0,0,0,0,0,0,0,0],"split_type":[0,0,0,0,0,0,0,0,0,0,0,0,0,0,0,0,0,0,0,0,0,0,0,0,0,0,0,0,0,0,0],"sum_hessian":[3.662E3,6.79E2,2.983E3,4.4E2,2.39E2,9.48E2,2.035E3,3.51E2,8.9E1,6.1E1,1.78E2,7.27E2,2.21E2,1.192E3,8.43E2,2.85E2,6.6E1,2E1,6.9E1,4.2E1,1.9E1,1.57E2,2.1E1,5.26E2,2.01E2,8.9E1,1.32E2,4.31E2,7.61E2,5.93E2,2.5E2],"tree_param":{"num_deleted":"0","num_feature":"2","num_nodes":"31","size_leaf_vector":"1"}},{"base_weights":[-1.1604277E-3,-1.5377411E-1,3.3617876E-2,5.7223767E-2,-5.40842E-1,-1.3864255E-1,1.1389368E-1,-7.532993E-2,5.750202E-1,-1.3244256E0,-2.6641166E-1,-4.657785E-2,-4.3992394E-1,2.6163635E-1,-3.822991E-2,9.570389E-3,-8.0429025E-2,1.3436759E-1,3.362089E-2,-1.4763467E-1,-9.31574E-2,-1.812286E-2,-4.2038005E-2,1.258937E-2,-2.705895E-2,-7.53266E-3,-6.8333626E-2,1.16554454E-1,7.464293E-3,1.1025578E-2,-3.9206706E-2],"categories":[],"categories_nodes":[],"categories_segments":[],"categories_sizes":[],"default_left":[0,0,0,0,0,0,0,0,0,0,0,0,0,0,0,0,0,0,0,0,0,0,0,0,0,0,0,0,0,0,0],"id":42,"left_children":[1,3,5,7,9,11,13,15,17,19,21,23,25,27,29,-1,-1,-1,-1,-1,-1,-1,-1,-1,-1,-1,-1,-1,-1,-1,-1],"loss_changes":[1.9447075E1,5.5566887E1,4.127957E1,3.0311718E1,5.1256546E1,2.6302286E1,4.57694E1,4.396323E1,1.6068974E1,2.3249817E0,2.2714882E0,2.816081E1,1.9650467E1,1.745157E2,5.2793137E1,0E0,0E0,0E0,0E0,0E0,0E0,0E0,0E0,0E0,0E0,0E0,0E0,0E0,0E0,0E0,0E0],"parents":[2147483647,0,0,1,1,2,2,3,3,4,4,5,5,6,6,7,7,8,8,9,9,10,10,11,11,12,12,13,13,14,14],"right_children":[2,4,6,8,10,12,14,16,18,20,22,24,26,28,30,-1,-1,-1,-1,-1,-1,-1,-1,-1,-1,-1,-1,-1,-1,-1,-1],"split_conditions":[2E0,1.7E1,1E1,1.3E1,1.9E1,8E0,1.8E1,1E1,1.4E1,1.8E1,2.2E1,5E0,4E0,3E0,6E0,9.570389E-3,-8.0429025E-2,1.3436759E-1,3.362089E-2,-1.4763467E-1,-9.31574E-2,-1.812286E-2,-4.2038005E-2,1.258937E-2,-2.705895E-2,-7.53266E-3,-6.8333626E-2,1.16554454E-1,7.464293E-3,1.1025578E-2,-3.9206706E-2],"split_indices":[0,1,1,1,1,1,1,1,1,1,1,0,0,0,0,0,0,0,0,0,0,0,0,0,0,0,0,0,0,0,0],"split_type":[0,0,0,0,0,0,0,0,0,0,0,0,0,0,0,0,0,0,0,0,0,0,0,0,0,0,0,0,0,0,0],"sum_hessian":[3.662E3,6.79E2,2.983E3,4.4E2,2.39E2,9.48E2,2.035E3,3.51E2,8.9E1,6.1E1,1.78E2,7.27E2,2.21E2,1.032E3,1.003E3,2.85E2,6.6E1,2E1,6.9E1,4.2E1,1.9E1,1.16E2,6.2E1,4.11E2,3.16E2,8.9E1,1.32E2,1.76E2,8.56E2,7.07E2,2.96E2],"tree_param":{"num_deleted":"0","num_feature":"2","num_nodes":"31","size_leaf_vector":"1"}},{"base_weights":[-1.0983472E-3,-7.107319E-2,6.465414E-2,2.6999515E-2,-2.8060836E-1,3.8272226E-1,-6.661511E-2,1.6329451E-1,-2.8898013E-1,-9.435749E-1,-1.5327524E-1,-5.1598888E-2,7.839303E-1,-2.9209432E-1,1.7950103E-2,-7.449539E-3,9.119985E-2,1.8478343E-2,-7.5093806E-2,-1.8899398E-1,-1.7404881E-3,5.143387E-3,-3.1234587E-2,1.4324873E-2,-8.962055E-2,2.1970744E-1,-6.831132E-3,-9.4264606E-4,-6.423365E-2,7.934773E-2,-1.4584812E-2],"categories":[],"categories_nodes":[],"categories_segments":[],"categories_sizes":[],"default_left":[0,0,0,0,0,0,0,0,0,0,0,0,0,0,0,0,0,0,0,0,0,0,0,0,0,0,0,0,0,0,0],"id":43,"left_children":[1,3,5,7,9,11,13,15,17,19,21,23,25,27,29,-1,-1,-1,-1,-1,-1,-1,-1,-1,-1,-1,-1,-1,-1,-1,-1],"loss_changes":[1.6858131E1,3.6483257E1,7.889609E1,5.2157585E1,4.763573E1,9.622818E1,2.551782E1,1.506849E2,8.002224E1,7.972812E1,1.551615E1,4.3903896E1,3.457957E2,3.6129753E1,1.23842926E2,0E0,0E0,0E0,0E0,0E0,0E0,0E0,0E0,0E0,0E0,0E0,0E0,0E0,0E0,0E0,0E0],"parents":[2147483647,0,0,1,1,2,2,3,3,4,4,5,5,6,6,7,7,8,8,9,9,10,10,11,11,12,12,13,13,14,14],"right_children":[2,4,6,8,10,12,14,16,18,20,22,24,26,28,30,-1,-1,-1,-1,-1,-1,-1,-1,-1,-1,-1,-1,-1,-1,-1,-1],"split_conditions":[4E0,1.8E1,5E0,3E0,1.9E1,1.4E1,9E0,1.4E1,1E1,3E0,2.1E1,1.2E1,1.9E1,4E0,1.2E1,-7.449539E-3,9.119985E-2,1.8478343E-2,-7.5093806E-2,-1.8899398E-1,-1.7404881E-3,5.143387E-3,-3.1234587E-2,1.4324873E-2,-8.962055E-2,2.1970744E-1,-6.831132E-3,-9.4264606E-4,-6.423365E-2,7.934773E-2,-1.4584812E-2],"split_indices":[0,1,0,0,1,1,1,1,1,0,1,1,1,1,1,0,0,0,0,0,0,0,0,0,0,0,0,0,0,0,0],"split_type":[0,0,0,0,0,0,0,0,0,0,0,0,0,0,0,0,0,0,0,0,0,0,0,0,0,0,0,0,0,0,0],"sum_hessian":[3.662E3,1.774E3,1.888E3,1.209E3,5.65E2,5.51E2,1.337E3,8.45E2,3.64E2,9E1,4.75E2,2.65E2,2.86E2,3.64E2,9.73E2,6.42E2,2.03E2,1.8E2,1.84E2,4.4E1,4.6E1,2.08E2,2.67E2,2.16E2,4.9E1,1.07E2,1.79E2,2.02E2,1.62E2,1.69E2,8.04E2],"tree_param":{"num_deleted":"0","num_feature":"2","num_nodes":"31","size_leaf_vector":"1"}},{"base_weights":[-1.0026647E-3,-1.3975348E-1,3.061649E-2,4.3719456E-2,-4.7630268E-1,-1.2189783E-1,1.01689905E-1,-6.056981E-2,4.511206E-1,-1.4212245E-1,-2.6868683E-1,-3.6199957E-2,-4.02376E-1,2.2728893E-1,-2.7638264E-2,9.359038E-3,-7.177227E-2,1.2228026E-1,2.131714E-2,-6.635294E-2,-2.2306932E-2,-1.5463163E-2,2.7295694E-2,-7.3475093E-3,-6.2191516E-2,1.0057811E-1,6.62383E-3,1.0278661E-2,-3.3845704E-2],"categories":[],"categories_nodes":[],"categories_segments":[],"categories_sizes":[],"default_left":[0,0,0,0,0,0,0,0,0,0,0,0,0,0,0,0,0,0,0,0,0,0,0,0,0,0,0,0,0],"id":44,"left_children":[1,3,5,7,9,11,13,15,17,-1,19,21,23,25,27,-1,-1,-1,-1,-1,-1,-1,-1,-1,-1,-1,-1,-1,-1],"loss_changes":[1.607453E1,4.200924E1,3.23581E1,1.8764341E1,4.6701504E1,2.2795963E1,3.3078033E1,3.5727173E1,1.6265234E1,0E0,3.418312E0,2.6697178E1,1.5984177E1,1.2944745E2,4.0735435E1,0E0,0E0,0E0,0E0,0E0,0E0,0E0,0E0,0E0,0E0,0E0,0E0,0E0,0E0],"parents":[2147483647,0,0,1,1,2,2,3,3,4,4,5,5,6,6,7,7,8,8,10,10,11,11,12,12,13,13,14,14],"right_children":[2,4,6,8,10,12,14,16,18,-1,20,22,24,26,28,-1,-1,-1,-1,-1,-1,-1,-1,-1,-1,-1,-1,-1,-1],"split_conditions":[2E0,1.7E1,1E1,1.3E1,1.8E1,8E0,1.8E1,1E1,1.4E1,-1.4212245E-1,1.9E1,6E0,4E0,3E0,6E0,9.359038E-3,-7.177227E-2,1.2228026E-1,2.131714E-2,-6.635294E-2,-2.2306932E-2,-1.5463163E-2,2.7295694E-2,-7.3475093E-3,-6.2191516E-2,1.0057811E-1,6.62383E-3,1.0278661E-2,-3.3845704E-2],"split_indices":[0,1,1,1,1,1,1,1,1,0,1,1,0,0,0,0,0,0,0,0,0,0,0,0,0,0,0,0,0],"split_type":[0,0,0,0,0,0,0,0,0,0,0,0,0,0,0,0,0,0,0,0,0,0,0,0,0,0,0,0,0],"sum_hessian":[3.662E3,6.79E2,2.983E3,4.4E2,2.39E2,9.48E2,2.035E3,3.51E2,8.9E1,4.2E1,1.97E2,7.27E2,2.21E2,1.032E3,1.003E3,2.85E2,6.6E1,2E1,6.9E1,1.9E1,1.78E2,5.26E2,2.01E2,8.9E1,1.32E2,1.76E2,8.56E2,7.07E2,2.96E2],"tree_param":{"num_deleted":"0","num_feature":"2","num_nodes":"29","size_leaf_vector":"1"}},{"base_weights":[-9.362968E-4,-7.094721E-2,6.4849995E-2,3.3763126E-2,-2.2335252E-1,-2.1247943E-1,1.881993E-1,-6.9216564E-2,7.2862774E-1,-9.79761E-1,-1.7050976E-1,-1.0923906E-1,-5.601914E-1,1.1027664E0,5.245365E-2,6.6756057E-3,-4.0275376E-2,1.6584955E-1,-1.2533343E-1,5.7385784E-2,-2.7713212E-1,-4.2963397E-2,-2.8134603E-3,-2.3217222E-2,6.358292E-2,-1.12227894E-1,-2.8843362E-2,1.6581927E-1,-6.1621796E-2,4.7396667E-2,-1.2354738E-2],"categories":[],"categories_nodes":[],"categories_segments":[],"categories_sizes":[],"default_left":[0,0,0,0,0,0,0,0,0,0,0,0,0,0,0,0,0,0,0,0,0,0,0,0,0,0,0,0,0,0,0],"id":45,"left_children":[1,3,5,7,9,11,13,15,17,19,21,23,25,27,29,-1,-1,-1,-1,-1,-1,-1,-1,-1,-1,-1,-1,-1,-1,-1,-1],"loss_changes":[1.6875494E1,2.8333717E1,6.465964E1,7.5399895E1,2.8731773E1,2.0831392E1,1.623284E2,4.1659958E1,2.5272156E2,1.3241023E2,2.4964369E1,4.136473E1,1.9992268E1,1.623778E2,8.463142E1,0E0,0E0,0E0,0E0,0E0,0E0,0E0,0E0,0E0,0E0,0E0,0E0,0E0,0E0,0E0,0E0],"parents":[2147483647,0,0,1,1,2,2,3,3,4,4,5,5,6,6,7,7,8,8,9,9,10,10,11,11,12,12,13,13,14,14],"right_children":[2,4,6,8,10,12,14,16,18,20,22,24,26,28,30,-1,-1,-1,-1,-1,-1,-1,-1,-1,-1,-1,-1,-1,-1,-1,-1],"split_conditions":[4E0,1.6E1,1E1,1.4E1,1.7E1,8E0,1.2E1,1E1,3E0,2E0,2E0,7E0,5E0,7E0,5E0,6.6756057E-3,-4.0275376E-2,1.6584955E-1,-1.2533343E-1,5.7385784E-2,-2.7713212E-1,-4.2963397E-2,-2.8134603E-3,-2.3217222E-2,6.358292E-2,-1.12227894E-1,-2.8843362E-2,1.6581927E-1,-6.1621796E-2,4.7396667E-2,-1.2354738E-2],"split_indices":[0,1,1,1,1,1,1,1,0,0,0,1,0,0,0,0,0,0,0,0,0,0,0,0,0,0,0,0,0,0,0],"split_type":[0,0,0,0,0,0,0,0,0,0,0,0,0,0,0,0,0,0,0,0,0,0,0,0,0,0,0,0,0,0,0],"sum_hessian":[3.662E3,1.774E3,1.888E3,1.052E3,7.22E2,5.81E2,1.307E3,9.17E2,1.35E2,4.6E1,6.76E2,4.49E2,1.32E2,1.68E2,1.139E3,6.52E2,2.65E2,9.2E1,4.3E1,2.5E1,2.1E1,2.39E2,4.37E2,3.86E2,6.3E1,4.2E1,9E1,1.27E2,4.1E1,3.35E2,8.04E2],"tree_param":{"num_deleted":"0","num_feature":"2","num_nodes":"31","size_leaf_vector":"1"}},{"base_weights":[-9.0289966E-4,-6.3998245E-2,5.8385156E-2,1.5383332E-2,-2.3358783E-1,-1.9140463E-1,1.6948551E-1,1.1865068E-1,-2.2401273E-1,-8.3431315E-1,-1.1825255E-1,-9.8225534E-2,-5.0523305E-1,9.9310654E-1,4.7238633E-2,-7.4084187E-3,7.255618E-2,-3.367378E-2,1.2587002E-1,-1.6631371E-1,-2.3007009E-3,6.2898914E-3,-2.5908241E-2,-2.09015E-2,5.732393E-2,-1.0126605E-1,-2.5990764E-2,1.493669E-1,-5.5606257E-2,-5.9314318E-2,1.5621929E-2],"categories":[],"categories_nodes":[],"categories_segments":[],"categories_sizes":[],"default_left":[0,0,0,0,0,0,0,0,0,0,0,0,0,0,0,0,0,0,0,0,0,0,0,0,0,0,0,0,0,0,0],"id":46,"left_children":[1,3,5,7,9,11,13,15,17,19,21,23,25,27,29,-1,-1,-1,-1,-1,-1,-1,-1,-1,-1,-1,-1,-1,-1,-1,-1],"loss_changes":[1.3706287E1,2.3899155E1,5.2455463E1,2.9939955E1,3.9116554E1,1.6969366E1,1.316492E2,9.9012856E1,6.1429558E1,6.1152855E1,1.2159788E1,3.3595867E1,1.6293285E1,1.3188263E2,7.965238E1,0E0,0E0,0E0,0E0,0E0,0E0,0E0,0E0,0E0,0E0,0E0,0E0,0E0,0E0,0E0,0E0],"parents":[2147483647,0,0,1,1,2,2,3,3,4,4,5,5,6,6,7,7,8,8,9,9,10,10,11,11,12,12,13,13,14,14],"right_children":[2,4,6,8,10,12,14,16,18,20,22,24,26,28,30,-1,-1,-1,-1,-1,-1,-1,-1,-1,-1,-1,-1,-1,-1,-1,-1],"split_conditions":[4E0,1.8E1,1E1,3E0,1.9E1,8E0,1.2E1,1.4E1,1.7E1,3E0,2.1E1,7E0,5E0,7E0,1.4E1,-7.4084187E-3,7.255618E-2,-3.367378E-2,1.2587002E-1,-1.6631371E-1,-2.3007009E-3,6.2898914E-3,-2.5908241E-2,-2.09015E-2,5.732393E-2,-1.0126605E-1,-2.5990764E-2,1.493669E-1,-5.5606257E-2,-5.9314318E-2,1.5621929E-2],"split_indices":[0,1,1,0,1,1,1,1,1,0,1,1,0,0,1,0,0,0,0,0,0,0,0,0,0,0,0,0,0,0,0],"split_type":[0,0,0,0,0,0,0,0,0,0,0,0,0,0,0,0,0,0,0,0,0,0,0,0,0,0,0,0,0,0,0],"sum_hessian":[3.662E3,1.774E3,1.888E3,1.209E3,5.65E2,5.81E2,1.307E3,8.45E2,3.64E2,9E1,4.75E2,4.49E2,1.32E2,1.68E2,1.139E3,6.42E2,2.03E2,3.39E2,2.5E1,4.4E1,4.6E1,2.08E2,2.67E2,3.86E2,6.3E1,4.2E1,9E1,1.27E2,4.1E1,1.65E2,9.74E2],"tree_param":{"num_deleted":"0","num_feature":"2","num_nodes":"31","size_leaf_vector":"1"}},{"base_weights":[-8.3197304E-4,8.815617E-3,-3.8835225E-1,-5.3286355E-2,6.859501E-2,-2.2829817E-1,-5.33005E-1,1.21261165E-1,-1.2673691E-1,-1.7242001E-1,1.8157014E-1,-4.001605E-2,-5.3982115E-3,-8.376147E-2,-2.1887887E-2,-1.17712645E-2,7.0602305E-2,-4.373302E-2,-3.8969156E-3,2.2981695E-3,-3.217055E-2,8.943512E-2,6.9136242E-3],"categories":[],"categories_nodes":[],"categories_segments":[],"categories_sizes":[],"default_left":[0,0,0,0,0,0,0,0,0,0,0,0,0,0,0,0,0,0,0,0,0,0,0],"id":47,"left_children":[1,3,5,7,9,11,13,15,17,19,21,-1,-1,-1,-1,-1,-1,-1,-1,-1,-1,-1,-1],"loss_changes":[1.369805E1,1.327555E1,1.9388666E0,2.250272E1,4.9642006E1,1.2965665E0,4.218214E0,7.2749344E1,3.3649147E1,1.6984703E1,9.939287E1,0E0,0E0,0E0,0E0,0E0,0E0,0E0,0E0,0E0,0E0,0E0,0E0],"parents":[2147483647,0,0,1,1,2,2,3,3,4,4,5,5,6,6,7,7,8,8,9,9,10,10],"right_children":[2,4,6,8,10,12,14,16,18,20,22,-1,-1,-1,-1,-1,-1,-1,-1,-1,-1,-1,-1],"split_conditions":[2.3E1,4E0,5E0,8E0,1E1,2E0,6E0,6E0,1.2E1,4E0,1.2E1,-4.001605E-2,-5.3982115E-3,-8.376147E-2,-2.1887887E-2,-1.17712645E-2,7.0602305E-2,-4.373302E-2,-3.8969156E-3,2.2981695E-3,-3.217055E-2,8.943512E-2,6.9136242E-3],"split_indices":[1,0,0,1,1,0,0,1,1,1,1,0,0,0,0,0,0,0,0,0,0,0,0],"split_type":[0,0,0,0,0,0,0,0,0,0,0,0,0,0,0,0,0,0,0,0,0,0,0],"sum_hessian":[3.662E3,3.574E3,8.8E1,1.753E3,1.821E3,4.3E1,4.5E1,5.19E2,1.234E3,5.81E2,1.24E3,2.1E1,2.2E1,2.2E1,2.3E1,3.69E2,1.5E2,2.71E2,9.63E2,2.52E2,3.29E2,1.68E2,1.072E3],"tree_param":{"num_deleted":"0","num_feature":"2","num_nodes":"23","size_leaf_vector":"1"}},{"base_weights":[-7.6884823E-4,7.9557495E-3,-3.5121456E-1,-2.015771E-1,2.2423351E-2,-2.065007E-1,-4.820014E-1,1.4669357E-2,-2.937726E-1,-9.981474E-2,5.0051965E-2,-3.6196332E-2,-4.8819003E-3,-7.5749524E-2,-1.9790309E-2,-4.541581E-3,1.5703075E-2,-3.8373366E-2,-9.045089E-3,2.0316092E-2,-2.445404E-2,-4.218334E-3,1.306048E-2],"categories":[],"categories_nodes":[],"categories_segments":[],"categories_sizes":[],"default_left":[0,0,0,0,0,0,0,0,0,0,0,0,0,0,0,0,0,0,0,0,0,0,0],"id":48,"left_children":[1,3,5,7,9,11,13,15,17,19,21,-1,-1,-1,-1,-1,-1,-1,-1,-1,-1,-1,-1],"loss_changes":[1.1202408E1,1.0841911E1,1.584939E0,4.609746E0,1.130196E1,1.0609283E0,3.450387E0,6.058982E-1,2.9284391E0,2.7104109E1,2.0281475E1,0E0,0E0,0E0,0E0,0E0,0E0,0E0,0E0,0E0,0E0,0E0,0E0],"parents":[2147483647,0,0,1,1,2,2,3,3,4,4,5,5,6,6,7,7,8,8,9,9,10,10],"right_children":[2,4,6,8,10,12,14,16,18,20,22,-1,-1,-1,-1,-1,-1,-1,-1,-1,-1,-1,-1],"split_conditions":[2.3E1,2E0,5E0,1E0,2E0,2E0,6E0,7E0,4E0,8E0,1.4E1,-3.6196332E-2,-4.8819003E-3,-7.5749524E-2,-1.9790309E-2,-4.541581E-3,1.5703075E-2,-3.8373366E-2,-9.045089E-3,2.0316092E-2,-2.445404E-2,-4.218334E-3,1.306048E-2],"split_indices":[1,1,0,1,0,0,0,0,0,1,1,0,0,0,0,0,0,0,0,0,0,0,0],"split_type":[0,0,0,0,0,0,0,0,0,0,0,0,0,0,0,0,0,0,0,0,0,0,0],"sum_hessian":[3.662E3,3.574E3,8.8E1,2.3E2,3.344E3,4.3E1,4.5E1,6.9E1,1.61E2,6.16E2,2.728E3,2.1E1,2.2E1,2.2E1,2.3E1,4.9E1,2E1,1.11E2,5E1,1.99E2,4.17E2,1.272E3,1.456E3],"tree_param":{"num_deleted":"0","num_feature":"2","num_nodes":"23","size_leaf_vector":"1"}},{"base_weights":[-7.375803E-4,7.151651E-3,-3.176282E-1,-4.494976E-2,5.730463E-2,-1.8678428E-1,-4.358783E-1,5.006993E-2,-1.8741526E-1,3.1059417E-1,-4.6562944E-2,-3.274123E-2,-4.414948E-3,-6.850393E-2,-1.7893745E-2,-3.4517893E-3,6.2066954E-2,-8.990221E-2,-1.3614553E-2,-5.0099553E-3,6.7147695E-2,-1.976435E-2,1.2846062E-3],"categories":[],"categories_nodes":[],"categories_segments":[],"categories_sizes":[],"default_left":[0,0,0,0,0,0,0,0,0,0,0,0,0,0,0,0,0,0,0,0,0,0,0],"id":49,"left_children":[1,3,5,7,9,11,13,15,17,19,21,-1,-1,-1,-1,-1,-1,-1,-1,-1,-1,-1,-1],"loss_changes":[9.159857E0,9.344197E0,1.2956209E0,2.3753326E1,4.7948677E1,8.681166E-1,2.8223238E0,5.0845287E1,2.5489285E1,6.9022766E1,1.160792E1,0E0,0E0,0E0,0E0,0E0,0E0,0E0,0E0,0E0,0E0,0E0,0E0],"parents":[2147483647,0,0,1,1,2,2,3,3,4,4,5,5,6,6,7,7,8,8,9,9,10,10],"right_children":[2,4,6,8,10,12,14,16,18,20,22,-1,-1,-1,-1,-1,-1,-1,-1,-1,-1,-1,-1],"split_conditions":[2.3E1,4E0,5E0,1.6E1,5E0,2E0,6E0,1.4E1,1.7E1,1.4E1,9E0,-3.274123E-2,-4.414948E-3,-6.850393E-2,-1.7893745E-2,-3.4517893E-3,6.2066954E-2,-8.990221E-2,-1.3614553E-2,-5.0099553E-3,6.7147695E-2,-1.976435E-2,1.2846062E-3],"split_indices":[1,0,0,1,0,0,0,1,1,1,1,0,0,0,0,0,0,0,0,0,0,0,0],"split_type":[0,0,0,0,0,0,0,0,0,0,0,0,0,0,0,0,0,0,0,0,0,0,0],"sum_hessian":[3.662E3,3.574E3,8.8E1,1.753E3,1.821E3,4.3E1,4.5E1,1.052E3,7.01E2,5.29E2,1.292E3,2.1E1,2.2E1,2.2E1,2.3E1,9.17E2,1.35E2,4.6E1,6.55E2,2.65E2,2.64E2,3.64E2,9.28E2],"tree_param":{"num_deleted":"0","num_feature":"2","num_nodes":"23","size_leaf_vector":"1"}}]},"name":"gbtree"},"learner_model_param":{"base_score":"[1.3513107E1]","boost_from_average":"1","num_class":"0","num_feature":"2","num_target":"1"},"objective":{"name":"reg:squarederror","reg_loss_param":{"scale_pos_weight":"1"}}},"version":[3,2,1]}